tree
version=v4
num_class=1
num_tree_per_iteration=1
label_index=0
max_feature_idx=30
objective=regression
feature_names=Column_0 Column_1 Column_2 Column_3 Column_4 Column_5 Column_6 Column_7 Column_8 Column_9 Column_10 Column_11 Column_12 Column_13 Column_14 Column_15 Column_16 Column_17 Column_18 Column_19 Column_20 Column_21 Column_22 Column_23 Column_24 Column_25 Column_26 Column_27 Column_28 Column_29 Column_30
feature_infos=[2023:2024] [1:12] [1:4] [0:6] [1:31] [1:365] [1:52] [0:1] [0:1] [0:1] [-0.9999994220246925:0.99998555065071859] [-0.99997919295908233:0.9999907524084426] [-0.9999994220246925:0.99995318436087299] [-0.99999768809943823:0.99996300980480612] [-0.99999479822624138:0.99999479822624138] [-0.99997919295908233:0.99991677270219526] [-0.97492791218182362:0.97492791218182362] [-0.90096886790241903:1] [30.469999999999999:258.14999999999998] [30.469999999999999:258.14999999999998] [30.469999999999999:258.14999999999998] [30.469999999999999:258.14999999999998] [28.989999999999998:208.13] [44.282857142857139:207.71714285714285] [3.0785873383732714:72.29072524980549] [47.726428571428571:200.125] [4.6691152655085721:75.070879216978966] [50.044666666666664:196.35933333333332] [5.7536343436930713:66.604069723212604] [51.174382022471917:178.29455555555555] [6.5068240947668254:66.62319715176676]
tree_sizes=2917 2978 2976 2925 2939 2983 2997 2962 2930 3031 2984 2990 3003 3024 2995 2989 2952 3013 3054 2992 3030 2998 3028 3027 3023 3056 3016 3043 3035 2997 3043 3071 3086 2978 3081 3026 3069 2992 3051 3088 3061 3037 3023 3106 3068 3055 3048 3034 3027 3125 3058 3111 3153 3029 3063 3056 3005 3083 3171 3072 3154 3021 3111 3152 3096 3102 3048 3063 3087 3094 3045 3105 3112 3112 3170 3055 3085 3074 3139 3169 3101 3076 3093 3101 3103 3101 3074 3163 3108 3138 3089 3132 3152 3113 3123 3124 3151 3145 3151 3212 3129 3192 3157 3127 3225 3166 3196 3233 3123 3213 3192 3098 3225 3118 3053 3135 3165 3131 3170 3056 3094 3205 3129 3232 3138 3133 3142 3189 3178 3195 3175 3191 3147 3132 3178 3217 3161 3114 3135 3122 3213 3122 3133 3173 3202 3168 3198 3206 3206 3168 3238 3123 3158 3145 3228 3129 3156 3203 3170 3176 3150 3138 3146 3193 3180 3100 3126 3183 3192 3177 3056 3067 3129 3159 3104 3097 3145 3170 3152 3122 3127 3135 3135 3144 3201 3200 3160 3209 3151 3197 3209 3173 3176 3117 3123 3188 3132 3170 3162 3243 3203 3143 3165 3201 3188 3163 3106 3164 3229 3179 3224 3150 3131 3148 3152 3177 3128 3217 3207 3095 3164 3125 3278 3162 3192 3187 3153 3172 3195 3177 3214 3162 3205 3217 3176 3109 3153 3109 3086 3132 3177 3152 3192 3120 3194 3139 3134 3168 3236 3198 3180 3135 3183 3189 3166 3179 3199 3188 3163 3225 3185 3169 3147 3202 3198 3130 3136 3235 3204 3171 3157 3240 3130 3183 3158 3165 3280 3169 3126 3171 3119 3172 3143 3184 3206 3103 3246 3244 3188 3168 3136 3135 3196 3178 3120 3182 3202 3151 3185 3128

Tree=0
num_leaves=31
num_cat=0
split_feature=11 0 3 13 0 12 18 25 3 14 11 27 24 22 18 19 3 24 11 3 13 28 20 11 11 13 24 16 12 14
split_gain=1.47209e+06 45853.7 10715.5 5455.01 5189.39 4858.09 6061.36 9182.47 3958.04 2841.76 3147.62 1650.42 1358.24 1192.97 1416.33 1107.08 974.151 749.975 1254.66 683.103 428.439 395.505 389.606 370.998 304.777 243.323 236.837 213.428 180.241 180.218
threshold=0.50370931781787065 2023.5000000000002 4.5000000000000009 -0.23328638671828431 2023.5000000000002 0.96231527631374336 186.74000000000004 193.16678571428574 4.5000000000000009 0.92230992668936429 0.97062204580664158 181.86450000000002 13.263540099874808 54.235000000000007 58.605000000000011 161.71000000000001 4.5000000000000009 19.138968251686929 0.76556758748011056 5.5000000000000009 0.75438814418115718 7.8031797364491862 45.150000000000006 -0.16799793862756093 -0.38243420677835349 -0.90163213577682544 10.826638918465356 0.6078576107927941 0.77241981449888963 0.61915405168109316
decision_type=2 2 2 2 2 2 2 2 2 2 2 2 2 2 2 2 2 2 2 2 2 2 2 2 2 2 2 2 2 2
left_child=4 2 3 -2 12 6 11 -8 13 10 17 -3 16 26 -15 -4 22 -5 -19 -10 21 24 -1 27 -18 -26 -6 29 -29 -24
right_child=1 5 15 9 8 -7 7 -9 19 -11 -12 -13 -14 14 -16 -17 20 18 -20 -21 -22 -23 23 -25 25 -27 -28 28 -30 -31
leaf_value=89.912244147520795 93.954137563705444 97.125228435342962 96.325543916926662 95.783233488930591 90.526921564882457 96.261611938476562 98.887364513223815 96.844364760138774 90.781788947847161 94.451497419675192 94.747705597347689 96.25909198847684 89.586182954094625 90.50780566215515 89.728705692291257 95.762900050481164 90.436586079390153 94.970455763556743 95.725637440247965 91.230799347162247 90.021505670547484 90.66155564308167 90.083731985092157 90.248882499555265 90.344105653762824 89.995305681228643 90.257355670928959 89.92363310936959 90.167755689620975 90.305997363726291
leaf_weight=26 10.999999999999998 11.000000000000002 17 18 44 15.999999999999998 11.000000000000002 10.999999999999998 18 11.999999999999998 18 10.999999999999998 10.999999999999998 10.000000000000002 13.999999999999998 18 22.999999999999996 11.000000000000002 10.999999999999998 15.999999999999998 9.9999999999999982 9.9999999999999982 38 41 10.000000000000002 10.000000000000002 9.9999999999999982 31 9.9999999999999982 11.999999999999998
leaf_count=26 11 11 17 18 44 16 11 11 18 12 18 11 11 10 14 18 23 11 11 16 10 10 38 41 10 10 10 31 10 12
internal_value=92.1663 95.8855 95.3051 94.9892 90.2634 97.0077 97.279 97.8659 90.5429 95.1519 95.2968 96.6922 90.1285 90.3466 90.0533 96.0362 90.1554 95.5439 95.348 90.9931 90.3217 90.3783 90.0892 90.124 90.3125 90.1697 90.477 90.0677 89.9832 90.1371
internal_weight=520 176 116 81 344 60 44 22 112 70 58 22 232 78 24 35 221 40 22 34 63 53 158 132 43 20 54 91 41 50
internal_count=520 176 116 81 344 60 44 22 112 70 58 22 232 78 24 35 221 40 22 34 63 53 158 132 43 20 54 91 41 50
is_linear=0
shrinkage=1


Tree=1
num_leaves=31
num_cat=0
split_feature=11 27 3 13 20 19 14 29 27 3 14 24 25 12 3 24 28 19 27 23 3 21 19 15 10 11 3 19 28 15
split_gain=1.32856e+06 33908.3 8856.36 6038.93 4967.75 3779.46 3494.54 4261.89 3459.79 2918.2 2438.89 1918.69 1698.55 1371.03 966.948 959.747 835.051 1409.58 645.638 568.742 487.964 411.924 358.004 656.898 327.776 219.192 214.425 285.923 193.881 187.114
threshold=0.50370931781787065 162.6396666666667 4.5000000000000009 -0.23328638671828431 163.84500000000003 184.80500000000004 0.92230992668936429 122.35252808988767 54.999172413793112 4.5000000000000009 -0.74586851948093236 29.377019546811059 150.42678571428576 -0.21967031843447349 4.5000000000000009 6.0071434300563826 20.672658223037541 167.29000000000005 61.47595402298851 64.075714285714312 5.5000000000000009 47.285000000000004 58.915000000000006 0.33222858587828868 -0.93235440815991333 -0.64580103137750788 5.5000000000000009 49.910000000000004 53.924471423728313 -0.17646730165275518
decision_type=2 2 2 2 2 2 2 2 2 2 2 2 2 2 2 2 2 2 2 2 2 2 2 2 2 2 2 2 2 2
left_child=8 2 3 -2 -3 -6 7 10 14 15 -5 -9 -12 20 21 -10 -4 -18 -17 28 -11 25 26 -24 -23 -1 -16 -28 29 -20
right_child=1 4 16 6 5 -7 -8 11 9 13 12 -13 -14 -15 22 18 17 -19 19 -21 -22 24 23 -25 -26 -27 27 -29 -30 -31
leaf_value=-2.0334993189031425 1.6984750574285332 5.243989986843534 3.3497887420654298 3.2446823822824586 4.7231211411325553 3.7120714929368761 2.1709669232368469 3.2152077865600575 -2.2254031467437745 -1.2260894688692958 2.9841234683990461 4.1946694755554201 2.1309225150517057 -1.5790141926871408 -1.5054631526653584 -1.5243215960841026 4.2811810493469222 3.5296921363243694 -1.9077956816729387 -2.1133737723032637 -0.75513088486411339 -1.8011387493299402 -2.1787706454594926 -1.6555999279022218 -2.0108753165420223 -2.3367624209477351 -1.5641348648071283 -1.9261401653289796 -1.5634737381568322 -1.6732035468606381
leaf_weight=11.000000000000002 10.999999999999998 18 9.9999999999999982 18.999999999999996 19 18 11.999999999999998 10.000000000000002 9.9999999999999982 11 10.000000000000005 9.9999999999999982 13.999999999999998 18 12.999999999999998 31 12.000000000000002 12.999999999999998 16.999999999999993 11.999999999999998 11 23 12.000000000000002 11.999999999999998 98 12.999999999999998 10.000000000000002 11.999999999999998 12.999999999999998 17.000000000000007
leaf_count=11 11 18 10 19 19 18 12 10 10 11 10 10 14 18 13 31 12 13 17 12 11 23 12 12 98 13 10 12 13 17
internal_value=-6.14386e-09 3.53331 3.06541 2.79252 4.5627 4.23126 2.95298 3.10193 -1.80774 -1.61633 2.82147 3.70494 2.48642 -1.25539 -1.9391 -1.76071 3.73594 3.89041 -1.70907 -1.80615 -0.99061 -2.00854 -1.76845 -1.91719 -1.97101 -2.19777 -1.66646 -1.76159 -1.72771 -1.7905
internal_weight=520 176 121 86 55 37 75 63 344 140 43 20 24 40 204 100 35 25 90 59 22 145 59 24 121 24 35 22 47 34
internal_count=520 176 121 86 55 37 75 63 344 140 43 20 24 40 204 100 35 25 90 59 22 145 59 24 121 24 35 22 47 34
is_linear=0
shrinkage=0.05


Tree=2
num_leaves=31
num_cat=0
split_feature=11 0 7 11 12 18 25 0 7 14 11 26 15 7 22 14 25 18 24 11 16 12 13 20 25 15 15 25 23 17
split_gain=1.19903e+06 37608.1 8690.4 4438.68 4290.62 5373.32 8013.85 4250.8 3279.19 2241.94 2416.13 1259.02 1220.41 1084.55 1054.99 1337.38 850.241 1863.37 842.309 1236.84 566.85 531.635 587.814 382.86 306.301 209.747 209.268 319.88 280.587 208.592
threshold=0.50370931781787065 2023.5000000000002 1.0000000180025095e-35 0.61067742788105683 0.96231527631374336 186.74000000000004 193.16678571428574 2023.5000000000002 1.0000000180025095e-35 0.92230992668936429 0.97062204580664158 31.729238142454061 -0.97602293887790903 1.0000000180025095e-35 54.235000000000007 0.61915405168109316 158.92464285714286 160.22000000000003 19.138968251686929 0.76556758748011056 -0.8783796973249266 -0.40614512594453095 -0.70291145964310642 48.045000000000009 51.365714285714297 0.88220619093308628 0.77922293312517721 62.170000000000009 59.742142857142866 -0.22252093395631442
decision_type=2 2 2 2 2 2 2 2 2 2 2 2 2 2 2 2 2 2 2 2 2 2 2 2 2 2 2 2 2 2
left_child=7 2 3 -2 5 11 -7 12 14 10 18 -3 -1 21 26 -16 17 -4 -5 -20 -10 22 -14 -23 -24 29 27 28 -9 -25
right_child=1 4 16 9 -6 6 -8 8 20 -11 -12 -13 13 -15 15 -17 -18 -19 19 -21 -22 23 24 25 -26 -27 -28 -29 -30 -31
leaf_value=-2.2608284950256348 1.5602694702148439 3.6970967032692634 4.1739049911499011 3.2803151448567713 3.6717490315437318 6.1347137451171854 4.2261385137384586 -1.6795976118607951 -1.2470892270406089 2.0624185681343081 2.3292285111215381 4.4535899422385476 -2.2969818702110878 -1.6255000453884318 -2.2342879295349114 -1.4772131156921386 3.0997094154357914 3.2927672576904303 2.472601000467936 3.2066133152354848 -0.83806650936603555 -1.9720588366190595 -1.7487474665922278 -1.5989973441414211 -2.0261470476786299 -1.9662639617919924 -1.3362772464752197 -1.7791289696326622 -1.3590666717953153 -1.7855463471523549
leaf_weight=15.999999999999998 9.9999999999999982 11.000000000000002 10.000000000000002 18 15.999999999999998 11.000000000000002 10.999999999999998 11.000000000000002 18 11.999999999999998 18 10.999999999999998 12.999999999999998 59 14.000000000000002 9.9999999999999982 9.9999999999999982 14.999999999999998 12.000000000000002 10.999999999999998 15.999999999999998 27 17 23 24 9.9999999999999982 11.999999999999998 12.999999999999998 18 43
leaf_count=16 10 11 10 18 16 11 11 11 18 12 18 11 13 59 14 10 10 15 12 11 16 27 17 23 24 10 12 13 18 43
internal_value=-3.16363e-09 3.35665 2.83099 2.54651 4.37292 4.62788 5.18043 -1.71735 -1.46439 2.68542 2.81213 4.07534 -1.83948 -1.80826 -1.64301 -1.91884 3.48936 3.64522 3.02414 2.82365 -1.05461 -1.87695 -2.00402 -1.81033 -1.91113 -1.75287 -1.52042 -1.57303 -1.48065 -1.72054
internal_weight=520 176 116 81 60 44 22 344 112 71 59 22 232 216 78 24 35 25 41 23 34 157 54 103 41 76 54 42 29 66
internal_count=520 176 116 81 60 44 22 344 112 71 59 22 232 216 78 24 35 25 41 23 34 157 54 103 41 76 54 42 29 66
is_linear=0
shrinkage=0.05


Tree=3
num_leaves=31
num_cat=0
split_feature=11 27 16 5 7 30 27 26 7 25 19 26 12 12 24 7 24 24 16 4 28 16 21 4 10 21 12 26 30 1
split_gain=1.08212e+06 27690.4 7882.77 4846.51 4533.6 3602.84 2811.8 2525.24 2364.65 2335.14 1682 1540.1 1876.73 1174.5 861.494 780.404 621.363 573.714 783.342 483.095 470.84 401.048 365.278 344.07 286.749 279.107 315.726 231.806 234.17 167.479
threshold=0.50370931781787065 162.6396666666667 0.87837969732492682 18.500000000000004 1.0000000180025095e-35 29.992028674487731 54.999172413793112 22.484395464099887 1.0000000180025095e-35 192.10964285714286 184.80500000000004 20.534347280336615 -0.54220184589352438 -0.21967031843447349 6.0071434300563826 1.0000000180025095e-35 21.800477835858164 10.286227542573121 1.0000000180025095e-35 10.500000000000002 7.3368521425974 -0.8783796973249266 47.285000000000004 18.500000000000004 -0.93235440815991333 57.190000000000005 0.24998082458982465 8.812754156358908 49.931565939517469 9.5000000000000018
decision_type=2 2 2 2 2 2 2 2 2 2 2 2 2 2 2 2 2 2 2 2 2 2 2 2 2 2 2 2 2 2
left_child=6 2 3 -2 7 10 15 11 14 -7 -3 12 -5 21 -8 22 -6 27 -19 20 -17 -10 23 -1 29 26 -21 28 -16 -24
right_child=1 5 -4 4 16 9 8 -9 13 -11 -12 -13 -14 -15 17 19 -18 18 -20 25 -22 -23 24 -25 -26 -27 -28 -29 -30 -31
leaf_value=-1.7846727197820487 3.6558473285875821 4.0872231347220271 1.8006026254759897 2.8713740921020512 3.4718892938950479 4.91186876296997 -2.029160671234131 2.0191044118669299 -1.1024305213581431 3.9891805648803711 3.297400210453914 3.2067621866861979 1.9870833301544182 -1.433553433418274 -1.7064466794331867 -1.5537894916534418 3.0019665559132895 -2.0098843501164358 -1.5005317052205405 -1.2648986071348187 -2.038990287780762 -0.67547100240533997 -1.4888847827911376 -2.164626554342417 -1.814235677524489 -1.7075461474331943 -1.6041750272115072 -1.319940033825961 -1.4377415199279786 -1.7589867678555571
leaf_weight=11.000000000000002 19 14.000000000000002 18 14.999999999999998 17.000000000000004 16.000000000000004 9.9999999999999982 18 11 11.999999999999998 12.999999999999998 11.999999999999998 10.000000000000002 18 11.999999999999998 10.000000000000002 11.999999999999998 13.000000000000002 18 16.000000000000004 9.9999999999999982 11 12 12.999999999999998 98 10.999999999999998 11.999999999999998 22 25 11
leaf_count=11 19 14 18 15 17 16 10 18 11 12 13 12 10 18 12 10 12 13 18 16 10 11 12 13 98 11 12 22 25 11
internal_value=-2.15494e-09 3.18882 2.76598 2.93469 2.77157 4.11904 -1.63149 2.50484 -1.45893 4.51643 3.70694 2.74115 2.51766 -1.13402 -1.58889 -1.74991 3.27744 -1.53997 -1.71413 -1.5966 -1.79639 -0.888951 -1.81229 -1.99048 -1.77695 -1.49414 -1.4103 -1.44847 -1.52489 -1.61806
internal_weight=520 176 121 103 84 55 344 55 140 28 27 37 25 40 100 204 29 90 31 59 20 22 145 24 121 39 28 59 37 23
internal_count=520 176 121 103 84 55 344 55 140 28 27 37 25 40 100 204 29 90 31 59 20 22 145 24 121 39 28 59 37 23
is_linear=0
shrinkage=0.05


Tree=4
num_leaves=31
num_cat=0
split_feature=11 0 3 4 12 18 25 0 3 27 26 26 18 27 24 22 19 13 3 4 3 20 3 4 4 12 28 26 26 27
split_gain=976615 31053.2 7080.42 5342.05 3707.29 4804.01 6980.41 3489.68 2715.35 2035.38 2320.13 2269.69 1528.15 1350.38 1132.36 938.185 842.663 746.006 885.687 596.775 470.467 328.397 329.12 252.853 222.714 218.777 317.163 215.85 235.392 211.116
threshold=0.50370931781787065 2023.5000000000002 4.5000000000000009 3.5000000000000004 0.96231527631374336 186.74000000000004 193.16678571428574 2023.5000000000002 4.5000000000000009 152.41916666666671 27.812426461452308 25.345938581879675 150.11500000000004 181.86450000000002 13.263540099874808 55.465000000000011 161.71000000000001 0.9863035000474919 4.5000000000000009 18.500000000000004 5.5000000000000009 48.045000000000009 2.5000000000000004 26.500000000000004 15.500000000000002 -0.39036798905311365 7.2510609533905699 7.7172391476781721 7.0296935822346036 61.430666666666674
decision_type=2 2 2 2 2 2 2 2 2 2 2 2 2 2 2 2 2 2 2 2 2 2 2 2 2 2 2 2 2 2
left_child=7 2 3 -2 5 13 -7 14 15 10 -5 12 -11 -3 17 24 -4 18 21 -17 -10 -1 25 27 -9 26 -23 28 -20 -26
right_child=1 4 16 9 -6 6 -8 8 20 11 -12 -13 -14 -15 -16 19 -18 -19 23 -21 -22 22 -24 -25 29 -27 -28 -29 -30 -31
leaf_value=-1.7979479479235274 1.2129811596870423 4.059123949571088 3.3984333038330079 3.11911383734809 3.3010777950286867 5.6029289939186775 3.821661446311257 -1.4728634741998488 -1.1231747600767348 2.8480658311110276 2.1974080432545056 1.5673633289337159 2.144541272991582 3.275663115761497 -2.1556916236877441 -1.5054303741455073 2.9075591299268937 -2.0578921127319338 -1.4881704727808636 -2.0516788387298583 -0.75054458677768709 -1.9852344879737265 -1.5058533051434686 -1.2253878211975098 -1.131348107411311 -1.6317232131958008 -1.6287675221761067 -1.3548864168279311 -1.7769055271148682 -1.4111669608524868
leaf_weight=43 9.9999999999999982 11.000000000000002 17 18.000000000000004 15.999999999999998 11.000000000000002 10.999999999999998 31 18 12.999999999999998 10.999999999999998 9.9999999999999982 19 10.999999999999998 10.999999999999998 10.000000000000002 18 9.9999999999999982 24 9.9999999999999982 15.999999999999998 13.000000000000002 34 9.9999999999999982 13.000000000000002 48 11.999999999999998 17 9.9999999999999982 13.999999999999998
leaf_count=43 10 11 17 18 16 11 11 31 18 13 11 10 19 11 11 10 18 10 24 10 16 13 34 10 13 48 12 17 10 14
internal_value=-2.72806e-09 3.02937 2.55172 2.29494 3.95284 4.18984 4.7123 -1.54991 -1.32071 2.44733 2.7695 2.22488 2.43035 3.66739 -1.66056 -1.48325 3.14598 -1.63592 -1.61592 -1.77855 -0.947819 -1.68124 -1.63435 -1.45528 -1.38142 -1.69419 -1.81413 -1.50036 -1.57309 -1.27644
internal_weight=520 176 116 81 60 44 22 344 112 71 29 42 32 22 232 78 35 221 211 20 34 150 107 61 58 73 25 51 34 27
internal_count=520 176 116 81 60 44 22 344 112 71 29 42 32 22 232 78 35 221 211 20 34 150 107 61 58 73 25 51 34 27
is_linear=0
shrinkage=0.05


Tree=5
num_leaves=31
num_cat=0
split_feature=11 0 7 4 12 18 0 28 7 28 28 28 10 15 18 22 23 7 20 23 4 12 13 16 20 18 19 4 4 4
split_gain=881395 28025.6 6390.08 4821.2 3345.83 4335.62 3149.44 2776.77 2450.61 1556.76 2409.41 1870.31 1824.13 1023.79 941.099 846.712 813.59 799.97 693.372 626.133 538.589 429.299 519.019 424.597 301.322 226.688 215.009 201.61 272.507 200.999
threshold=0.50370931781787065 2023.5000000000002 1.0000000180025095e-35 3.5000000000000004 0.96231527631374336 186.74000000000004 2023.5000000000002 31.496837683310801 1.0000000180025095e-35 20.339100842279024 26.81438805162103 17.413601536837831 0.61237135649459018 -0.97602293887790903 154.38000000000002 55.465000000000011 160.11928571428578 1.0000000180025095e-35 169.54500000000004 150.34714285714287 18.500000000000004 -0.40614512594453095 -0.70291145964310642 -0.8783796973249266 48.045000000000009 45.670000000000009 52.705000000000005 13.500000000000002 17.500000000000004 15.500000000000002
decision_type=2 2 2 2 2 2 2 2 2 2 2 2 2 2 2 2 2 2 2 2 2 2 2 2 2 2 2 2 2 2
left_child=6 2 3 -2 5 18 13 -7 15 11 12 -5 -11 -1 -12 29 19 21 -3 -4 -17 22 -15 -10 -23 -24 -27 -26 -29 -8
right_child=1 4 16 9 -6 7 8 -9 23 10 14 -13 -14 17 -16 20 -18 -19 -20 -21 -22 24 25 -25 27 26 -28 28 -30 -31
leaf_value=-1.9634545505046845 1.1523320865631104 3.2033241878856304 2.8346854019165031 2.2153160062991075 3.1360238909721376 5.0384119033813466 -1.3992203051044096 3.9149490529840643 -1.067016010814243 1.4583055189677645 2.2297625700632726 3.1823489189147951 2.280821939615103 -1.9974091309767503 2.8559609413146974 -1.4301588535308833 2.6075233173370362 -1.391981783559767 3.7647235610268335 3.3454581324259447 -1.9490948772430423 -1.6915483792622883 -1.7745292663574219 -0.7130173638463021 -1.590055341431589 -1.6735506131098816 -1.3731945904818448 -1.2234446446100871 -1.5040668056857203 -1.2126174043726039
leaf_weight=15.999999999999998 9.9999999999999982 11.000000000000002 10.000000000000002 10.000000000000002 15.999999999999998 11.000000000000002 31 10.999999999999998 18 14.000000000000002 12.000000000000002 9.9999999999999982 12.999999999999998 12.999999999999998 11.999999999999998 10.000000000000002 9.9999999999999982 59 10.999999999999998 14.999999999999998 9.9999999999999982 27 17 15.999999999999998 33 13.000000000000002 10.999999999999998 11.999999999999998 31 27
leaf_count=16 10 11 10 10 16 11 31 11 18 14 12 10 13 13 12 10 10 59 11 15 10 27 17 16 33 13 11 12 31 27
internal_value=-5.24299e-09 2.87791 2.42413 2.18019 3.7552 3.98035 -1.47242 4.47668 -1.25468 2.32496 2.17835 2.69883 1.85433 -1.57753 2.54286 -1.40909 2.98868 -1.54895 3.48402 3.14115 -1.68963 -1.60793 -1.72212 -0.900428 -1.54807 -1.63484 -1.53589 -1.4971 -1.42575 -1.31235
internal_weight=520 176 116 81 60 44 344 22 112 71 51 20 27 232 24 78 35 216 22 25 20 157 54 34 103 41 24 76 43 58
internal_count=520 176 116 81 60 44 344 22 112 71 51 20 27 232 24 78 35 216 22 25 20 157 54 34 103 41 24 76 43 58
is_linear=0
shrinkage=0.05


Tree=6
num_leaves=31
num_cat=0
split_feature=22 27 6 25 0 22 7 14 14 22 25 14 22 30 19 28 15 22 22 16 7 21 20 22 6 16 16 19 14 27
split_gain=786068 20046.2 4196.81 4063.79 3717.92 2850.78 4132.45 2117.03 2921.44 2085.97 1949.58 1824.33 2089.39 1817.06 1733.75 2684.99 1248.47 1239.28 952.852 739.988 420.503 368.623 296.246 396.675 333.219 580.703 295.802 287.06 266.269 228.605
threshold=66.035000000000011 161.14633333333339 4.5000000000000009 113.60346153846156 2023.5000000000002 156.16000000000003 1.0000000180025095e-35 -0.7328085891000391 0.099822040462190967 144.75500000000002 192.10964285714286 0.92230992668936429 126.66000000000001 29.146513175318994 72.100000000000009 27.08925677671402 -0.97602293887790903 135.44500000000002 58.360000000000007 -0.8783796973249266 1.0000000180025095e-35 66.035000000000011 61.960000000000001 42.365000000000002 39.500000000000007 1.0000000180025095e-35 0.6078576107927941 59.525000000000013 -0.62923355930120228 51.757000000000005
decision_type=2 2 2 2 2 2 2 2 2 2 2 2 2 2 2 2 2 2 2 2 2 2 2 2 2 2 2 2 2 2
left_child=4 3 10 -2 16 6 7 -5 -9 -4 -3 12 -10 -11 18 -16 -1 -8 20 27 21 -6 24 -24 26 -26 29 -18 -23 -21
right_child=1 2 9 5 14 -7 17 8 11 13 -12 -13 -14 -15 15 -17 19 -19 -20 22 -22 28 23 -25 25 -27 -28 -29 -30 -31
leaf_value=-1.9165263961343204 1.3749836969375613 4.4375911712646472 2.5939470529556274 2.6225942162906422 -1.3995691736539206 3.2327704429626465 2.5908437223995429 1.2563206076622011 2.9243429270657622 3.7690213407788948 3.5160439924760301 1.6231799234043469 2.058444158654464 2.8865580177307133 -0.2863852977752685 -1.2842860562460763 -1.0845183531443277 3.2719472104852851 -1.6768882791201276 -1.3633185336464331 -0.91109533743424853 -1.2716267275810245 -1.5354613251156277 -1.1933002561330797 -1.9983702945709223 -1.4719165888699619 -1.6158619170965149 -1.3993265492575508 -1.00247826015248 -1.5253243932537004
leaf_weight=17 9.9999999999999982 12.000000000000002 11.999999999999998 17 24 9.9999999999999982 17.000000000000004 10.999999999999998 11.000000000000002 14.000000000000002 10.999999999999998 10.999999999999998 19 9.9999999999999982 13.000000000000002 13.999999999999998 15.000000000000002 10.999999999999998 11.999999999999998 38 10.999999999999998 19.999999999999996 18 15.999999999999998 10.000000000000002 10.999999999999998 43 13.999999999999998 17.000000000000004 51
leaf_count=17 10 12 12 17 24 10 17 11 11 14 11 11 19 10 13 14 15 11 12 38 11 20 18 16 10 11 43 14 17 51
internal_value=-4.6996e-09 2.71782 3.46927 2.33889 -1.39051 2.42897 2.34611 2.13821 1.97986 3.1322 3.99685 2.17398 2.37594 3.40133 -1.15236 -0.803815 -1.50397 2.85842 -1.26439 -1.4715 -1.19564 -1.24696 -1.50794 -1.37444 -1.53761 -1.72261 -1.50818 -1.23649 -1.14796 -1.45615
internal_weight=520 176 59 117 344 107 97 69 52 36 23 41 30 24 111 27 233 28 84 216 72 61 187 34 153 21 132 29 37 89
internal_count=520 176 59 117 344 107 97 69 52 36 23 41 30 24 111 27 233 28 84 216 72 61 187 34 153 21 132 29 37 89
is_linear=0
shrinkage=0.05


Tree=7
num_leaves=31
num_cat=0
split_feature=11 0 3 13 30 0 22 3 18 27 21 19 10 22 24 19 24 19 13 3 27 26 3 20 15 11 15 13 25 3
split_gain=719128 23152.1 5268.71 3276.93 3119.44 2494.84 2381.91 1948.05 1914.21 1655.96 2852.65 1557.84 1268.51 1802.58 930.613 800.681 776.166 677.86 566.5 679.97 333.945 431.308 332.13 268.844 255.691 246.273 244.905 218.024 209.186 191.502
threshold=0.50370931781787065 2023.5000000000002 4.5000000000000009 -0.23328638671828431 29.992028674487731 2023.5000000000002 150.61500000000004 4.5000000000000009 189.90000000000001 154.11200000000005 56.275000000000006 184.80500000000004 0.26037272046371446 127.43500000000002 13.263540099874808 161.71000000000001 6.5929021861573149 153.30500000000004 0.9863035000474919 4.5000000000000009 61.47595402298851 9.2411172717214338 5.5000000000000009 45.150000000000006 -0.66847725498735555 -0.38243420677835349 0.77922293312517721 -0.90163213577682544 52.047857142857154 2.5000000000000004
decision_type=2 2 2 2 2 2 2 2 2 2 2 2 2 2 2 2 2 2 2 2 2 2 2 2 2 2 2 2 2 2
left_child=5 2 3 -2 11 14 -6 16 -8 12 -11 -3 13 -5 18 -4 -7 -12 19 23 -18 -22 -9 -1 -21 28 29 -27 -26 -25
right_child=1 4 15 9 6 7 8 22 -10 10 17 -13 -14 -15 -16 -17 20 -19 -20 24 21 -23 -24 26 25 27 -28 -29 -30 -31
leaf_value=-1.5943926811218263 1.1633288210088557 3.3643084049224847 2.9457996256211225 2.5189106501065766 4.3237519177523529 -1.6631288788535379 2.996874849001566 -0.96768730216556131 3.9335414314270021 2.4132610763822284 1.1962297093868253 2.6041954554044286 2.7835122715343132 1.6259965705871584 -1.8724070765755394 2.4673094484541154 -1.0782175489834376 1.7536218404769899 -1.7689243221282958 -1.0361699024836222 -1.514868342081706 -1.1730896174907686 -0.6545988231897355 -1.4249827306778706 -1.058391898018973 -1.2741774797439573 -1.5338329469003986 -1.5902906990051271 -1.3369286757249099 -1.2768968133365408
leaf_weight=24 10.999999999999998 14.000000000000002 17 13.000000000000002 10.999999999999998 10.999999999999998 12.000000000000002 18 9.9999999999999982 13.999999999999998 10.000000000000002 12.999999999999998 10.999999999999998 9.9999999999999982 10.999999999999998 18 28 11.999999999999998 9.9999999999999982 11.999999999999998 14.999999999999998 24 15.999999999999998 61 14.000000000000002 12.000000000000002 31 9.9999999999999982 12.999999999999998 34
leaf_count=24 11 14 17 13 11 11 12 18 10 14 10 13 11 10 11 18 28 12 10 12 15 24 16 61 14 12 31 10 13 34
internal_value=-2.31541e-09 2.59953 2.18709 1.96559 3.3969 -1.32999 3.72301 -1.13619 3.42263 2.09166 1.85532 2.99833 2.3419 2.13069 -1.42355 2.69972 -1.27387 1.50026 -1.40121 -1.38378 -1.20996 -1.30454 -0.820352 -1.44102 -1.24303 -1.29369 -1.4118 -1.41787 -1.1925 -1.37198
internal_weight=520 176 116 81 60 344 33 112 22 70 36 27 34 23 232 35 78 22 221 211 67 39 34 150 61 49 126 22 27 95
internal_count=520 176 116 81 60 344 33 112 22 70 36 27 34 23 232 35 78 22 221 211 67 39 34 150 61 49 126 22 27 95
is_linear=0
shrinkage=0.05


Tree=8
num_leaves=31
num_cat=0
split_feature=11 0 3 11 18 0 5 19 3 27 21 27 19 20 24 19 22 21 19 13 16 21 3 19 28 29 14 19 24 24
split_gain=649013 20894.8 4755.01 2969.42 2383.85 2251.6 2056.67 2456.89 1758.12 1518.03 2092.6 1864.5 1432.86 1415.97 839.878 722.614 718.344 1426.48 651.993 511.266 633.486 356.592 299.747 274.212 235.988 197.148 179.773 172.692 227.074 235.017
threshold=0.50370931781787065 2023.5000000000002 4.5000000000000009 0.61067742788105683 211.17500000000004 2023.5000000000002 28.500000000000004 184.80500000000004 4.5000000000000009 152.41916666666671 52.010000000000012 142.1421666666667 174.36000000000004 167.29000000000005 13.263540099874808 161.71000000000001 54.235000000000007 75.635000000000019 162.17000000000004 0.9863035000474919 -0.8783796973249266 67.700000000000017 5.5000000000000009 59.525000000000013 7.8212492382916103 51.705168539325847 -0.33223377050200648 57.95000000000001 7.0943124208399029 7.9091581716255037
decision_type=2 2 2 2 2 2 2 2 2 2 2 2 2 2 2 2 2 2 2 2 2 2 2 2 2 2 2 2 2 2
left_child=5 2 3 -2 6 14 12 -8 16 11 -11 -5 -3 18 19 -4 21 -18 -12 20 23 -7 -10 -1 25 -22 -26 28 -27 -30
right_child=1 4 15 9 -6 8 7 -9 22 10 13 -13 -14 -15 -16 -17 17 -19 -20 -21 24 -23 -24 -25 26 27 -28 -29 29 -31
leaf_value=-0.96038542687892903 1.0606433868408203 3.046794041720303 2.7985096146078674 1.9682985779486204 3.857379039128622 -1.2907248126135933 3.1763065397739405 2.205598987232555 -0.91930297215779633 2.4201496458053593 1.0484038734436032 2.8117759132385256 3.8737563896179199 2.020899772644043 -1.7787867285988548 2.34394399854872 -1.0523025234540302 -1.8232546091079713 1.6193649005889892 -1.6804781055450442 -1.2446127186650815 -1.0181629988882277 -0.6218688759952784 -1.2633904695510865 -1.3043035948718036 -1.4950658732447133 -1.0561327981948854 -1.265907157094855 -1.2118829149948924 -1.4451747837066651
leaf_weight=16.000000000000004 9.9999999999999982 11.000000000000002 17 19.000000000000004 11.999999999999998 18 16.000000000000004 10.999999999999998 18 9.9999999999999982 10.000000000000002 9.9999999999999982 9.9999999999999982 11.999999999999998 10.999999999999998 18 12.000000000000002 11.999999999999998 9.9999999999999982 9.9999999999999982 23 36 15.999999999999998 13.999999999999998 27 58 9.9999999999999982 19 19 25
leaf_count=16 10 11 17 19 12 18 16 11 18 10 10 10 10 12 11 18 12 12 10 10 23 36 16 14 27 58 10 19 19 25
internal_value=-2.98023e-10 2.46955 2.07774 1.86731 3.22706 -1.26349 3.06947 2.78083 -1.07938 1.98092 1.78881 2.25915 3.44059 1.59152 -1.35237 2.56473 -1.21017 -1.43778 1.33388 -1.33115 -1.31459 -1.10902 -0.779334 -1.10179 -1.34986 -1.3788 -1.23723 -1.40431 -1.43009 -1.34444
internal_weight=520 176 116 81 60 344 48 27 112 71 42 29 21 32 232 35 78 24 20 221 211 54 34 30 181 144 37 121 102 44
internal_count=520 176 116 81 60 344 48 27 112 71 42 29 21 32 232 35 78 24 20 221 211 54 34 30 181 144 37 121 102 44
is_linear=0
shrinkage=0.05


Tree=9
num_leaves=31
num_cat=0
split_feature=11 0 16 4 30 22 0 18 16 27 21 26 10 20 24 23 24 23 13 16 25 26 12 18 4 4 22 22 18 22
split_gain=585734 18857.5 4291.4 3622.76 2633.78 2121.43 2032.07 1643.92 1586.7 1418.31 1982.87 1771.97 1596.41 977.002 757.99 750.325 685.743 536.182 461.418 571.721 323.199 521.157 313.591 552.114 294.955 209.105 204.601 174.003 268.274 247.034
threshold=0.50370931781787065 2023.5000000000002 -0.60785761079279388 3.5000000000000004 29.992028674487731 150.61500000000004 2023.5000000000002 189.90000000000001 -0.60785761079279388 152.41916666666671 56.275000000000006 27.812426461452308 0.61237135649459018 186.74000000000004 13.263540099874808 160.11928571428578 6.5929021861573149 150.34714285714287 0.9863035000474919 -0.8783796973249266 61.44362637362638 9.1230325441689661 -0.80418297442179421 65.925000000000011 27.500000000000004 6.5000000000000009 42.57500000000001 42.295000000000009 44.410000000000004 40.870000000000012
decision_type=2 2 2 2 2 2 2 2 2 2 2 2 2 2 2 2 2 2 2 2 2 2 2 2 2 2 2 2 2 2
left_child=6 2 15 -4 13 -6 14 -7 22 11 -11 -5 -12 -3 18 17 -10 -2 19 26 -18 -22 -8 -24 27 -23 -1 29 -29 -21
right_child=1 4 3 9 5 7 8 -9 16 10 12 -13 -14 -15 -16 -17 20 -19 -20 24 21 25 23 -25 -26 -27 -28 28 -30 -31
leaf_value=-1.1460517657430547 2.2993161773681634 2.3367253000085997 0.8829444944858551 2.473905277252197 3.9322959726507016 2.6873196760813389 -0.52079365524378696 3.5553427886962896 -1.5155506264079701 2.199594627107893 1.1438516966998575 1.6684069091623481 1.9067572593688966 2.9488546848297119 -1.689847393469377 2.0704545640945433 -0.97474616318941121 2.7719777743021652 -1.5964541912078858 -1.298332249124845 -1.4795896876942027 -1.2386058187484739 -0.56606703996658314 -1.0602374572020312 -1.0959922589753803 -0.93924584729330884 -0.87508801980452111 -1.0652134195963543 -1.2965945419512297 -1.4976257158362349
leaf_weight=19.000000000000004 10.000000000000002 11.000000000000002 9.9999999999999982 18.000000000000004 10.999999999999998 12.000000000000002 10.999999999999998 9.9999999999999982 10.999999999999998 13.999999999999998 16.000000000000004 10.999999999999998 11.999999999999998 15.999999999999998 10.999999999999998 9.9999999999999982 32 14.999999999999998 9.9999999999999982 48 10.999999999999998 10.000000000000002 10.000000000000002 12.999999999999998 19 13.999999999999998 10.999999999999998 14.999999999999998 76 23
leaf_count=19 10 11 10 18 11 12 11 10 11 14 16 11 12 16 11 10 32 15 10 48 11 10 10 13 19 14 11 15 76 23
internal_value=-2.86561e-10 2.34607 1.97385 1.77394 3.0657 3.36535 -1.20032 3.08188 -1.02541 1.89943 1.71374 2.16837 1.47081 2.69947 -1.28475 2.4365 -1.14967 2.58291 -1.26459 -1.24886 -1.08959 -1.1946 -0.740367 -0.845381 -1.28237 -1.06398 -1.0467 -1.30423 -1.25845 -1.36289
internal_weight=520 176 116 81 60 33 344 22 112 71 42 29 28 27 232 35 78 25 221 211 67 35 34 23 181 24 30 162 91 71
internal_count=520 176 116 81 60 33 344 22 112 71 42 29 28 27 232 35 78 25 221 211 67 35 34 23 181 24 30 162 91 71
is_linear=0
shrinkage=0.05


Tree=10
num_leaves=31
num_cat=0
split_feature=11 27 16 28 5 3 26 3 18 28 27 25 20 3 22 20 30 22 3 5 4 28 10 20 20 18 4 5 10 26
split_gain=528625 13548.9 5135.58 3068.69 2282.43 1776.28 1666.52 2473.28 1516.81 1364.09 1360.21 1196.13 1218.3 1099.01 591.031 561.06 413.187 403.54 578.77 386.578 290.291 265.784 221.099 181.28 569.244 243.966 179.42 263.619 171.591 156.566
threshold=0.50370931781787065 161.14633333333339 0.87837969732492682 25.273043888672699 18.500000000000004 4.5000000000000009 31.729238142454061 4.5000000000000009 139.10500000000005 20.339100842279024 54.999172413793112 64.775851648351662 166.63500000000002 4.5000000000000009 135.44500000000002 149.40500000000003 9.216064731967931 34.915000000000013 4.5000000000000009 104.50000000000001 19.500000000000004 9.4834045197993273 -0.95754239937548935 58.915000000000006 56.025000000000006 50.895000000000003 20.500000000000004 231.50000000000003 -0.46038400545438724 9.1230325441689661
decision_type=2 2 2 2 2 2 2 2 2 2 2 2 2 2 2 2 2 2 2 2 2 2 2 2 2 2 2 2 2 2
left_child=10 2 4 -3 -2 8 7 20 -6 -10 17 13 -13 16 -7 -11 -12 -1 22 -15 -5 -21 -19 24 -24 -25 27 -20 -28 -18
right_child=1 3 -4 6 5 14 -8 -9 9 15 11 12 -14 19 -16 -17 29 18 26 21 -22 -23 23 25 -26 -27 28 -29 -30 -31
leaf_value=-1.4487226804097495 2.5645428283347025 2.2194111156463623 1.1369901895523071 2.7627451203086153 1.2754656188810864 2.0635115861892697 3.5801501707597212 3.4887756217609756 2.3904989806088532 1.9348146319389341 -1.3159072359402977 -1.5784906695870788 -0.92048255999883022 -0.93850025480443788 2.5277097145716354 1.4925911609943097 -1.0544217392455699 -1.1163293226905491 -1.0299675117839466 -0.40300300663167771 2.4071434418360393 -0.75916531324386605 -1.2713027683464257 -1.3003084046500069 -1.6567957357926801 -0.97695585846900945 -0.79760523080825774 -1.3213046431541444 -1.090513973236084 -0.89501124421755474
leaf_weight=18 18 14.999999999999998 18 11.000000000000002 11.999999999999998 16.000000000000004 10.999999999999998 10.999999999999998 10.999999999999998 16.000000000000004 11.999999999999998 17.000000000000004 11.999999999999998 10.999999999999998 11.999999999999998 12.999999999999998 43 23 22 11.000000000000002 11.999999999999998 9.9999999999999982 74 14.000000000000002 10.999999999999998 9.9999999999999982 10.000000000000002 11.999999999999998 9.9999999999999982 24
leaf_count=18 18 15 18 11 12 16 11 11 11 16 12 17 12 11 12 13 43 23 22 11 12 10 74 14 11 10 10 12 10 24
internal_value=-5.20824e-09 2.22877 1.91326 2.83875 2.05584 1.94138 3.0452 2.87213 1.7685 1.91641 -1.1403 -1.02028 -1.30621 -0.945581 2.26245 1.73658 -1.04571 -1.22267 -1.20079 -0.698381 2.57721 -0.572604 -1.2572 -1.28693 -1.32119 -1.16558 -1.06289 -1.13279 -0.94406 -0.997319
internal_weight=520 176 116 60 98 80 45 34 52 40 344 140 29 111 28 29 79 204 186 32 23 21 132 109 85 24 54 34 20 67
internal_count=520 176 116 60 98 80 45 34 52 40 344 140 29 111 28 29 79 204 186 32 23 21 132 109 85 24 54 34 20 67
is_linear=0
shrinkage=0.05


Tree=11
num_leaves=31
num_cat=0
split_feature=11 27 28 22 3 14 5 20 4 22 22 22 3 15 28 21 20 18 21 18 25 18 25 28 4 27 11 4 12 19
split_gain=477084 12227.9 2769.49 2545.29 3644.07 2238.86 4102.74 1667.31 1510.92 3375.69 1411.58 1262.5 808.835 892.242 987.563 719.712 704.771 624.107 484.91 410.712 393.611 505.056 482.758 323.811 303.533 278.237 264.406 261.161 257.475 268.759
threshold=0.50370931781787065 161.14633333333339 25.273043888672699 156.16000000000003 4.5000000000000009 -0.7328085891000391 58.500000000000007 169.54500000000004 15.500000000000002 159.67500000000004 126.66000000000001 61.750000000000007 4.5000000000000009 -0.92844056863089797 7.96658187614642 158.68000000000004 45.150000000000006 160.22000000000003 53.795000000000009 55.060000000000009 64.775851648351662 62.455000000000005 53.766071428571436 9.9179292323292589 23.500000000000004 52.570701149425297 -0.38243420677835349 19.500000000000004 0.10837544681456425 53.440000000000005
decision_type=2 2 2 2 2 2 2 2 2 2 2 2 2 2 2 2 2 2 2 2 2 2 2 2 2 2 2 2 2 2
left_child=11 3 -3 4 5 -2 7 10 -4 15 -7 12 16 -14 24 -10 19 -6 25 -1 22 -22 28 -16 26 -18 -15 -27 29 -20
right_child=1 2 8 -5 17 6 -8 -9 9 -11 -12 -13 13 14 23 -17 18 -19 20 -21 21 -23 -24 -25 -26 27 -28 -29 -30 -31
leaf_value=-1.2329278151194254 2.0670360957874974 2.1084405771891279 3.3026736450195315 2.5801364898681642 2.4730617889991167 1.8827621740954257 0.78652841515011263 2.2534553146362306 2.7631747436523422 1.9379997348785403 1.2047844459028807 -0.55625903335484594 -1.397108030319214 -0.99082269668579126 -0.5402174734455697 3.3630548477172852 -1.1585667411486307 2.0128433059243593 -1.3332171440124512 -1.6207251808860086 -1.5278394794464107 -1.0368718277324331 -0.94510423891684592 -0.88837365670637658 -0.82291277249654149 -1.1993764686584469 -1.2454525596217103 -1.5524275519631126 -1.0166306963333718 -1.0587467829386392
leaf_weight=18.000000000000004 17 14.999999999999998 14.999999999999998 9.9999999999999982 13.000000000000002 14.000000000000002 18 9.9999999999999982 10.000000000000005 9.9999999999999982 17 10.999999999999998 10.999999999999998 21.999999999999996 17.000000000000004 9.9999999999999982 39 17 22 10.999999999999998 10.000000000000002 10.999999999999998 68 10.999999999999998 11.999999999999998 10.000000000000002 19.000000000000004 10.999999999999998 26 14.999999999999998
leaf_count=18 17 15 15 10 13 14 18 10 10 10 17 11 11 22 17 10 39 17 22 11 10 11 68 11 12 10 19 11 26 15
internal_value=1.01299e-09 2.11733 2.69682 1.8176 1.74566 1.56147 1.4158 1.69206 2.89294 2.68808 1.51097 -1.08329 -1.10069 -0.974572 -0.917191 3.06311 -1.14884 2.21227 -1.11722 -1.38002 -1.06971 -1.27067 -1.03749 -0.676993 -1.04409 -1.23758 -1.10882 -1.38431 -1.13721 -1.22195
internal_weight=520 176 60 116 106 76 59 41 45 30 31 344 333 92 81 20 241 30 212 29 152 21 131 28 53 60 41 21 63 37
internal_count=520 176 60 116 106 76 59 41 45 30 31 344 333 92 81 20 241 30 212 29 152 21 131 28 53 60 41 21 63 37
is_linear=0
shrinkage=0.05


Tree=12
num_leaves=31
num_cat=0
split_feature=11 23 3 22 20 28 22 26 20 18 19 21 19 19 18 20 30 22 21 15 23 19 12 18 15 3 15 29 19 20
split_gain=430825 9546.22 2088.33 4091.12 1908.04 1907.74 1840.33 1759.93 1576.45 1256.28 1248.72 2032.35 1060.55 1386.77 776.034 892.352 617.584 618.451 559.306 1057.86 528.403 517.254 479.852 367.914 318.195 232.807 227.057 221.628 214.479 292.088
threshold=0.51849435583340198 182.63428571428577 4.5000000000000009 156.16000000000003 163.84500000000003 26.81438805162103 61.750000000000007 25.345938581879675 197.33500000000004 162.47500000000002 168.89000000000001 119.44000000000001 150.33000000000004 62.975000000000009 160.22000000000003 162.17000000000004 62.090655360701774 57.315000000000005 46.335000000000008 -0.72843849493357038 148.77285714285719 140.42000000000004 -0.43733782138609528 59.525000000000013 0.48501892766189986 3.5000000000000004 -0.55656394595157355 141.14449438202249 51.295000000000009 57.190000000000005
decision_type=2 2 2 2 2 2 2 2 2 2 2 2 2 2 2 2 2 2 2 2 2 2 2 2 2 2 2 2 2 2
left_child=6 2 3 5 -3 7 8 14 12 21 11 -4 13 16 15 20 17 18 19 -1 -2 -7 -15 25 -21 28 -25 -24 -20 -30
right_child=1 4 10 -5 -6 9 -8 -9 -10 -11 -12 -13 -14 22 -16 -17 -18 -19 23 24 -22 -23 27 26 -26 -27 -28 -29 29 -31
leaf_value=-1.7150918436050409 1.2587829470634453 3.1780725061893467 1.9848613262176507 2.521123811176845 2.4369994188609878 1.4363535261154166 -0.40780148481329281 0.85807181676976718 -0.44932984222065325 2.3770020866394042 1.8218974292278292 2.9329776191711425 -1.5192392388979594 -0.66316405004925194 1.2577809367861068 2.09425931930542 -0.80714492930306325 -1.4957517552375794 -1.2067890828115899 -0.8858187484741209 1.7727881717681886 1.9449072647094727 -1.0563540182615581 -0.72421076178550725 -1.2846889638900758 -1.0099600467681886 -0.99716352820396426 -0.76554731845855717 -1.1698569229670934 -0.92317568915230896
leaf_weight=10.000000000000002 10.000000000000005 15.999999999999998 13.000000000000002 13.999999999999998 19 10.000000000000005 11.999999999999998 10.999999999999998 10.999999999999998 9.9999999999999982 15.999999999999998 9.9999999999999982 11.999999999999998 27 13.999999999999998 9.9999999999999982 18 9.9999999999999982 57 10.000000000000002 9.9999999999999982 9.9999999999999982 19.000000000000004 9.9999999999999982 9.9999999999999982 50 32 9.9999999999999982 28 21
leaf_count=10 10 16 13 14 19 10 12 11 11 10 16 10 12 27 14 10 18 10 57 10 10 10 19 10 10 50 32 10 28 21
internal_value=-1.14647e-09 2.03827 1.85122 1.72914 2.77578 1.59869 -1.0162 1.42375 -1.03799 1.91942 2.16111 2.39709 -1.05797 -1.04023 1.56516 1.70861 -1.08954 -1.11089 -1.09401 -1.2952 1.51579 1.69063 -0.814851 -1.06353 -1.08525 -1.0989 -0.932175 -0.956076 -1.14085 -1.06414
internal_weight=520 173 138 99 35 85 347 55 335 30 39 23 324 312 44 30 256 238 228 30 20 20 56 198 20 156 42 29 106 49
internal_count=520 173 138 99 35 85 347 55 335 30 39 23 324 312 44 30 256 238 228 30 20 20 56 198 20 156 42 29 106 49
is_linear=0
shrinkage=0.05


Tree=13
num_leaves=31
num_cat=0
split_feature=11 0 16 12 25 22 3 0 3 14 14 20 20 25 22 21 15 20 16 21 19 19 20 11 22 28 25 25 22 5
split_gain=389024 13120.5 2951.54 2132.29 3075.94 3236.63 1635.45 1345.82 1146.73 686.879 905.726 1763.99 716.708 638.961 606.897 1443.11 599.14 544.048 414.022 256.47 254.773 209.334 207.077 511.701 268.373 204.512 161.184 154.747 265.392 150.698
threshold=0.50370931781787065 2023.5000000000002 0.87837969732492682 0.96231527631374336 192.10964285714286 146.82000000000002 4.5000000000000009 2023.5000000000002 4.5000000000000009 0.92230992668936429 0.30164402523644185 140.63000000000002 69.085000000000022 158.92464285714286 55.465000000000011 75.635000000000019 -0.97602293887790903 125.34000000000002 -0.8783796973249266 67.700000000000017 67.695000000000007 59.525000000000013 58.915000000000006 0.19126587156512342 46.125000000000007 9.6301699251772934 62.170000000000009 50.785357142857144 44.590000000000011 108.50000000000001
decision_type=2 2 2 2 2 2 2 2 2 2 2 2 2 2 2 2 2 2 2 2 2 2 2 2 2 2 2 2 2 2
left_child=7 2 6 4 5 -3 9 16 14 10 11 12 -2 17 19 -16 -1 -8 21 26 -10 -18 23 27 -24 -22 -9 28 -20 -21
right_child=1 3 -4 -5 -6 -7 13 8 20 -11 -12 -13 -14 -15 15 -17 18 -19 22 29 25 -23 24 -25 -26 -27 -28 -29 -30 -31
leaf_value=-1.3421561092138292 1.4901456759526175 3.7374637413024896 0.99284469923552343 2.0179360300302505 2.1651167336632224 2.6038276265649234 2.4015857267379754 -0.86258975028991669 -0.77887268662452702 1.1750678324699402 1.9282973023021925 1.0183132446729219 2.0385219227183948 1.6430140781402589 -0.75429183959960922 -1.6037363338470461 -0.71949617067972804 1.9254695701599123 -0.77671726743380209 -0.86373901470847747 -0.34001856818795195 -0.98832735674721861 -1.0300217628479005 -1.4288062095642091 -0.75962470434606078 -0.64491177526387311 -1.1464774036407472 -1.0840960717668719 -1.109252965450287 -0.66003197272618619
leaf_weight=15.999999999999998 13.000000000000002 10.000000000000002 17 15.999999999999998 17 17 10.000000000000002 10.000000000000002 11.999999999999998 9.9999999999999982 17 12.999999999999998 10.999999999999998 9.9999999999999982 10.000000000000002 9.9999999999999982 15.000000000000002 14.999999999999998 12.000000000000002 23 11.000000000000002 13.999999999999998 39 9.9999999999999982 11.999999999999998 10.999999999999998 9.9999999999999982 102 11.999999999999998 14.999999999999998
leaf_count=16 13 10 17 16 17 17 10 10 12 10 17 13 11 10 10 10 15 15 12 23 11 14 39 10 12 11 10 102 12 15
internal_value=2.90859e-10 1.91196 1.60148 2.51223 2.69197 3.02369 1.70599 -0.978214 -0.835876 1.55571 1.6262 1.4874 1.74148 1.9808 -0.941506 -1.17901 -1.04693 2.11592 -1.02506 -0.859606 -0.59355 -0.849277 -1.05232 -1.08454 -0.966399 -0.492465 -1.00453 -1.05722 -0.942985 -0.783328
internal_weight=520 176 116 60 44 27 99 344 112 64 54 37 24 35 78 20 232 25 216 58 34 29 187 136 51 22 20 126 24 38
internal_count=520 176 116 60 44 27 99 344 112 64 54 37 24 35 78 20 232 25 216 58 34 29 187 136 51 22 20 126 24 38
is_linear=0
shrinkage=0.05


Tree=14
num_leaves=31
num_cat=0
split_feature=22 25 22 22 5 20 18 25 24 0 18 26 25 24 5 24 25 24 18 13 16 21 4 20 22 25 22 22 21 18
split_gain=348040 8379.3 3144.29 2388.86 2177.32 2126.36 2119.04 1877.19 1832.39 1728.59 1847.2 1412.97 1352.09 1117.58 926.428 605.18 549.479 546.3 348.963 345.227 386.341 307.316 232.834 210.959 167.016 165.03 139.44 228.099 208.416 203.979
threshold=66.035000000000011 170.78892857142858 156.16000000000003 142.18500000000003 18.500000000000004 163.84500000000003 139.10500000000005 160.04428571428573 21.800477835858164 2023.5000000000002 76.120000000000019 22.484395464099887 180.62607142857146 13.263540099874808 32.500000000000007 6.558804039799889 156.21000000000001 7.1745331974859825 56.730000000000011 0.9863035000474919 -0.8783796973249266 193.94000000000003 27.500000000000004 140.42000000000004 39.390000000000008 62.170000000000009 42.295000000000009 40.870000000000012 46.985000000000007 44.410000000000004
decision_type=2 2 2 2 2 2 2 2 2 2 2 2 2 2 2 2 2 2 2 2 2 2 2 2 2 2 2 2 2 2
left_child=9 2 3 4 -2 -3 -6 8 16 13 15 -5 -7 19 -14 -11 -8 -17 -19 20 24 25 26 -9 -1 -20 27 28 -22 -28
right_child=1 5 -4 11 6 12 7 23 -10 10 -12 -13 14 -15 -16 17 -18 18 21 -21 22 -23 -24 -25 -26 -27 29 -29 -30 -31
leaf_value=-0.95235501202669992 2.2179679696376509 2.7999727810130399 2.3542332450548811 1.4577025847001506 1.0064585879445076 2.5486114144325258 1.8349622453962049 1.0961612558364864 1.3023421222513374 -1.1444435362304961 -0.22597143072634937 0.67316475113232932 2.2253368724476199 -1.4725471531351408 1.5900749693314236 -0.4913995486039382 2.2705090141296389 -0.67944230979139153 -0.76615971435200092 -1.2641527891159059 -1.2040360832214356 -1.1665440177917481 -0.82544590924915517 1.4209371042251586 -0.70754120851817892 -0.97720314264297492 -0.80098138411839814 -1.192441111025603 -0.94749071221602588 -1.0027393686143975
leaf_weight=11.000000000000002 12.999999999999998 17 11.999999999999998 11.000000000000002 15.999999999999998 11.999999999999998 14.000000000000002 10.000000000000002 10.999999999999998 13.999999999999998 13.999999999999998 11.999999999999998 11.000000000000002 11.999999999999998 11.999999999999998 12.999999999999998 14.999999999999998 22 22 9.9999999999999982 9.9999999999999982 9.9999999999999982 19 9.9999999999999982 19 15.999999999999998 14.999999999999998 23 38 76
leaf_count=11 13 17 12 11 16 12 14 10 11 14 14 12 11 12 12 13 15 22 22 10 10 10 19 10 19 16 15 23 38 76
internal_value=-9.90784e-10 1.80845 1.58503 1.50262 1.62001 2.3412 1.51773 1.65406 1.85182 -0.925252 -0.762864 1.04838 2.11837 -1.00261 1.8939 -0.840354 2.06025 -0.789062 -0.844342 -0.977096 -0.963492 -0.919921 -0.991036 1.25855 -0.797306 -0.85502 -1.01046 -1.06297 -1.00094 -0.969483
internal_weight=520 176 124 112 89 52 76 60 40 344 111 23 35 233 23 97 29 83 70 221 211 48 181 20 30 38 162 71 48 91
internal_count=520 176 124 112 89 52 76 60 40 344 111 23 35 233 23 97 29 83 70 221 211 48 181 20 30 38 162 71 48 91
is_linear=0
shrinkage=0.05


Tree=15
num_leaves=31
num_cat=0
split_feature=11 0 25 29 25 3 0 18 24 26 28 26 14 10 11 19 25 18 3 24 5 3 5 20 25 15 22 30 18 11
split_gain=317449 9275.79 2013.08 3495.3 2961.35 1958.61 1511.96 1650.2 1043.28 1030.11 1885.71 1272.69 851.396 742.101 578.944 573.795 503.73 370.221 399.273 361.884 355.496 273.697 394.97 280.143 152.753 277.157 151.124 149.686 117.137 116.444
threshold=0.51849435583340198 2023.5000000000002 179.20321428571432 173.1308888888889 192.10964285714286 4.5000000000000009 2023.5000000000002 76.120000000000019 13.263540099874808 22.484395464099887 26.81438805162103 19.394487449161513 0.60384207981087934 -0.29343379936893921 0.32410992729244009 159.74000000000004 64.775851648351662 64.760000000000005 4.5000000000000009 9.7270666240568389 56.500000000000007 2.5000000000000004 276.50000000000006 47.385000000000012 61.44362637362638 0.66849116431036359 43.45000000000001 60.478932915127707 49.810000000000009 -0.16799793862756093
decision_type=2 2 2 2 2 2 2 2 2 2 2 2 2 2 2 2 2 2 2 2 2 2 2 2 2 2 2 2 2 2
left_child=6 5 -3 4 -4 9 8 16 14 11 -11 13 -13 -2 19 -7 17 18 24 21 -17 29 23 28 27 -26 -25 -8 -23 -1
right_child=1 2 3 -5 -6 15 7 -9 -10 10 -12 12 -14 -15 -16 20 -18 -19 -20 -21 -22 22 -24 26 25 -27 -28 -29 -30 -31
leaf_value=-1.0243121033448439 1.4677460014820096 2.6993395686149597 2.9633855342864983 1.3473588258028031 1.9375001626856188 2.0609725126853355 -0.59679292314930965 -0.23371356874704363 -1.3989198257525763 0.74604796078056079 1.5263867155710857 2.0843293103304772 1.4622374924746426 0.91867530345916748 -0.56664155179804021 1.4218124973773953 -1.0867209144223196 -0.96122470322777243 -0.43862034082412721 -1.2322834968566896 1.8254653374354046 -0.84121962027116237 -1.1719743633270265 -0.85043168465296426 -1.0211010138193763 -0.6646876668930054 -0.7034993855158489 -0.80808219750722243 -1.0462438156730252 -0.89543931285540257
leaf_weight=65 16.000000000000004 18 12.000000000000002 11.999999999999998 17 12.999999999999998 19 14.999999999999998 11.999999999999998 16.000000000000004 14.999999999999998 11.000000000000002 10.999999999999998 9.9999999999999982 10.999999999999998 10.000000000000002 12.999999999999998 17 11.999999999999998 9.9999999999999982 11.999999999999998 11.000000000000002 9.9999999999999982 42 12.000000000000002 9.9999999999999982 30 14.999999999999998 19 24
leaf_count=65 16 18 12 12 17 13 19 15 12 16 15 11 11 10 11 10 13 17 12 10 12 11 10 42 12 10 30 15 19 24
internal_value=-4.69243e-10 1.74963 2.25855 2.06504 2.362 1.48624 -0.872295 -0.722104 -0.944823 1.3483 1.12363 1.49339 1.77328 1.25656 -0.920278 1.79761 -0.796857 -0.752525 -0.70035 -0.938714 1.64199 -0.924108 -0.872097 -0.842698 -0.756435 -0.859095 -0.78921 -0.690009 -0.971068 -0.98956
internal_weight=520 173 59 41 29 114 347 113 234 79 31 48 22 26 222 35 98 85 68 211 22 201 112 102 56 22 72 34 30 89
internal_count=520 173 59 41 29 114 347 113 234 79 31 48 22 26 222 35 98 85 68 211 22 201 112 102 56 22 72 34 30 89
is_linear=0
shrinkage=0.05


Tree=16
num_leaves=31
num_cat=0
split_feature=11 0 16 18 30 22 22 17 22 27 18 0 3 29 20 22 15 16 18 18 20 11 22 24 16 27 25 24 18 30
split_gain=286793 9924.19 2362.54 1771.72 2141.11 1394.46 2084.71 2015.77 1343.05 1618.35 1306.82 939.865 902.853 834.414 823.418 547.091 471.91 314.422 300.789 204.281 183.625 412.727 244.517 148.628 140.816 232.49 215.752 159.146 220.279 152.806
threshold=0.50370931781787065 2023.5000000000002 0.87837969732492682 211.17500000000004 29.992028674487731 142.18500000000003 153.19500000000002 -0.56174490092936669 135.44500000000002 154.11200000000005 186.74000000000004 2023.5000000000002 4.5000000000000009 111.48488764044946 186.74000000000004 55.465000000000011 -0.97602293887790903 -0.8783796973249266 58.940000000000005 69.180000000000021 58.915000000000006 0.19126587156512342 46.125000000000007 10.826638918465356 0.6078576107927941 51.757000000000005 51.706071428571441 7.5264308609088975 51.300000000000004 7.2493231725450142
decision_type=2 2 2 2 2 2 2 2 2 2 2 2 2 2 2 2 2 2 2 2 2 2 2 2 2 2 2 2 2 2
left_child=11 2 5 4 14 7 -7 13 9 -9 -6 16 15 -2 -3 23 -1 -18 -17 -14 21 24 -22 -13 25 26 -19 28 -27 -26
right_child=1 3 -4 -5 10 6 -8 8 -10 -11 -12 12 19 -15 -16 18 17 20 -20 -21 22 -23 -24 -25 29 27 -28 -29 -30 -31
leaf_value=-1.1593404561281204 1.5449202020963029 1.3297138111293312 0.82707182800068579 2.7070871015389759 2.0547727010212835 0.73616675777094687 1.6342679659525556 1.9531067672528719 2.291004886627197 1.2815914560766783 2.7833995914459231 -0.69820124931792005 -0.37594336830079556 0.98554068541775153 1.9440427670876188 -0.84628128767013533 -0.72473249558744768 -0.66335321784019474 -1.2340886878967288 -0.62148637076218927 -0.88149546721042737 -1.2412006998062135 -0.62339627643426265 -0.90236986767161975 -0.87983795285224931 -0.83496102889378876 -0.92500162491431603 -0.81847801605860393 -1.1059337425231934 -1.0688089184139087
leaf_weight=15.999999999999998 12.000000000000002 10.000000000000002 17 11.999999999999998 16.000000000000004 14.000000000000002 11.999999999999998 19 9.9999999999999982 17 9.9999999999999982 47 15.999999999999998 14.999999999999998 11.999999999999998 10.000000000000002 29 20 9.9999999999999982 18 39 9.9999999999999982 11.999999999999998 10.999999999999998 20 11.999999999999998 12.999999999999998 18 20 23
leaf_count=16 12 10 17 12 16 14 12 19 10 17 10 47 16 15 12 10 29 20 10 18 39 10 12 11 20 12 13 18 20 23
internal_value=-1.78742e-10 1.64163 1.3716 2.16368 2.02783 1.46511 1.15068 1.5771 1.77839 1.636 2.33501 -0.839904 -0.720956 1.23415 1.6648 -0.814682 -0.897328 -0.877919 -1.04018 -0.505937 -0.901676 -0.932017 -0.820766 -0.736923 -0.907478 -0.869432 -0.766427 -0.937416 -1.00432 -0.980915
internal_weight=520 176 116 60 48 99 26 73 46 36 26 344 112 27 22 78 232 216 20 34 187 136 51 58 126 83 33 50 32 43
internal_count=520 176 116 60 48 99 26 73 46 36 26 344 112 27 22 78 232 216 20 34 187 136 51 58 126 83 33 50 32 43
is_linear=0
shrinkage=0.05


Tree=17
num_leaves=31
num_cat=0
split_feature=11 27 16 26 3 6 27 25 21 24 4 22 26 25 19 30 22 21 26 26 18 21 23 28 15 1 23 14 12 26
split_gain=258831 7059.28 3034.15 1885.97 1921.1 1304.84 1698.85 951.04 1345.95 983.534 1087.14 751.093 520.505 510.6 914.388 520.96 553.683 492.266 932.835 327.448 321.106 310.119 252.414 248.619 242.152 168.125 161.928 216.505 161.341 234.972
threshold=0.50370931781787065 161.14633333333339 0.87837969732492682 31.729238142454061 4.5000000000000009 3.5000000000000004 143.02383333333339 160.04428571428573 53.595000000000006 21.800477835858164 19.500000000000004 61.750000000000007 25.916705556846555 125.14269230769231 62.975000000000009 62.090655360701774 57.315000000000005 46.335000000000008 7.4165706658413733 7.7789091512517716 59.525000000000013 162.03500000000003 60.099642857142861 22.632470390287157 -0.29548893422398254 7.5000000000000009 50.350714285714297 -0.27694476165744958 -0.11798870221290077 5.9946986656228924
decision_type=2 2 2 2 2 2 2 2 2 2 2 2 2 2 2 2 2 2 2 2 2 2 2 2 2 2 2 2 2 2
left_child=11 2 5 4 12 6 -2 8 -7 10 -10 13 21 14 15 16 17 18 25 -16 26 -3 -21 -11 -22 -1 27 -19 -28 -30
right_child=1 3 -4 -5 -6 7 -8 -9 9 23 -12 -13 -14 -15 19 -17 -18 20 -20 22 24 -23 -24 -25 -26 -27 28 -29 29 -31
leaf_value=-0.69079231500625571 1.3190955066680905 1.2829260569810863 0.73513609634505384 2.5604982535044356 2.3070273365825416 1.8115820358781254 2.2195473670959474 0.98887094641725237 1.2236139672143116 0.85903684139251679 1.9061949205398561 -0.39140650467439131 1.8963495175043743 -1.1315585652987161 -0.82567433913548793 -0.5877215564250946 -1.2239020919799806 -0.950778333346049 -1.4272100353240968 -0.68251715047018868 -0.54122203770093624 1.676702015399933 -0.44515179072817168 1.2035059083591808 -0.78506010685648242 -0.98072775363922116 -0.94133715118680694 -0.70277197740294728 -1.0294401645660394 -0.77219907978306646
leaf_weight=10.000000000000005 10.000000000000002 10.000000000000002 18 11.999999999999998 15.999999999999998 17 10.999999999999998 14.999999999999998 14.000000000000002 10.000000000000002 9.9999999999999982 10.999999999999998 11.999999999999998 11.999999999999998 14.999999999999998 19 9.9999999999999982 11.999999999999998 9.9999999999999982 21 15.999999999999998 9.9999999999999982 24 10.999999999999998 28 9.9999999999999982 55.999999999999993 33 11.000000000000005 46
leaf_count=10 10 10 18 12 16 17 11 15 14 10 10 11 12 12 15 19 10 12 10 21 16 10 24 11 28 10 56 33 11 46
internal_value=-1.40128e-09 1.55955 1.33181 1.99985 1.85969 1.4414 1.79076 1.34612 1.43255 1.28937 1.50802 -0.797909 1.63601 -0.811337 -0.799366 -0.839827 -0.859621 -0.843919 -1.03291 -0.62336 -0.815851 1.47981 -0.555922 1.03947 -0.696392 -0.83576 -0.849118 -0.768907 -0.881061 -0.821842
internal_weight=520 176 116 60 48 98 21 77 62 45 24 344 32 333 321 261 242 232 30 60 202 20 45 21 44 20 158 45 113 57
internal_count=520 176 116 60 48 98 21 77 62 45 24 344 32 333 321 261 242 232 30 60 202 20 45 21 44 20 158 45 113 57
is_linear=0
shrinkage=0.05


Tree=18
num_leaves=31
num_cat=0
split_feature=22 27 23 17 6 5 22 30 4 25 23 20 25 26 16 14 22 18 20 16 24 27 22 21 16 18 13 18 10 14
split_gain=231398 5870.48 1659.81 1927.28 1915.63 1509.27 1466.9 1537.41 1391.96 1300.11 1202.08 1192.8 1250.26 852.7 941.74 808.627 885.38 697.933 550.852 511.253 861.454 417.891 318.776 264.692 213.687 221.883 213.057 193.288 203.151 161.735
threshold=66.035000000000011 161.14633333333339 140.38928571428576 1.0000000180025095e-35 4.5000000000000009 28.500000000000004 144.75500000000002 29.146513175318994 19.500000000000004 192.10964285714286 159.50500000000002 199.49000000000004 125.14269230769231 8.1908905863440769 -0.60785761079279388 0.4821958146195448 141.62000000000003 65.565000000000012 136.34500000000003 1.0000000180025095e-35 10.286227542573121 154.11200000000005 50.395000000000003 66.035000000000011 -0.60785761079279388 58.605000000000011 -0.38441749230002448 55.925000000000004 -0.95754239937548935 0.16057120351387416
decision_type=2 2 2 2 2 2 2 2 2 2 2 2 2 2 2 2 2 2 2 2 2 2 2 2 2 2 2 2 2 2
left_child=11 2 -2 8 -5 9 -7 -8 10 -3 18 12 13 17 26 16 -6 24 -4 20 -16 -10 23 -21 -1 27 -15 28 -26 -30
right_child=1 5 3 4 15 6 7 -9 21 -11 -12 -13 -14 14 19 -17 -18 -19 -20 22 -22 -23 -24 -25 25 -27 -28 -29 29 -31
leaf_value=-0.70288325008356356 0.73686532194797816 2.5575365543365471 1.300781826972961 2.1588839192282072 1.8322648488558251 1.2277296589842688 2.2430025682917658 1.4312832880020143 1.0531944361600007 1.8049828399311414 1.0052723251283169 -0.24216894805431366 -1.2955411607568914 -0.25914792652641022 -0.67450208796395184 1.02161922454834 1.2064769633114338 -1.1670124640831581 1.8032497882843019 -0.85631693110746498 -1.2214171449343363 0.61736159812320368 -0.43933154821395876 -0.5812021242247688 -0.62946471938720117 -0.64439684841781864 -0.52623621057718994 -0.98061991419110983 -0.7909183533465276 -0.92575530188424249
leaf_weight=53 12.999999999999998 12.000000000000002 10.000000000000002 10.999999999999998 13.000000000000002 11.999999999999998 14.000000000000002 9.9999999999999982 11.000000000000002 10.999999999999998 15.999999999999998 10.999999999999998 10.999999999999998 14.000000000000002 18.000000000000004 9.9999999999999982 9.9999999999999982 12.999999999999998 11.999999999999998 17 11.999999999999998 10.999999999999998 14.999999999999998 18 12.999999999999998 15.999999999999998 15.999999999999998 21 61 35
leaf_count=53 13 12 10 11 13 12 14 10 11 11 16 11 11 14 18 10 10 13 12 17 12 11 15 18 13 16 16 21 61 35
internal_value=-2.93546e-09 1.47459 1.26953 1.33611 1.58746 1.88124 1.6791 1.90479 1.15179 2.19762 1.33503 -0.754441 -0.771362 -0.753456 -0.640499 1.39698 1.56018 -0.812065 1.57486 -0.730088 -0.893268 0.835278 -0.63218 -0.714829 -0.788878 -0.820095 -0.401595 -0.841719 -0.814959 -0.840078
internal_weight=520 176 117 104 44 59 36 24 60 23 38 344 333 322 110 33 23 212 22 80 30 22 50 35 199 146 30 130 109 96
internal_count=520 176 117 104 44 59 36 24 60 23 38 344 333 322 110 33 23 212 22 80 30 22 50 35 199 146 30 130 109 96
is_linear=0
shrinkage=0.05


Tree=19
num_leaves=31
num_cat=0
split_feature=11 0 25 29 25 3 0 18 19 26 28 26 21 26 21 24 25 18 24 24 18 21 16 19 27 4 20 17 18 22
split_gain=211222 6161.22 1829.7 2853.32 2459.79 1404.18 1059.06 1375.58 942.072 874.366 1520.13 1172.6 932.817 690.04 628.349 596.546 528.44 1352.69 487.506 408.451 275.074 272.795 249.992 196.99 141.239 123.899 124.174 202.166 154.449 130.639
threshold=0.51849435583340198 2023.5000000000002 179.20321428571432 173.1308888888889 192.10964285714286 4.5000000000000009 2023.5000000000002 76.120000000000019 140.63000000000002 22.484395464099887 26.81438805162103 19.394487449161513 141.12500000000003 10.487477125681499 61.810000000000009 9.8793257735757489 158.92464285714286 160.22000000000003 6.558804039799889 7.1745331974859825 56.730000000000011 193.94000000000003 -0.8783796973249266 59.525000000000013 61.685517241379316 28.500000000000004 48.045000000000009 -0.22252093395631442 58.940000000000005 41.20000000000001
decision_type=2 2 2 2 2 2 2 2 2 2 2 2 2 2 2 2 2 2 2 2 2 2 2 2 2 2 2 2 2 2
left_child=6 5 -3 4 -4 9 8 18 13 11 -11 14 -13 15 -2 22 17 -7 -8 -20 -21 24 23 -1 -22 26 -24 -28 29 -29
right_child=1 2 3 -5 -6 16 7 -9 -10 10 -12 12 -14 -15 -16 -17 -18 -19 19 20 21 -23 25 -25 -26 -27 27 28 -30 -31
leaf_value=-0.49023117065429678 1.1963965736329554 2.2621855828497148 2.4738682111104322 1.0090332284569741 1.5388876553844004 2.0494847469031803 -0.91641180992126481 -0.13993228847781819 -1.2470555138587951 0.54972214810550202 1.2503464476267498 1.854712228775024 1.2008460640907288 -0.36487112912264741 0.69115718960762029 -1.147989991903305 1.1689728498458862 1.2987365078926087 -0.34929623053624081 -0.50807304761626504 -0.56898441612720496 -0.95393879830837247 -0.8484639581644311 -0.7561528701048631 -0.76204214625888411 -0.61215824539011177 -0.64196997305442549 -0.92379542480815546 -0.62122934514826 -0.77713033836715084
leaf_weight=15.000000000000002 16.000000000000004 18 12.000000000000002 11.999999999999998 17 10.000000000000002 14.999999999999998 14.999999999999998 9.9999999999999982 16.000000000000004 14.999999999999998 10.000000000000002 11.999999999999998 10.999999999999998 9.9999999999999982 9.9999999999999982 9.9999999999999982 14.999999999999998 12.999999999999998 22 20 9.9999999999999982 53 12.999999999999998 18 10.999999999999998 29 22 10.999999999999998 49
leaf_count=15 16 18 12 12 17 10 15 15 10 16 15 10 12 11 10 10 10 15 13 22 20 10 53 13 18 11 29 22 11 49
internal_value=-1.0044e-09 1.42718 1.84195 1.65746 1.92578 1.21252 -0.711535 -0.585836 -0.772237 1.09572 0.888734 1.2294 1.49806 -0.751039 1.00207 -0.770982 1.47616 1.59904 -0.654086 -0.606678 -0.654478 -0.72158 -0.75241 -0.613695 -0.660433 -0.774605 -0.785501 -0.755437 -0.795566 -0.822576
internal_weight=520 173 59 41 29 114 347 113 234 79 31 48 22 224 26 213 35 25 98 83 70 48 203 28 38 175 164 111 82 71
internal_count=520 173 59 41 29 114 347 113 234 79 31 48 22 224 26 213 35 25 98 83 70 48 203 28 38 175 164 111 82 71
is_linear=0
shrinkage=0.05


Tree=20
num_leaves=31
num_cat=0
split_feature=11 23 25 16 30 23 23 28 20 19 28 29 5 22 25 19 22 21 15 18 24 12 19 15 29 22 22 4 22 11
split_gain=190815 5480.4 2554.28 2411.77 1154.01 1369.09 2309.32 1351.73 2128.57 2751.86 820.686 881.679 742.349 557.116 426.601 723.979 416.561 508.591 820.411 419.009 387.715 287.734 281.101 241.795 221.216 167.848 194.8 252.747 155.389 190.375
threshold=0.50370931781787065 182.63428571428577 192.10964285714286 0.87837969732492682 24.438721104025927 153.83214285714288 149.6321428571429 25.589200896350892 117.06000000000002 168.89000000000001 19.226499621752946 145.53205555555559 52.500000000000007 61.750000000000007 125.14269230769231 62.975000000000009 57.315000000000005 46.335000000000008 -0.72843849493357038 59.525000000000013 19.138968251686929 -0.43733782138609528 49.910000000000004 0.48501892766189986 142.12710674157307 42.295000000000009 40.580000000000005 17.500000000000004 51.915000000000013 -0.77243990499604276
decision_type=2 2 2 2 2 2 2 2 2 2 2 2 2 2 2 2 2 2 2 2 2 2 2 2 2 2 2 2 2 2
left_child=13 3 -3 4 -2 6 -6 10 20 -10 -7 -12 -5 14 15 16 17 18 -1 25 -9 -17 -21 -20 -23 26 27 -19 29 -27
right_child=1 2 -4 12 5 7 -8 8 9 -11 11 -13 -14 -15 -16 21 -18 19 23 22 -22 24 -24 -25 -26 28 -28 -29 -30 -31
leaf_value=-1.2713731265068051 0.8374508600968581 2.2876513048222189 1.4440171351327615 0.99385508418083157 1.2678822394212084 1.3069439321756364 2.2488076877593994 1.2825192868709561 2.3342870538884934 1.2158756212754684 0.54159131596485766 1.1476988395055137 0.38461423635482794 -0.33499921831217683 -0.98936041593551638 -0.40805765820874113 -1.0228587020527233 -0.62532135601396921 -0.54285598158836346 -0.38373089730739596 0.84222666025161752 -0.71968779780647973 -0.63560968339443213 -0.89055895805358887 -0.44507069479335437 -0.75124090079105288 -0.91223786830902098 -0.85660357475280768 -0.84809891780217495 -0.59933396203951395
leaf_weight=10.000000000000002 12.999999999999998 19 17 10.000000000000002 15.000000000000002 15.999999999999998 9.9999999999999982 10.000000000000002 11.000000000000002 10.999999999999998 12.000000000000002 11.999999999999998 9.9999999999999982 10.999999999999998 11.999999999999998 27 10.999999999999998 27 10.000000000000002 15.999999999999998 9.9999999999999982 22 36 9.9999999999999982 10.999999999999998 32.999999999999993 20 21 11.999999999999998 55.000000000000007
leaf_count=10 13 19 17 10 15 16 10 10 11 11 12 12 10 11 12 27 11 27 10 16 10 22 36 10 11 33 20 21 12 55
internal_value=-1.49871e-09 1.33905 1.88927 1.19757 1.28229 1.33634 1.66025 1.23758 1.4357 1.77508 1.02956 0.844645 0.689235 -0.685097 -0.696662 -0.68572 -0.721723 -0.708473 -0.901596 -0.682138 1.06237 -0.529108 -0.558109 -0.716707 -0.628149 -0.720527 -0.781134 -0.726507 -0.679315 -0.656299
internal_weight=520 176 36 140 120 107 25 82 42 22 40 24 20 344 333 321 261 250 30 220 20 60 52 20 33 168 68 48 100 88
internal_count=520 176 36 140 120 107 25 82 42 22 40 24 20 344 333 321 261 250 30 220 20 60 52 20 33 168 68 48 100 88
is_linear=0
shrinkage=0.05


Tree=21
num_leaves=31
num_cat=0
split_feature=11 0 3 23 12 11 22 26 27 27 25 22 0 3 23 22 23 15 18 3 12 13 25 18 25 18 23 23 27 15
split_gain=172211 6190.97 1540.53 1507.66 2562.79 1386.03 1293.4 932.751 732.172 1192.19 1149.67 1003.85 569.882 664.813 534.042 460.247 395.231 356.975 251.369 226.125 203.741 366.702 200.787 164.71 135.46 137.724 128.275 294.14 170.243 88.4074
threshold=0.50370931781787065 2023.5000000000002 4.5000000000000009 176.78357142857143 0.89693165594635726 0.61067742788105683 151.31000000000003 28.962329602290392 152.41916666666671 142.1421666666667 159.57464285714289 133.37000000000003 2023.5000000000002 4.5000000000000009 160.11928571428578 55.465000000000011 150.34714285714287 -0.97602293887790903 58.940000000000005 4.5000000000000009 -0.40614512594453095 -0.70291145964310642 51.365714285714297 70.370000000000019 53.526071428571441 58.940000000000005 61.085714285714296 62.212738095238102 61.47595402298851 0.92355143341204526
decision_type=2 2 2 2 2 2 2 2 2 2 2 2 2 2 2 2 2 2 2 2 2 2 2 2 2 2 2 2 2 2
left_child=12 2 5 -3 6 -2 -5 -6 9 -7 11 -10 17 15 16 26 -4 -1 -17 20 21 -19 -23 -15 25 -21 -14 -28 -29 -22
right_child=1 3 14 4 7 8 -8 -9 10 -11 -12 -13 13 23 -16 18 -18 19 -20 24 29 22 -24 -25 -26 -27 27 28 -30 -31
leaf_value=-0.92343946099281315 0.38793326377868653 2.2448750352859501 1.2160607302188868 2.2667091210683181 0.79246799081563923 0.97732466867095535 1.5965625021192764 1.4753849887847901 0.78643173749248163 1.6517974758148193 0.58118603097067945 1.4331713596979778 -0.65905222685440723 -0.26365969842847659 1.0272089505195618 -0.66821808099746693 1.6218681907653811 -1.0200955647688648 -1.0227385139465333 -0.50119340814875835 -0.65277826850828924 -0.583864036027123 -0.80845865607261658 -0.48375999103574191 -0.74516043861707049 -0.68834884677614483 -0.30637551744778957 -0.45664567232131942 -0.73105334502000074 -0.80276145935058596
leaf_weight=15.999999999999998 9.9999999999999982 9.9999999999999982 10.000000000000002 12.000000000000002 10.000000000000002 19.000000000000004 18 9.9999999999999982 12.000000000000002 9.9999999999999982 18 11.999999999999998 23 17 9.9999999999999982 10.000000000000002 14.999999999999998 12.999999999999998 9.9999999999999982 33 92 17 24 17 11.999999999999998 13.999999999999998 11.999999999999998 10.000000000000002 12.999999999999998 10.999999999999998
leaf_count=16 10 10 10 12 10 19 18 10 12 10 18 12 23 17 10 10 15 13 10 33 92 17 24 17 12 14 12 10 13 11
internal_value=-1.13765e-09 1.2721 1.05883 1.68443 1.57234 0.93905 1.86462 1.13393 1.01667 1.2099 0.883252 1.1098 -0.650842 -0.558219 1.33602 -0.638646 1.45955 -0.695557 -0.845478 -0.678676 -0.710038 -0.788703 -0.715334 -0.37371 -0.595224 -0.556942 -0.567325 -0.507047 -0.611746 -0.668796
internal_weight=520 176 116 60 50 81 30 20 71 29 42 24 344 112 35 78 25 232 20 216 157 54 41 34 59 47 58 35 23 103
internal_count=520 176 116 60 50 81 30 20 71 29 42 24 344 112 35 78 25 232 20 216 157 54 41 34 59 47 58 35 23 103
is_linear=0
shrinkage=0.05


Tree=22
num_leaves=31
num_cat=0
split_feature=11 0 18 30 18 7 20 19 22 26 28 26 19 21 19 10 23 23 22 21 26 26 28 22 11 19 28 28 21 5
split_gain=155556 4520.61 1527.6 1215 1434.14 1053.22 904.235 902.305 872.133 780.834 1296.65 998.275 771.968 738.257 654.85 526.343 481.973 356.696 345.025 432.25 783.502 296.044 289.323 267.504 222.567 192.913 177.665 176.036 159.515 150.353
threshold=0.51849435583340198 2023.5000000000002 211.17500000000004 29.992028674487731 186.74000000000004 1.0000000180025095e-35 199.49000000000004 179.10000000000005 61.750000000000007 22.484395464099887 26.81438805162103 19.394487449161513 150.33000000000004 141.12500000000003 62.975000000000009 -0.29343379936893921 160.11928571428578 150.34714285714287 57.315000000000005 46.335000000000008 7.4165706658413733 7.7172391476781721 8.1962504331486894 43.670000000000009 -0.59177783207548873 55.790000000000006 9.507985094895794 7.476129504834204 59.285000000000004 215.50000000000003
decision_type=2 2 2 2 2 2 2 2 2 2 2 2 2 2 2 2 2 2 2 2 2 2 2 2 2 2 2 2 2 2
left_child=6 5 3 7 -5 9 8 -3 12 11 -11 15 14 -13 18 -2 17 -7 19 20 29 25 27 -23 -25 28 -24 -16 -21 -1
right_child=1 2 -4 4 -6 16 -8 -9 -10 10 -12 13 -14 -15 22 -17 -18 -19 -20 21 -22 23 26 24 -26 -27 -28 -29 -30 -31
leaf_value=-0.50522822499275166 1.034164812415838 1.5007023225750094 2.083556307355563 1.3807630316416422 2.1537814378738402 1.1552576959133145 -0.16453148008070209 0.86028175137259744 -0.16528278030455112 0.43102903366088863 1.0781080643335978 1.6312340211868284 -1.0168693982637846 1.0495401640733084 -0.4808902243773141 0.57175050735473631 0.97584849447011957 1.540774777730306 -0.9313779505816373 -0.6448275685310364 -1.1843656182289124 -0.6420477634522973 -0.21202638338912619 -0.56720792245864871 -0.34640748992207504 -0.58354574184526098 -0.45634167207323983 -0.76493836179375652 -0.78182802881513336 -0.77941183328628538
leaf_weight=10.000000000000005 16.000000000000004 11.000000000000002 11.999999999999998 15.000000000000002 9.9999999999999982 10.000000000000002 10.999999999999998 10.999999999999998 9.9999999999999982 16.000000000000004 14.999999999999998 10.000000000000002 12.999999999999998 11.999999999999998 12.000000000000002 9.9999999999999982 9.9999999999999982 14.999999999999998 10.999999999999998 43 9.9999999999999982 41 10.999999999999998 25 21 44 23 9.9999999999999982 42 9.9999999999999982
leaf_count=10 16 11 12 15 10 10 11 11 10 16 15 10 13 12 12 10 10 15 11 43 10 41 11 25 21 44 23 10 42 10
internal_value=-1.41642e-09 1.22477 1.58005 1.45149 1.68997 1.04089 -0.610618 1.18049 -0.625222 0.939735 0.744132 1.06606 -0.639331 1.31395 -0.62365 0.856313 1.26922 1.38657 -0.65741 -0.645159 -0.823002 -0.620459 -0.468718 -0.549181 -0.466408 -0.66853 -0.377298 -0.610003 -0.712522 -0.64232
internal_weight=520 173 59 47 25 114 347 22 336 79 31 48 326 22 313 26 35 25 257 246 30 216 56 87 46 129 34 22 85 20
internal_count=520 173 59 47 25 114 347 22 336 79 31 48 326 22 313 26 35 25 257 246 30 216 56 87 46 129 34 22 85 20
is_linear=0
shrinkage=0.05


Tree=23
num_leaves=31
num_cat=0
split_feature=11 0 4 23 23 26 26 23 13 14 11 21 0 7 24 14 23 15 7 26 27 4 12 13 18 21 22 21 5 19
split_gain=140417 5092.82 1576.95 1352.61 2236 1211.19 1088.43 1047.04 1863.89 1734.25 1030.56 829.925 452.489 579.753 488.004 377.369 353.504 312.071 195.711 181.441 296.414 199.94 175.406 322.841 164.893 159.042 154.664 133.226 140.28 121.082
threshold=0.50370931781787065 2023.5000000000002 3.5000000000000004 176.78357142857143 182.63428571428577 28.157322829246574 23.862823337027489 153.83214285714288 0.88917497572200743 0.92230992668936429 0.94636490295939868 108.44500000000001 2023.5000000000002 1.0000000180025095e-35 6.5929021861573149 0.28313750840326141 160.40285714285719 -0.97602293887790903 1.0000000180025095e-35 9.1230325441689661 62.322931034482764 9.5000000000000018 -0.40614512594453095 -0.70291145964310642 45.670000000000009 53.595000000000006 55.465000000000011 53.920000000000009 225.50000000000003 62.32500000000001
decision_type=2 2 2 2 2 2 2 2 2 2 2 2 2 2 2 2 2 2 2 2 2 2 2 2 2 2 2 2 2 2
left_child=12 2 -2 -3 -5 6 -6 9 10 11 15 -4 17 14 -14 16 -9 -1 22 20 -16 -21 23 -19 -25 -26 -15 -24 -29 -20
right_child=1 3 7 4 5 -7 -8 8 -10 -11 -12 -13 13 26 19 -17 -18 18 29 21 -22 -23 27 24 25 -27 -28 28 -30 -31
leaf_value=-0.84061102345585825 0.43633083196786737 2.0535033893585206 1.184321731328964 0.8803166900362287 1.7344611716270439 1.9492566049098969 0.9967522808909417 1.1659749340069918 0.34246324263513089 0.69462927043437961 1.4889852666854859 1.7723711331685383 -0.88892764909700928 -0.22622189359629857 -0.49539328993935322 0.73279808107763533 0.81933337148123742 -0.93103955709017239 -0.494169186382658 -0.6009545377322606 -0.81281230847040808 -0.35924406647682194 -0.66984070040458865 -0.76422555096009204 -0.40839902400970446 -0.66947503430502753 -0.43950457371333074 -0.6025998201481132 -0.4329377118278952 -0.66253944635391238
leaf_weight=15.999999999999998 12.999999999999998 9.9999999999999982 12.000000000000002 13.999999999999998 10.000000000000002 15.999999999999998 9.9999999999999982 19.000000000000004 11.999999999999998 9.9999999999999982 9.9999999999999982 11.999999999999998 10.999999999999998 17 19.000000000000004 15.999999999999998 11.999999999999998 12.999999999999998 45 13.999999999999998 11.999999999999998 22 43 17 10.000000000000002 13.999999999999998 17 43 17 13.999999999999998
leaf_count=16 13 10 12 14 10 16 10 19 12 10 10 12 11 17 19 16 12 13 45 14 12 22 43 17 10 14 17 43 17 14
internal_value=-2.65266e-09 1.14868 0.955247 1.52266 1.41649 1.62501 1.36561 1.02074 0.908836 1.24784 1.02807 1.47835 -0.587699 -0.505165 -0.580271 0.930006 1.03179 -0.627542 -0.611759 -0.529596 -0.618265 -0.453243 -0.640935 -0.713926 -0.645085 -0.560693 -0.332863 -0.602669 -0.554529 -0.534121
internal_weight=520 176 116 60 50 36 20 103 69 34 57 24 344 112 78 47 31 232 216 67 31 36 157 54 41 24 34 103 60 59
internal_count=520 176 116 60 50 36 20 103 69 34 57 24 344 112 78 47 31 232 216 67 31 36 157 54 41 24 34 103 60 59
is_linear=0
shrinkage=0.05


Tree=24
num_leaves=31
num_cat=0
split_feature=11 0 18 30 18 22 22 3 27 19 24 20 19 4 22 22 19 22 21 20 18 3 14 19 18 3 20 20 1 20
split_gain=126830 3652.7 1350.59 1018.51 1292.21 924.292 1448.91 1253.09 1245.52 1261.36 791.433 785.922 766.963 740.309 693.446 624.981 547.932 317.902 386.749 716.075 266.125 234.312 226.721 215.214 133.929 167.44 253.542 118.184 146.926 156.197
threshold=0.51849435583340198 2023.5000000000002 211.17500000000004 29.992028674487731 186.74000000000004 142.18500000000003 153.19500000000002 4.5000000000000009 152.41916666666671 128.84000000000003 27.667624716959473 199.49000000000004 150.33000000000004 19.500000000000004 61.750000000000007 132.24000000000004 62.975000000000009 57.315000000000005 46.335000000000008 54.030000000000008 59.525000000000013 5.5000000000000009 -0.11265068620919705 49.910000000000004 57.510000000000005 2.5000000000000004 56.095000000000006 63.030000000000008 6.5000000000000009 53.07500000000001
decision_type=2 2 2 2 2 2 2 2 2 2 2 2 2 2 2 2 2 2 2 2 2 2 2 2 2 2 2 2 2 2
left_child=11 5 3 10 -5 7 -7 8 9 -2 -3 12 14 -10 16 -9 17 18 19 -1 24 22 -18 -22 25 27 -27 28 29 -20
right_child=1 2 -4 4 -6 6 -8 15 13 -11 -12 -13 -14 -15 -16 -17 21 -19 20 -21 23 -23 -24 -25 -26 26 -28 -29 -30 -31
leaf_value=-0.57752924568951125 0.80544022430073103 1.3300379097461699 1.8987119591484469 1.2292319679260251 1.9630032014846801 0.39995437229380881 1.1175414284070333 1.1076829202911431 0.91495350536547226 1.5626371123573997 0.72775894403457642 -0.13548264693130146 -0.94152324566474332 0.45334492772817614 -0.13995187312364579 1.5913666226647116 -0.62657589912414557 -0.85677789991552178 -0.61776253666196546 -1.0957263827323913 -0.29845578342676166 -0.23518751818113603 -0.38905134134822422 -0.52581794191809272 -0.72174382770762735 -0.58125131118054296 -0.37692953375252813 -0.5069539322572596 -0.58361285021810827 -0.84998018582661938
leaf_weight=20.000000000000004 11.000000000000002 12.000000000000002 11.999999999999998 15.000000000000002 9.9999999999999982 17.000000000000004 11.999999999999998 17.000000000000004 19 10.999999999999998 9.9999999999999982 10.999999999999998 12.999999999999998 15.999999999999998 9.9999999999999982 10.999999999999998 15.999999999999998 10.999999999999998 14.000000000000002 9.9999999999999982 14.999999999999998 12.999999999999998 27 34 17 49 22 17 33 14.999999999999998
leaf_count=20 11 12 12 15 10 17 12 17 19 11 10 11 13 16 10 11 16 11 14 10 15 13 27 34 17 49 22 17 33 15
internal_value=8.64339e-10 1.10591 1.42527 1.30439 1.52274 0.94063 0.696887 1.02379 0.889237 1.18404 1.05627 -0.551363 -0.564978 0.703932 -0.549823 1.2977 -0.562918 -0.593799 -0.58204 -0.750262 -0.558675 -0.421197 -0.477433 -0.456217 -0.588738 -0.573664 -0.51794 -0.623745 -0.655768 -0.737875
internal_weight=520 173 59 47 25 114 29 85 57 22 22 347 336 35 323 28 313 257 246 30 216 56 43 49 167 150 71 79 62 29
internal_count=520 173 59 47 25 114 29 85 57 22 22 347 336 35 323 28 313 257 246 30 216 56 43 49 167 150 71 79 62 29
is_linear=0
shrinkage=0.05


Tree=25
num_leaves=31
num_cat=0
split_feature=25 13 5 0 25 29 25 15 3 3 26 26 26 14 21 19 21 15 16 20 5 26 15 13 13 4 20 13 25 16
split_gain=102383 7165.21 5501.85 3106.17 1447.82 1914.29 1869.59 712.18 711.159 594.311 579.01 577.929 871.09 642.131 582.795 532.664 471.322 435.767 768.082 369.111 274.655 265.602 352.25 234.444 213.978 179.361 178.155 176.289 174.256 124.651
threshold=128.98464285714289 -0.44697929599948477 303.00000000000006 2023.5000000000002 179.20321428571432 173.1308888888889 192.10964285714286 -0.98594681915237459 4.5000000000000009 4.5000000000000009 8.1908905863440769 22.484395464099887 19.394487449161513 0.4821958146195448 124.73500000000001 159.74000000000004 61.810000000000009 -0.8142754349318998 1.0000000180025095e-35 59.475000000000009 56.500000000000007 9.1230325441689661 0.91335144722742323 -0.38441749230002448 -0.59868927840444253 9.5000000000000018 47.290000000000006 -0.88918525430897799 51.433928571428581 0.6078576107927941
decision_type=2 2 2 2 2 2 2 2 2 2 2 2 2 2 2 2 2 2 2 2 2 2 2 2 2 2 2 2 2 2
left_child=2 -2 7 8 -5 6 -6 -1 11 17 24 12 16 -14 -13 -10 -3 18 -9 -20 -17 22 26 -12 27 -23 -19 -11 -24 -28
right_child=1 3 -4 4 5 -7 -8 9 15 10 23 14 13 -15 -16 20 -18 21 19 -21 -22 25 28 -25 -26 -27 29 -29 -30 -31
leaf_value=-0.95202153682708746 -0.25473374886946248 0.89141850546002377 0.65379669547080999 1.7278240746921965 1.8875037034352617 0.65877787073453264 1.0723724835059223 -1.0154321943010602 1.4008952093124389 -0.50569565925333226 -0.085977454377072174 0.43920964896678916 1.4465183115005489 0.90401491920153298 0.92579005151987082 0.76725870937108975 0.45384053230285648 -0.63964860285482095 -0.75716979980468724 -0.33744771914048632 1.1220593144496283 -0.5844696855545044 -0.62389293083777786 -0.36615045834332705 -0.41454693956766281 -0.33082396413968956 -0.45782683179492045 -0.75976343154907233 -0.90151660442352299 -0.56477893084132424
leaf_weight=9.9999999999999982 10.999999999999998 16.000000000000004 9.9999999999999982 18 12.000000000000002 11.999999999999998 17 13.999999999999998 9.9999999999999982 18.000000000000004 14.000000000000002 16.000000000000004 10.000000000000002 11.999999999999998 9.9999999999999982 10.000000000000002 9.9999999999999982 31 10.000000000000002 10.999999999999998 11.999999999999998 9.9999999999999982 13.000000000000002 15.999999999999998 32 23 63 10.999999999999998 9.9999999999999982 48
leaf_count=10 11 16 10 18 12 12 17 14 10 18 14 16 10 12 10 10 10 31 10 11 12 10 13 16 32 23 63 11 10 48
internal_value=-1.4106e-09 0.980855 -0.501833 1.06323 1.35401 1.1899 1.40967 -0.536432 0.901377 -0.523606 -0.415247 0.816212 0.919051 1.15061 0.626356 1.09832 0.723119 -0.565926 -0.728562 -0.537315 0.960786 -0.537177 -0.563075 -0.235403 -0.503695 -0.407686 -0.533673 -0.602066 -0.744599 -0.504076
internal_weight=520 176 344 165 59 41 29 334 106 324 91 74 48 22 26 32 26 233 35 21 22 198 165 30 61 33 142 29 23 111
internal_count=520 176 344 165 59 41 29 334 106 324 91 74 48 22 26 32 26 233 35 21 22 198 165 30 61 33 142 29 23 111
is_linear=0
shrinkage=0.05


Tree=26
num_leaves=31
num_cat=0
split_feature=23 0 5 18 20 18 16 17 25 23 20 28 24 26 13 28 3 15 19 25 18 26 13 19 25 13 28 23 15 24
split_gain=98175.7 2929.06 2073.44 1260.25 1563.27 1896.77 1173.89 744.592 732.511 804.27 785.612 679.664 607.029 590.694 470.009 451.799 509.166 586.327 186.024 254.564 177.478 173.906 181.899 126.887 164.543 357.614 248.372 174.485 158.842 149.324
threshold=129.27000000000001 2023.5000000000002 296.50000000000006 164.52000000000004 163.84500000000003 179.10000000000005 0.87837969732492682 -0.56174490092936669 148.27607142857147 156.15071428571432 154.38000000000002 28.694714609578519 12.828749198796709 21.632915116055212 0.56192200557241578 7.8473883524845389 4.5000000000000009 -0.8142754349318998 59.095000000000006 61.44362637362638 63.030000000000008 8.1908905863440769 -0.17646730165275518 46.045000000000009 51.706071428571441 -0.59868927840444253 6.7710000072736767 55.494285714285724 0.85337989217000254 5.3424115179021996
decision_type=2 2 2 2 2 2 2 2 2 2 2 2 2 2 2 2 2 2 2 2 2 2 2 2 2 2 2 2 2 2
left_child=2 6 12 -3 -5 -6 7 13 -9 -10 14 -7 15 -2 -11 20 17 -17 19 -19 23 -18 -23 -1 25 28 29 -28 -25 -26
right_child=1 3 -4 4 5 11 -8 8 9 10 -12 -13 -14 -15 -16 16 21 18 -20 -21 -22 22 -24 24 26 -27 27 -29 -30 -31
leaf_value=-0.61579841872056329 0.87372602364596175 0.83733447035153707 0.1564049740632375 1.7659212742000818 1.7315881395339965 0.6473889648914336 0.41470465697348119 0.63776241632608277 1.3662200562159221 0.91145591586828201 0.6531614446640015 1.2055220246315004 -0.82340218385060637 0.43515116779931956 1.375590443611145 -0.74291884899139404 -0.43086193420670249 -0.4050203384891633 -0.31694558400374195 -0.66190012608255655 -0.7110437428951264 -0.051917239278554905 -0.32187295467234572 -0.4781499129075269 -0.60948739051818857 -0.33491788716055454 -0.69100266554776368 -0.47563192913165458 -0.74321051120758064 -0.39867581778338979
leaf_weight=36 17.000000000000004 14.999999999999998 11.999999999999998 15.999999999999998 9.9999999999999982 12.000000000000002 15.999999999999998 12.999999999999998 14.999999999999998 12.000000000000002 14.999999999999998 9.9999999999999982 14.999999999999998 13.999999999999998 9.9999999999999982 18 10.999999999999998 31 26 13.999999999999998 14.999999999999998 12 13 13.000000000000002 11.999999999999998 32 34 12.999999999999998 9.9999999999999982 28
leaf_count=36 17 15 12 16 10 12 16 13 15 12 15 10 15 14 10 18 11 31 26 14 15 12 13 13 12 32 34 13 10 28
internal_value=9.24159e-11 0.96463 -0.489305 1.23737 1.36239 1.16062 0.811212 0.877297 0.973462 1.05739 0.932184 0.901086 -0.512574 0.67566 1.12243 -0.497912 -0.423858 -0.488038 -0.42342 -0.484938 -0.545875 -0.26519 -0.192294 -0.531956 -0.510701 -0.443008 -0.553495 -0.631432 -0.593394 -0.461919
internal_weight=520 175 345 63 48 32 112 96 65 52 37 22 333 31 22 318 125 89 71 45 193 36 25 178 142 55 87 47 23 40
internal_count=520 175 345 63 48 32 112 96 65 52 37 22 333 31 22 318 125 89 71 45 193 36 25 178 142 55 87 47 23 40
is_linear=0
shrinkage=0.05


Tree=27
num_leaves=31
num_cat=0
split_feature=25 10 5 18 27 30 18 17 25 25 25 13 25 24 5 28 3 18 18 26 26 18 18 13 29 20 13 26 15 15
split_gain=83468 6023.44 4619.36 2577.57 1169.91 807.337 1112.13 766.082 1730.7 1187.1 950.129 785.888 909.786 748.687 675.502 408.568 413.456 678.419 173.521 162.153 199.875 226.846 160.174 138.623 131.932 122.222 121.105 123.95 111.679 224.348
threshold=128.98464285714289 0.85226249403558707 303.00000000000006 211.17500000000004 161.14633333333339 29.992028674487731 186.74000000000004 1.0000000180025095e-35 155.33500000000001 157.55821428571429 150.42678571428576 0.89975755788027889 159.18678571428575 27.667624716959473 70.500000000000014 7.8473883524845389 2.5000000000000004 61.430000000000007 51.895000000000003 7.4165706658413733 10.487477125681499 64.360000000000014 63.030000000000008 0.029024409397335523 51.705168539325847 55.170000000000009 0.1318557721318592 8.6804496563483884 0.96175369140124023 0.85337989217000254
decision_type=2 2 2 2 2 2 2 2 2 2 2 2 2 2 2 2 2 2 2 2 2 2 2 2 2 2 2 2 2 2
left_child=2 3 14 4 7 13 -7 10 -9 -10 -2 12 -12 -6 -1 22 17 18 -17 -18 21 23 24 -21 25 -16 27 -20 29 -26
right_child=1 -3 -4 -5 5 6 -8 8 9 -11 11 -13 -14 -15 15 16 19 -19 26 20 -22 -23 -24 -25 28 -27 -28 -29 -30 -31
leaf_value=-0.88956149816513064 1.0705095767974855 -0.24724559946493671 0.60578781545162208 1.6668010473251345 1.153645046552022 1.0404015123844146 1.7125628778245301 0.56471215942326713 1.6410468769073483 0.96801606542185736 0.98006146326661114 0.21776205734773116 0.46833617248033221 0.56785638928413396 -0.47744219481945038 -0.59961749532006003 -0.49444955699145798 -0.87934780240058896 -0.40556712884169355 -0.24141700729727744 -0.45988087058067323 -0.09144698034506292 -0.67549155632654834 -0.45637635389963793 -0.51477053442917697 -0.27061452031135563 -0.49469138750663166 -0.1714216607809067 -0.40635960172204411 -0.70121439256166163
leaf_weight=9.9999999999999982 12.999999999999998 10.999999999999998 9.9999999999999982 11.999999999999998 12.000000000000002 16.000000000000004 9.9999999999999982 17 10.000000000000002 19 15.999999999999998 10.999999999999998 19 9.9999999999999982 25 10.999999999999998 11.999999999999998 9.9999999999999982 13.000000000000002 20 13.999999999999998 15.999999999999998 14.999999999999998 11.999999999999998 107 9.9999999999999982 12.999999999999998 9.9999999999999982 17 19
leaf_count=10 13 11 10 12 12 16 10 17 10 19 16 11 19 10 25 11 12 10 13 20 14 16 15 12 107 10 13 10 17 19
internal_value=1.57429e-10 0.885628 -0.453112 0.961153 0.905808 1.1103 1.29893 0.812326 0.96528 1.2001 0.693074 0.586408 0.702268 0.887377 -0.484816 -0.472323 -0.404172 -0.505383 -0.425816 -0.326213 -0.293651 -0.245167 -0.518581 -0.322027 -0.505359 -0.418349 -0.37271 -0.303765 -0.526655 -0.542885
internal_weight=520 176 344 165 153 48 26 105 46 29 59 46 35 22 334 324 131 57 47 74 62 48 193 32 178 35 36 23 143 126
internal_count=520 176 344 165 153 48 26 105 46 29 59 46 35 22 334 324 131 57 47 74 62 48 193 32 178 35 36 23 143 126
is_linear=0
shrinkage=0.05


Tree=28
num_leaves=31
num_cat=0
split_feature=11 0 16 18 28 4 23 14 13 11 20 26 18 20 18 5 14 22 3 15 26 22 23 21 18 3 19 19 15 20
split_gain=84696.7 3210.13 1316.48 1302.34 1265.47 1233.96 856.374 1455.81 1415.31 841.15 688.067 344.976 516.798 332.557 500.166 347.871 304.376 303.202 267.441 364.316 239.849 189.328 160.94 182.098 133.755 121.045 175.782 119.965 116.668 99.8098
threshold=0.50370931781787065 2023.5000000000002 0.6078576107927941 189.90000000000001 28.694714609578519 3.5000000000000004 153.83214285714288 0.92230992668936429 0.88917497572200743 0.94636490295939868 139.32500000000002 54.34007470918025 76.120000000000019 59.095000000000006 64.760000000000005 286.50000000000006 0.28313750840326141 125.07500000000002 1.0000000180025095e-35 0.29548278597363714 7.467656718907338 56.025000000000006 56.64500000000001 64.470000000000013 55.310000000000009 4.5000000000000009 62.32500000000001 50.790000000000006 0.69676932577361117 48.045000000000009
decision_type=2 2 2 2 2 2 2 2 2 2 2 2 2 2 2 2 2 2 2 2 2 2 2 2 2 2 2 2 2 2
left_child=11 5 3 4 -3 -2 7 10 9 16 -7 12 13 14 15 22 17 -8 19 -15 24 27 25 -24 -20 29 -27 -22 -29 -1
right_child=1 2 -4 -5 -6 6 8 -9 -10 -11 -12 -13 -14 18 -16 -17 -18 -19 20 -21 21 -23 23 -25 -26 26 -28 28 -30 -31
leaf_value=-0.57029070915319979 0.2795192654316242 1.4145836206582874 0.83127682871288722 1.6486932102002596 0.66643438875675209 0.94533977347115661 1.0128457925536414 0.49500600695610047 0.20174254079659781 1.2155876111984254 1.4807785292466482 -0.6909315975507101 -0.14849187210202217 -0.37987443348940675 -0.77538572708765674 -0.76211221814155583 0.53347147144377238 0.68602801084518439 -0.32060107208788385 -0.7491640481081876 -0.18195865839719771 -0.11215347070246935 -0.47108970055213328 -0.20098642557859422 -0.54867050694819131 -0.34910232881666164 -0.58926560111343862 -0.43742522048950194 -0.24202206622470512 -0.470477397782462
leaf_weight=39 12.999999999999998 13.000000000000002 18 19 9.9999999999999982 12.000000000000002 11.000000000000002 9.9999999999999982 11.999999999999998 9.9999999999999982 11.999999999999998 14.999999999999998 13.999999999999998 17.000000000000004 14.999999999999998 9.9999999999999982 15.999999999999998 20 10.000000000000002 10.999999999999998 9.9999999999999982 11.999999999999998 13.000000000000002 11.999999999999998 18 32 9.9999999999999982 25 10.999999999999998 70
leaf_count=39 13 13 18 19 10 12 11 10 12 10 12 15 14 17 15 10 16 20 10 11 10 12 13 12 18 32 10 25 11 70
internal_value=7.15506e-10 0.892122 1.18903 1.34236 1.0893 0.738547 0.796482 1.00187 0.695278 0.79918 1.21306 -0.456435 -0.445743 -0.458954 -0.497645 -0.475246 0.710583 0.801996 -0.390737 -0.524952 -0.347039 -0.289022 -0.458947 -0.34144 -0.467217 -0.478402 -0.406284 -0.335162 -0.377719 -0.50619
internal_weight=520 176 60 42 23 116 103 34 69 57 24 344 329 315 201 186 47 31 114 28 86 58 176 25 28 151 42 46 36 109
internal_count=520 176 60 42 23 116 103 34 69 57 24 344 329 315 201 186 47 31 114 28 86 58 176 25 28 151 42 46 36 109
is_linear=0
shrinkage=0.05


Tree=29
num_leaves=31
num_cat=0
split_feature=11 0 25 29 25 3 9 25 26 28 26 21 26 3 18 12 18 12 11 30 28 4 21 29 28 4 15 12 15 28
split_gain=76502.6 2170.32 1379 1580.22 1711.91 589.191 517.026 1011.91 468.305 901.422 721.24 538.807 443.017 709.692 403.763 569.465 376.231 367.523 238.773 223.535 219.908 192.596 133.402 121.142 126.7 142.766 89.1896 80.4829 92.6478 188.336
threshold=0.51849435583340198 2023.5000000000002 179.20321428571432 173.1308888888889 192.10964285714286 4.5000000000000009 1.0000000180025095e-35 125.14269230769231 22.484395464099887 26.81438805162103 19.394487449161513 141.12500000000003 8.2999266262217919 1.0000000180025095e-35 160.22000000000003 -0.26037633224328088 64.760000000000005 -0.57078386445773377 -0.88220415136009767 31.72366918666383 7.96658187614642 20.500000000000004 199.49000000000004 51.705168539325847 7.7511503071153482 13.500000000000002 0.69676932577361117 0.98213580174693105 0.96175369140124023 6.3552749290188659
decision_type=2 2 2 2 2 2 2 2 2 2 2 2 2 2 2 2 2 2 2 2 2 2 2 2 2 2 2 2 2 2
left_child=6 5 -3 4 -4 8 7 12 10 -10 17 -12 16 -14 -7 -16 20 -2 -15 -20 23 -22 26 24 25 -1 -21 28 29 -25
right_child=1 2 3 -5 -6 14 -8 -9 9 -11 11 -13 13 18 15 -17 -18 -19 19 22 21 -23 -24 27 -26 -27 -28 -29 -30 -31
leaf_value=-0.41317107776800788 0.72401070259511457 1.4699040068520439 1.6018338680267332 0.46236165761947634 0.82183380547691787 1.1232046404137062 -0.090903557430614124 -0.87177463494814367 0.24330644980072971 0.78282866179943089 1.2354397988319394 0.73849578897158308 -0.63677160367369656 -0.43892903678557449 1.0504029846191405 0.5395168292646606 -0.68641562672222367 0.3376089841127396 -0.066268990840762862 -0.40143055539382133 -0.15003718246113165 -0.41293122219411948 -0.11958088338375093 -0.65838194158342156 -0.53635300397872931 -0.17754397317767145 -0.24822827405051184 -0.34744258165359498 -0.37767213503519698 -0.48242089719492559
leaf_weight=18.000000000000004 16.000000000000004 18 12.000000000000002 11.999999999999998 17 12.999999999999998 10.999999999999998 12.999999999999998 16.000000000000004 14.999999999999998 10.000000000000002 11.999999999999998 15.999999999999998 17 10 12 17 9.9999999999999982 15.999999999999998 19 11.000000000000002 19 9.9999999999999982 18 9.9999999999999982 9.9999999999999982 19 9.9999999999999982 14.999999999999998 98
leaf_count=18 16 18 12 12 17 13 11 13 16 15 10 12 16 17 10 12 17 10 16 19 11 19 10 18 10 10 19 10 15 98
internal_value=4.29841e-11 0.858911 1.10508 0.944915 1.14459 0.731507 -0.428218 -0.439261 0.655847 0.504366 0.753679 0.964379 -0.421853 -0.332472 0.902283 0.771738 -0.460216 0.575395 -0.272363 -0.228119 -0.441817 -0.316537 -0.282069 -0.462814 -0.38358 -0.329019 -0.324829 -0.484168 -0.494605 -0.509725
internal_weight=520 173 59 41 29 114 347 336 79 31 48 22 323 97 35 22 226 26 81 64 209 30 48 179 38 28 38 141 131 116
internal_count=520 173 59 41 29 114 347 336 79 31 48 22 323 97 35 22 226 26 81 64 209 30 48 179 38 28 38 141 131 116
is_linear=0
shrinkage=0.05


Tree=30
num_leaves=31
num_cat=0
split_feature=11 0 4 18 4 4 27 23 14 13 11 20 20 15 19 28 20 28 3 20 18 12 17 12 28 28 18 29 6 27
split_gain=69063.9 2649.27 1119.41 1375.92 1044.95 1035.28 879.462 744.855 1242.46 1179.63 772.636 622.798 288.169 367.934 424.854 403.319 365.999 308.657 349.945 276.394 220.121 203.141 274.355 179.646 150.277 122.833 109.998 99.3221 140.66 120.391
threshold=0.50370931781787065 2023.5000000000002 25.500000000000004 211.17500000000004 3.5000000000000004 17.500000000000004 186.49966666666668 153.83214285714288 0.92230992668936429 0.88917497572200743 0.94636490295939868 139.32500000000002 45.150000000000006 -0.92844056863089797 148.62500000000003 7.602149935540238 43.775000000000013 7.8473883524845389 1.0000000180025095e-35 147.55500000000004 151.13000000000002 0.10837544681456425 1.0000000180025095e-35 -0.63920832810365547 53.924471423728313 9.3959513291107495 63.440000000000005 52.309363920099891 28.500000000000004 51.149051724137941
decision_type=2 2 2 2 2 2 2 2 2 2 2 2 2 2 2 2 2 2 2 2 2 2 2 2 2 2 2 2 2 2
left_child=12 4 3 5 -2 6 -3 8 11 10 19 -6 16 14 15 -14 -1 27 -19 20 -9 22 23 26 -23 -24 -20 28 -15 -30
right_child=1 2 -4 -5 7 -7 -8 9 -10 -11 -12 -13 13 17 -16 -17 -18 18 21 -21 -22 24 25 -25 -26 -27 -28 -29 29 -31
leaf_value=-0.4471493003710818 0.2436671318916174 1.2616806236902871 1.558244732618332 1.445489658912023 0.85133755678931855 0.46943424665010891 0.65633584022521974 0.55426489764993825 0.44268866777420046 0.17443615893522901 1.1189539098739625 1.360748318831126 -0.69326922535896285 -0.21790977906097067 -0.82281869769096372 -0.29309268479838091 -0.80308730125427241 -0.51333112418651583 -0.29291672229766841 0.48104975355996027 0.83816615608003409 -0.49047135263681413 0.010560693419896638 -0.17175075635313988 -0.27987078196472592 -0.21646018326282501 -0.49601620299120741 -0.46417931573171362 -0.57082048416137698 -0.38195207236265699
leaf_weight=26 12.999999999999998 15.000000000000002 9.9999999999999982 11.999999999999998 12.000000000000002 12.999999999999998 9.9999999999999982 11.000000000000002 9.9999999999999982 11.999999999999998 9.9999999999999982 11.999999999999998 10.000000000000002 10.999999999999998 9.9999999999999982 17 9.9999999999999982 19 15.000000000000002 18 18 15.999999999999998 13.000000000000002 15.999999999999998 18 10.999999999999998 11.999999999999998 76 9.9999999999999982 54
leaf_count=26 13 15 10 12 12 13 10 11 10 12 10 12 10 11 10 17 10 19 15 18 18 16 13 16 18 11 12 76 10 54
internal_value=-2.0901e-10 0.805595 1.07533 0.978742 0.666079 0.831348 1.01954 0.719393 0.910939 0.625008 0.719866 1.10604 -0.412165 -0.396519 -0.544418 -0.441306 -0.546021 -0.376327 -0.316469 0.634953 0.730479 -0.279435 -0.228921 -0.304511 -0.378977 -0.0934905 -0.383183 -0.423896 -0.383075 -0.411463
internal_weight=520 176 60 50 116 38 25 103 34 69 57 24 344 308 37 27 36 271 120 47 29 101 67 43 34 24 27 151 75 64
internal_count=520 176 60 50 116 38 25 103 34 69 57 24 344 308 37 27 36 271 120 47 29 101 67 43 34 24 27 151 75 64
is_linear=0
shrinkage=0.05


Tree=31
num_leaves=31
num_cat=0
split_feature=22 27 25 29 25 22 22 5 25 22 14 26 20 25 25 19 22 21 26 26 21 19 27 12 3 26 23 25 26 28
split_gain=61804 1573.44 860.079 1335.58 1520.04 835.11 1522.09 1187.95 1273.84 1254.62 1410.26 1055.29 607.31 1008.86 537.322 493.425 268.739 259.797 343.842 310.508 220.938 215.728 185.404 177.267 147.246 143.404 141.574 175.663 137.806 124.804
threshold=66.035000000000011 161.14633333333339 179.20321428571432 173.1308888888889 192.10964285714286 156.16000000000003 142.18500000000003 18.500000000000004 160.04428571428573 135.44500000000002 0.5267437926028592 22.484395464099887 199.49000000000004 125.14269230769231 152.91642857142861 65.565000000000012 58.360000000000007 52.165000000000006 8.0945163531036446 7.7172391476781721 55.845000000000006 46.045000000000009 52.490522988505752 -0.37447172655954952 5.5000000000000009 6.8095134017017855 61.085714285714296 61.762692307692312 9.9956842713725127 6.5296198555209344
decision_type=2 2 2 2 2 2 2 2 2 2 2 2 2 2 2 2 2 2 2 2 2 2 2 2 2 2 2 2 2 2
left_child=12 5 -3 4 -4 6 7 -2 9 10 14 -8 13 15 -9 16 17 18 21 20 25 -1 29 -22 28 -19 -21 -28 -17 -23
right_child=1 2 3 -5 -6 -7 11 8 -10 -11 -12 -13 -14 -15 -16 24 -18 19 -20 26 23 22 -24 -25 -26 -27 27 -29 -30 -31
leaf_value=-0.58526043017705287 1.1509179830551148 1.2607213510407342 1.4605420927206672 0.40248281856377921 0.72555129528045659 1.0928744947910309 0.62374651566147787 0.60216532200574857 0.26732240964969001 1.2295185175808996 0.25914836972951888 -0.071720530589421599 -0.024371427297592164 -0.87283850296993148 1.0510482048988343 -0.39865872584856465 -0.64009354263544083 -0.39683683017889648 -0.65702094718029624 -0.33910361584641185 -0.55553582350413022 -0.4467098027467728 -0.51466782242059705 -0.40290977696959784 -0.071806059281031287 -0.14046480298042296 -0.054562664280335099 -0.30763124525547031 -0.16843641148163724 -0.25291420770464124
leaf_weight=14.999999999999998 12.999999999999998 18 12.000000000000002 11.999999999999998 17 9.9999999999999982 10.000000000000002 12.000000000000002 18 10.999999999999998 15.999999999999998 11.999999999999998 10.999999999999998 10.999999999999998 14.999999999999998 13.000000000000002 11.999999999999998 12.000000000000002 19 51 29.999999999999993 11.999999999999998 15.999999999999998 52.000000000000007 11.999999999999998 9.9999999999999982 12.000000000000002 15.999999999999998 12.999999999999998 27
leaf_count=15 13 18 12 12 17 10 10 12 18 11 16 12 11 11 15 13 12 12 19 51 30 12 16 52 12 10 12 16 13 27
internal_value=-1.50337e-09 0.762078 0.972604 0.846114 1.02969 0.655915 0.615078 0.711018 0.631591 0.753015 0.631118 0.244401 -0.3899 -0.401975 0.851545 -0.38589 -0.40853 -0.398314 -0.468384 -0.364236 -0.421001 -0.417183 -0.371343 -0.458749 -0.216682 -0.280304 -0.289508 -0.199173 -0.283548 -0.312544
internal_weight=520 176 59 41 29 117 107 85 72 54 43 22 344 333 27 322 284 272 89 183 104 70 55 82 38 22 79 28 26 39
internal_count=520 176 59 41 29 117 107 85 72 54 43 22 344 333 27 322 284 272 89 183 104 70 55 82 38 22 79 28 26 39
is_linear=0
shrinkage=0.05


Tree=32
num_leaves=31
num_cat=0
split_feature=11 18 21 21 19 19 14 18 13 22 15 23 22 9 25 26 22 23 15 21 19 19 22 3 30 22 13 23 23 26
split_gain=56363 1762.24 1156.56 1709.77 927.072 904.036 504.715 868.469 1297.5 1319.33 1284.11 886.627 431.666 452.395 746.966 377.233 317.826 440.182 258.632 418.052 195.427 176.155 105.556 96.6443 124.558 110.98 138.836 114.653 93.3675 96.2991
threshold=0.51849435583340198 211.17500000000004 156.16000000000003 166.97000000000003 182.83500000000004 174.36000000000004 0.92230992668936429 147.29500000000004 0.92520893929334658 119.58000000000003 -0.48502901968055934 159.50500000000002 61.750000000000007 1.0000000180025095e-35 125.14269230769231 21.983418620744072 58.755000000000003 56.64500000000001 -0.89404254237865755 51.570000000000007 72.100000000000009 49.740000000000009 34.45000000000001 4.5000000000000009 6.9757149002265271 50.790000000000006 -0.82413948779581736 54.21428571428573 49.410714285714299 6.0337505001444063
decision_type=2 2 2 2 2 2 2 2 2 2 2 2 2 2 2 2 2 2 2 2 2 2 2 2 2 2 2 2 2 2
left_child=12 2 4 -4 5 6 7 10 9 -9 -2 -11 13 14 16 -13 17 18 19 -1 21 -19 -20 25 -25 26 27 -24 -28 -30
