tree
version=v4
num_class=1
num_tree_per_iteration=1
label_index=0
max_feature_idx=30
objective=regression
feature_names=Column_0 Column_1 Column_2 Column_3 Column_4 Column_5 Column_6 Column_7 Column_8 Column_9 Column_10 Column_11 Column_12 Column_13 Column_14 Column_15 Column_16 Column_17 Column_18 Column_19 Column_20 Column_21 Column_22 Column_23 Column_24 Column_25 Column_26 Column_27 Column_28 Column_29 Column_30
feature_infos=[2023:2024] [1:12] [1:4] [0:6] [1:31] [1:365] [1:52] [0:1] [0:1] [0:1] [-0.9999994220246925:0.99998555065071859] [-0.99997919295908233:0.9999907524084426] [-0.9999994220246925:0.99995318436087299] [-0.99999768809943823:0.99996300980480612] [-0.99999479822624138:0.99999479822624138] [-0.99997919295908233:0.99991677270219526] [-0.97492791218182362:0.97492791218182362] [-0.90096886790241903:1] [25.98:68.650000000000006] [25.98:68.650000000000006] [25.98:68.650000000000006] [25.98:68.650000000000006] [21.73:61.490000000000002] [36.518571428571427:56.957142857142856] [1.9092992980479122:10.888264630631884] [37.313076923076927:54.595000000000006] [2.6902429523849687:9.1612772035344427] [37.737500000000004:53.862666666666669] [3.9083232139662951:7.6588193793635462] [36.335795454545455:52.297444444444452] [4.7203930310646713:7.2575804066027763]
tree_sizes=2918 3003 3096 3063 3065 3036 3089 3062 3026 3076 3048 3027 3025 3092 3121 3057 3061 3061 3020 3059 3015 3063 3060 3028 3052 3085 3002 3032 3109 3020 3113 3057 3115 3062 3132 3045 3016 3089 3070 3046 3035 3041 3027 3045 3136 3052 3058 3120 3072 3093 3124 3055 3050 3091 3135 3133 3111 3085 3123 3104 3065 3099 3156 3130 3001 3174 3108 3107 3076 3097 3119 3135 3054 3128 3054 3061 3030 3141 3127 3126 3110 3093 3057 3118 3011 3065 3103 3096 3070 3137 3112 3090 3099 3074 3115 3160 3115 3093 3056 3121 3143 3176 3126 3157 3104 3115 3135 3039 3099 3125 3111 3061 3162 3125 3118 3100 3154 3066 3084 3038 3086 3084 3107 3089 3127 3098 3157 3173 3103 3183 3166 3125 3059 3097 3091 3082 3127 3109 3095 3078 3169 3046 3068 3130 3055 3170 3159 3126 3153 3160 3108 3115 3117 3145 3133 3142 3212 3157 3121 3170 3162 3080 3110 3101 3137 3067 3149 3187 3159 3143 3103 3086 3049 3107 3146 3156 3135 3159 3121 3181 3183 3123 3122 3140 3104 3143 3168 3118 3092 3151 3100 3149 3080 3135 3164 3092 3111 3160 3120 3189 3144 3106 3123 3133 3143 3141 3168 3191 3165 3158 3165 3124 3118 3142 3192 3094 3156 3204 3187 3128 3175 3109 3096 3120 3184 3118 3142 3098 3142 3177 3240 3154 3168 3107 3142 3134 3240 3165 3160 3199 3088 3184 3178 3166 3177 3187 3172 3168 3228 3116 3201 3137 3142 3168 3138 3221 3188 3168 3143 3230 3181 3206 3150 3155 3163 3123 3152 3203 3233 3218 3218 3163 3174 3253 3193 3138 3109 3206 3135 3157 3182 3141 3138 3198 3207 3240 3127 3179 3166 3125 3108 3223 3199 3185 3222 3199 3137 3177 3126 3164

Tree=0
num_leaves=31
num_cat=0
split_feature=0 5 18 3 28 3 24 18 11 18 20 18 24 28 27 12 19 19 11 27 27 25 14 12 25 14 25 15 20 22
split_gain=4412.96 1258.5 1336.93 978.994 723.443 635.042 526.026 389.507 426.552 299.255 211.068 193.665 210.928 155.758 153.952 149.73 157.791 138.506 134.112 178.257 202.492 213.331 173.544 132.886 169.756 124.328 120.371 115.918 110.25 108.435
threshold=2023.5000000000002 109.50000000000001 54.855000000000011 4.5000000000000009 4.845843189785481 4.5000000000000009 5.1535655837407957 48.210000000000008 -0.39036009226888674 52.555000000000014 45.770000000000003 43.915000000000006 4.9733742057673078 6.182552135771795 44.238942528735642 -0.95561856541503787 49.060000000000009 46.470000000000006 -0.20180761162458913 43.480982758620698 42.929166666666674 42.926785714285721 -0.54580787074189718 0.95239763423914636 52.501868131868143 0.4276439847489461 43.782857142857146 0.47369649395226454 44.585000000000008 36.930000000000007
decision_type=2 2 2 2 2 2 2 2 2 2 2 2 2 2 2 2 2 2 2 2 2 2 2 2 2 2 2 2 2 2
left_child=3 5 6 7 -5 10 -3 17 -9 11 -2 12 -6 -7 -13 -8 -17 18 26 20 21 -20 29 24 27 -22 -1 -12 -28 -21
right_child=1 2 -4 4 9 13 15 8 -10 -11 23 14 -14 -15 -16 16 -18 -19 19 22 25 -23 -24 -25 -26 -27 28 -29 -30 -31
leaf_value=45.477874147959056 45.545098358039795 45.27821413561702 45.006414162491758 45.153664152217765 45.639164128154519 46.082342689484356 45.523714148402213 45.329114156905561 44.877914116938008 45.331449857580346 45.944320382922889 45.692428039345479 45.33372183145525 45.8539766238071 45.470664144605401 45.618330803761879 45.865414129942657 45.23587843532718 45.354276215651169 45.192580785602331 45.516739134453239 45.122014139145612 45.063491063565017 45.594837211545268 45.669723663017862 45.313164149550722 45.263305456385666 45.727314148992299 45.413587223107996 45.415514152720569
leaf_weight=25 19 9.9999999999999982 11.999999999999998 13.999999999999998 10.000000000000002 14.000000000000002 9.9999999999999947 10.000000000000002 10.999999999999998 13.999999999999998 16.000000000000004 36 12.999999999999998 15.999999999999998 9.9999999999999982 12.000000000000005 13.999999999999998 42 29 12.000000000000002 20 14.999999999999998 12.999999999999998 12.999999999999998 21 11.999999999999998 23 9.9999999999999982 26 9.9999999999999982
leaf_count=25 19 10 12 14 10 14 10 10 11 14 16 36 13 16 10 12 14 42 29 12 20 15 13 13 21 12 23 10 26 10
internal_value=45.4536 45.6646 45.4764 45.3515 45.4861 45.7647 45.599 45.2988 45.0928 45.5422 45.6903 45.585 45.4665 45.9605 45.6442 45.6881 45.7514 45.3178 45.3365 45.3017 45.3447 45.2751 45.2083 45.7363 45.7755 45.4404 45.3886 45.8609 45.343 45.2939
internal_weight=512 167 58 345 97 109 46 248 21 83 79 69 23 30 46 36 26 227 185 111 76 44 35 60 47 32 74 26 49 22
internal_count=512 167 58 345 97 109 46 248 21 83 79 69 23 30 46 36 26 227 185 111 76 44 35 60 47 32 74 26 49 22
is_linear=0
shrinkage=1


Tree=1
num_leaves=31
num_cat=0
split_feature=23 3 28 24 5 23 3 20 21 27 25 24 20 24 15 14 28 30 10 28 15 19 15 10 5 25 25 23 29 15
split_gain=3935.43 1153.91 773.489 671.352 559.034 598.587 520.966 510.134 406.489 501.287 329.82 286.712 210.498 195.84 193.845 193.195 168.858 156.098 152.519 144.039 236.744 137.065 149.809 140.507 115.942 100.883 93.529 148.547 79.6047 68.441
threshold=48.577857142857148 4.5000000000000009 4.845843189785481 7.8323678960786181 109.50000000000001 50.928809523809527 4.5000000000000009 44.085000000000008 36.145000000000003 46.052333333333344 44.157719780219786 4.4377561079384025 49.07500000000001 7.4342615790190791 -0.70138200245277993 0.17647005552944348 6.1759267974789527 6.033694861108164 -0.61237985104942771 6.1278368733683859 0.56191161272202661 43.915000000000006 0.34436929362800867 0.42179998225932674 45.500000000000007 52.372142857142862 44.788214285714297 44.667857142857152 44.719044943820229 0.04191774982395393
decision_type=2 2 2 2 2 2 2 2 2 2 2 2 2 2 2 2 2 2 2 2 2 2 2 2 2 2 2 2 2 2
left_child=1 3 -3 8 6 -6 13 -5 14 18 11 -4 -11 24 -1 -13 -8 -12 19 20 -10 26 23 -23 -2 -26 27 -20 -22 -17
right_child=4 2 10 7 5 -7 16 -9 9 12 17 15 -14 -15 -16 29 -18 -19 21 -21 28 22 -24 -25 25 -27 -28 -29 -30 -31
leaf_value=-0.46140672877430905 0.064400965764242063 -0.28493318919624605 0.22089734414921092 -0.16932201344858511 0.27757146994272863 -0.16911524148037038 0.62479952722787846 -0.66275177121162421 -0.40021204192723547 -0.053676718473434429 0.15762628852634836 -0.12564625794237311 0.2424774539470673 0.34945712644945492 -0.19394068192868008 0.16440147440880534 0.37668126448988914 0.38797286550203958 -0.0395864564435685 -0.060706192430327925 -0.064184560946055805 -0.11155609190464021 -0.037908340049417399 -0.31484321275835531 0.29651124689139813 0.10031021341681481 0.046183213070034979 -0.21611019154389699 -0.23968228759864965 -0.012710841596126558
leaf_weight=10.000000000000002 17 13.999999999999998 17 11.000000000000002 15.000000000000002 14.999999999999998 12.000000000000002 9.9999999999999982 13.999999999999998 10.000000000000002 19.000000000000004 22 14.999999999999998 22 21 12.000000000000002 15.999999999999998 11.999999999999998 58 17 14.000000000000002 17 19 17 19.000000000000004 9.9999999999999982 20 14.999999999999998 11.999999999999998 9.9999999999999982
leaf_count=10 17 14 17 11 15 15 12 10 14 10 19 22 15 22 21 12 16 12 58 17 14 17 19 17 19 10 20 15 12 10
internal_value=1.85601e-09 -0.0791995 0.0613043 -0.13239 0.242627 0.0542281 0.301502 -0.404289 -0.110344 -0.0872474 0.113993 0.046504 0.124016 0.22676 -0.28022 -0.0208752 0.483018 0.246793 -0.113265 -0.182627 -0.234443 -0.0861853 -0.150359 -0.2132 0.168079 0.228856 -0.0496129 -0.0758585 -0.145184 0.0838959
internal_weight=512 386 106 280 126 30 96 21 259 228 92 61 25 68 31 44 28 31 203 57 40 146 53 34 46 29 93 73 26 22
internal_count=512 386 106 280 126 30 96 21 259 228 92 61 25 68 31 44 28 31 203 57 40 146 53 34 46 29 93 73 26 22
is_linear=0
shrinkage=0.05


Tree=2
num_leaves=31
num_cat=0
split_feature=0 28 17 7 28 7 18 11 18 24 12 18 18 24 30 5 16 30 10 11 30 25 12 10 20 24 14 25 20 26
split_gain=3573.98 1102.1 1154.77 793.914 589.234 497.968 337.642 367.948 264.292 256.4 230.063 221.651 166.632 264.202 159.854 157.723 154.664 129.064 106.186 100.462 194.03 131.962 113.072 98.1947 96.8258 93.389 86.7928 112.747 95.7673 95.6135
threshold=2023.5000000000002 6.4327993761982256 -0.56174490092936669 1.0000000180025095e-35 4.845843189785481 1.0000000180025095e-35 48.210000000000008 -0.39036009226888674 52.555000000000014 7.8646573307326255 0.62585923293574564 47.655000000000008 44.085000000000008 4.5876403007025379 6.6055534862973939 67.500000000000014 1.0000000180025095e-35 5.4764081699217648 0.57077594689671507 -0.20180761162458913 5.2426273269327668 43.739478021978037 0.41203339881415796 0.1169228398841501 50.245000000000012 5.6928285296278114 -0.0096761620737642207 44.081785714285722 51.730000000000011 6.1236656322676044
decision_type=2 2 2 2 2 2 2 2 2 2 2 2 2 2 2 2 2 2 2 2 2 2 2 2 2 2 2 2 2 2
left_child=3 5 -3 6 -5 11 19 -8 12 24 18 -2 13 -6 16 -16 -13 23 -7 21 -21 22 -1 -14 -4 -23 28 29 -22 -28
right_child=1 2 9 4 8 10 7 -9 -10 -11 -12 14 17 -15 15 -17 -18 -19 -20 20 26 25 -24 -25 -26 -27 27 -29 -30 -31
leaf_value=0.083239471374286542 0.32274522760084701 -0.36998045881589259 -0.077541052550077427 -0.27068653766598022 0.21616330623626703 0.2174957299232482 -0.11164938520640132 -0.53070972886952494 -0.11809469195348876 0.30042206109501424 0.60305678706902732 0.37832724973559367 0.20251828134059899 -0.11562581732869148 0.15794773944653567 -0.095182556174695496 0.13149084289868673 0.26056661126406294 0.44261697476560419 -0.3621279585361481 -0.11835022571031005 -0.094362583730304456 -0.12023670551451771 -0.013966506177728828 0.1331209880610307 -0.24782937268416086 -0.19219658627654568 -0.31938026181676171 0.051737124472856527 -0.046236779798260512
leaf_weight=18.000000000000004 28 14.999999999999998 10.000000000000002 13.999999999999998 10.000000000000002 10.000000000000002 10.000000000000002 10.999999999999998 13.999999999999998 15.999999999999998 12.999999999999998 11.000000000000002 10.000000000000002 14.999999999999998 16.000000000000004 9.9999999999999982 14.999999999999998 23 10.999999999999998 9.9999999999999982 48 57 10.999999999999998 10.999999999999998 11.999999999999998 11.999999999999998 33 10.999999999999998 9.9999999999999982 17
leaf_count=18 28 15 10 14 10 10 10 11 14 16 13 11 10 15 16 10 15 23 11 10 48 57 11 11 12 12 33 11 10 17
internal_value=1.10049e-10 0.189873 0.00149222 -0.0919094 0.02937 0.277453 -0.139345 -0.331157 0.079982 0.148126 0.437749 0.209327 0.120171 0.0170898 0.148256 0.0605899 0.235922 0.178741 0.335416 -0.121601 -0.150592 -0.0834379 0.00605885 0.0891215 0.0373655 -0.121052 -0.132816 -0.174454 -0.0890248 -0.14257
internal_weight=512 167 53 345 97 114 248 21 83 38 34 80 69 25 52 26 26 44 21 227 129 98 29 21 22 69 119 61 58 50
internal_count=512 167 53 345 97 114 248 21 83 38 34 80 69 25 52 26 26 44 21 227 129 98 29 21 22 69 119 61 58 50
is_linear=0
shrinkage=0.05


Tree=3
num_leaves=31
num_cat=0
split_feature=23 7 4 21 24 29 19 21 22 30 13 22 28 30 27 5 26 26 21 26 25 24 23 13 4 19 28 25 28 22
split_gain=3229.97 949.828 752.559 939.983 593.892 494.751 458.262 350.031 451.851 319.753 306.197 293.353 255.029 229.705 276.029 211.434 185.195 226.119 171.113 236.674 167.089 160.132 158.403 147.943 137.185 128.471 140.403 123.439 120.487 117.477
threshold=48.577857142857148 1.0000000180025095e-35 7.5000000000000009 42.675000000000004 7.8323678960786181 51.900170454545467 49.350000000000009 36.145000000000003 46.715000000000011 5.9062596411672574 -0.55656394595157355 47.345000000000006 5.5516238655459604 6.9485768018751477 52.086568965517252 101.50000000000001 6.0974190072815668 4.2470482804069851 42.015000000000008 6.6252175638109678 45.874285714285726 4.083506388004623 44.560000000000009 -0.22072160979833103 24.500000000000004 42.980000000000011 5.736016364933433 44.635714285714286 5.4332464221117709 33.205000000000005
decision_type=2 2 2 2 2 2 2 2 2 2 2 2 2 2 2 2 2 2 2 2 2 2 2 2 2 2 2 2 2 2
left_child=1 4 3 -3 7 6 15 22 16 -6 12 13 -4 14 -8 -2 17 23 -18 27 21 -12 -1 -9 -23 26 -19 -20 29 -27
right_child=5 2 10 -5 9 -7 11 8 -10 -11 20 -13 -14 -15 -16 -17 18 25 19 -21 -22 24 -24 -25 -26 28 -28 -29 -30 -31
leaf_value=-0.17891772829350969 0.20202982749523862 0.073927652197224733 -0.21207762122154228 -0.56077704608440404 -0.18971612297675822 -0.11764079809188843 0.45226025233666106 -0.13610247190182026 0.22079118425026537 -0.58036841422319418 0.32738949060440065 0.57110696976835074 0.10980070708319545 0.071494077593088151 0.20403939868722643 -0.022338996591667337 0.16116452721709557 -0.075049443164219465 -0.048958014999516297 -0.19868586117194759 0.36832092892039908 0.019692592961447583 -0.42069897770881659 0.080562233235687022 0.221754332951137 -0.16875738156493747 -0.24174703471362591 0.17497770696878434 -0.14435631154940046 -0.39670726381815397
leaf_weight=21.000000000000004 35 14.000000000000002 10.000000000000002 9.9999999999999982 11.000000000000002 9.9999999999999982 24 12.999999999999998 11.999999999999998 9.9999999999999982 9.9999999999999982 10.999999999999998 15.999999999999998 9.9999999999999982 21 14.999999999999998 10.999999999999998 60 16.000000000000004 18 10.999999999999998 21 9.9999999999999982 20 13.999999999999998 10.000000000000002 15.999999999999998 9.9999999999999982 29 12.999999999999998
leaf_count=21 35 14 10 10 11 10 24 13 12 10 10 11 16 10 21 15 11 60 16 18 11 21 10 20 14 10 16 10 29 13
internal_value=-4.09364e-10 -0.0717506 0.0557244 -0.190533 -0.120009 0.219807 0.248898 -0.099274 -0.0778408 -0.375741 0.1278 0.335397 -0.0139986 0.288255 0.336424 0.134719 -0.0944315 -0.121491 -0.0152198 -0.0593158 0.193634 0.150933 -0.256912 -0.00479053 0.100517 -0.151578 -0.110144 0.0371711 -0.212137 -0.297599
internal_weight=512 386 106 24 280 126 116 259 228 21 82 66 26 55 45 50 216 161 55 44 56 45 31 33 35 128 76 26 52 23
internal_count=512 386 106 24 280 126 116 259 228 21 82 66 26 55 45 50 216 161 55 44 56 45 31 33 35 128 76 26 52 23
is_linear=0
shrinkage=0.05


Tree=4
num_leaves=31
num_cat=0
split_feature=23 3 4 4 24 18 5 22 3 25 18 18 0 19 24 28 25 12 23 11 3 22 5 20 18 26 19 26 23 13
split_gain=2915.05 857.22 687.229 628.234 535.988 647.526 450.354 582.281 396.233 275.999 298.341 294.311 254.805 425.486 169.126 138.297 117.169 104.109 178.311 133.1 104.823 94.5377 94.4593 96.6316 89.1434 80.294 143.934 70.1772 69.9571 66.4056
threshold=48.577857142857148 4.5000000000000009 6.5000000000000009 3.5000000000000004 7.8323678960786181 45.435000000000009 109.50000000000001 46.425000000000004 4.5000000000000009 45.874285714285726 52.095000000000006 41.135000000000012 2023.5000000000002 51.345000000000006 7.4342615790190791 6.182552135771795 47.935000000000009 -0.19337636264337835 41.829285714285724 -0.8611288361322974 3.5000000000000004 34.975000000000009 45.500000000000007 52.285000000000004 42.385000000000005 5.9378737890620652 36.815000000000005 5.6977552619469316 44.636428571428574 0.95436825032516992
decision_type=2 2 2 2 2 2 2 2 2 2 2 2 2 2 2 2 2 2 2 2 2 2 2 2 2 2 2 2 2 2
left_child=1 4 3 -3 12 -6 8 -8 14 10 11 -4 17 16 22 -10 -14 18 -1 29 21 27 -2 -24 -23 26 -21 -20 -13 -19
right_child=6 2 9 -5 5 -7 7 -9 15 -11 -12 28 13 -15 -16 -17 -18 19 20 25 -22 24 23 -25 -26 -27 -28 -29 -30 -31
leaf_value=0.075087635065702832 0.048363796314772445 0.057554221153259255 -0.061827811002731325 -0.49002135310322048 -0.092230298370122879 -0.64815000899136077 0.20732799723352252 -0.24978538859974253 0.53932499449986659 0.34990487315438012 -0.12635540179908275 0.23364637256599963 0.29687882184982278 -0.2235884639620781 0.31049895300106573 0.31651311020056405 0.054836342930793758 0.025114461220800872 -0.067889849909327227 -0.014282994568347931 -0.22248277455568313 0.073317690406526845 0.29127672570092333 0.10862699667612713 -0.085440696026974683 -0.098359864128922878 -0.21744624354383527 -0.24649204855615442 0.096101179575690865 -0.1391331174969673
leaf_weight=17 17 11.000000000000002 14.999999999999998 9.9999999999999982 11.000000000000002 9.9999999999999982 19.000000000000004 10.999999999999998 13.000000000000002 10.999999999999998 13.999999999999998 32 10.000000000000005 9.9999999999999982 22 14.999999999999998 9.9999999999999982 16.000000000000004 11.000000000000002 9.9999999999999982 14.999999999999998 13.999999999999998 14.000000000000002 14.999999999999998 24 33 68 10.999999999999998 12.999999999999998 9.9999999999999982
leaf_count=17 17 11 15 10 11 10 19 11 13 11 14 32 10 10 22 15 10 16 11 10 15 14 14 15 24 33 68 11 13 10
internal_value=-1.68075e-10 -0.0681631 0.0529381 -0.203196 -0.114009 -0.356954 0.208817 0.0397198 0.26166 0.116218 0.0814812 0.129976 -0.0943103 0.0427089 0.196477 0.419961 0.175858 -0.11226 -0.0711205 -0.139887 -0.104261 -0.0747055 0.141945 0.196803 -0.0269508 -0.163739 -0.1914 -0.157191 0.193911 -0.0380577
internal_weight=512 386 106 21 280 21 126 30 96 85 74 60 259 30 68 28 20 229 92 137 75 60 46 29 38 111 78 22 45 26
internal_count=512 386 106 21 280 21 126 30 96 85 74 60 259 30 68 28 20 229 92 137 75 60 46 29 38 111 78 22 45 26
is_linear=0
shrinkage=0.05


Tree=5
num_leaves=31
num_cat=0
split_feature=23 7 4 4 18 29 19 22 13 20 22 18 29 28 0 16 5 29 24 15 19 10 20 24 11 14 28 28 20 19
split_gain=2630.83 773.641 620.224 566.981 496.902 426.809 386.513 264.297 249.752 222.957 496.974 233.606 258.928 220.43 184.979 175.321 174.426 145.549 135.682 129.997 110.205 137.507 168.175 109.465 100.664 99.3585 97.1955 94.6475 93.9064 86.1179
threshold=48.577857142857148 1.0000000180025095e-35 6.5000000000000009 3.5000000000000004 52.555000000000014 51.900170454545467 49.350000000000009 47.345000000000006 -0.55656394595157355 48.775000000000006 42.880000000000003 47.655000000000008 44.325449438202249 5.5516238655459604 2023.5000000000002 -1.0000000180025095e-35 101.50000000000001 44.288483146067421 4.083506388004623 0.43926370306576018 46.470000000000006 0.52766072109828632 43.890000000000008 7.4342615790190791 -0.90531874877253482 -0.22072250280600583 5.7066136765320943 6.3011001915100469 50.595000000000006 36.815000000000005
decision_type=2 2 2 2 2 2 2 2 2 2 2 2 2 2 2 2 2 2 2 2 2 2 2 2 2 2 2 2 2 2
left_child=1 4 3 -3 9 6 16 15 13 11 17 14 -13 -4 20 28 27 25 -10 26 21 24 -23 -17 -1 -11 -20 -2 -8 -26
right_child=5 2 8 -5 -6 -7 7 -9 18 10 -12 12 -14 -15 -16 23 -18 -19 19 -21 -22 22 -24 -25 29 -27 -28 -29 -30 -31
leaf_value=-0.0062920550505320243 0.23733710882564388 0.054676508903503396 -0.20148145794868466 -0.4655202913284302 -0.45441346943378447 -0.1150463105738163 0.26639331861266063 0.52856755446303971 0.31116665028608764 -0.054547228198498478 0.27854964559276901 -0.12782847397029398 -0.44295520999214866 0.094362867798875372 0.10003445744514466 0.087998754531145085 -0.022117175658543906 0.02483826039565934 0.1083940766751766 0.013368604704737663 -0.19524491289630533 0.062437221622810915 -0.13326369963194196 0.2833315743849828 -0.046404200792312625 -0.25061422032969338 0.29245450771771947 0.06022154756567695 0.45700501600901289 -0.17241113350862192
leaf_weight=14.999999999999998 24 11.000000000000002 10.000000000000002 9.9999999999999982 9.9999999999999982 9.9999999999999982 14.000000000000002 10.999999999999998 12.999999999999998 12 11.999999999999998 16.000000000000004 10.999999999999998 17 10.999999999999998 16.000000000000004 14.999999999999998 18 16.000000000000004 15.999999999999998 32 26 19 12.999999999999998 17 14 12.999999999999998 10.999999999999998 11.999999999999998 67
leaf_count=15 24 11 10 10 10 10 14 11 13 12 12 16 11 17 11 16 15 18 16 16 32 26 19 13 17 14 13 11 12 67
internal_value=2.48315e-10 -0.0647549 0.0502912 -0.193036 -0.108308 0.198376 0.225395 0.304835 0.110407 -0.0954894 -0.00666931 -0.118732 -0.256213 -0.0152091 -0.0988818 0.260088 0.120535 -0.0844563 0.168884 0.12778 -0.111314 -0.0926628 -0.0201921 0.175562 -0.125604 -0.160122 0.190904 0.181672 0.354368 -0.14691
internal_weight=512 386 106 21 280 126 116 66 85 270 56 214 27 27 187 55 50 44 58 45 176 144 45 29 99 26 29 35 26 84
internal_count=512 386 106 21 280 126 116 66 85 270 56 214 27 27 187 55 50 44 58 45 176 144 45 29 99 26 29 35 26 84
is_linear=0
shrinkage=0.05


Tree=6
num_leaves=31
num_cat=0
split_feature=23 7 28 29 25 0 19 4 22 25 26 27 22 28 6 30 15 30 27 12 25 15 15 21 25 25 25 22 19 30
split_gain=2374.32 698.211 600.534 385.195 383.698 559.532 348.828 242.663 239.737 238.866 216.084 164.747 171.586 162.503 157.42 132.013 224.93 103.414 152.742 101.787 183.881 125.6 158.111 125.407 113.961 120.89 127.193 95.4047 91.7995 86.769
threshold=48.577857142857148 1.0000000180025095e-35 4.845843189785481 51.900170454545467 48.997500000000002 2023.5000000000002 49.350000000000009 29.500000000000004 46.915000000000006 44.157719780219786 7.0137267739871225 44.218879310344839 35.030000000000008 6.1324805867093577 14.500000000000002 5.8341922054047037 -1.0000000180025095e-35 6.9485768018751477 52.086568965517252 -0.19337636264337835 43.705714285714286 0.04191774982395393 0.54581070992572545 39.745000000000005 44.222280219780224 45.272857142857148 44.635714285714286 32.390000000000008 42.875000000000007 6.033694861108164
decision_type=2 2 2 2 2 2 2 2 2 2 2 2 2 2 2 2 2 2 2 2 2 2 2 2 2 2 2 2 2 2
left_child=1 4 -3 6 5 7 14 19 10 11 17 12 -4 -7 -2 16 -14 18 -8 20 23 27 -23 -1 -22 26 -26 -21 -25 -11
right_child=3 2 9 -5 -6 13 8 -9 -10 29 -12 -13 15 -15 -16 -17 -18 -19 -20 21 24 22 -24 28 25 -27 -28 -29 -30 -31
leaf_value=0.15146056604148314 0.17258860664708275 -0.25730479061603545 0.24172641281038523 -0.10929398372769357 -0.4070284098386765 0.29889803826808919 0.354755419066974 -0.33240305135647458 0.47324828271354946 0.14073832427200514 0.43692467646165334 -0.12927520840118331 0.24442531312815854 0.025986605882644655 -0.021011316552758216 -0.12105350413105705 -0.050576883341584868 0.047540271915495397 0.13173642868504806 0.023426784574985506 -0.24277776405215265 -0.27907760563492773 -0.11878733916208149 0.015207580187254483 -0.13520457434157526 -0.2270172691345215 0.095006097853183757 -0.11588294361630139 -0.1425667215670858 0.31247606476147971
leaf_weight=10.999999999999998 35 13.999999999999998 11.999999999999998 9.9999999999999982 9.9999999999999982 10.000000000000002 14.000000000000002 11.999999999999998 13.999999999999998 19.000000000000004 10.999999999999998 11.999999999999998 11.999999999999995 11.999999999999998 14.999999999999998 10.999999999999998 14.000000000000005 9.9999999999999982 17 15.999999999999998 15.999999999999998 25 40 27 12.000000000000002 9.9999999999999982 11.999999999999998 53 13.999999999999998 11.999999999999998
leaf_count=11 35 14 12 10 10 10 14 12 14 19 11 12 12 12 15 11 14 10 17 16 16 25 40 27 12 10 12 53 14 12
internal_value=3.14685e-11 -0.0615172 0.0477767 0.188457 -0.102893 -0.0916284 0.214126 -0.113067 0.289593 0.0942021 0.240147 0.0367681 0.0774318 0.150037 0.114509 0.024147 0.085578 0.187354 0.232455 -0.101914 -0.0642771 -0.130563 -0.180437 0.00155263 -0.13274 -0.0809575 -0.0200992 -0.0835792 -0.0386666 0.207217
internal_weight=512 386 106 126 280 270 116 248 66 92 52 61 49 22 50 37 26 41 31 236 102 134 65 52 50 34 24 69 41 31
internal_count=512 386 106 126 280 270 116 248 66 92 52 61 49 22 50 37 26 41 31 236 102 134 65 52 50 34 24 69 41 31
is_linear=0
shrinkage=0.05


Tree=7
num_leaves=31
num_cat=0
split_feature=23 3 28 18 11 22 3 21 0 25 18 15 24 21 10 28 15 28 19 26 10 19 25 28 20 20 21 30 28 23
split_gain=2142.83 630.135 541.982 456.975 354.208 490.329 314.741 270.032 404.958 215.577 196.219 166.848 156.071 143.116 122.143 132.025 263.372 118.925 113.105 134.903 106.275 145.366 102.583 101.607 97.2086 115.237 126.941 78.309 73.5603 72.5429
threshold=48.577857142857148 4.5000000000000009 4.845843189785481 52.555000000000014 -0.30164489695395946 46.425000000000004 4.5000000000000009 36.145000000000003 2023.5000000000002 44.157719780219786 51.82500000000001 -0.70138200245277993 7.7100708125708595 49.670000000000009 -0.61237985104942771 6.1278368733683859 0.56191161272202661 6.182552135771795 43.915000000000006 4.2748382856690021 0.88220160189607266 52.410000000000004 42.471758241758245 5.4749990896582474 48.015000000000008 52.285000000000004 46.440000000000005 6.033694861108164 5.3612592951655911 44.636428571428574
decision_type=2 2 2 2 2 2 2 2 2 2 2 2 2 2 2 2 2 2 2 2 2 2 2 2 2 2 2 2 2 2
left_child=1 3 -3 7 5 -2 12 11 14 10 20 -1 24 -10 15 16 -9 -8 23 -20 21 22 -4 -16 -6 -26 -27 -11 -18 -25
right_child=4 2 9 -5 6 -7 17 8 13 27 -12 -13 -14 -15 18 -17 28 -19 19 -21 -22 -23 -24 29 25 26 -28 -29 -30 -31
leaf_value=-0.39239160180091848 0.18287560829990787 -0.24443954734929971 0.048698665946722015 -0.42965714991092679 0.030603335383865574 -0.23659468239003961 0.47767349206484272 -0.36837831343213723 0.24748969146360947 0.13370140806624761 -0.14628090856907269 -0.14424894402424496 0.29900517989607417 0.0080355032132222101 0.016657754019194958 -0.057505964401822832 -0.20349209836938159 0.27105550145109497 0.026102076719204587 -0.16398928765030135 -0.066110500991344454 -0.037416702644391495 0.2484324264469453 -0.044364147196555959 0.29094398342646083 0.22568955796072251 -0.026244342289865021 0.29685225735108056 -0.033262002468109134 -0.18650580883885806
leaf_weight=10.000000000000002 19.000000000000004 13.999999999999998 10.000000000000002 9.9999999999999982 18 10.999999999999998 13.000000000000002 14.999999999999998 12.000000000000002 19.000000000000004 11.999999999999998 21 17 12.999999999999998 51 26 11.000000000000002 14.999999999999998 11.999999999999998 42 9.9999999999999982 10.999999999999998 18 29 12.999999999999998 10.000000000000002 9.9999999999999982 11.999999999999998 14.999999999999998 12.999999999999998
leaf_count=10 19 14 10 10 18 11 13 15 12 19 12 21 17 13 51 26 11 15 12 42 10 11 18 29 13 10 10 12 15 13
internal_value=-1.55069e-11 -0.0584413 0.0453878 -0.0977481 0.179035 0.0290698 0.225899 -0.0854552 -0.0674467 0.089492 0.0349297 -0.224295 0.167804 0.122974 -0.089692 -0.145644 -0.201537 0.366985 -0.0641899 -0.121747 0.0793078 0.116595 0.177099 -0.0307698 0.12407 0.175052 0.0997226 0.196857 -0.105282 -0.0883604
internal_weight=512 386 106 280 126 30 96 270 239 92 61 31 68 25 214 67 41 28 147 54 49 39 28 93 51 33 20 31 26 42
internal_count=512 386 106 280 126 30 96 270 239 92 61 31 68 25 214 67 41 28 147 54 49 39 28 93 51 33 20 31 26 42
is_linear=0
shrinkage=0.05


Tree=8
num_leaves=31
num_cat=0
split_feature=0 28 17 3 28 3 18 20 18 22 18 24 22 25 27 20 18 21 19 19 28 22 11 27 14 27 18 14 20 20
split_gain=1912.02 813.272 906.857 423.595 420.838 295.008 229.417 299.232 188.962 183.242 178.036 168.012 154.776 147.224 165.761 127.635 163.594 112.356 108.066 86.4549 84.0673 80.1882 64.8505 72.2825 63.8021 168.309 71.2836 60.3664 74.9858 82.5183
threshold=2023.5000000000002 6.4327993761982256 -0.56174490092936669 4.5000000000000009 4.845843189785481 4.5000000000000009 48.210000000000008 44.320000000000007 52.555000000000014 47.345000000000006 47.655000000000008 7.8646573307326255 37.605000000000011 49.625714285714288 51.706892857142869 36.875000000000007 41.135000000000012 47.945000000000007 42.695000000000007 46.470000000000006 4.7059603099290133 42.590000000000011 0.26659387353423869 44.496666666666677 -0.12546058073178529 43.31450000000001 42.255000000000003 0.31085050022984567 48.210000000000008 43.055000000000007
decision_type=2 2 2 2 2 2 2 2 2 2 2 2 2 2 2 2 2 2 2 2 2 2 2 2 2 2 2 2 2 2
left_child=3 5 -3 6 -5 9 19 -8 15 10 -2 17 -12 -7 -15 -6 -17 -4 -18 20 -1 -14 23 -21 25 -22 -27 -26 29 -29
right_child=1 2 11 4 8 13 7 -9 -10 -11 12 -13 21 14 -16 16 18 -19 -20 22 24 -23 -24 -25 27 26 -28 28 -30 -31
leaf_value=0.019199746375406078 0.24703583859262013 -0.35213774219155314 0.14111647121608253 -0.2322175806521305 0.25427089157429611 0.20525186749605032 -0.080027966336770465 -0.45793699145317079 -0.10335006149751801 0.3259788255606379 0.23375113010406495 0.2302788126282394 -0.068439817726612104 0.56668484210968006 0.28541388863866984 -0.095906189580758416 -0.034014109820127487 -0.085812399536371237 0.15178427791429894 -0.044844384042217439 0.045919395078505787 0.086207474552487076 -0.2502444495757421 -0.20146576853898857 -0.18105203912633916 -0.18408228763820311 -0.043148593210122169 -0.1077789368480444 -0.19311685200248446 0.012780078161846509
leaf_weight=22 21 14.999999999999998 10.000000000000002 13.999999999999998 10.999999999999998 12.999999999999998 11.000000000000002 9.9999999999999982 13.999999999999998 13.999999999999998 10.999999999999998 15.999999999999998 14.999999999999998 10.000000000000002 10.999999999999998 11.999999999999998 9.9999999999999982 11.999999999999998 36 17.000000000000004 28 19 11.999999999999998 12.999999999999998 23 19 17 40 13.999999999999998 22
leaf_count=22 21 15 10 14 11 13 11 10 14 14 11 16 15 10 11 12 10 12 36 17 28 19 12 13 23 19 17 40 14 22
internal_value=-9.55765e-11 0.138878 -0.022947 -0.0672248 0.0213634 0.214112 -0.101874 -0.259985 0.0641361 0.161676 0.126824 0.106997 0.0707246 0.33749 0.419352 0.0981188 0.0685038 0.0173371 0.111393 -0.0872472 -0.0725448 0.0179807 -0.152008 -0.112714 -0.0849275 -0.046021 -0.11753 -0.110079 -0.0886004 -0.0649999
internal_weight=512 167 53 345 97 114 248 21 83 80 66 38 45 34 21 69 58 22 46 227 185 34 42 30 163 64 36 99 76 62
internal_count=512 167 53 345 97 114 248 21 83 80 66 38 45 34 21 69 58 22 46 227 185 34 42 30 163 64 36 99 76 62
is_linear=0
shrinkage=0.05


Tree=9
num_leaves=31
num_cat=0
split_feature=23 16 4 24 24 18 29 21 0 16 13 25 21 18 28 24 24 23 25 23 13 24 10 26 4 18 23 10 21 11
split_gain=1757.76 518.516 525.672 516.26 420.14 527.745 319.482 257.409 355.639 235.48 211.764 202.632 196.537 182.673 166.305 145.114 134.715 134.069 125.543 103.052 99.5732 136.783 78.8116 124.577 95.1823 148.922 132.02 117.275 115.686 97.9621
threshold=48.577857142857148 -0.60785761079279388 6.5000000000000009 5.5116791542846615 7.8323678960786181 45.435000000000009 51.900170454545467 36.145000000000003 2023.5000000000002 -0.60785761079279388 -0.55656394595157355 50.27928571428572 48.715000000000011 56.775000000000006 5.5516238655459604 5.036334354144107 4.083506388004623 44.560000000000009 44.370000000000012 43.291428571428575 -1.0000000180025095e-35 7.0562943469907182 -0.61237985104942771 6.0974190072815668 6.5000000000000009 36.375000000000007 44.454285714285724 -0.16905184689101435 42.675000000000004 0.90070004940655357
decision_type=2 2 2 2 2 2 2 2 2 2 2 2 2 2 2 2 2 2 2 2 2 2 2 2 2 2 2 2 2 2
left_child=1 2 3 -1 7 -6 9 17 22 11 14 -2 -10 15 -4 -11 -12 -3 19 -18 -17 -22 23 -9 28 -26 29 -28 -24 -27
right_child=6 4 10 -5 5 -7 -8 8 12 13 16 -13 -14 -15 -16 20 18 -19 -20 -21 21 -23 24 -25 25 26 27 -29 -30 -31
leaf_value=-0.44276926994323712 0.12734579419096312 -0.13457459358587151 -0.18086507558822629 0.053614524955099274 -0.064692305570298966 -0.56656728863716121 -0.1090151184797287 -0.17445799401029946 0.25522027222009797 0.064030210707675325 0.29222004496707371 0.38080252072085508 -0.0065136095508933067 -0.041352216154336929 0.076103424105574108 0.28225900961293121 0.12288346240917838 -0.35701104402542116 0.19116696799578875 -0.094446050450205807 0.0043051669746637317 0.26582276284694673 -0.021913689685364557 -0.01288396446582149 -0.22067646026611329 0.063219026490015554 0.039679349615023687 -0.1401141708344221 -0.22728480743244292 -0.087459395825862887
leaf_weight=10.000000000000002 11.999999999999998 21.000000000000004 10.000000000000002 10.999999999999998 11.000000000000002 9.9999999999999982 9.9999999999999982 40 13.000000000000002 22 12.999999999999998 23 15.999999999999998 11.999999999999998 17 26.999999999999996 12.000000000000002 9.9999999999999982 23 9.9999999999999982 10.000000000000005 9.9999999999999982 12.000000000000002 17 9.9999999999999982 47 12.999999999999998 30 15.999999999999998 13.999999999999998
leaf_count=10 12 21 10 11 11 10 10 40 13 22 13 23 16 12 17 27 12 10 23 10 10 10 12 17 10 47 13 30 16 14
internal_value=2.84308e-10 -0.0529305 0.0412549 -0.182759 -0.0885864 -0.30368 0.162152 -0.0711463 -0.0527663 0.185529 0.0965994 0.293903 0.110815 0.1387 -0.0190701 0.170014 0.150446 -0.206328 0.109488 0.0240973 0.219623 0.135064 -0.0766048 -0.126269 -0.0566691 -0.0363815 -0.0186609 -0.085758 -0.139269 0.0286371
internal_weight=512 386 106 21 280 21 126 259 228 116 85 35 29 81 27 69 58 31 45 22 47 20 199 57 142 114 104 43 28 61
internal_count=512 386 106 21 280 21 126 259 228 116 85 35 29 81 27 69 58 31 45 22 47 20 199 57 142 114 104 43 28 61
is_linear=0
shrinkage=0.05


Tree=10
num_leaves=31
num_cat=0
split_feature=23 3 4 15 18 5 26 22 25 20 22 18 29 30 20 20 30 30 16 26 25 19 10 15 27 25 4 25 18 11
split_gain=1586.37 467.96 474.419 478.865 380.099 301.023 433.97 231.753 192.766 188.556 393.02 188.349 229.011 147.018 146.42 202.236 137.529 132.949 98.5096 95.009 184.148 161.076 83.5813 77.0311 74.0874 70.3063 65.035 64.6945 67.7112 63.4427
threshold=48.577857142857148 4.5000000000000009 6.5000000000000009 -0.022575793296316496 52.555000000000014 109.50000000000001 6.4636462090189797 47.345000000000006 44.157719780219786 48.775000000000006 42.880000000000003 47.655000000000008 44.325449438202249 5.3527131911542272 48.015000000000008 53.115000000000002 5.3734109282745761 5.8341922054047037 1.0000000180025095e-35 6.1236656322676044 44.662500000000001 42.455000000000005 -0.57078386445773377 -0.31391446897593311 50.852666666666671 44.100000000000001 16.500000000000004 45.874285714285726 49.770000000000003 -0.18493013702746822
decision_type=2 2 2 2 2 2 2 2 2 2 2 2 2 2 2 2 2 2 2 2 2 2 2 2 2 2 2 2 2 2
left_child=1 4 3 -3 9 7 -7 14 13 11 16 19 -13 -4 24 18 -11 23 -16 22 21 -21 26 -15 -2 -18 -1 28 -10 -24
right_child=5 2 8 -5 -6 6 -8 -9 27 10 -12 12 -14 17 15 -17 25 -19 -20 20 -22 -23 29 -25 -26 -27 -28 -29 -30 -31
leaf_value=-0.11878075928173282 0.15078108276312163 0.07679588198661802 -0.13159432844682173 -0.40127229934388942 -0.38686308979988104 -0.21711204461753364 0.17106854356825352 0.3536393824376558 0.21842870588103924 0.050964044823366056 0.26237601724763715 -0.097027720673941054 -0.39339083649895412 0.21529908180236818 0.41105844626824051 0.10465981103479863 -0.20274784783522284 -0.073199868473139681 0.215830834209919 0.016371417850255966 0.16169563965363937 -0.17676527076645901 -0.0279189994558692 0.05222224508722622 -0.014982260870082038 -0.040375260325769588 -0.26768010231581602 0.28372012160041116 0.046686491099270908 -0.10948745973913346
leaf_weight=22 13.000000000000002 10.000000000000002 10.999999999999998 10.999999999999998 9.9999999999999982 12.000000000000002 18 19 12.000000000000002 17 11.999999999999998 16.000000000000004 10.999999999999998 13.999999999999998 12.000000000000002 24 15.000000000000002 10.999999999999998 13.999999999999998 25 10.999999999999998 19 40 15.000000000000002 13.999999999999998 11.999999999999998 10.999999999999998 10.999999999999998 10.999999999999998 59
leaf_count=22 13 10 11 11 10 12 18 19 12 17 12 16 11 14 12 24 15 11 14 25 11 19 40 15 14 12 11 11 11 59
internal_value=-5.20959e-10 -0.050284 0.0391921 -0.173621 -0.0841571 0.154045 0.0157963 0.197247 0.0917694 -0.0729457 0.00873536 -0.0943202 -0.217768 0.0302899 0.158657 0.209323 -0.0604394 0.0748081 0.305936 -0.0764962 -0.0212837 -0.0670285 -0.0995013 0.130949 0.0648297 -0.130582 -0.168414 0.183989 0.136291 -0.0765305
internal_weight=512 386 106 21 280 126 30 96 85 270 56 214 27 51 77 50 44 40 26 187 55 44 132 29 27 27 33 34 23 99
internal_count=512 386 106 21 280 126 30 96 85 270 56 214 27 51 77 50 44 40 26 187 55 44 132 29 27 27 33 34 23 99
is_linear=0
shrinkage=0.05


Tree=11
num_leaves=31
num_cat=0
split_feature=23 3 28 25 27 4 15 28 19 22 25 18 19 22 24 3 22 10 28 20 20 12 21 19 25 27 15 24 24 21
split_gain=1431.7 422.334 440.393 387.146 318.933 294.165 284.753 355.957 216.691 238.938 154.928 155.162 103.377 96.5131 138.81 101.21 100.084 86.7529 100.896 82.908 162.546 65.3243 72.2638 100.631 86.8701 78.6007 73.4356 63.7025 66.7334 63.5157
threshold=48.577857142857148 4.5000000000000009 4.845843189785481 48.997500000000002 46.052333333333344 29.500000000000004 0.80673589058891515 7.0866960652015765 44.010000000000012 46.915000000000006 44.157719780219786 51.82500000000001 51.345000000000006 37.605000000000011 6.2497039109885391 3.5000000000000004 42.090000000000011 -0.92923668111203805 6.1278368733683859 37.060000000000009 42.470000000000006 -0.98523971305672675 36.145000000000003 44.175000000000004 44.635714285714286 44.528448275862068 0.80673589058891515 3.7536118446497801 4.4142371799056788 44.120000000000012
decision_type=2 2 2 2 2 2 2 2 2 2 2 2 2 2 2 2 2 2 2 2 2 2 2 2 2 2 2 2 2 2
left_child=1 3 -3 4 5 17 8 -8 -2 13 11 19 -11 -10 16 -16 -15 18 -1 -4 -21 -19 -23 27 26 -26 -25 -24 -29 -30
right_child=6 2 10 -5 -6 -7 7 -9 9 12 -12 -13 -14 14 15 -17 -18 21 -20 20 -22 22 23 24 25 -27 -28 28 29 -31
leaf_value=-0.26336343660950651 -0.017849309165224744 -0.22402389674846615 0.19863777697086335 -0.38544843435287479 0.14100528166574591 -0.33560228889638727 -0.18523993102403782 0.21155061244964601 0.28518121956059567 0.25273977220058436 0.1680063955485821 -0.13040632349438966 0.47041208624839781 -0.073141665756702404 0.14214906163121521 0.33866755187511449 0.12620515201021643 0.058477969467639924 -0.074002607867998241 -0.078857768984401944 0.12699380540712313 -0.14444964316028816 -0.10744306064210832 -0.19729362157759844 0.068409414453939929 -0.11319265847022718 -0.052649832588548842 0.095990249514579781 -0.066245841793715954 0.024007556587457658
leaf_weight=12.000000000000002 11.999999999999998 13.999999999999998 9.9999999999999982 9.9999999999999982 17 10.999999999999998 13.000000000000002 9.9999999999999982 12.999999999999998 12.000000000000002 31 11.999999999999998 9.9999999999999982 10.000000000000002 19.000000000000004 9.9999999999999982 17 10.999999999999998 17 17 22 26 20 27 11.000000000000002 12.999999999999998 12.999999999999998 12.999999999999998 44 35
leaf_count=12 12 14 10 10 17 11 13 10 13 12 31 12 10 10 19 10 17 11 17 17 22 26 20 27 11 13 13 13 44 35
internal_value=-6.77323e-10 -0.0477698 0.0372325 -0.0799492 -0.0686344 -0.0827209 0.146342 -0.0127223 0.181862 0.208197 0.0769889 0.0307342 0.351682 0.162448 0.133957 0.209914 0.052373 -0.0712263 -0.152359 0.0701971 0.0372636 -0.06018 -0.0666416 -0.0551473 -0.105162 -0.0299584 -0.150284 -0.0265673 -0.00898564 -0.0262602
internal_weight=512 386 106 280 270 253 126 23 103 91 92 61 22 69 56 29 27 242 29 49 39 213 202 176 64 24 40 112 92 79
internal_count=512 386 106 280 270 253 126 23 103 91 92 61 22 69 56 29 27 242 29 49 39 213 202 176 64 24 40 112 92 79
is_linear=0
shrinkage=0.05


Tree=12
num_leaves=31
num_cat=0
split_feature=23 24 4 3 4 23 19 15 21 22 12 21 15 11 15 4 26 26 20 21 26 24 22 28 14 19 28 28 22 29
split_gain=1292.11 389.788 568.85 318.59 488.458 275.281 229.923 216.551 215.708 295.849 169.412 176.696 146.532 143.13 128.262 121.685 116.697 129.067 131.585 127.505 159.602 98.1545 157.626 94.0908 91.3562 83.1606 109.185 85.9886 87.0349 67.9251
threshold=48.577857142857148 7.7100708125708595 24.500000000000004 4.5000000000000009 6.5000000000000009 54.68 48.545000000000009 0.43926370306576018 36.145000000000003 46.715000000000011 0.94135275643221272 47.490000000000002 -0.70138200245277993 -0.25206183926700709 0.74156003118984393 16.500000000000004 6.0974190072815668 4.2470482804069851 41.305000000000007 42.015000000000008 6.6252175638109678 6.9360458993320302 36.645000000000003 6.2243218418968853 -0.56724474810852887 42.980000000000011 5.736016364933433 5.4332464221117709 33.205000000000005 44.604775280898885
decision_type=2 2 2 2 2 2 2 2 2 2 2 2 2 2 2 2 2 2 2 2 2 2 2 2 2 2 2 2 2 2
left_child=1 3 -3 8 -5 6 13 21 12 16 11 15 -1 -2 -9 -8 17 18 -10 -18 -21 22 -6 -13 -24 26 29 28 -27 -19
right_child=5 2 -4 4 7 -7 10 14 9 -11 -12 23 -14 -15 -16 -17 19 25 -20 20 -22 -23 24 -25 -26 27 -28 -29 -30 -31
leaf_value=-0.34102146983146658 -0.078053906428006803 -0.06450963430106639 -0.52637387566268445 -0.18856330323550438 0.065541999308126306 -0.088764901955922459 0.26343943700194355 -0.14470619911497284 -0.099025273571411776 0.19872599629064402 0.034158881685950541 0.089910139184859073 -0.10847616160199756 0.12833928898242969 0.074411139067481549 0.47705541729927065 0.15879632925445386 -0.0041877684437415822 0.1014901790353987 0.047706944466783453 -0.14597664756907358 0.036340913176536559 0.15802750959992409 0.25946828405062361 0.35313027222951243 -0.11057466745376583 -0.18327036052942278 -0.092014721291268184 -0.30677911501664384 -0.12449017791077495
leaf_weight=10.000000000000002 11.999999999999998 20.000000000000004 9.9999999999999982 18 13.999999999999998 11.999999999999998 20.000000000000004 11.000000000000002 14.999999999999998 11.999999999999998 10.999999999999998 18 21 28 17 9.9999999999999982 10.999999999999998 44 18 26 18 11.999999999999998 9.9999999999999982 14.999999999999998 15.000000000000002 10.000000000000002 15.999999999999998 29 12.999999999999998 15.999999999999998
leaf_count=10 12 20 10 18 14 12 20 11 15 12 11 18 21 28 17 10 11 44 18 26 18 12 10 15 15 10 16 29 13 16
internal_value=3.12411e-10 -0.0453813 -0.218464 -0.0307956 0.0464947 0.139025 0.163003 0.100052 -0.0597422 -0.0429167 0.215209 0.246821 -0.183491 0.0664213 -0.0116707 0.334645 -0.0563413 -0.0778217 0.0103468 0.00653746 -0.0315273 0.16139 0.199867 0.166982 0.275089 -0.100553 -0.0672162 -0.149275 -0.221473 -0.0362684
internal_weight=512 386 30 356 97 126 114 79 259 228 74 63 31 40 28 30 216 161 33 55 44 51 39 33 25 128 76 52 23 60
internal_count=512 386 30 356 97 126 114 79 259 228 74 63 31 40 28 30 216 161 33 55 44 51 39 33 25 128 76 52 23 60
is_linear=0
shrinkage=0.05


Tree=13
num_leaves=31
num_cat=0
split_feature=0 28 17 3 15 28 3 15 30 22 12 22 26 10 29 15 12 15 28 21 28 20 14 15 15 10 21 19 15 28
split_gain=1133.65 656.878 728.398 249.39 382.884 775.984 201.883 199.313 160.424 136.687 135.426 97.932 97.9101 80.7283 80.5859 79.2695 75.4919 75.0902 145.704 69.7988 97.0371 61.4553 131.603 80.4822 68.7572 88.3488 86.718 56.8188 61.4777 72.7837
threshold=2023.5000000000002 6.4327993761982256 -0.56174490092936669 4.5000000000000009 0.2458094905655944 5.1407611321278077 4.5000000000000009 -0.99465740988130902 5.8341922054047037 47.345000000000006 0.62585923293574564 36.100000000000009 6.4636462090189797 -0.35846811432664222 50.773928030303033 -0.3744658827978154 -0.98523971305672675 0.1190562527741828 5.8954270826641935 50.845000000000006 5.4867592666647793 50.675000000000004 0.23014609094247238 0.016126237724388193 0.39827245882943296 0.20180702842483325 44.810000000000009 37.440000000000005 -0.88522530996428317 6.0230711357059183
decision_type=2 2 2 2 2 2 2 2 2 2 2 2 2 2 2 2 2 2 2 2 2 2 2 2 2 2 2 2 2 2
left_child=3 6 -3 7 8 -6 9 -1 11 17 14 -5 -4 -7 -8 -13 -9 -2 -19 21 -21 23 -23 27 26 -26 -25 -18 -29 -30
right_child=1 2 12 4 5 13 10 16 -10 -11 -12 15 -14 -15 -16 -17 19 18 -20 20 -22 22 -24 24 25 -27 -28 28 29 -31
leaf_value=-0.29702545925974849 0.059427505951352058 -0.33352576206127804 -0.0066399820148944858 0.046559054752190909 -0.48474035799503334 0.14102485984563823 0.10471315099434415 0.058760944550687623 -0.03705879515036941 0.27307839579880239 0.40344450382085945 0.27693659961223605 0.15410016998648646 -0.034486460528875655 0.30082910463213919 0.10257589332759379 0.035143017081113968 0.053399242066706591 0.29500816402335966 0.084446730340520526 -0.11106982149861076 0.089710923018200051 -0.14139603782783858 -0.10234741441284614 -0.14929652391240383 -0.030307178994497433 -0.2887416396290064 -0.16854103575150173 -0.020408944306629047 -0.1457278171554208
leaf_weight=9.9999999999999982 41 14.999999999999998 18 14.999999999999998 9.9999999999999982 10.000000000000002 11.000000000000002 10.999999999999998 15.999999999999998 13.999999999999998 12.999999999999998 15.999999999999998 20 19 9.9999999999999982 11.000000000000002 12.999999999999998 13.000000000000002 11.999999999999998 15.000000000000002 10.999999999999998 14.000000000000002 10.999999999999998 12.000000000000002 39 26 12.999999999999998 14.999999999999998 42 15.999999999999998
leaf_count=10 41 15 18 15 10 10 11 11 16 14 13 16 20 19 10 11 13 13 12 15 11 14 11 12 39 26 13 15 42 16
internal_value=-9.06994e-10 0.106937 -0.0384982 -0.0517636 0.01621 -0.104933 0.174551 -0.07835 0.0976684 0.131174 0.276615 0.148993 0.0779601 0.0260347 0.198102 0.205901 -0.0691619 0.101073 0.169372 -0.0753608 0.00172819 -0.0853325 -0.0119761 -0.0957525 -0.128804 -0.101701 -0.199272 -0.0611637 -0.0783142 -0.0549797
internal_weight=512 167 53 345 97 39 114 248 58 80 34 42 38 29 21 27 238 66 25 227 26 201 25 176 90 65 25 86 73 58
internal_count=512 167 53 345 97 39 114 248 58 80 34 42 38 29 21 27 238 66 25 227 26 201 25 176 90 65 25 86 73 58
is_linear=0
shrinkage=0.05


Tree=14
num_leaves=31
num_cat=0
split_feature=0 28 17 18 3 28 3 24 12 18 20 18 30 21 24 10 21 29 14 25 13 21 28 12 20 14 28 4 21 14
split_gain=1023.12 592.832 657.379 277.146 258.38 445.332 182.199 137.569 122.222 115.561 106.368 128.328 105.034 112.735 104.948 88.2476 79.1824 72.7288 68.3953 61.9795 73.1671 59.7988 81.8412 61.8769 57.1574 118.772 54.173 43.0809 74.6889 74.2965
threshold=2023.5000000000002 6.4327993761982256 -0.56174490092936669 55.260000000000005 4.5000000000000009 4.845843189785481 4.5000000000000009 7.2694009718409287 0.62585923293574564 55.805000000000007 36.20000000000001 41.135000000000012 6.9217670653373178 49.390000000000008 7.8646573307326255 0.30983042691905771 47.945000000000007 50.773928030303033 0.73937687903084115 44.157719780219786 -0.35243545167535567 50.845000000000006 5.4867592666647793 -0.98523971305672675 50.675000000000004 0.23014609094247238 6.1627966424378178 24.500000000000004 40.420000000000009 -0.86332053368064354
decision_type=2 2 2 2 2 2 2 2 2 2 2 2 2 2 2 2 2 2 2 2 2 2 2 2 2 2 2 2 2 2
left_child=3 6 -3 4 21 -6 7 9 17 12 -7 -12 13 15 16 -2 -4 -8 19 20 -13 23 -23 -1 27 -26 -9 29 -29 -25
right_child=1 2 14 -5 5 10 8 26 -10 -11 11 18 -14 -15 -16 -17 -18 -19 -20 -21 -22 22 -24 24 25 -27 -28 28 -30 -31
leaf_value=0.045001913458108903 0.13106268739327784 -0.31684946179389956 0.10711142674088475 -0.30855590643361214 -0.2517447159936031 0.22783813536167147 0.099477490647272598 0.15945132918034988 0.3832722819768466 -0.070392255932092668 -0.088010833813593939 -0.093703332712704521 -0.027733087986707691 0.063610560426281562 0.17149757770821453 0.34111937463283537 -0.083392997831106194 0.28578765407204626 0.16998989722307992 0.13675919003211534 0.081509361588037899 0.080224394121517717 -0.094962521394093835 -0.16480081978846681 0.085225379467010476 -0.13432623445987701 0.31702445298433307 -0.25713435471057894 -0.09634308287730585 -0.065217073899897046
leaf_weight=9.9999999999999982 10.000000000000002 14.999999999999998 10.000000000000002 9.9999999999999982 11.999999999999998 9.9999999999999982 11.000000000000002 12.000000000000002 12.999999999999998 9.9999999999999982 12.999999999999998 10.999999999999995 9.9999999999999982 18 15.999999999999998 9.9999999999999982 11.999999999999998 9.9999999999999982 17 12.999999999999998 13.000000000000005 15.000000000000002 11.999999999999998 22 14.000000000000002 10.999999999999998 9.9999999999999982 9.9999999999999982 26 126
leaf_count=10 10 15 10 10 12 10 11 12 13 10 13 11 10 18 16 10 12 10 17 13 13 15 12 22 14 11 10 10 26 126
internal_value=1.14164e-10 0.10159 -0.0365733 -0.0491754 -0.0414327 0.0315718 0.165824 0.124615 0.262784 0.0842337 0.075725 0.0530215 0.116447 0.15439 0.0740621 0.236091 0.00319992 0.188197 0.0869738 0.0488312 0.00120354 -0.0678448 0.00236354 -0.0765007 -0.0823142 -0.0113773 0.231075 -0.0919524 -0.141007 -0.0800201
internal_weight=512 167 53 345 335 89 114 80 34 58 77 67 48 38 38 20 22 21 54 37 24 246 27 219 209 25 22 184 36 148
internal_count=512 167 53 345 335 89 114 80 34 58 77 67 48 38 38 20 22 21 54 37 24 246 27 219 209 25 22 184 36 148
is_linear=0
shrinkage=0.05


Tree=15
num_leaves=31
num_cat=0
split_feature=0 28 28 19 18 3 28 3 24 12 18 20 18 30 15 29 11 27 15 25 22 14 29 22 11 14 19 20 12 30
split_gain=923.369 535.031 614.537 277.306 250.124 233.188 401.912 164.435 124.156 110.305 104.294 95.9968 115.816 94.7935 141.36 65.6377 63.1508 124.991 91.5709 82.7271 82.1098 81.4666 80.5856 64.0051 63.4862 61.7267 94.2892 58.5566 62.7707 59.5863
threshold=2023.5000000000002 6.4327993761982256 6.5023787331420406 50.205000000000005 55.260000000000005 4.5000000000000009 4.845843189785481 4.5000000000000009 7.2694009718409287 0.62585923293574564 55.805000000000007 36.20000000000001 41.135000000000012 6.9217670653373178 -0.30163931797635496 50.773928030303033 -0.20180761162458913 43.480982758620698 -0.92105882467153488 44.025054945054954 36.930000000000007 -0.22072250280600583 43.40028089887641 37.565000000000005 0.50370931781787065 0.73937687903084115 48.665000000000006 43.780000000000008 0.85223490906209554 5.0161015678414316
decision_type=2 2 2 2 2 2 2 2 2 2 2 2 2 2 2 2 2 2 2 2 2 2 2 2 2 2 2 2 2 2
left_child=4 7 -3 -4 5 16 -7 8 10 15 13 -8 -13 14 -2 -9 22 18 -18 24 -21 -20 -1 -23 -19 26 -14 28 -24 -29
right_child=1 2 3 -5 -6 6 11 9 -10 -11 -12 12 25 -15 -16 -17 17 19 21 20 -22 23 27 -25 -26 -27 -28 29 -30 -31
leaf_value=0.099219264835119253 0.27293522256825659 -0.31891203373670579 -0.12128842644966567 0.16154056483736406 -0.29312810864299538 -0.23915745789806048 0.21644622460007668 0.094503619183193527 0.2195217025212266 0.36410866929934577 -0.066872648149728778 -0.083610290518173813 -0.03129938112473802 -0.026346433609724048 0.073015712605168412 0.27149827338755134 0.078305068301657843 -0.29754906098047884 0.015248644296079875 -0.16387319928035138 0.0091466241826613746 -0.068661383858048597 -0.060122666231079681 -0.19063832283020021 -0.13490653422971566 0.16149040162563325 0.12839472620851464 -0.12284625049680471 -0.20131031502038244 0.012960098719313033
leaf_weight=9.9999999999999982 13.999999999999995 13.999999999999998 12.999999999999998 26 9.9999999999999982 11.999999999999998 9.9999999999999982 11.000000000000002 22 12.999999999999998 9.9999999999999982 12.999999999999998 19 9.9999999999999982 24.000000000000004 9.9999999999999982 11.999999999999998 12.000000000000002 20 16.000000000000004 11.999999999999998 38 37 14.999999999999998 11.999999999999998 17 18 9.9999999999999982 9.9999999999999982 42
leaf_count=10 14 14 13 26 10 12 10 11 22 13 10 13 19 10 24 10 12 12 20 16 12 38 37 15 12 17 18 10 10 42
internal_value=4.73301e-10 0.0965104 -0.0347446 0.0672642 -0.0467166 -0.039361 0.0299932 0.157532 0.118384 0.249645 0.0800221 0.0719387 0.0503704 0.110625 0.14667 0.178787 -0.0644526 -0.0870493 -0.049695 -0.148109 -0.0897218 -0.0707361 -0.0360513 -0.103183 -0.216228 0.0826251 0.0463896 -0.049715 -0.0901626 -0.0131565
internal_weight=512 167 53 39 345 335 89 114 80 34 58 77 67 48 38 21 246 137 85 52 28 73 109 53 24 54 37 99 47 52
internal_count=512 167 53 39 345 335 89 114 80 34 58 77 67 48 38 21 246 137 85 52 28 73 109 53 24 54 37 99 47 52
is_linear=0
shrinkage=0.05


Tree=16
num_leaves=31
num_cat=0
split_feature=23 24 16 22 3 15 28 29 22 3 25 18 24 26 25 26 16 26 29 26 27 23 22 10 24 24 18 23 18 22
split_gain=861.698 327.011 387.799 265.185 262.232 397.841 556.625 260.117 172.737 122.719 146.688 144.764 109.815 107.008 111.575 102.202 103.153 98.7654 97.8771 75.6594 76.7283 73.8901 71.3724 59.9733 102.921 75.9868 53.9794 49.4769 53.7013 67.0971
threshold=48.577857142857148 7.7100708125708595 1.0000000180025095e-35 49.370000000000012 4.5000000000000009 -0.022575793296316496 5.1311511124427032 51.900170454545467 45.280000000000008 4.5000000000000009 50.27928571428572 56.775000000000006 5.036334354144107 6.0974190072815668 44.662500000000001 4.0912410574499347 0.6078576107927941 5.5487340583628688 43.925955056179781 6.2703097787584516 43.480982758620698 44.636428571428574 38.925000000000004 0.7090011537757156 7.0562943469907182 6.3904902321599719 41.695 46.13928571428572 39.380000000000003 37.185000000000009
decision_type=2 2 2 2 2 2 2 2 2 2 2 2 2 2 2 2 2 2 2 2 2 2 2 2 2 2 2 2 2 2
left_child=1 3 -3 4 8 17 -7 9 13 11 -11 12 -2 15 19 16 -1 21 22 -15 -21 -6 -8 24 -14 -25 -22 28 -17 -30
right_child=7 2 -4 -5 5 6 18 -9 -10 10 -12 -13 23 14 -16 27 -18 -19 -20 20 26 -23 -24 25 -26 -27 -28 -29 29 -31
leaf_value=0.09698711851721302 0.036499374867840245 -0.048813777665297181 -0.41576383958939306 0.23013805925846098 0.28964687952628493 -0.37730170654302297 0.059289233386516552 -0.1311472935974598 -0.25156288881870836 0.071149540568391484 0.28679838614619296 -0.059464419757326449 -0.0071974591165780994 0.09081681966781617 0.12698846975962322 -0.12537014243771902 -0.094479872037967025 0.066514183446764949 0.14675125256180763 0.020354710221290592 -0.21138443619012826 0.11759052574634553 -0.12082738822156734 0.32162516550584264 0.21965132236480711 0.15091296695172787 -0.047098956257104876 -0.16252137948241499 -0.024911499486188406 -0.11358471430139616
leaf_weight=17 22 18.000000000000004 11.999999999999998 9.9999999999999982 13.000000000000002 10.999999999999998 11.000000000000002 9.9999999999999982 10.999999999999998 11.999999999999998 23 11.999999999999998 10.000000000000002 9.9999999999999982 14.999999999999998 37 12.000000000000002 25 11.999999999999998 14.999999999999998 10.000000000000002 11.999999999999998 10.999999999999998 11.000000000000002 9.9999999999999982 15.999999999999998 9.9999999999999982 18 64 32
leaf_count=17 22 18 12 10 13 11 11 10 11 12 23 12 10 10 15 37 12 25 12 15 10 12 11 11 10 16 10 18 64 32
internal_value=-4.09796e-10 -0.0370599 -0.195594 -0.0237003 -0.0310367 0.0397171 -0.0681383 0.113533 -0.057816 0.134626 0.212862 0.10082 0.128696 -0.0489359 0.00889137 -0.0682117 0.0177594 0.136787 0.0318852 -0.0304743 -0.065129 0.20706 -0.0307691 0.171852 0.106227 0.220462 -0.129242 -0.0847227 -0.0741935 -0.0544692
internal_weight=512 386 30 356 346 95 45 126 251 116 35 81 69 240 60 180 29 50 34 45 35 25 22 47 20 27 20 151 133 96
internal_count=512 386 30 356 346 95 45 126 251 116 35 81 69 240 60 180 29 50 34 45 35 25 22 47 20 27 20 151 133 96
is_linear=0
shrinkage=0.05


Tree=17
num_leaves=31
num_cat=0
split_feature=23 13 18 3 21 22 19 30 29 12 27 21 19 6 24 12 26 27 25 13 23 3 21 26 26 15 25 28 14 24
split_gain=777.683 296.722 899.26 263.385 254.88 300.653 246.643 246.202 234.756 210.642 255.16 181.452 153.698 155.242 134.399 126.869 117.858 108.588 135.844 94.3532 95.2562 116.597 93.4944 90.728 107.947 99.2278 90.8293 89.486 79.915 55.4343
threshold=48.577857142857148 -0.24372464231556024 52.555000000000014 4.5000000000000009 36.145000000000003 46.715000000000011 54.305000000000007 5.3588088790648252 51.900170454545467 0.39034993933883777 43.480982758620698 33.70000000000001 48.545000000000009 14.500000000000002 4.083506388004623 0.94135275643221272 3.9854934797470425 52.086568965517252 49.625714285714288 -0.6652727025667432 41.829285714285724 4.5000000000000009 48.305000000000007 6.0974190072815668 6.6340336207960302 0.016126237724388193 44.662500000000001 5.1110526632675075 0.82353009937458566 5.5884084196412713
decision_type=2 2 2 2 2 2 2 2 2 2 2 2 2 2 2 2 2 2 2 2 2 2 2 2 2 2 2 2 2 2
left_child=1 2 7 4 11 16 14 9 12 10 -1 -3 13 -2 -5 17 -6 18 -14 20 -9 -22 -19 25 26 27 -25 -18 -16 -29
right_child=8 3 -4 6 5 -7 -8 19 -10 -11 -12 -13 15 -15 28 -17 23 22 -20 -21 21 -23 -24 24 -26 -27 -28 29 -30 -31
leaf_value=-0.11232293240333857 0.10876100241176544 -0.067055991930620992 -0.54807295322418215 0.27212643944300136 0.12917064787311988 0.24390647126869724 -0.12770297557792881 0.17115638077259065 -0.12458993531763554 -0.026616235077381135 -0.40682577888170884 -0.34591979172080756 0.096213432922959335 -0.1098749946464192 0.041628152770655499 0.014576856470243496 0.047577581829998807 0.2310223384336991 0.31194271334895385 -0.080932904247726714 -0.042102033161633724 0.13725541552218298 0.039107942531506221 0.0068642170230547575 -0.075904166077574109 -0.13009548003856952 0.20140351891517638 -0.17263603403910313 0.20068086060610685 -0.0099791523814201366
leaf_weight=19.000000000000004 31 14.000000000000002 9.9999999999999982 12.999999999999998 10.999999999999998 10.999999999999998 10.999999999999998 9.9999999999999982 9.9999999999999982 23 11.999999999999998 9.9999999999999982 9.9999999999999982 10.999999999999998 28 10.999999999999998 23 11.000000000000002 27 28 37 11.999999999999998 14.999999999999998 15.000000000000002 18 39 9.9999999999999982 11.000000000000002 10.999999999999998 9.9999999999999982
leaf_count=19 31 14 10 13 11 11 11 10 10 23 12 10 10 11 28 11 23 11 27 28 37 12 15 15 18 39 10 11 11 10
internal_value=6.80211e-10 -0.0352069 -0.0898955 -6.65896e-05 -0.0321025 -0.00759227 0.0873966 -0.0574006 0.107856 -0.141263 -0.226324 -0.183249 0.127895 0.0514992 0.132898 0.171254 -0.0277856 0.19861 0.253638 -0.00534791 0.0305229 0.00182224 0.120302 -0.0414881 0.0174587 -0.0720268 0.0846799 -0.0205569 0.0864892 -0.0951804
internal_weight=512 386 151 235 172 148 63 141 126 54 31 24 116 42 52 74 137 63 37 87 59 49 26 126 43 83 25 44 39 21
internal_count=512 386 151 235 172 148 63 141 126 54 31 24 116 42 52 74 137 63 37 87 59 49 26 126 43 83 25 44 39 21
is_linear=0
shrinkage=0.05


Tree=18
num_leaves=31
num_cat=0
split_feature=23 25 25 23 29 18 16 10 30 20 16 21 13 23 24 26 4 21 30 16 23 21 5 10 18 21 12 23 5 12
split_gain=701.859 289.669 283.439 219.681 196.992 188.991 181.436 251.048 399.745 171.19 181.203 133.105 133.13 163.553 147.084 102.387 80.371 74.2497 60.9071 57.1515 56.466 127.596 132.311 91.6168 80.9642 79.7471 95.5773 58.1654 45.3562 44.4486
threshold=48.577857142857148 49.07489010989012 45.687500000000007 54.68 44.771797752808993 55.260000000000005 -0.60785761079279388 0.73283908552571664 5.5502865231541847 49.07500000000001 -1.0000000180025095e-35 56.620000000000005 -0.19969970580767249 51.592857142857149 6.9360458993320302 5.2527371037241322 16.500000000000004 42.255000000000003 6.0374882576505255 -0.8783796973249266 41.829285714285724 45.480000000000011 105.50000000000001 -0.84315017450793706 41.550000000000004 45.070000000000007 -0.62588817255938378 44.454285714285724 35.500000000000007 0.61237135649459018
decision_type=2 2 2 2 2 2 2 2 2 2 2 2 2 2 2 2 2 2 2 2 2 2 2 2 2 2 2 2 2 2
left_child=1 2 4 11 5 6 7 15 -9 10 17 12 13 -2 28 19 -15 -4 -17 -1 21 22 -8 24 -22 29 -27 -28 -14 -25
right_child=3 -3 9 -5 -6 -7 20 8 -10 -11 -12 -13 14 16 -16 18 -18 -19 -20 -21 23 -23 -24 25 -26 26 27 -29 -30 -31
leaf_value=0.092347412705421433 0.31126799484093987 -0.29904235184192657 0.035508768734606816 -0.10102641160289448 -0.26224171932786705 -0.25069295555353166 -0.061024167050014823 -0.30415566600859156 0.11313492574475029 0.23144248681409019 -0.094437924728674058 0.0030741044369183091 0.083723846595519416 0.048059946000576011 0.195604642088476 0.080270455777645119 0.22166619437436264 0.22375684916973115 -0.064930223822593697 0.25750439424406396 -0.25977610468864437 -0.1243814936051002 0.17070328952478511 -0.049592807227876824 -0.08691878297499249 -0.078453931175172339 0.12706739515997467 -0.018555920819441477 -0.043875943198800088 -0.11779691906025012
leaf_weight=10 21 9.9999999999999982 11.000000000000002 11.999999999999998 9.9999999999999982 9.9999999999999982 11.000000000000002 12.000000000000002 10.999999999999998 13.999999999999998 17 19 13.000000000000002 15.000000000000002 19 26 11.999999999999998 9.9999999999999982 9.9999999999999982 11 10.000000000000002 12.999999999999998 13.999999999999998 71 21 20 16.000000000000004 11.999999999999998 14.999999999999998 36
leaf_count=10 21 10 11 12 10 10 11 12 11 14 17 19 13 15 19 26 12 10 10 11 10 13 14 71 21 20 16 12 15 36
internal_value=2.31421e-10 -0.0334466 -0.0263828 0.102463 -0.0437743 -0.0368167 -0.0297813 0.0348546 -0.104582 0.0819791 0.0269137 0.123883 0.148045 0.206615 0.0882289 0.0911185 0.125218 0.125151 0.0399369 0.178858 -0.0528656 0.00267423 0.0687432 -0.0642124 -0.142679 -0.048519 0.00502768 0.0646574 0.0153668 -0.07254
internal_weight=512 386 376 126 324 314 304 80 23 52 38 114 95 48 47 57 27 21 36 21 224 38 25 186 31 155 48 28 28 107
internal_count=512 386 376 126 324 314 304 80 23 52 38 114 95 48 47 57 27 21 36 21 224 38 25 186 31 155 48 28 28 107
is_linear=0
shrinkage=0.05


Tree=19
num_leaves=31
num_cat=0
split_feature=0 28 17 18 4 4 3 18 3 21 18 18 28 30 16 28 19 18 24 18 24 21 21 10 27 27 21 20 24 19
split_gain=612.547 453.764 569.591 192.143 174.204 770.783 308.312 138.966 124.279 111.297 105.924 93.054 96.2309 90.8011 83.5036 78.808 77.3431 85.9892 112.06 106.212 73.1852 71.2058 70.6294 142.805 90.6395 85.5809 68.2882 62.5469 50.2977 39.8453
threshold=2023.5000000000002 6.4327993761982256 -0.56174490092936669 55.260000000000005 6.5000000000000009 5.5000000000000009 4.5000000000000009 41.135000000000012 4.5000000000000009 42.320000000000007 47.655000000000008 50.305000000000014 6.1627966424378178 6.6265851039523449 1.0000000180025095e-35 5.1407611321278077 46.470000000000006 47.735000000000007 4.4142371799056788 40.495000000000012 7.8646573307326255 48.715000000000011 43.495000000000005 -0.61237985104942771 43.480982758620698 42.762166666666673 39.235000000000007 50.245000000000012 5.4974881632013073 49.745000000000005
decision_type=2 2 2 2 2 2 2 2 2 2 2 2 2 2 2 2 2 2 2 2 2 2 2 2 2 2 2 2 2 2
left_child=3 8 -3 4 5 9 16 -8 10 26 29 -10 -13 14 -12 -9 17 18 19 -6 27 -15 25 24 -24 -20 -1 -4 -27 -2
right_child=1 2 20 -5 6 -7 7 15 11 -11 13 12 -14 21 -16 -17 -18 -19 22 -21 -22 -23 23 -25 -26 28 -28 -29 -30 -31
leaf_value=-0.027367641329765314 0.23882016997252187 -0.30316174467404688 -0.090815023034810982 -0.25402101770043378 0.19683323901146652 -0.46686315011853979 -0.057242298958202202 0.22205839065405042 0.095273040302775128 -0.09833765782845709 0.21942530965122078 0.38869690328836426 0.1823872531262728 -0.10644058530980888 0.044943140354007483 0.080775879841388731 -0.11154912118282584 -0.13708103912718156 -0.20319205274184549 0.0050894749709046805 0.14207896192092448 0.066407761206993696 0.026928264173594382 0.068213263923122033 -0.15524942328532537 0.014096406803411596 0.12920097147042936 0.078499281406402596 -0.10041288277980956 0.11952867593084063
leaf_weight=15.000000000000002 14.000000000000002 14.999999999999998 10.000000000000002 9.9999999999999982 9.9999999999999982 11.999999999999998 14.999999999999998 12.999999999999998 10.999999999999998 26 12.000000000000002 10.000000000000002 12.999999999999998 11.000000000000002 15.999999999999998 41 36 17 11.999999999999998 26 15.999999999999998 12.999999999999998 11.000000000000002 31 18 17 12.999999999999998 11.999999999999998 22 13.999999999999998
leaf_count=15 14 15 10 10 10 12 15 13 11 26 12 10 13 11 16 41 36 17 12 26 16 13 11 31 18 17 13 12 22 14
internal_value=6.22094e-11 0.0786061 -0.0422702 -0.0380499 -0.031603 -0.104395 -0.0137434 0.0773904 0.134803 -0.0238459 0.100769 0.214883 0.272087 0.0585509 0.119721 0.114788 -0.0451845 -0.0306167 -0.0183045 0.0583516 0.0607133 -0.0128144 -0.0431659 -0.00639446 -0.0861475 -0.0864265 0.0453249 0.00153823 -0.0504986 0.179174
internal_weight=512 167 53 345 335 66 269 69 114 54 80 34 23 52 28 54 200 164 147 36 38 24 111 60 29 51 28 22 39 28
internal_count=512 167 53 345 335 66 269 69 114 54 80 34 23 52 28 54 200 164 147 36 38 24 111 60 29 51 28 22 39 28
is_linear=0
shrinkage=0.05


Tree=20
num_leaves=31
num_cat=0
split_feature=23 25 25 5 22 20 3 27 18 3 10 30 22 19 24 24 22 4 28 28 4 23 11 30 12 18 24 23 23 24
split_gain=578.518 266.327 239.684 206.711 353.996 173.73 179.815 172.924 156.559 143.882 221.497 355.219 125.475 115.482 108.199 86.3886 96.0248 85.2013 80.849 70.8892 65.526 59.2751 73.784 103.061 67.0465 66.9776 69.803 58.6712 57.3539 54.7048
threshold=48.577857142857148 49.07489010989012 45.616071428571438 109.50000000000001 46.425000000000004 49.07500000000001 4.5000000000000009 44.984666666666676 55.260000000000005 4.5000000000000009 0.73283908552571664 5.5502865231541847 49.185000000000009 52.410000000000004 4.3328459915725999 7.3519128341355309 37.605000000000011 4.5000000000000009 5.4087186673820282 5.9908753678626248 11.500000000000002 44.667857142857152 -0.20180761162458913 5.2457914263002978 0.54217677573236234 45.930000000000007 4.5570609444577608 41.829285714285724 42.493333333333339 5.9827176402881435
decision_type=2 2 2 2 2 2 2 2 2 2 2 2 2 2 2 2 2 2 2 2 2 2 2 2 2 2 2 2 2 2
left_child=1 2 7 12 -5 6 14 8 9 21 13 -12 15 18 -4 16 -2 -18 -11 -20 -19 22 24 -24 28 26 -25 -28 -1 -29
right_child=3 -3 5 4 -6 -7 -8 -9 -10 10 11 -13 -14 -15 -16 -17 17 20 19 -21 -22 -23 23 25 -26 -27 27 29 -30 -31
leaf_value=0.15257102372124792 0.20746174414049495 -0.28503591284155844 -0.16755038226644192 0.10914880878439073 -0.24726671522313898 0.21158838570117952 0.17697394533703725 -0.23493509644811805 -0.22782449960708617 0.2299339314301809 -0.28839859509219717 0.10496554469520397 0.28006447444980348 -0.061982284350828691 0.033881333569685618 0.18511661638319493 0.17353473901748659 -0.059703962753216426 0.010907708605130514 0.15555266537703574 0.071793453730642803 -0.092011805344372991 -0.20974044889211654 0.06246866279592117 -0.069663252418532093 -0.14676669881894039 0.031423762659816182 -0.13029942059268554 0.014303298049295943 -0.024616388142108918
leaf_weight=9.9999999999999982 10.999999999999998 9.9999999999999982 12.000000000000002 19.000000000000004 10.999999999999998 15.999999999999998 11.999999999999998 10.999999999999998 9.9999999999999982 11.999999999999998 12.000000000000002 10.999999999999998 11.999999999999998 10.999999999999998 14.999999999999998 25 9.9999999999999982 18 18 15.999999999999998 20 56 9.9999999999999982 18 17 12.999999999999998 17 24 30 25
leaf_count=10 11 10 12 19 11 16 12 11 10 12 12 11 12 11 15 25 10 18 18 16 20 56 10 18 17 13 17 24 30 25
internal_value=5.52063e-10 -0.0303658 -0.0235927 0.0930255 -0.0215369 0.0728494 0.0159308 -0.040117 -0.0332041 -0.0267168 0.0307053 -0.100268 0.128826 0.0835541 -0.0556439 0.107221 0.074214 0.043678 0.118356 0.0789759 0.0095052 -0.0475975 -0.0324317 -0.0569096 0.0135181 -0.0411538 -0.024809 -0.048612 0.0488702 -0.0763795
internal_weight=512 386 376 126 30 55 39 321 310 300 80 23 96 57 27 84 59 48 46 34 38 220 164 107 57 97 84 66 40 49
internal_count=512 386 376 126 30 55 39 321 310 300 80 23 96 57 27 84 59 48 46 34 38 220 164 107 57 97 84 66 40 49
is_linear=0
shrinkage=0.05


Tree=21
num_leaves=31
num_cat=0
split_feature=23 25 0 29 18 29 3 10 30 19 5 3 12 27 25 28 11 27 18 29 25 27 3 13 11 25 14 27 11 22
split_gain=522.112 240.36 245.776 194.17 160.556 143.445 181.652 226.031 320.585 120.063 131.451 104.246 94.1056 96.7835 110.081 90.579 51.604 88.392 114.622 80.5909 75.0445 65.1608 79.1943 65.7773 59.1335 55.0261 50.2644 47.33 43.6782 43.4057
threshold=48.577857142857148 49.07489010989012 2023.5000000000002 51.900170454545467 55.260000000000005 44.813033707865181 4.5000000000000009 0.73283908552571664 5.5502865231541847 48.545000000000009 101.50000000000001 3.5000000000000004 0.94135275643221272 52.086568965517252 49.625714285714288 5.4217563105398616 -0.60555643346685839 43.480982758620698 46.760000000000012 38.989886363636373 43.67708791208792 43.635954022988514 1.0000000180025095e-35 -0.6391983530350368 -0.69676771491221523 44.788214285714297 0.16057120351387416 44.326333333333338 0.097680735332368748 46.545000000000009
decision_type=2 2 2 2 2 2 2 2 2 2 2 2 2 2 2 2 2 2 2 2 2 2 2 2 2 2 2 2 2 2
left_child=1 2 4 9 5 6 16 15 -9 10 29 -4 13 14 -11 -8 24 18 19 -18 -21 -19 -23 -24 25 27 -22 -1 -15 -2
right_child=3 -3 11 -5 -6 -7 7 8 -10 12 -12 -13 -14 28 -16 -17 17 21 -20 20 26 22 23 -25 -26 -27 -28 -29 -30 -31
leaf_value=-0.0046963268711876401 0.050941691521022993 -0.27078413531184198 0.039576984079260573 -0.12302576467394828 -0.23195272952318194 -0.20620603182099084 0.17903926686236735 -0.27397866472601884 0.099717265909368358 0.078719437140971432 -0.10941724086349661 0.2278174851089716 0.0099824186075817469 0.029746569578464208 0.27291771041022406 0.048845314128945272 -0.10113081976771354 -0.21544625542380591 -0.18311749425801366 0.047297374767308331 0.0085864965183039491 0.0078752749983002166 -0.059961540065705782 -0.18835756614019997 0.10426026761531831 0.023629206970885951 -0.13938477039337158 -0.13313793572597207 0.15935873394975297 0.17750702545046806
leaf_weight=13.000000000000002 21.000000000000004 9.9999999999999982 19.000000000000004 9.9999999999999982 9.9999999999999982 10.999999999999998 19 12.000000000000002 10.999999999999998 9.9999999999999982 10.999999999999998 11.999999999999998 10.999999999999998 13.000000000000002 27 45 20 10.999999999999998 10.999999999999998 49 12.000000000000002 17 21 19 9.9999999999999982 27 10.999999999999998 15.999999999999998 12.999999999999998 9.9999999999999982
leaf_count=13 21 10 19 10 10 11 19 12 11 10 11 12 11 13 27 45 20 11 11 49 12 17 21 19 10 27 11 16 13 10
internal_value=1.64346e-10 -0.0288475 -0.022413 0.0883742 -0.0345307 -0.0286375 -0.0226089 0.0391831 -0.0952545 0.106598 0.0390775 0.112444 0.144921 0.168482 0.220432 0.0874966 -0.045292 -0.0597868 -0.030578 -0.0123396 0.0123247 -0.10403 -0.0825282 -0.12095 -0.00773739 -0.027737 -0.0621824 -0.0755607 0.0945527 0.0917692
internal_weight=512 386 376 126 345 335 324 87 23 116 42 31 74 63 37 64 237 171 103 92 72 68 57 40 66 56 23 29 26 31
internal_count=512 386 376 126 345 335 324 87 23 116 42 31 74 63 37 64 237 171 103 92 72 68 57 40 66 56 23 29 26 31
is_linear=0
shrinkage=0.05


Tree=22
num_leaves=31
num_cat=0
split_feature=23 24 16 22 23 26 28 27 14 19 19 21 19 12 5 5 12 21 26 28 15 26 18 16 16 13 28 27 15 28
split_gain=471.206 249.578 347.038 207.268 185.759 160.438 137.165 160.706 156.184 216.581 171.341 182.566 118.311 114.134 100.417 94.83 89.5317 111.567 96.7596 89.0987 83.9565 72.5402 77.8342 80.8549 66.2539 63.0351 49.8781 66.4267 58.9736 53.0629
threshold=48.577857142857148 7.7100708125708595 1.0000000180025095e-35 49.370000000000012 54.68 6.0974190072815668 6.4327993761982256 45.841333333333338 -0.96522164277488287 48.545000000000009 46.470000000000006 43.765000000000008 48.545000000000009 -0.98214488425316759 67.500000000000014 262.50000000000006 0.94135275643221272 47.490000000000002 6.2296723270990872 6.2243218418968853 -0.3744658827978154 6.6252175638109678 41.280000000000008 -1.0000000180025095e-35 1.0000000180025095e-35 -0.42764225457030058 5.8215697256343208 42.602988505747128 0.64414586362404946 5.3927226998079671
decision_type=2 2 2 2 2 2 2 2 2 2 2 2 2 2 2 2 2 2 2 2 2 2 2 2 2 2 2 2 2 2
left_child=1 3 -3 5 12 6 7 8 -1 10 13 -12 14 -10 24 26 17 18 -14 -19 -11 25 -23 -24 -2 -7 27 -15 -29 -30
right_child=4 2 -4 -5 -6 21 -8 -9 9 20 11 -13 16 15 -16 -17 -18 19 -20 -21 -22 22 23 -25 -26 -27 -28 28 29 -31
leaf_value=-0.18495875613556967 0.025048154592514034 -0.027051187968916358 -0.37418149424095953 0.20867966130375862 -0.10316508164008459 -0.034338199496269227 -0.18897549261649449 0.12534391647204757 0.13085095256567 0.18732422361007101 -0.29398177926029473 -0.028207955726732809 0.36085843086242664 0.068590235917104614 -0.048915675674614155 -0.15857770303264263 0.009483298794789749 0.025642060509158505 0.17037256845273077 0.19064086958765986 0.020572598407872851 -0.099318641051650058 0.15203646779060362 -0.031510622292601813 0.20287162050604823 0.10674977529990047 -0.13107083135030487 -0.011781634919877564 -0.15252848889897849 -0.0073765912652015682
leaf_weight=18 11.000000000000002 18.000000000000004 11.999999999999998 9.9999999999999982 11.999999999999998 9.9999999999999982 14.999999999999998 14.999999999999998 9.9999999999999982 13.000000000000002 14.000000000000002 11.999999999999998 10.000000000000002 18 19 15.999999999999998 10.999999999999998 18 20 14.999999999999998 18 15.999999999999998 10 15 9.9999999999999982 38 10.999999999999998 70 17.000000000000004 9.9999999999999982
leaf_count=18 11 18 12 10 12 10 15 15 10 13 14 12 10 18 19 16 11 18 20 15 18 16 10 15 10 38 11 70 17 10
internal_value=-4.00246e-10 -0.0274052 -0.165903 -0.015734 0.0839555 -0.0222199 -0.042256 -0.0331619 -0.0436358 -0.0314645 -0.0527056 -0.171317 0.103652 -0.0324168 0.0343712 -0.0439145 0.141102 0.164083 0.233868 0.100642 0.0905007 0.0356373 -0.0132047 0.0419082 0.109726 0.0773564 -0.0293541 -0.0196247 -0.0359945 -0.0987685
internal_weight=512 386 30 356 126 346 257 242 227 209 178 26 114 152 40 142 74 63 30 33 31 89 41 25 21 48 126 115 97 27
internal_count=512 386 30 356 126 346 257 242 227 209 178 26 114 152 40 142 74 63 30 33 31 89 41 25 21 48 126 115 97 27
is_linear=0
shrinkage=0.05


Tree=23
num_leaves=31
num_cat=0
split_feature=23 24 4 22 29 26 29 19 19 30 26 19 22 23 15 24 11 26 18 13 19 26 26 21 22 14 12 17 10 12
split_gain=425.264 225.244 455.023 187.059 172.085 144.795 191.85 167.2 226.925 146.425 109.575 98.1003 113.75 96.1794 94.0645 83.9247 74.1484 65.4676 70.2454 56.8892 50.9392 76.6417 91.0888 70.3137 65.0836 59.3321 53.2682 49.417 47.87 46.5362
threshold=48.577857142857148 7.7100708125708595 24.500000000000004 49.370000000000012 51.900170454545467 6.0974190072815668 44.813033707865181 48.545000000000009 46.470000000000006 5.2564896435806618 4.0204639931438821 47.170000000000009 47.02000000000001 49.990000000000009 -0.35646009640603105 5.5884084196412713 0.39629089145655322 6.6252175638109678 41.280000000000008 -0.42764225457030058 40.57500000000001 4.6377537573897909 5.9489613899696048 39.335000000000008 36.750000000000007 0.5267437926028592 0.73865729060996177 -0.22252093395631442 -0.45274443793211405 0.57075747273004163
decision_type=2 2 2 2 2 2 2 2 2 2 2 2 2 2 2 2 2 2 2 2 2 2 2 2 2 2 2 2 2 2
left_child=1 3 28 5 11 6 7 8 10 -10 -1 16 13 -13 -9 -15 -2 19 -19 -7 21 -12 24 -22 26 -25 -23 -17 -3 -16
right_child=4 2 -4 -5 -6 17 -8 14 9 -11 20 12 -14 15 29 27 -18 18 -20 -21 23 22 -24 25 -26 -27 -28 -29 -30 -31
leaf_value=0.081701272867974795 -0.084246523339639987 -0.09727012693881984 -0.43299357868731025 0.19824568480253221 -0.11925718000158668 -0.032621290087699893 -0.19303919155346722 0.17192437052726747 -0.33383780613541592 -0.089942246838472795 -0.17641402749078616 0.2167972130271105 0.23583899893694454 -0.026766265019336169 -0.060551954340189673 0.17749200164029999 0.078873871658977718 -0.09435270624235273 0.039812800891697413 0.10141228632756363 0.062814156575636423 0.092934650555253018 -0.18187904983758929 -0.0091289864514361736 -0.085388881242588949 -0.11485499657298391 -0.054171403646469121 0.060840455394076259 0.057439288496971122 0.081825922971422035
leaf_weight=21 11.000000000000002 10.000000000000004 9.9999999999999982 9.9999999999999982 9.9999999999999982 9.9999999999999982 19 13.999999999999998 10.000000000000002 15.999999999999998 13.999999999999998 12.999999999999998 18 17 12.000000000000002 14.999999999999995 19 15.999999999999998 25 38 22 16.000000000000004 9.9999999999999982 44 19 19 9.9999999999999982 23.000000000000004 10 10.999999999999998
leaf_count=21 11 10 10 10 10 10 19 14 10 16 14 13 18 17 12 15 19 16 25 38 22 16 10 44 19 19 10 23 10 11
internal_value=-1.04592e-10 -0.0260349 -0.157608 -0.0149473 0.0797577 -0.0211089 -0.0401432 -0.0279373 -0.0459178 -0.183748 -0.0254401 0.0969142 0.124072 0.094486 0.0697406 0.0655761 0.0190631 0.0338554 -0.0125445 0.0734886 -0.0400503 -0.0719672 -0.0453807 -0.0141413 -0.0150477 -0.0410146 0.0363554 0.106887 -0.0199154 0.00754181
internal_weight=512 386 30 356 126 346 257 238 201 26 175 116 86 68 37 55 30 89 41 48 154 69 55 85 45 63 26 38 20 23
internal_count=512 386 30 356 126 346 257 238 201 26 175 116 86 68 37 55 30 89 41 48 154 69 55 85 45 63 26 38 20 23
is_linear=0
shrinkage=0.05


Tree=24
num_leaves=31
num_cat=0
split_feature=27 15 18 22 20 18 18 4 4 3 18 27 22 12 20 19 5 14 21 4 22 18 24 11 27 18 14 13 22 22
split_gain=364.994 397.359 451.052 178.779 139.395 137.479 133.643 143.223 533.347 139.388 203.736 145.863 132.335 129.064 116.987 93.4249 92.1781 83.1657 72.8721 72.4468 95.0032 61.2215 60.0126 81.7492 74.7163 72.116 80.7323 55.4109 73.8835 56.5536
threshold=48.833310344827595 0.79513322984152557 52.285000000000004 47.345000000000006 48.015000000000008 55.805000000000007 50.205000000000005 6.5000000000000009 5.5000000000000009 4.5000000000000009 47.940000000000005 45.625534482758631 45.105000000000011 0.66527693225344786 52.285000000000004 46.470000000000006 67.500000000000014 0.6780270755117429 42.435000000000009 16.500000000000004 39.005000000000003 51.265000000000008 4.9007210353664545 0.86869874770991873 43.431385057471267 42.255000000000003 -0.32614245703617067 -0.16587666496079914 35.500000000000007 35.820000000000007
decision_type=2 2 2 2 2 2 2 2 2 2 2 2 2 2 2 2 2 2 2 2 2 2 2 2 2 2 2 2 2 2
left_child=5 3 -3 4 16 6 7 8 18 10 11 15 17 19 -6 22 -2 -8 -1 20 -11 -5 25 24 -24 26 -9 29 -29 -26
right_child=1 2 -4 21 14 -7 12 9 -10 13 -12 -13 -14 -15 -16 -17 -18 -19 -20 -21 -22 -23 23 -25 27 -27 -28 28 -30 -31
leaf_value=0.037892722666263583 0.061296204328536975 0.10857891350984571 -0.36631678376346827 0.15530724391341205 0.20850923839025201 -0.17757700133536544 -0.040907590055245573 -0.0063548283729081339 -0.38209809592136973 -0.15899813309311861 -0.2095592123270035 0.13715325195475347 0.22376230657100679 0.20973450974984603 0.063427358442409473 -0.10507022142410279 -0.1346821727231145 0.12272866010122624 -0.084082931970867025 0.082889722870743809 0.042783098135675705 0.32624395943500778 0.050507912867599064 -0.1442993042866389 -0.032118093425577351 -0.026831507044179099 0.17038149692650353 -0.10391363461579498 0.056255017262366085 -0.19244957024400886
leaf_weight=25 15.000000000000002 10.000000000000002 9.9999999999999982 10.000000000000002 24 13.999999999999998 22 12.000000000000002 12.999999999999998 10.000000000000002 14.999999999999998 13.999999999999998 9.9999999999999982 10.999999999999998 33 34 9.9999999999999982 11.999999999999998 24 23 13.999999999999998 10.999999999999998 27 14.999999999999998 10.999999999999995 28 13.999999999999998 12.000000000000009 18 10.999999999999998
leaf_count=25 15 10 10 10 24 14 22 12 13 10 15 14 10 11 33 34 10 12 24 23 14 11 27 15 11 28 14 12 18 11
internal_value=9.91349e-12 0.0750758 -0.128869 0.114677 0.0813408 -0.0237386 -0.0179953 -0.0288781 -0.0973863 -0.0130881 -0.0319584 -0.0183665 0.0638727 0.0555608 0.124514 -0.0303296 -0.0170951 0.0168464 -0.0218505 0.0194776 -0.0412924 0.244846 -0.0131594 -0.0372914 -0.0169735 0.0288482 0.0888109 -0.0520119 -0.00781244 -0.112284
internal_weight=512 123 20 103 82 389 375 331 62 269 211 196 44 58 57 182 25 34 49 47 24 21 148 94 79 54 26 52 30 22
internal_count=512 123 20 103 82 389 375 331 62 269 211 196 44 58 57 182 25 34 49 47 24 21 148 94 79 54 26 52 30 22
is_linear=0
shrinkage=0.05


Tree=25
num_leaves=31
num_cat=0
split_feature=30 19 5 17 14 19 12 30 26 12 30 12 3 20 24 24 15 4 13 18 3 29 1 26 24 24 26 30 13 4
split_gain=337.569 320.482 225.753 236.026 389.826 152.532 136.663 129.356 205.885 110.091 107.765 276.103 123.601 96.6342 92.7744 99.3528 96.9118 85.7006 84.9646 79.9549 75.0921 89.3901 64.8678 62.7788 55.4245 81.7208 51.7627 57.3775 50.2267 50.1646
threshold=6.1439721026102463 55.685000000000009 115.50000000000001 -0.56174490092936669 0.7036627660344027 48.545000000000009 -0.98523971305672675 5.9834955368317493 6.5242254004686426 -0.48314718476766422 5.2564896435806618 -0.074117039608866245 1.5000000000000002 49.010000000000005 4.9362757447261716 5.5884084196412713 0.16375730385847256 22.500000000000004 -0.71502926860092908 46.440000000000005 3.5000000000000004 43.733258426966295 7.5000000000000009 6.6113698463629484 7.045190297308296 5.5533658090715425 6.0931911389773159 5.3798014637776239 0.49813202191432543 12.500000000000002
decision_type=2 2 2 2 2 2 2 2 2 2 2 2 2 2 2 2 2 2 2 2 2 2 2 2 2 2 2 2 2 2
left_child=1 5 14 4 -4 6 -1 10 -9 -7 11 -8 19 18 -2 -16 -17 24 -13 28 -11 -22 -23 -18 25 -5 27 -14 -12 -29
right_child=2 -3 3 17 -6 9 7 8 -10 20 12 13 26 -15 15 16 23 -19 -20 -21 21 22 -24 -25 -26 -27 -28 29 -30 -31
leaf_value=0.10563395619392396 0.043030825161508156 -0.28289431432882944 -0.37545858860015857 0.050225616395473474 0.066030747499316936 -0.099221334345638762 -0.31412510729648851 -0.28018429428338998 0.0088785246014595042 -0.015745381691626141 0.0011419063577285181 -0.19290602308782667 0.078300751608453303 0.10014665663242339 0.28925858020782469 0.061535731967418433 0.29129272878170004 0.14738121007879576 -0.035997065538540485 -0.19906581964343786 0.027500642041365306 0.27110046581788488 0.09514694780111313 0.11412216288736091 0.090279079661039374 -0.11774208614868778 0.086988642687598872 0.03990949818066189 -0.11145210132235661 -0.056845252578322951
leaf_weight=15.999999999999998 35 11.999999999999998 10.000000000000002 15.000000000000002 9.9999999999999982 9.9999999999999982 10.999999999999998 14.000000000000002 10.999999999999998 13.999999999999998 26 10.999999999999998 19 9.9999999999999982 9.9999999999999982 31 10.000000000000002 14.999999999999998 40 9.9999999999999982 14.999999999999998 11.000000000000002 9.9999999999999982 9.9999999999999982 13.999999999999998 13.999999999999998 24 21 15.999999999999998 37
leaf_count=16 35 12 10 15 10 10 11 14 11 14 26 11 19 10 10 31 10 15 40 10 15 11 10 10 14 14 24 21 16 37
internal_value=-2.20552e-11 -0.0291295 0.0565848 -0.00659818 -0.154714 -0.0197884 -0.0360318 -0.0450984 -0.152997 0.0522239 -0.0331098 -0.0835522 -0.00937213 -0.0419735 0.107921 0.145153 0.116897 0.0444762 -0.0698402 -0.0720039 0.082513 0.120725 0.187313 0.202707 0.00857912 -0.0308622 0.0228739 0.00289012 -0.041751 -0.0218134
internal_weight=512 338 174 78 20 326 266 250 25 60 225 72 153 61 96 61 51 58 51 52 50 36 21 20 43 29 101 77 42 58
internal_count=512 338 174 78 20 326 266 250 25 60 225 72 153 61 96 61 51 58 51 52 50 36 21 20 43 29 101 77 42 58
is_linear=0
shrinkage=0.05


Tree=26
num_leaves=31
num_cat=0
split_feature=23 25 0 23 18 19 3 24 20 19 21 23 20 13 10 18 30 10 23 26 24 24 5 21 26 20 20 28 18 21
split_gain=314.627 227.422 174.869 161.118 129.129 125.518 135.664 193.591 94.0218 93.0394 73.1423 72.3652 127.981 72.2233 97.6501 86.8882 76.3635 65.0626 125.299 143.723 96.2676 55.742 61.439 53.369 44.8256 52.818 57.1607 51.5509 41.8556 41.8731
threshold=48.577857142857148 49.07489010989012 2023.5000000000002 54.68 55.260000000000005 54.855000000000011 5.5000000000000009 4.083506388004623 49.07500000000001 44.010000000000012 56.620000000000005 44.342857142857149 38.20000000000001 -0.8611288361322974 0.91248814248966237 49.910000000000004 5.3588088790648252 0.76696112484652035 52.752857142857152 6.2296723270990872 6.9360458993320302 4.5876403007025379 131.50000000000003 50.845000000000006 6.0974190072815668 47.240000000000002 39.045000000000009 6.2754986372303909 43.170000000000009 42.435000000000009
decision_type=2 2 2 2 2 2 2 2 2 2 2 2 2 2 2 2 2 2 2 2 2 2 2 2 2 2 2 2 2 2
left_child=1 2 4 9 5 6 11 -8 -4 -2 17 13 -13 16 15 21 -1 20 19 -19 -11 22 -15 28 25 26 -23 -26 -14 -30
right_child=3 -3 8 -5 -6 -7 7 -9 -10 10 -12 12 23 14 -16 -17 -18 18 -20 -21 -22 24 -24 -25 27 -27 -28 -29 29 -31
leaf_value=-0.14800738035975133 -0.033775418763980269 -0.25772872284054754 0.023616525266940393 -0.10566567356387775 -0.20340554982423786 -0.18717333268035541 0.26217175006866456 0.0058852126522521888 0.20008098481652828 0.0043044441294941031 -0.0021359439939260482 -0.17731454842968991 -0.095791424186900259 -0.022118064916382234 0.15880553007125855 0.13138160380450162 -0.00023742943174309201 0.36453597897833034 0.047081055049784486 0.13952518668025735 0.16272319715250941 -0.12274594817842757 0.11489666104316712 0.063713510831197112 0.078501069198052095 -0.16181771592660385 -0.00039131154306232935 -0.04549422668427916 0.022216033935546876 -0.072711066919423292
leaf_weight=17 13.999999999999998 9.9999999999999982 18.000000000000004 11.999999999999998 9.9999999999999982 10.999999999999998 9.9999999999999982 28 12.999999999999998 22 13.999999999999998 19 30 18 9.9999999999999982 10.999999999999998 18 11.000000000000002 15.999999999999998 20 17 13.999999999999998 14.999999999999998 11.999999999999998 14.999999999999998 10.999999999999998 30 19 26 21
leaf_count=17 14 10 18 12 10 11 10 28 13 22 14 19 30 18 10 11 18 11 16 20 17 14 15 12 15 11 30 19 26 21
internal_value=-2.72462e-10 -0.0223936 -0.0161347 0.0686027 -0.026356 -0.0210709 -0.0154316 0.073329 0.0976178 0.0869467 0.103848 -0.027225 -0.0595136 -0.00763412 0.00812256 -0.00320699 -0.0720114 0.121101 0.160717 0.219368 0.0733588 -0.015342 0.0401614 -0.0343651 -0.0359219 -0.0638214 -0.0393223 0.00920958 -0.0496501 -0.0201982
internal_weight=512 386 376 126 345 335 324 38 31 114 100 286 108 178 143 133 35 86 47 31 39 122 33 89 89 55 44 34 77 47
internal_count=512 386 376 126 345 335 324 38 31 114 100 286 108 178 143 133 35 86 47 31 39 122 33 89 89 55 44 34 77 47
is_linear=0
shrinkage=0.05


Tree=27
num_leaves=31
num_cat=0
split_feature=30 28 20 4 18 4 4 3 25 14 14 14 14 14 4 17 24 26 26 18 24 29 14 24 26 14 14 3 24 26
split_gain=283.983 205.105 207.18 296.484 196.79 119.668 664.292 201.492 104.833 101.173 91.2093 89.9188 122.017 152.209 148.593 86.7564 78.0197 75.787 68.2217 63.914 57.082 72.6781 50.2108 71.1391 61.0419 58.4609 53.6945 48.197 43.7581 43.6519
threshold=6.1439721026102463 6.4327993761982256 50.245000000000012 17.500000000000004 54.855000000000011 6.5000000000000009 5.5000000000000009 4.5000000000000009 42.392115384615387 -0.44503802506796825 -0.92598152479866191 0.98540325053957545 0.82353009937458566 0.4821958146195448 9.5000000000000018 -0.56174490092936669 6.0522454432976103 5.8547150153181891 5.2527371037241322 47.655000000000008 4.0135163176520638 43.752640449438211 -0.86332053368064354 4.893420546968108 5.8661567429117625 0.89405649444168411 -0.12546058073178529 1.5000000000000002 4.2855491503943561 5.5124392123056305
decision_type=2 2 2 2 2 2 2 2 2 2 2 2 2 2 2 2 2 2 2 2 2 2 2 2 2 2 2 2 2 2
left_child=4 11 3 16 5 6 20 10 -9 29 -7 12 13 15 -14 -2 -3 -17 -11 22 -1 -22 -12 28 26 -26 -25 -19 -24 -10
right_child=1 2 -4 -5 -6 7 -8 8 9 18 19 -13 14 -15 -16 17 -18 27 -20 -21 21 -23 23 24 25 -27 -28 -29 -30 -31
leaf_value=-0.10010820180177689 0.029126206133514645 0.1303326734900474 0.10481922067701817 -0.25021864832960999 -0.18304393193439436 0.089968828161557518 -0.43214713118293074 -0.060627010588844621 0.26585651040077202 0.14616241306066513 -0.12588513577356936 -0.032294352600971861 0.086194389760494206 -0.038539868054029189 0.35876852989196784 0.27176037005459269 -0.040715190162882213 0.046636683261021966 -0.0020445925268259917 -0.12262131631374361 -0.039878618149530323 0.095084617183984907 0.0010483257162074249 4.4145320470516503e-05 -0.033728105966982086 0.10214441895484926 -0.11992935601508979 0.18559596641705589 0.10807064015131732 0.11812049448490143
leaf_weight=11.999999999999998 15.999999999999998 10.000000000000002 24 15.999999999999998 19 14.999999999999998 10.999999999999998 11.999999999999998 10.000000000000002 11.999999999999998 11.999999999999998 11.999999999999998 10.000000000000002 19 9.9999999999999982 11.999999999999998 20 12.000000000000002 22 20 21 19 36 12.999999999999998 38 9.9999999999999982 33 12.999999999999998 12.999999999999998 9.9999999999999982
leaf_count=12 16 10 24 16 19 15 11 12 10 12 12 12 10 19 10 12 20 12 22 20 21 19 36 13 38 10 33 13 13 10
internal_value=-6.57747e-10 0.0518998 -0.0142688 -0.0764016 -0.0267176 -0.0174067 -0.079139 -0.0022147 0.0730487 0.102754 -0.0283588 0.0964363 0.113227 0.0828788 0.222481 0.126406 0.0163008 0.168473 0.0502638 -0.0385012 -0.00446426 0.0242289 -0.027647 -0.0194032 -0.0448651 -0.00542133 -0.0860238 0.118896 0.029442 0.191989
internal_weight=512 174 70 46 338 319 63 256 66 54 190 104 92 72 20 53 30 37 34 175 52 40 155 143 94 48 46 25 49 20
internal_count=512 174 70 46 338 319 63 256 66 54 190 104 92 72 20 53 30 37 34 175 52 40 155 143 94 48 46 25 49 20
is_linear=0
shrinkage=0.05


Tree=28
num_leaves=31
num_cat=0
split_feature=23 24 4 22 29 19 3 24 26 29 28 19 19 21 15 19 11 12 23 23 19 3 22 19 4 26 22 21 26 28
split_gain=267.151 196.209 404.364 140.45 138.323 124.19 155.535 138.148 138.027 185.088 94.7844 91.8493 181.409 158.871 76.3563 100.74 84.4905 60.8254 58.2684 78.5721 79.5533 53.9458 91.4743 54.9565 50.4614 66.5679 56.7092 49.3736 49.9797 49.1475
threshold=48.577857142857148 7.7100708125708595 24.500000000000004 49.370000000000012 51.900170454545467 54.855000000000011 5.5000000000000009 4.083506388004623 6.0974190072815668 44.826492509363305 5.6262817349030696 48.545000000000009 46.470000000000006 43.765000000000008 -0.94636709086600723 49.350000000000009 -0.21862536810265826 0.34235194516023087 41.829285714285724 42.748571428571438 42.255000000000003 1.0000000180025095e-35 41.565000000000005 45.465000000000011 23.500000000000004 6.5127884531614244 43.915000000000006 46.440000000000005 6.7248615955706166 5.4532938418123704
decision_type=2 2 2 2 2 2 2 2 2 2 2 2 2 2 2 2 2 2 2 2 2 2 2 2 2 2 2 2 2 2
left_child=1 3 -3 5 14 6 8 -8 9 11 -9 12 18 -14 -2 27 -17 -13 -1 -20 29 -10 23 -23 25 26 -18 -16 -29 -21
right_child=4 2 -4 -5 -6 -7 7 10 21 -11 -12 17 13 -15 15 16 24 -19 19 20 -22 22 -24 -25 -26 -27 -28 28 -30 -31
leaf_value=0.063156167987514944 0.19278222812482945 -0.013633838370442389 -0.40303918004035949 0.17444639503955842 -0.11521182462573053 -0.17366248965263367 0.24286035895347596 -0.061160173813501986 -0.053371893401656836 -0.23388068526983263 0.11378968618810177 -0.030410733819007864 -0.30047083956499887 -0.043184156094988185 0.064238444441243228 0.23067388351668014 -0.089692667722701999 0.1336122806972036 -0.12164104856889357 -0.014716957681454146 0.030935122887603941 -0.0056063385369877023 0.19378685019910336 0.10576411299407483 0.17807574510574342 0.13577189693848293 0.064024051266411947 -0.10932446328493262 0.039357800856232646 -0.098323914036154758
leaf_weight=17 12.999999999999998 20.000000000000004 9.9999999999999982 9.9999999999999982 9.9999999999999982 11.999999999999998 9.9999999999999982 15.000000000000002 13.999999999999998 11.999999999999998 15.999999999999998 10.000000000000002 12.000000000000002 11.999999999999998 19 10.999999999999998 10.000000000000002 12.999999999999998 22 39 48 36 9.9999999999999982 15.999999999999998 9.9999999999999982 14.999999999999998 14.999999999999998 13.000000000000002 9.9999999999999982 32
leaf_count=17 13 20 10 10 10 12 10 15 14 12 16 10 12 12 19 11 10 13 22 39 48 36 10 16 10 15 15 13 10 32
internal_value=3.4197e-10 -0.020635 -0.143436 -0.0102867 0.0632153 -0.0156258 -0.00994781 0.0812643 -0.0227113 -0.0430206 0.0291365 -0.0318483 -0.0437459 -0.171827 0.0785969 0.0641852 0.105216 0.0622979 -0.0242904 -0.0348336 -0.0187852 0.0352771 0.0552946 0.0286615 0.0776154 0.0525003 0.00253736 0.00459263 -0.04468 -0.052399
internal_weight=512 386 30 356 126 346 334 41 293 217 31 205 182 24 116 103 61 23 158 141 119 76 62 52 50 40 25 42 23 71
internal_count=512 386 30 356 126 346 334 41 293 217 31 205 182 24 116 103 61 23 158 141 119 76 62 52 50 40 25 42 23 71
is_linear=0
shrinkage=0.05


Tree=29
num_leaves=31
num_cat=0
split_feature=23 25 23 0 18 4 4 3 25 18 23 12 14 21 21 13 23 24 14 4 14 21 24 24 21 25 23 26 15 23
split_gain=241.104 215.156 138.002 137.2 103.441 122.512 511.499 141.791 85.7572 79.0956 75.2537 98.2465 73.9226 66.4142 65.6126 86.7919 121.74 84.8423 61.3139 52.6714 51.9743 83.3221 67.9705 60.2968 51.6604 50.9128 50.4718 43.3455 52.9856 57.3276
threshold=48.577857142857148 49.07489010989012 54.68 2023.5000000000002 55.260000000000005 6.5000000000000009 5.5000000000000009 4.5000000000000009 47.695357142857155 41.135000000000012 41.829285714285724 0.29342023166772885 -0.93315108981194117 42.435000000000009 56.620000000000005 -0.19969970580767249 51.592857142857149 6.9360458993320302 -0.68745360333025063 16.500000000000004 -0.85001289022095461 50.660000000000004 4.893420546968108 4.2855491503943561 39.235000000000007 43.352939560439559 43.807857142857152 5.0111449601542857 -0.80290721058497649 44.514285714285727
decision_type=2 2 2 2 2 2 2 2 2 2 2 2 2 2 2 2 2 2 2 2 2 2 2 2 2 2 2 2 2 2
left_child=1 3 14 4 5 6 13 10 -5 -9 11 -7 -12 24 15 16 -2 -17 -11 -18 -14 22 23 -22 -1 -24 -20 -27 -29 -30
right_child=2 -3 -4 8 -6 7 -8 9 -10 18 12 -13 20 -15 -16 17 19 -19 26 -21 21 -23 25 -25 -26 27 -28 28 29 -31
leaf_value=-0.026253417283296578 0.23157603620063691 -0.2485039444640279 -0.10122858223815759 0.19188623602191601 -0.18103264808654784 0.15153357764849293 -0.37415770568574469 -0.042630539139111842 0.021152752990785399 0.19891359448432921 0.067260673642158514 -0.056925517674535513 -0.1558185110986233 -0.072987841546535495 -0.0077879304948605997 -0.0096395158408475786 0.0085982909534747382 0.12724969653706802 0.11530701870268041 0.14913936288406451 -0.041995328913132353 0.062845283250013984 -0.14217350806878962 0.07890712251265844 0.10729484047208514 -0.14508968466384844 0.008204951408234509 -0.13884894490242014 0.039274580279986059 -0.080734375820440407
leaf_weight=15.000000000000002 21 9.9999999999999982 11.999999999999998 12.000000000000002 9.9999999999999982 13.000000000000002 11.999999999999998 14.999999999999998 19 9.9999999999999982 15.999999999999998 9.9999999999999982 9.9999999999999982 25 19 28 15.000000000000002 19 22 11.999999999999998 33 18 23 14.999999999999998 13.999999999999998 10.999999999999998 22 9.9999999999999911 24.000000000000007 17
leaf_count=15 21 10 12 12 10 13 12 15 19 10 16 10 10 25 19 28 15 19 22 12 33 18 23 15 14 11 22 10 24 17
internal_value=-5.53428e-11 -0.0196033 0.0600545 -0.0135155 -0.0225692 -0.0178389 -0.0788828 -0.00286162 0.0872431 0.0589412 -0.0241836 0.0608992 -0.0352395 -0.0132661 0.0770317 0.0939956 0.141286 0.0456987 0.0871555 0.071061 -0.0454259 -0.0381151 -0.0517789 -0.00421331 0.0382182 -0.0786395 0.061756 -0.0550705 -0.0356546 -0.0104852
internal_weight=512 386 126 376 345 335 66 269 31 69 200 23 177 54 114 95 48 47 54 27 161 151 133 48 29 85 44 62 51 41
internal_count=512 386 126 376 345 335 66 269 31 69 200 23 177 54 114 95 48 47 54 27 161 151 133 48 29 85 44 62 51 41
is_linear=0
shrinkage=0.05


Tree=30
num_leaves=31
num_cat=0
split_feature=23 15 18 29 29 18 3 10 14 20 20 3 4 19 19 28 11 12 13 15 19 4 4 23 13 13 28 29 18 11
split_gain=218.486 284.998 434.529 135.882 383.386 121.606 94.8258 84.0172 71.2755 97.6759 107.73 94.3199 77.8714 70.5272 125.665 179.183 98.2649 73.7244 66.571 62.2881 55.1454 54.5971 53.0533 49.6311 74.3195 46.5496 42.9571 62.0169 38.7858 38.5855
threshold=46.705714285714294 0.79513322984152557 52.975000000000001 44.813033707865181 49.962977403343793 54.855000000000011 5.5000000000000009 0.76696112484652035 0.98540325053957545 47.940000000000005 52.285000000000004 4.5000000000000009 23.500000000000004 48.545000000000009 46.470000000000006 5.2069112413046907 -0.065537083312030994 -0.074117039608866245 -0.8611288361322974 -0.15101323386571586 49.595000000000006 18.500000000000004 15.500000000000002 41.829285714285724 0.49813202191432543 0.63920574196977176 6.1278368733683859 43.324302746566794 50.205000000000005 0.84658398682345093
decision_type=2 2 2 2 2 2 2 2 2 2 2 2 2 2 2 2 2 2 2 2 2 2 2 2 2 2 2 2 2 2
left_child=3 8 7 5 -5 6 13 -3 9 11 28 25 20 14 18 -16 -17 -15 26 -8 -12 -13 -21 24 -20 -2 27 -1 -11 -25
right_child=1 2 -4 4 -6 -7 19 -9 -10 10 12 21 -14 17 15 16 -18 -19 23 22 -22 -23 -24 29 -26 -27 -28 -29 -30 -31
leaf_value=-0.016407070434652265 -0.061922191083431236 -0.059338121786713563 -0.36052664548158647 -0.36968770831823339 0.058073678070848636 -0.17786188396540556 0.12851152090649856 0.14562184927519412 -0.032013885791485126 0.27934526530179105 0.098301472701132278 0.049135188872997566 0.19795713081955912 -0.032576672633488978 -0.29643086697906257 0.064500227841463947 -0.14684276255694301 0.11751301089922589 0.16960456475615496 -0.080132593661546681 -0.040339665863519683 0.20453375399112705 0.075803529595335331 0.00018279376271806782 -0.01170208568756397 0.070199413914233441 -0.0034646636141198021 -0.17715647250413896 0.15885157252059265 -0.065873376142095638
leaf_weight=10.000000000000002 20.000000000000004 10.000000000000005 9.9999999999999982 10.000000000000002 10.999999999999998 10.999999999999998 19 9.9999999999999982 12.999999999999998 11.000000000000002 16.000000000000004 13.000000000000002 9.9999999999999982 14.999999999999998 9.9999999999999982 11 11 18 10.000000000000002 10.000000000000002 12.999999999999998 9.9999999999999982 11.999999999999998 122 12.999999999999998 9.9999999999999982 13.999999999999998 14.999999999999998 17 27
leaf_count=10 20 10 10 10 11 11 19 10 13 11 16 13 10 15 10 11 11 18 10 10 13 10 12 122 13 10 14 15 17 27
internal_value=2.75304e-10 0.0477932 -0.0914143 -0.0223217 -0.145622 -0.0144275 -0.00875628 0.0431419 0.0791934 0.0912408 0.131362 0.0405216 0.0776405 -0.0192963 -0.0286105 -0.12094 -0.0411713 0.0492904 -0.014608 0.062196 0.036152 0.1167 0.00492347 -0.00123466 0.0671269 -0.0178817 -0.0735878 -0.112857 0.206188 -0.0117871
internal_weight=512 163 30 349 21 328 317 20 133 120 67 53 39 276 243 32 22 33 211 41 29 23 22 172 23 30 39 25 28 149
internal_count=512 163 30 349 21 328 317 20 133 120 67 53 39 276 243 32 22 33 211 41 29 23 22 172 23 30 39 25 28 149
is_linear=0
shrinkage=0.05


Tree=31
num_leaves=31
num_cat=0
split_feature=30 19 5 17 14 19 15 19 19 19 12 12 23 30 20 21 19 20 30 12 15 28 20 23 3 29 21 20 25 19
split_gain=201.946 277.92 167.267 200.606 317.076 94.0099 125.558 158.752 99.3376 166.651 118.658 82.1978 74.2136 63.1309 83.8016 155.732 81.3044 60.3251 58.6359 57.2364 78.7515 54.3157 53.7807 52.7661 50.9478 64.807 50.1716 66.7539 60.9303 49.5391
threshold=6.1439721026102463 55.685000000000009 115.50000000000001 -0.56174490092936669 0.7036627660344027 48.545000000000009 -0.97008449772828931 40.985000000000007 45.895000000000003 46.675000000000004 -0.51297808981038739 -0.48314718476766422 42.587142857142865 7.0470872788852184 46.170000000000009 42.955000000000005 51.345000000000006 51.82500000000001 6.5933431768673865 -0.38342031270350613 0.016126237724388193 6.5633916094841309 49.105000000000011 45.128571428571441 3.5000000000000004 43.733258426966295 45.625000000000007 42.875000000000007 43.206593406593406 50.675000000000004
decision_type=2 2 2 2 2 2 2 2 2 2 2 2 2 2 2 2 2 2 2 2 2 2 2 2 2 2 2 2 2 2
left_child=1 5 13 4 -4 6 7 -1 10 -10 12 -7 -8 14 15 -2 -16 18 21 -12 22 -5 -21 -11 -13 -26 27 28 -22 -27
right_child=2 -3 3 17 -6 11 8 -9 9 23 19 24 -14 -15 16 -17 -18 -19 -20 20 26 -23 -24 -25 25 29 -28 -29 -30 -31
leaf_value=-0.28810183741152279 0.20889985680580142 -0.25884454622864722 -0.34625477969646445 0.13273219645023343 0.051913357060402635 -0.088158036060631273 0.17233153815296565 -0.01284184093502435 -0.26502975434064868 0.014723893113079523 -0.13751769096336583 -0.01205988169115569 0.02961725284749607 0.0035501054591602754 0.099763984849740722 -0.029070235729556193 0.23747933840050417 0.10952288429988058 -0.096939912438392645 0.048169756649022406 -0.013089331458596622 -0.012604571009675661 -0.063474145736628476 -0.12482257425785065 0.020972682038942973 0.23759081125259393 -0.12467259835255773 0.044374184937853563 -0.15688682571053505 0.083825814723968509
leaf_weight=10.000000000000002 9.9999999999999982 11.999999999999998 10.000000000000002 10.000000000000002 9.9999999999999982 9.9999999999999982 10.999999999999998 10.999999999999998 9.9999999999999982 21.000000000000004 10.999999999999998 13.999999999999998 53 18 29 22 17 19 10.999999999999998 47 17.000000000000004 18 13.999999999999998 9.9999999999999982 14.999999999999998 10.000000000000002 19 19 12.999999999999998 10.999999999999998
leaf_count=10 10 12 10 10 10 10 11 11 10 21 11 14 53 18 29 22 17 19 11 47 17 18 14 10 15 10 19 19 13 11
