tree
version=v4
num_class=1
num_tree_per_iteration=1
label_index=0
max_feature_idx=30
objective=regression
feature_names=Column_0 Column_1 Column_2 Column_3 Column_4 Column_5 Column_6 Column_7 Column_8 Column_9 Column_10 Column_11 Column_12 Column_13 Column_14 Column_15 Column_16 Column_17 Column_18 Column_19 Column_20 Column_21 Column_22 Column_23 Column_24 Column_25 Column_26 Column_27 Column_28 Column_29 Column_30
feature_infos=[2023:2024] [1:12] [1:4] [0:6] [1:31] [1:365] [1:52] [0:1] [0:1] [0:1] [-0.9999994220246925:0.99998555065071859] [-0.99997919295908233:0.9999907524084426] [-0.9999994220246925:0.99995318436087299] [-0.99999768809943823:0.99996300980480612] [-0.99999479822624138:0.99999479822624138] [-0.99997919295908233:0.99991677270219526] [-0.97492791218182362:0.97492791218182362] [-0.90096886790241903:1] [8.0399999999999991:253.37] [8.0399999999999991:253.37] [8.0399999999999991:253.37] [8.0399999999999991:253.37] [6.5999999999999996:203.97] [9.9399999999999995:202.18000000000001] [0.16489534912519532:90.626303708192168] [10.523571428571429:195.32428571428571] [0.78478724862583349:94.910202872718855] [10.571:191.28799999999998] [1.0693985848555922:92.78020151600083] [10.572888888888889:179.09921348314606] [1.4736435350540218:88.857158316254157]
tree_sizes=2855 2963 2943 2970 2919 2981 3016 2941 2887 2996 2967 2981 2999 2983 2965 2946 3041 2960 2942 2970 2925 2933 2957 2977 3009 2985 3053 2997 3059 3052 3095 3011 3064 3002 3064 3028 3057 2995 3131 3041 3026 3137 3071 3035 3003 3082 3008 3008 3043 3047 3063 3012 3008 3032 3041 3037 3105 3094 3060 3082 3047 3025 3098 3117 3050 3054 3103 3108 3134 3097 3062 3051 3118 3063 3104 3140 3108 3164 3091 3096 3090 3082 3133 3044 3101 3085 3175 3102 3085 3167 3141 3128 3093 3100 3161 3092 3136 3152 3109 3137 3156 3130 3170 3100 3125 3087 3156 3140 3128 3136 3153 3120 3109 3206 3047 3191 3181 3162 3167 3174 3185 3162 3151 3189 3087 3090 3148 3177 3147 3134 3108 3093 3161 3159 3087 3173 3118 3084 3177 3113 3144 3143 3162 3159 3188 3136 3133 3136 3119 3139 3097 3096 3163 3176 3081 3187 3133 3163 3251 3175 3152 3148 3148 3204 3203 3180 3185 3120 3174 3136 3174 3210 3122 3205 3184 3211 3213 3177 3114 3197 3174 3134 3194 3169 3109 3184 3193 3186 3169 3182 3152 3199 3212 3164 3180 3192 3214 3140 3142 3133 3216 3173 3207 3092 3144 3162 3136 3189 3176 3188 3099 3096 3182 3205 3143 3209 3088 3127 3189 3199 3165 3161 3104 3140 3152 3207 3188 3152 3198 3186 3106 3113 3190 3155 3175 3216 3165 3121 3236 3170 3071 3153 3169 3145 3163 3243 3144 3158 3178 3141 3173 3180 3238 3144 3180 3186 3189 3228 3220 3210 3161 3208 3194 3118 3215 3208 3147 3189 3167 3185 3245 3163 3197 3171 3205 3131 3233 3162 3135 3150 3177 3150 3183 3197 3194 3106 3146 3133 3242 3153 3238 3160 3186 3182 3189 3224 3200 3192 3202 3143

Tree=0
num_leaves=31
num_cat=0
split_feature=22 0 3 18 3 18 22 24 13 27 19 18 25 22 22 0 3 10 12 12 20 16 22 3 14 22 18 13 27 27
split_gain=2.88919e+06 37800.3 11366.7 11958.2 10360 2485.98 2226.06 2194.9 2293.59 1455.76 1398.24 1281.77 1055.9 582.336 538.624 319.152 69.0339 43.6892 35.5734 55.8078 60.2392 46.6144 29.4926 39.9047 28.4148 19.389 19.1064 18.2533 17.6883 15.1776
threshold=16.730000000000004 2023.5000000000002 3.5000000000000004 156.79000000000002 4.5000000000000009 139.30000000000004 162.16000000000003 21.203409297600654 0.70747208174348741 150.47600000000003 192.02500000000003 161.39500000000004 186.93667582417586 124.20500000000001 130.18500000000003 2023.5000000000002 4.5000000000000009 -0.83847110675477843 0.70288017738294994 0.40024370752619226 12.025 0.87837969732492682 14.175000000000002 4.5000000000000009 0.24268179498748979 8.6800000000000015 11.610000000000001 0.16587474750015932 12.680000000000001 14.147500000000003
decision_type=2 2 2 2 2 2 2 2 2 2 2 2 2 2 2 2 2 2 2 2 2 2 2 2 2 2 2 2 2 2
left_child=15 4 3 -3 5 9 10 8 -7 -2 -4 -6 -5 -10 -13 16 18 -18 19 21 -21 25 23 24 -17 -1 -20 -28 -19 -26
right_child=1 2 6 12 11 7 -8 -9 13 -11 -12 14 -14 -15 -16 22 17 28 26 20 -22 -23 -24 -25 29 -27 27 -29 -30 -31
leaf_value=70.655821553033505 77.602944288143703 77.271371556085256 80.058080673974658 79.478197861474669 79.121271515649468 77.176592616787929 80.483028739596179 78.225355751392939 78.213521576684627 76.821402447797155 79.241171570581116 78.727771530908257 78.951066369261468 77.673921585839892 78.247314453881884 70.865400704504964 70.693083326311239 70.804857271133912 70.766845488268572 70.694371548455862 70.5208215530335 70.618814414645001 70.752571545404109 70.911289204625078 70.817876122971469 70.731728180256681 70.680103372116974 70.753135859020176 70.736556171293813 70.745944266642681
leaf_weight=9.9999999999999982 11.000000000000002 9.9999999999999982 11.000000000000002 19 9.9999999999999982 19 13.999999999999998 19 10.000000000000002 12.999999999999998 9.9999999999999982 10.000000000000002 19 9.9999999999999982 13.999999999999998 24 17 35 23 10.000000000000002 9.9999999999999982 13.999999999999998 9.9999999999999982 17 22 53 22 13.999999999999998 12.999999999999998 10.999999999999998
leaf_count=10 11 10 11 19 10 19 14 19 10 13 10 10 19 10 14 24 17 35 23 10 10 14 10 17 22 53 22 14 13 11
internal_value=73.8081 78.4948 79.3094 78.8098 77.9119 77.6076 79.9947 77.7847 77.57 77.1796 79.6691 78.6457 79.2146 77.9437 78.4475 70.7502 70.7187 70.762 70.7006 70.682 70.6076 70.7013 70.8332 70.8441 70.824 70.7197 70.7312 70.7085 70.7864 70.7939
internal_weight=504 199 83 48 116 82 35 58 39 24 21 34 38 20 24 305 221 65 156 97 20 77 84 74 57 63 59 36 48 33
internal_count=504 199 83 48 116 82 35 58 39 24 21 34 38 20 24 305 221 65 156 97 20 77 84 74 57 63 59 36 48 33
is_linear=0
shrinkage=1


Tree=1
num_leaves=31
num_cat=0
split_feature=23 12 23 10 3 16 3 19 14 24 21 3 20 19 20 14 24 25 25 3 30 14 29 14 15 3 5 23 23 1
split_gain=2.41466e+06 77479.4 32037.4 27069.9 9384.03 6248.64 2754.57 3244.76 2506.22 2182.62 1772.34 2453.58 1990.47 1311.89 1206.13 763.485 541.383 214.954 96.9664 60.1131 46.2668 41.5751 70.2819 37.6099 45.1459 37.0581 61.5973 21.0365 20.8958 14.9387
threshold=38.465000000000011 0.76140650896573492 174.39357142857148 0.99700008544936913 4.5000000000000009 0.87837969732492682 4.5000000000000009 191.56500000000003 0.49065764355977465 24.072146107292863 139.30000000000004 1.5000000000000002 163.59000000000003 163.27500000000003 160.36000000000004 0.4071210141943909 17.0720998100856 13.467857142857143 15.217335164835168 4.5000000000000009 1.9446633129103905 -0.38044538728672533 12.280869419941192 0.436363884474473 0.61915727239714469 4.5000000000000009 66.500000000000014 12.537023809523811 14.224285714285715 2.5000000000000004
decision_type=2 2 2 2 2 2 2 2 2 2 2 2 2 2 2 2 2 2 2 2 2 2 2 2 2 2 2 2 2 2
left_child=3 2 4 17 9 6 7 15 -8 10 11 12 -2 -6 -12 -4 -15 19 25 21 -21 22 -1 29 -25 26 28 -22 -19 -23
right_child=1 -3 5 -5 13 -7 8 -9 -10 -11 14 -13 -14 16 -16 -17 -18 18 -20 20 27 23 -24 24 -26 -27 -28 -29 -30 -31
leaf_value=-3.0887693405151371 4.1615480422973619 0.16932709433815696 5.2138040689321654 -0.26061836242675784 5.1017770131429039 4.1258025741577153 6.5080258178710926 4.5374539375305174 5.4362590471903482 4.1511955863551089 3.5358802355252772 2.9018861664666069 3.1868705368041996 4.7006331253051741 4.2310255686442053 5.7166595882839637 4.180353107452393 -2.8183411407470707 -2.9701136112213136 -2.8563895045100036 -2.9059646878923679 -2.8597865041097008 -2.950264296993133 -2.9363847323826384 -3.0430110344519985 -2.756683219106574 -2.7327443209561437 -3.0009155082702641 -2.8919443059850622 -2.9196882472318766
leaf_weight=12.999999999999998 11.000000000000002 10.999999999999998 13.000000000000002 9.9999999999999982 11.999999999999998 9.9999999999999982 10.000000000000002 11.999999999999998 11.999999999999998 19 13.000000000000002 18 9.9999999999999982 10.000000000000002 11.999999999999998 18 9.9999999999999982 14.999999999999998 11.999999999999998 37 14.000000000000002 14.999999999999998 31 42 12.999999999999998 19 10.999999999999998 9.9999999999999982 27 34
leaf_count=13 11 11 13 10 12 10 10 12 12 19 13 18 10 10 12 18 10 15 12 37 14 15 31 42 13 19 11 10 27 34
internal_value=8.70417e-09 4.24919 4.48539 -2.81877 3.96106 5.28936 5.46837 5.23555 5.92343 3.68062 3.54091 3.33025 3.69742 4.68847 3.86955 5.50578 4.44049 -2.90608 -2.83853 -2.93323 -2.89146 -2.95044 -2.99119 -2.93321 -2.96159 -2.81659 -2.83807 -2.94553 -2.86566 -2.90135
internal_weight=504 201 190 303 115 75 65 43 22 83 64 39 21 32 25 31 20 293 84 209 61 148 44 104 55 72 53 24 42 49
internal_count=504 201 190 303 115 75 65 43 22 83 64 39 21 32 25 31 20 293 84 209 61 148 44 104 55 72 53 24 42 49
is_linear=0
shrinkage=0.05


Tree=2
num_leaves=31
num_cat=0
split_feature=22 0 16 18 7 18 20 24 13 18 23 25 28 22 0 7 24 14 23 7 14 23 24 26 17 14 18 30 23 15
split_gain=2.36351e+06 30695.3 9478.01 9816.19 8809.95 2170.34 2085.77 1941.93 1929.52 1253.64 1057.44 912.103 830.426 514.617 259.177 59.9013 68.4605 48.767 45.581 38.5048 29.2724 27.9198 27.6817 60.5348 54.6612 24.2919 21.8605 16.0648 15.3501 8.94384
threshold=16.730000000000004 2023.5000000000002 -1.0000000180025095e-35 156.79000000000002 1.0000000180025095e-35 139.30000000000004 164.42000000000004 21.203409297600654 0.70747208174348741 161.39500000000004 161.24071428571432 186.93667582417586 20.362209939358483 130.18500000000003 2023.5000000000002 1.0000000180025095e-35 2.42113640533554 -0.98368547223929903 14.882857142857143 1.0000000180025095e-35 0.192317503597666 15.099285714285715 1.7390376911859355 1.7227660719323481 1.0000000180025095e-35 -0.36247790445086708 11.610000000000001 43.244057540887802 14.076428571428574 0.60383265664488517
decision_type=2 2 2 2 2 2 2 2 2 2 2 2 2 2 2 2 2 2 2 2 2 2 2 2 2 2 2 2 2 2
left_child=14 4 6 -4 5 12 -3 8 -7 -6 -10 -5 -2 -11 15 17 27 -1 19 20 -16 -20 26 -24 25 -25 -19 -17 -22 -28
right_child=1 2 3 11 9 7 -8 -9 10 13 -12 -13 -14 -15 18 16 -18 22 21 -21 28 -23 23 24 -26 -27 29 -29 -30 -31
leaf_value=-2.9124490737915041 2.7626452372624319 6.0193903684616092 3.1229704093933108 5.1285722832930718 4.860707092285157 3.0357791298314147 5.2445713444759976 4.0130487442016607 4.10295928955078 4.4683259773254376 3.3758288574218756 4.6386467983848174 3.3529253179376775 3.998698098318918 -2.6253283977508546 -2.7115133884974889 -2.8741621208190917 -2.7541210174560549 -2.802549711863199 -2.600777614116669 -2.6759009141188397 -2.6967867777897765 -2.9250444999107952 -2.9087850570678713 -2.7436408905755907 -2.8078275680541989 -2.7937783813476567 -2.7676880359649658 -2.7472023116217721 -2.8415168175330532
leaf_weight=10.999999999999998 13.000000000000002 15.999999999999998 9.9999999999999982 19 9.9999999999999982 19 19 19 10.000000000000002 10.000000000000002 9.9999999999999982 19 10.999999999999998 13.999999999999998 11.999999999999998 35 9.9999999999999982 34 12.000000000000002 15.999999999999998 13.000000000000002 12.999999999999998 12.999999999999998 10.999999999999998 21 13.000000000000002 40 20 18 12.999999999999998
leaf_count=11 13 16 10 19 10 19 19 19 10 10 10 19 11 14 12 35 10 34 12 16 13 13 13 11 21 13 40 20 18 13
internal_value=-1.89221e-09 4.23894 4.97306 4.51681 3.71366 3.43308 5.59877 3.59855 3.39661 4.39036 3.73939 4.88361 3.03319 4.19438 -2.76573 -2.79415 -2.75382 -2.81095 -2.69097 -2.667 -2.69163 -2.74755 -2.80325 -2.83001 -2.80255 -2.8541 -2.78541 -2.73194 -2.7173 -2.80549
internal_weight=504 199 83 48 116 82 35 58 39 34 20 38 24 24 305 221 65 156 84 59 43 25 145 58 45 24 87 55 31 53
internal_count=504 199 83 48 116 82 35 58 39 34 20 38 24 24 305 221 65 156 84 59 43 25 145 58 45 24 87 55 31 53
is_linear=0
shrinkage=0.05


Tree=3
num_leaves=31
num_cat=0
split_feature=22 23 7 16 4 19 10 7 19 14 21 21 30 14 24 14 5 29 19 22 25 23 7 23 7 28 11 22 26 14
split_gain=2.13307e+06 26734.5 11099.9 5451.46 4791.68 3278.22 3858.44 2234.04 2896.21 2170.99 1250 1124 813.511 686.851 650.538 497.926 142.215 98.2329 62.1404 77.3024 62.4315 73.7641 38.2639 34.4007 30.7758 35.1333 26.2495 22.6545 22.4231 19.4301
threshold=16.730000000000004 174.39357142857148 1.0000000180025095e-35 0.87837969732492682 7.5000000000000009 15.620000000000003 0.91248814248966237 1.0000000180025095e-35 191.56500000000003 0.49065764355977465 125.46500000000002 13.420000000000002 19.526587231818251 0.4071210141943909 16.936679556724147 -0.49063722529244219 72.500000000000014 12.344726009088481 10.945000000000002 9.8450000000000006 15.217335164835168 14.379285714285716 1.0000000180025095e-35 12.464404761904763 1.0000000180025095e-35 1.8887784255704716 0.18281312110578132 9.7300000000000022 1.3162448820473662 0.24268179498748979
decision_type=2 2 2 2 2 2 2 2 2 2 2 2 2 2 2 2 2 2 2 2 2 2 2 2 2 2 2 2 2 2
left_child=16 2 5 7 -4 -2 10 8 13 -9 11 -7 -12 -3 -14 -6 17 24 19 -18 21 23 29 26 25 -1 28 -25 -20 -19
right_child=1 3 4 -5 15 6 -8 9 -10 -11 12 -13 14 -15 -16 -17 18 22 20 -21 -22 -23 -24 27 -26 -27 -28 -29 -30 -31
leaf_value=-2.6318901010461757 2.5056994438171389 4.7080639765812791 5.2460400772094733 3.6853598785400394 4.2349252700805655 3.2389233165317108 4.3102209854125979 5.8932773590087875 4.0701579411824547 4.8957608222961433 3.1401765550885883 2.5777805042266846 3.3594549496968575 5.1850154452853729 3.8800866762797037 3.7851672291755678 -2.643074137369791 -2.5217841211954752 -2.6996144430977957 -2.8035966237386067 -2.7308682971530494 -2.5076112573797054 -2.4843800650702583 -2.7419353138316764 -2.5815574827648344 -2.7375177574157714 -2.5860985788805735 -2.657250806263515 -2.6221149103982109 -2.5898003986903602
leaf_weight=37 11.999999999999998 13.000000000000002 9.9999999999999982 9.9999999999999982 10.000000000000002 18.000000000000004 9.9999999999999982 10.000000000000002 11.999999999999998 11.999999999999998 13.999999999999998 9.9999999999999982 12.000000000000002 18 11.999999999999998 15.999999999999998 15.000000000000002 14.999999999999998 13.999999999999998 14.999999999999998 18 10.999999999999998 18 10.999999999999998 21 9.9999999999999982 29 28 28 35
leaf_count=37 12 13 10 10 10 18 10 10 12 12 14 10 12 18 12 16 15 15 14 15 18 11 18 11 21 10 29 28 28 35
internal_value=-7.75806e-09 4.02699 3.57628 4.77217 4.3159 3.2737 3.39497 4.93937 4.7297 5.34918 3.25629 3.0028 3.44308 4.985 3.61977 3.95815 -2.62745 -2.58939 -2.65807 -2.72334 -2.64399 -2.63106 -2.54689 -2.64341 -2.63188 -2.65436 -2.62269 -2.68114 -2.64795 -2.5694
internal_weight=504 199 124 75 36 88 76 65 43 22 66 28 38 31 24 26 305 136 169 30 139 121 68 110 68 47 71 39 42 50
internal_count=504 199 124 75 36 88 76 65 43 22 66 28 38 31 24 26 305 136 169 30 139 121 68 110 68 47 71 39 42 50
is_linear=0
shrinkage=0.05


Tree=4
num_leaves=31
num_cat=0
split_feature=22 0 4 3 3 25 14 3 4 18 22 19 13 27 28 0 3 24 29 14 3 14 25 25 24 14 22 29 23 3
split_gain=1.92509e+06 25150.6 8356.14 8974.7 7102.95 3778.6 2867.75 3701.74 1880.12 1809.78 1653.66 3081.95 2179.76 1165.1 263.554 209.665 50.8469 59.6556 45.4973 42.1265 26.4259 33.1666 25.4217 63.9415 81.0318 16.6848 27.0724 16.5215 16.4928 13.5411
threshold=16.730000000000004 2023.5000000000002 21.500000000000004 2.5000000000000004 4.5000000000000009 190.27000000000001 0.77312223884982734 3.5000000000000004 8.5000000000000018 139.30000000000004 133.33000000000001 150.59500000000003 0.70747208174348741 153.32016666666672 19.700940092401883 2023.5000000000002 4.5000000000000009 2.42113640533554 14.191833333333333 -0.98368547223929903 4.5000000000000009 0.24268179498748979 12.269285714285717 12.432225274725278 1.7390376911859355 0.436363884474473 10.455000000000002 12.274983293237103 14.076428571428574 2.5000000000000004
decision_type=2 2 2 2 2 2 2 2 2 2 2 2 2 2 2 2 2 2 2 2 2 2 2 2 2 2 2 2 2 2
left_child=15 4 5 -4 9 6 7 -3 -6 13 12 -12 -11 -2 -10 16 19 27 20 -1 21 -17 25 24 -24 29 -27 -18 -23 -21
right_child=1 2 3 -5 8 -7 -8 -9 14 10 11 -13 -14 -15 -16 18 17 -19 -20 22 -22 28 23 -25 -26 26 -28 -29 -30 -31
leaf_value=-2.6314471158114348 3.0274968828473767 4.7922060452974753 2.7366738637288406 4.6704419771830237 4.5337868881225587 4.1811906702378216 4.538027906417847 5.985414739755484 3.5653620793269223 2.6746573849728232 4.1812418157404103 2.9684228706359868 3.4424821217854822 2.3208643817901611 3.8979010668667886 -2.3767908626132543 -2.4304888811978427 -2.5968128585815431 -2.5189674377441409 -2.458235177539644 -2.3632168719643043 -2.4127925395965577 -2.5398126602172848 -2.5161477661132814 -2.7161008834838869 -2.4989501953125002 -2.5930936336517334 -2.4864269892374677 -2.4851022803265117 -2.5217182704380581
leaf_weight=10.999999999999998 14.000000000000002 13.000000000000002 12.000000000000002 11.999999999999998 9.9999999999999982 17 15.999999999999998 12.999999999999998 13.000000000000002 19 11.000000000000002 9.9999999999999982 18 9.9999999999999982 10.999999999999998 18 22 9.9999999999999982 11.999999999999998 21 19 11.999999999999998 16.000000000000004 50 10.999999999999998 21 11.999999999999998 33 23 13.999999999999998
leaf_count=11 14 13 12 12 10 17 16 13 13 19 11 10 18 10 11 18 22 10 12 21 19 12 16 50 11 21 12 33 23 14
internal_value=-1.51377e-09 3.82564 4.49016 3.70356 3.35017 4.81013 5.0647 5.38881 3.95778 3.09823 3.24933 3.60371 3.04819 2.73307 3.71778 -2.49607 -2.52163 -2.48448 -2.42883 -2.53711 -2.41381 -2.43195 -2.52996 -2.54963 -2.61163 -2.50768 -2.53318 -2.46405 -2.46031 -2.48363
internal_weight=504 199 83 24 116 59 42 26 34 82 58 21 37 24 24 305 221 65 84 156 72 53 145 77 27 68 33 55 35 35
internal_count=504 199 83 24 116 59 42 26 34 82 58 21 37 24 24 305 221 65 84 156 72 53 145 77 27 68 33 55 35 35
is_linear=0
shrinkage=0.05


Tree=5
num_leaves=31
num_cat=0
split_feature=22 0 4 18 7 16 20 4 18 23 22 11 28 24 18 1 0 7 24 29 14 7 14 24 24 17 5 18 29 23
split_gain=1.7374e+06 22698.4 7541.42 7804.08 6410.41 2569.4 1933.67 1696.8 1633.33 1553.61 2473.5 1693.42 708.602 705.141 874.797 242.86 189.222 45.8893 53.8391 41.0613 38.0191 23.8493 29.9329 23.1217 43.4439 50.895 26.883 18.4576 14.9107 14.9084
threshold=16.730000000000004 2023.5000000000002 21.500000000000004 171.14500000000001 1.0000000180025095e-35 -1.0000000180025095e-35 166.69000000000003 8.5000000000000018 139.30000000000004 162.42714285714288 133.33000000000001 -0.9260227363677036 20.362209939358483 17.588451370359376 176.54500000000004 5.5000000000000009 2023.5000000000002 1.0000000180025095e-35 2.42113640533554 14.191833333333333 -0.98368547223929903 1.0000000180025095e-35 0.24268179498748979 1.7390376911859355 1.888613117697435 1.0000000180025095e-35 311.50000000000006 11.610000000000001 12.274983293237103 14.224285714285715
decision_type=2 2 2 2 2 2 2 2 2 2 2 2 2 2 2 2 2 2 2 2 2 2 2 2 2 2 2 2 2 2
left_child=16 4 5 -4 8 6 -3 -6 12 10 11 -10 -2 -7 -15 -9 17 20 28 21 -1 22 -18 27 -25 26 -26 -22 -19 -24
right_child=1 2 3 -5 7 13 -8 15 9 -11 -12 -13 -14 14 -16 -17 19 18 -20 -21 23 -23 29 24 25 -27 -28 -29 -30 -31
leaf_value=-2.4998747738924898 2.3464995604294994 5.3725527690007127 2.4515647506713858 4.2803910119192947 4.307097511291504 4.6036081314086914 4.5101620013897232 3.3728336016337068 3.3712149620056153 2.5802041610081989 3.7461202367146811 2.6286317713120404 2.8917659586126154 3.7679286956787097 4.4011336326599126 3.6909403006235757 -2.2579513125949435 -2.3089644518765535 -2.466972198486328 -2.3930190563201905 -2.3584016912123738 -2.24505605195698 -2.3017343044281007 -2.4951142703785618 -2.4021657466888424 -2.3267041015625001 -2.5066704750061035 -2.4056014294894239 -2.3621056585600884 -2.3672406447561163
leaf_weight=10.999999999999998 13.000000000000002 13.000000000000002 10.000000000000002 13.999999999999998 9.9999999999999982 10.999999999999998 12.999999999999998 12.000000000000002 13.999999999999998 11.999999999999998 14.999999999999998 17.000000000000004 10.999999999999998 10.000000000000002 11.999999999999998 11.999999999999998 18 22 9.9999999999999982 11.999999999999998 34 19 15.999999999999998 17 16.000000000000004 14.999999999999998 9.9999999999999982 53 33 19
leaf_count=11 13 13 10 14 10 11 13 12 14 12 15 17 11 10 12 12 18 22 10 12 34 19 16 17 16 15 10 53 33 19
internal_value=-6.2443e-09 3.63436 4.26565 3.51838 3.18266 4.56962 4.94136 3.75989 2.94332 3.08686 3.21903 2.96399 2.59641 4.27674 4.11331 3.53189 -2.37127 -2.39555 -2.36025 -2.30739 -2.41026 -2.29312 -2.31035 -2.40346 -2.42791 -2.40005 -2.44236 -2.38716 -2.34085 -2.33729
internal_weight=504 199 83 24 116 59 26 34 82 58 46 31 24 33 22 24 305 221 65 84 156 72 53 145 58 41 26 87 55 35
internal_count=504 199 83 24 116 59 26 34 82 58 46 31 24 33 22 24 305 221 65 84 156 72 53 145 58 41 26 87 55 35
is_linear=0
shrinkage=0.05


Tree=6
num_leaves=31
num_cat=0
split_feature=22 0 26 7 7 10 19 4 19 25 14 12 14 21 4 21 0 14 16 23 12 26 7 16 23 12 12 17 14 29
split_gain=1.568e+06 20485.3 7129.32 5785.39 2509.99 4262.39 2348.38 1531.37 1245.42 1498.8 1664.13 1414.85 545.025 586.979 508.146 431.344 170.773 41.6042 39.9234 37.7205 30.3149 37.1636 26.6851 23.5335 22.5837 27.9683 32.4659 55.3157 21.8167 21.346
threshold=16.730000000000004 2023.5000000000002 16.057479312405608 1.0000000180025095e-35 1.0000000180025095e-35 0.81925054981890411 191.56500000000003 8.5000000000000018 133.41000000000003 155.70142857142858 0.17011679340681604 -0.85227431625818906 0.35946433354369983 15.910000000000002 11.500000000000002 13.855000000000002 2023.5000000000002 -0.96435839813458457 -0.8783796973249266 14.882857142857143 -0.77245553105869302 2.4185995172368422 1.0000000180025095e-35 -1.0000000180025095e-35 11.583571428571432 0.63920241694561786 0.40024370752619226 1.0000000180025095e-35 0.192317503597666 14.505674157303371
decision_type=2 2 2 2 2 2 2 2 2 2 2 2 2 2 2 2 2 2 2 2 2 2 2 2 2 2 2 2 2 2
left_child=16 3 -3 8 6 -6 12 -5 14 11 -11 -10 13 -4 -2 -9 17 -1 29 22 21 -20 28 -21 -22 26 -26 -28 -18 -19
right_child=1 2 4 7 5 -7 -8 15 9 10 -12 -13 -14 -15 -16 -17 19 18 20 23 24 -23 -24 -25 25 -27 27 -29 -30 -31
leaf_value=-2.3486261791653105 2.2060857963562004 2.8668039842085409 4.3133067911321454 4.0917426490783688 3.9795864868164048 5.4394469833374028 3.4017041639848191 3.1248560298572876 2.7924813588460289 2.3087251365184782 3.0703316028301533 3.4587208130780391 4.4206187800357215 3.7967716217041017 2.6985530853271484 3.5502774311945995 -2.1334789594014487 -2.1839733826486682 -2.4045935249328605 -2.3029067802429188 -2.216644926632152 -2.2682784843444828 -2.1150843262672425 -2.2038833618164064 -2.2767340779304504 -2.2544187372381037 -2.2708006425337355 -2.4293676549738108 -2.2128801961098947 -2.271495142850009
leaf_weight=18 10.000000000000002 10.999999999999998 11.000000000000002 9.9999999999999982 10.000000000000002 9.9999999999999982 10.999999999999998 11.000000000000002 14.999999999999998 16.000000000000004 12.999999999999998 17 19 10.999999999999998 10.999999999999998 12.999999999999998 11.999999999999998 19.000000000000004 10.000000000000002 10.000000000000002 17 9.9999999999999982 15.999999999999998 14.999999999999998 48 66 11.000000000000002 10.999999999999998 31 10.999999999999998
leaf_count=18 10 11 11 10 10 10 11 11 15 16 13 17 19 11 11 13 12 19 10 10 17 10 16 15 48 66 11 11 31 11
internal_value=3.21676e-09 3.45264 4.05237 3.02352 4.2335 4.70952 4.05041 3.5719 2.79615 2.91048 2.65013 3.14642 4.22445 4.05504 2.46404 3.35529 -2.25271 -2.27577 -2.26931 -2.19202 -2.27855 -2.33644 -2.17021 -2.24349 -2.27098 -2.27777 -2.29979 -2.35008 -2.19072 -2.21606
internal_weight=504 199 83 116 72 20 52 34 82 61 29 32 41 22 21 24 305 221 203 84 173 20 59 25 153 136 70 22 43 30
internal_count=504 199 83 116 72 20 52 34 82 61 29 32 41 22 21 24 305 221 203 84 173 20 59 25 153 136 70 22 43 30
is_linear=0
shrinkage=0.05


Tree=7
num_leaves=31
num_cat=0
split_feature=22 0 3 18 3 22 18 23 22 11 23 27 25 18 21 0 23 29 15 3 29 14 14 14 3 14 14 23 25 14
split_gain=1.41512e+06 18488 6547.83 7571.9 5221.32 2103.01 1403.4 1398.23 2139.12 1460.55 1224.88 999.784 891.654 837.934 439.38 154.123 39.1407 54.1923 60.9268 39.1914 36.2656 34.3653 29.469 49.0294 19.9293 25.6643 14.2886 13.6864 13.1985 11.8882
threshold=16.730000000000004 2023.5000000000002 2.5000000000000004 163.87500000000003 4.5000000000000009 162.16000000000003 139.30000000000004 162.42714285714288 133.33000000000001 -0.9260227363677036 184.70928571428576 153.32016666666672 188.91260989010991 161.39500000000004 13.855000000000002 2023.5000000000002 12.464404761904763 11.953483146067418 -0.79902849257019848 4.5000000000000009 14.191833333333333 -0.95628930279329516 0.62671365618031138 0.81428814218200329 4.5000000000000009 0.24268179498748979 -0.32003757145143863 14.076428571428574 12.25107142857143 0.42180388294288101
decision_type=2 2 2 2 2 2 2 2 2 2 2 2 2 2 2 2 2 2 2 2 2 2 2 2 2 2 2 2 2 2
left_child=15 4 3 -3 6 10 11 8 9 -8 -4 -2 -5 -6 -15 16 19 -18 -19 22 24 -20 26 -24 25 -17 -1 -27 -28 -21
right_child=1 2 5 12 13 -7 7 -9 -10 -11 -12 -13 -14 14 -16 20 17 18 21 29 -22 -23 23 -25 -26 27 28 -29 -30 -31
leaf_value=-2.1670280158519746 2.6075251647404256 2.179262580871582 3.7085602402687066 4.0667584010532911 3.7778404235839846 4.7340538533528642 3.0558022771562854 2.3087465365727744 3.4049571100870772 2.3661641625797043 4.3374761454264323 1.952942180633545 3.4916967391967777 3.0005027250810095 3.4298687127920298 -2.0362401538425021 -2.1321133104960124 -2.3016995620727538 -2.2584022363026937 -2.0717353502909344 -2.1628928343455001 -2.159983247869155 -2.2933457946777334 -2.1552625338236493 -2.0250719773141963 -2.0664222081502279 -2.0977774880149149 -2.1322932865308681 -2.1648558183149862 -2.1284397225630913
leaf_weight=32 14.000000000000002 9.9999999999999982 16.000000000000004 14.000000000000002 9.9999999999999982 14.999999999999998 13.999999999999998 11.999999999999998 14.999999999999998 17.000000000000004 14.999999999999998 9.9999999999999982 12.999999999999998 11.000000000000002 12.999999999999998 18 30 14.999999999999998 11.999999999999998 18 11.999999999999998 34 10.000000000000002 18 19 11.999999999999998 22 23 10.999999999999998 19
leaf_count=32 14 10 16 14 10 15 14 12 15 17 15 10 13 11 13 18 30 15 12 18 12 34 10 18 19 12 22 23 11 19
internal_value=-4.16286e-09 3.28001 3.84975 3.35458 2.87235 4.24804 2.65634 2.7894 2.91479 2.67761 4.01287 2.33478 3.78988 3.3933 3.23308 -2.14007 -2.16198 -2.18713 -2.21419 -2.14438 -2.08242 -2.18566 -2.16169 -2.20458 -2.06901 -2.08476 -2.14322 -2.10971 -2.12014 -2.10085
internal_weight=504 199 83 37 116 46 82 58 46 31 31 24 27 34 24 305 221 91 61 130 84 46 93 28 72 53 65 35 33 37
internal_count=504 199 83 37 116 46 82 58 46 31 31 24 27 34 24 305 221 91 61 130 84 46 93 28 72 53 65 35 33 37
is_linear=0
shrinkage=0.05


Tree=8
num_leaves=31
num_cat=0
split_feature=22 0 3 22 3 19 18 19 22 19 13 27 14 3 24 0 3 24 29 14 28 28 22 3 14 21 18 19 29 14
split_gain=1.27715e+06 16685.4 5927.04 7535.1 4712.24 1827 1266.57 1216.79 1171.06 2522.74 1603 902.305 775.644 543.994 527.346 139.096 35.6088 44.186 32.7297 29.4958 19.6169 43.1778 58.1716 17.9862 23.2257 16.9939 13.5493 14.4489 13.0853 11.5217
threshold=16.730000000000004 2023.5000000000002 3.5000000000000004 144.59 4.5000000000000009 192.02500000000003 139.30000000000004 187.45000000000002 133.33000000000001 150.59500000000003 0.70747208174348741 153.32016666666672 -0.69673670607230054 1.5000000000000002 17.0720998100856 2023.5000000000002 4.5000000000000009 2.42113640533554 14.191833333333333 -0.98368547223929903 1.7954874270122507 2.0211138141003735 9.8850000000000016 4.5000000000000009 0.192317503597666 152.91000000000003 11.610000000000001 12.375000000000002 12.279031448202959 0.34133941183414723
decision_type=2 2 2 2 2 2 2 2 2 2 2 2 2 2 2 2 2 2 2 2 2 2 2 2 2 2 2 2 2 2
left_child=15 4 3 -3 6 -4 11 13 10 -10 -8 -2 -6 -5 -14 16 19 28 23 -1 25 22 -22 24 -17 26 -21 -28 29 -18
right_child=1 2 5 7 12 -7 8 -9 9 -11 -12 -13 14 -15 -16 18 17 -19 -20 20 21 -23 -24 -25 -26 -27 27 -29 -30 -31
leaf_value=-2.1457756042480471 2.4771489483969549 2.2685520318838264 4.5237910102395453 4.1044787773719191 3.5936065292358403 3.8009998533460831 2.1603436319451581 3.2701127052307131 3.4706692782315329 2.3733844184875488 2.818796475728353 1.8552950859069826 3.3467981529235828 3.6139557838439944 2.8713978358677457 -1.9323531206916362 -1.9365048980712887 -2.1194716453552247 -2.0547482013702392 -2.0108686208724977 -2.2172084288163609 -2.0423865020275116 -2.0712624655829539 -1.9238183573672647 -2.0032645490434433 -2.0934135309855146 -2.0323027451833089 -2.0977529965914212 -2.0266721171717488 -2.0067750249590195
leaf_weight=10.999999999999998 14.000000000000002 12.999999999999998 17 13.000000000000002 9.9999999999999982 18 19 11.999999999999998 11.000000000000002 9.9999999999999982 18 9.9999999999999982 10.000000000000002 9.9999999999999982 13.999999999999998 17 10.000000000000002 9.9999999999999982 11.999999999999998 32 11.000000000000002 32 18 19 36 14.999999999999998 24 12.999999999999998 31 13.999999999999998
leaf_count=11 14 13 17 13 10 18 19 12 11 10 18 10 10 10 14 17 10 10 12 32 11 32 18 19 36 15 24 13 31 14
internal_value=7.75806e-09 3.11601 3.65726 3.29646 2.72873 4.15207 2.52353 3.67826 2.64993 2.94815 2.48067 2.21804 3.22364 3.89121 3.06948 -2.03307 -2.05388 -2.02279 -1.9783 -2.06684 -2.06085 -2.08243 -2.12662 -1.96556 -1.98052 -2.04518 -2.03469 -2.0553 -2.00521 -1.9775
internal_weight=504 199 83 48 116 35 82 35 58 21 37 24 34 23 24 305 221 65 84 156 145 61 29 72 53 84 69 37 55 24
internal_count=504 199 83 48 116 35 82 35 58 21 37 24 34 23 24 305 221 65 84 156 145 61 29 72 53 84 69 37 55 24
is_linear=0
shrinkage=0.05


Tree=9
num_leaves=31
num_cat=0
split_feature=22 23 16 26 22 22 25 4 14 25 24 17 23 12 25 26 0 23 29 16 16 23 14 12 6 24 16 16 24 26
split_gain=1.15262e+06 15190.2 8889.17 4512.95 3801.34 2639.88 1327.26 1647.98 1437.48 1084.07 1528.68 1008.57 835.242 665.243 537.007 220.656 125.534 33.1249 47.005 36.3617 32.4 32.1366 26.2196 25.969 23.4655 26.3058 22.6295 20.4065 18.5296 16.3471
threshold=16.730000000000004 177.82714285714289 -0.60785761079279388 15.84576854282925 152.98500000000004 157.66500000000002 190.70000000000005 17.500000000000004 0.78326178756187315 162.15035714285719 22.330132228876202 1.0000000180025095e-35 153.2714285714286 -0.23432901867687267 153.27357142857144 22.296791770573019 2023.5000000000002 12.464404761904763 11.953483146067418 0.6078576107927941 -0.60785761079279388 14.882857142857143 0.76070426302234284 0.35845153958890236 45.500000000000007 2.4021564952467505 -1.0000000180025095e-35 -0.60785761079279388 1.9193878274095442 1.3063507245506389
decision_type=2 2 2 2 2 2 2 2 2 2 2 2 2 2 2 2 2 2 2 2 2 2 2 2 2 2 2 2 2 2
left_child=16 2 4 -4 13 9 7 8 -3 10 11 12 -5 -2 -12 -9 17 20 -19 24 -1 27 29 -24 25 -20 -23 -18 -29 -22
right_child=1 6 3 5 -6 -7 -8 15 -10 -11 14 -13 -14 -15 -16 -17 21 18 19 -21 22 26 23 -25 -26 -27 -28 28 -30 -31
leaf_value=-1.8954201569428315 2.7884495005888099 4.2489650726318358 1.4794756968816123 2.2206066911870774 4.1200058937072752 3.2790463447570803 3.1996604807236615 3.5293142127990715 3.5342133680979408 2.8938761520385743 2.3913941860198968 2.455400950568063 1.604444880919023 3.2635928814227757 2.8552336032573997 3.1971575355529787 -1.8110457777976992 -1.9230848757425942 -1.9705404455011544 -2.0671298980712893 -1.9952157974243165 -1.9851552772521968 -1.9488422393798821 -2.0579405212402344 -1.9234931537083217 -2.0683450126647949 -1.88805238087972 -1.8299497195652554 -1.8999943437247442 -1.9262466524468094
leaf_weight=37 17 17.000000000000004 11.999999999999998 11.000000000000002 9.9999999999999982 9.9999999999999982 17 10.000000000000002 11.999999999999998 9.9999999999999982 12.000000000000002 13.999999999999998 10.999999999999998 13.000000000000002 12.999999999999998 9.9999999999999982 15.999999999999998 30 22 14.999999999999998 9.9999999999999982 10.000000000000002 12.000000000000002 9.9999999999999982 13.999999999999998 9.9999999999999982 14.999999999999998 13.999999999999998 29 61
leaf_count=37 17 17 12 11 10 10 17 10 12 10 12 14 11 13 13 10 16 30 22 15 10 10 12 10 14 10 15 14 29 61
internal_value=-4.4467e-09 2.96021 2.65248 2.3844 3.27576 2.51846 3.58033 3.7124 3.95321 2.41133 2.33223 2.12364 1.91253 2.99434 2.63259 3.36324 -1.93141 -1.95119 -1.97433 -1.99953 -1.93499 -1.87938 -1.95074 -1.99843 -1.97748 -2.0011 -1.92689 -1.85925 -1.87719 -1.93596
internal_weight=504 199 133 93 40 81 66 49 29 71 61 36 22 30 25 20 305 221 91 61 130 84 93 22 46 32 25 59 43 71
internal_count=504 199 133 93 40 81 66 49 29 71 61 36 22 30 25 20 305 221 91 61 130 84 93 22 46 32 25 59 43 71
is_linear=0
shrinkage=0.05


Tree=10
num_leaves=31
num_cat=0
split_feature=22 23 3 26 22 22 19 3 27 18 28 22 15 30 25 4 5 29 19 22 25 23 3 5 17 29 4 16 18 23
split_gain=1.04024e+06 13709.2 8022.47 4104.17 3430.71 2309.22 2187.17 1388.99 1237.81 1011.94 1420.17 1252.86 997.801 600.382 371.016 190.352 72.8568 47.9374 45.8177 64.4488 47.0109 52.8402 24.4054 24.0581 20.9293 25.6827 18.3744 16.0792 15.74 14.7403
threshold=16.730000000000004 177.82714285714289 4.5000000000000009 16.057479312405608 152.98500000000004 157.66500000000002 191.56500000000003 3.5000000000000004 186.10993103448277 139.30000000000004 20.362209939358483 130.18500000000003 -0.30163931797635496 40.906789663835085 189.49107142857147 11.500000000000002 72.500000000000014 11.634775280898879 10.945000000000002 9.8450000000000006 15.217335164835168 14.379285714285716 4.5000000000000009 238.50000000000003 -0.56174490092936669 12.279031448202959 12.500000000000002 0.6078576107927941 12.075000000000001 12.000714285714288
decision_type=2 2 2 2 2 2 2 2 2 2 2 2 2 2 2 2 2 2 2 2 2 2 2 2 2 2 2 2 2 2
left_child=16 2 3 -2 13 9 7 14 -8 10 -5 12 -11 -4 15 -3 17 27 19 -18 21 23 -19 28 -25 -26 -24 -1 -20 -27
right_child=1 6 4 5 -6 -7 8 -9 -10 11 -12 -13 -14 -15 -16 -17 18 22 20 -21 -22 -23 26 24 25 29 -28 -29 -30 -31
leaf_value=-1.8310876316494413 1.4761514050619944 3.6937984085082984 3.1004132490891667 1.622920261729847 3.9140056419372558 3.1150940132141116 2.5773636245727531 4.0113032204764236 3.3459798292680221 2.5276168482644219 2.382108020782471 2.7826682707842658 1.9192882941319387 2.6490270109737626 3.1780226794156161 3.3852924346923832 -1.839518801371256 -1.8018024057149888 -1.8520629247029619 -1.986089350382487 -1.9200612386067708 -1.728968941081654 -1.7829225686880255 -1.8757667904808408 -1.7446530342102051 -1.7982360385713123 -1.6951186440207744 -1.8979190031687421 -1.9369991302490235 -1.8509469350179035
leaf_weight=36 13.999999999999998 10.000000000000005 13.000000000000002 11.000000000000002 9.9999999999999982 9.9999999999999982 10.000000000000002 13.999999999999998 10.999999999999998 13.999999999999998 13.999999999999998 17 13.000000000000002 17 10.999999999999998 9.9999999999999982 15.000000000000002 64 12.000000000000002 14.999999999999998 18 10.999999999999998 13.000000000000002 21 9.9999999999999982 21 10.999999999999998 11.999999999999998 9.9999999999999982 36
leaf_count=36 14 10 13 11 10 10 10 14 11 14 14 17 13 17 11 10 15 64 12 15 18 11 13 21 10 21 11 12 10 36
internal_value=1.04072e-09 2.8122 2.51985 2.26518 3.11197 2.405 3.40132 3.59794 2.97997 2.30209 2.04807 2.44643 2.23472 2.84463 3.41126 3.53955 -1.83484 -1.8076 -1.85677 -1.9128 -1.84467 -1.83346 -1.78568 -1.8439 -1.83221 -1.81856 -1.74268 -1.8478 -1.89067 -1.83153
internal_weight=504 199 133 93 40 79 66 45 21 69 25 44 27 30 31 20 305 136 169 30 139 121 88 110 88 67 24 48 22 57
internal_count=504 199 133 93 40 79 66 45 21 69 25 44 27 30 31 20 305 136 169 30 139 121 88 110 88 67 24 48 22 57
is_linear=0
shrinkage=0.05


Tree=11
num_leaves=31
num_cat=0
split_feature=22 23 22 3 20 12 12 19 4 27 3 27 24 20 21 11 28 22 5 19 17 22 25 23 25 1 3 14 24 14
split_gain=938820 12372.5 7301.72 5580.38 4079.95 2893.69 2821.21 1973.92 1256.81 1290.68 1253.56 1117.12 725.927 1256.35 724.083 580.025 465.432 333.531 65.7532 41.3505 60.7464 44.4793 40.2963 40.5417 34.6864 25.1883 20.9933 15.2015 21.2 19.7001
threshold=16.730000000000004 177.82714285714289 156.67000000000004 3.5000000000000004 154.04000000000005 -0.95753797188986722 0.34235194516023087 191.56500000000003 8.5000000000000018 152.84133333333335 3.5000000000000004 186.10993103448277 21.203409297600654 151.16500000000002 15.910000000000002 -0.9497838742125716 19.962060237325211 136.24500000000003 72.500000000000014 10.945000000000002 -0.22252093395631442 8.6800000000000015 15.217335164835168 14.379285714285716 13.467857142857143 7.5000000000000009 3.5000000000000004 0.436363884474473 1.75520114306652 0.87759045624936116
decision_type=2 2 2 2 2 2 2 2 2 2 2 2 2 2 2 2 2 2 2 2 2 2 2 2 2 2 2 2 2 2
left_child=18 2 3 5 -4 -2 12 10 -5 -10 14 -9 13 -7 -3 -11 -16 -14 24 20 -20 -21 23 25 27 -23 -26 28 -1 -29
right_child=1 7 4 8 -6 6 -8 11 9 15 -12 -13 17 -15 16 -17 -18 -19 19 21 -22 22 -24 -25 26 -27 -28 29 -30 -31
leaf_value=-1.6688724109104702 1.1375597381591798 3.5908814239501945 3.9139254136518988 3.0493611042316147 2.5184863376617432 1.6829954364083026 1.3552717208862306 2.448495445251464 2.0516156911849976 2.387492542266846 3.8107380322047639 3.1786808360706678 2.2684540271759026 2.457346343994141 3.3208263778686518 2.8790991083780919 2.8495111638849435 2.6768230819702148 -1.7411022867475232 -1.854023494720459 -1.8837177991867067 -1.8150245666503908 -1.8162905300364773 -1.642520505731756 -1.7150362941953874 -1.7348728624979655 -1.6567122318126537 -1.7915710034577743 -1.7499600360268042 -1.7205893572639017
leaf_weight=13.999999999999998 9.9999999999999982 10.000000000000002 11.000000000000002 12.999999999999998 9.9999999999999982 11.000000000000002 10.999999999999998 10.000000000000002 11.999999999999998 9.9999999999999982 13.999999999999998 10.999999999999998 10.000000000000002 9.9999999999999982 10.000000000000002 15.000000000000002 10.999999999999998 9.9999999999999982 14.000000000000002 9.9999999999999982 15.999999999999998 10.999999999999998 17 10.999999999999998 36 90 27 23 19 17
leaf_count=14 10 10 11 13 10 11 11 10 12 10 14 11 10 10 10 15 11 10 14 10 16 11 17 11 36 90 27 23 19 17
internal_value=-4.82514e-09 2.67159 2.39386 2.23344 3.24943 1.9165 2.06629 3.23125 2.62645 2.47786 3.41805 2.83097 2.25705 2.05173 3.2407 2.68246 3.07395 2.47264 -1.7431 -1.76393 -1.81716 -1.75244 -1.74456 -1.73367 -1.71722 -1.7436 -1.69004 -1.74068 -1.71556 -1.7614
internal_weight=504 199 133 112 21 62 52 66 50 37 45 21 41 21 31 25 21 20 305 169 30 139 129 112 136 101 63 73 33 40
internal_count=504 199 133 112 21 62 52 66 50 37 45 21 41 21 31 25 21 20 305 169 30 139 129 112 136 101 63 73 33 40
is_linear=0
shrinkage=0.05


Tree=12
num_leaves=31
num_cat=0
split_feature=22 23 3 26 5 22 19 3 27 18 14 24 18 21 22 12 11 28 5 29 19 22 22 19 19 24 4 22 22 19
split_gain=847285 11166.2 6639.24 3772.59 2923.05 1912.78 1781.47 1131.34 1008.2 813.708 1380.13 1377.84 1033.41 653.485 466.578 440.657 863.728 420.052 59.3423 39.3329 37.3188 56.5872 40.1426 24.5237 25.8645 21.4997 24.6958 17.9387 19.2602 18.6102
threshold=16.730000000000004 177.82714285714289 4.5000000000000009 15.84576854282925 112.50000000000001 157.66500000000002 191.56500000000003 3.5000000000000004 186.10993103448277 139.30000000000004 -0.60897148302369042 24.072146107292863 153.57500000000002 15.910000000000002 123.15000000000002 -0.83377653105606597 -0.93845867424155849 19.962060237325211 72.500000000000014 11.634775280898879 10.945000000000002 9.8450000000000006 8.6800000000000015 18.220000000000002 14.600000000000001 1.7190679646042299 10.500000000000002 12.540000000000001 9.2300000000000022 12.555000000000001
decision_type=2 2 2 2 2 2 2 2 2 2 2 2 2 2 2 2 2 2 2 2 2 2 2 2 2 2 2 2 2 2
left_child=18 2 3 -2 -4 9 7 13 -8 11 -11 -5 -12 -3 -14 -6 -17 -15 19 -1 21 -20 -22 24 27 -21 -27 28 -24 -30
right_child=1 6 4 5 15 -7 8 -9 -10 10 12 -13 14 17 -16 16 -18 -19 20 25 22 -23 23 -25 -26 26 -28 -29 29 -31
leaf_value=-1.6677687366803486 1.215114231904348 3.4113373565673819 3.5531456089019779 1.5411871687571204 2.2950504302978509 2.812483425140381 2.326070671081542 3.6202011653355193 3.0197468150745741 1.710130297053944 2.7535055594010789 2.2988815689086914 1.907410688400268 3.1547850799560537 2.3545816898345948 2.3729735660552969 3.0301372909545901 2.7070356022227897 -1.6576354471842443 -1.5753238269260952 -1.7613223457336424 -1.7949759229024254 -1.6051928780295635 -1.7152697622776032 -1.5902314424514772 -1.6615500614560883 -1.5973586020931121 -1.6016191164652509 -1.6489043768714458 -1.699218719005585
leaf_weight=48 11.999999999999998 10.000000000000002 9.9999999999999982 15.000000000000002 10.000000000000002 9.9999999999999982 10.000000000000002 13.999999999999998 10.999999999999998 10.999999999999998 10.999999999999998 9.9999999999999982 10.000000000000002 10.000000000000002 13.999999999999998 10.000000000000002 9.9999999999999982 10.999999999999998 15.000000000000002 28 9.9999999999999982 14.999999999999998 10.999999999999998 15.999999999999998 15.999999999999998 29 31 11.999999999999998 34 40
leaf_count=48 12 10 10 15 10 10 10 14 11 11 11 10 10 10 14 10 10 11 15 28 10 15 11 16 16 29 31 12 34 40
internal_value=-1.41916e-09 2.53801 2.27417 2.04248 2.81283 2.16506 3.06969 3.24714 2.68942 2.07387 2.19866 1.84426 2.35219 3.07867 2.16826 2.56605 2.70156 2.92025 -1.65595 -1.63136 -1.67573 -1.72631 -1.66482 -1.65733 -1.64913 -1.6115 -1.62838 -1.65885 -1.66692 -1.6761
internal_weight=504 199 133 93 40 81 66 45 21 71 46 25 35 31 24 30 20 21 305 136 169 30 139 129 113 88 60 97 85 74
internal_count=504 199 133 93 40 81 66 45 21 71 46 25 35 31 24 30 20 21 305 136 169 30 139 129 113 88 60 97 85 74
is_linear=0
shrinkage=0.05


Tree=13
num_leaves=31
num_cat=0
split_feature=22 0 26 3 3 10 19 19 25 14 30 14 19 26 17 21 0 22 14 16 12 26 11 22 3 12 30 16 26 11
split_gain=764675 10048 5897.09 2534.81 1590.12 3564.58 1501.83 897.796 1348.3 1095.17 955.17 535.542 389.33 331.968 328.741 265.303 83.2982 27.4783 26.7409 25.1055 20.2386 27.3025 18.3707 16.8711 40.0085 34.2022 15.3913 15.6275 16.9257 10.5575
threshold=16.730000000000004 2023.5000000000002 16.057479312405608 4.5000000000000009 4.5000000000000009 0.81925054981890411 191.56500000000003 133.41000000000003 155.70142857142858 0.17011679340681604 69.877338459187158 -0.69673670607230054 182.34500000000003 19.741759360134065 -0.22252093395631442 15.910000000000002 2023.5000000000002 14.175000000000002 -0.96435839813458457 -0.8783796973249266 -0.77245553105869302 2.4185995172368422 0.45847758937963173 11.415000000000001 1.5000000000000002 0.76140650896573492 2.2227813302647061 1.0000000180025095e-35 2.0635008551208194 0.33222858587828868
decision_type=2 2 2 2 2 2 2 2 2 2 2 2 2 2 2 2 2 2 2 2 2 2 2 2 2 2 2 2 2 2
left_child=16 3 -3 7 6 -6 12 14 10 -10 -9 -5 15 -13 -2 -4 18 26 -1 22 21 -21 -20 24 25 -22 27 28 -18 -25
right_child=1 2 4 11 5 -7 -8 8 9 -11 -12 13 -14 -15 -16 -17 17 -19 19 20 23 -23 -24 29 -26 -27 -28 -29 -30 -31
leaf_value=-1.6476662211947972 1.4706132268905634 1.7528801918029786 3.0467488970075327 2.7809716320037845 2.7072345542907708 4.0422592735290532 2.3313697121360089 2.5068821003562527 1.5332472085952755 2.1510910034179687 1.9506744678203878 2.5476157448508516 3.2288439114888514 2.1744038728567268 1.8667180234735665 2.7441057586669921 -1.4408251689030571 -1.6085584545135498 -1.5865971491887016 -1.6971212291717526 -1.6980573908487953 -1.5802827644348145 -1.507638863956227 -1.5837751388549806 -1.5771882952713385 -1.5912831370035807 -1.5654770723978679 -1.5358314343861172 -1.5156966898176405 -1.5330155781337194
leaf_weight=18 10.000000000000002 10.999999999999998 14.000000000000002 9.9999999999999982 10.000000000000002 9.9999999999999982 10.999999999999998 19 16.000000000000004 12.999999999999998 12.999999999999998 11.000000000000002 11.999999999999998 12.999999999999998 10.999999999999998 14.999999999999998 13.000000000000002 9.9999999999999982 13.000000000000002 10.000000000000002 15.000000000000002 9.9999999999999982 17 20 82 14.999999999999998 14.999999999999998 28 18 21
leaf_count=18 10 11 14 10 10 10 11 19 16 13 13 11 12 13 11 15 13 10 13 10 15 10 17 20 82 15 15 28 18 21
internal_value=-2.83832e-10 2.41111 2.83113 2.11057 2.99586 3.37475 2.85014 1.96007 2.05714 1.81021 2.28092 2.47355 2.98932 2.34546 1.6781 2.89021 -1.57315 -1.53077 -1.58926 -1.58408 -1.5914 -1.6387 -1.54185 -1.58522 -1.59526 -1.64467 -1.52025 -1.50876 -1.4843 -1.55778
internal_weight=504 199 83 116 72 20 52 82 61 29 32 34 41 24 21 29 305 84 221 203 173 20 30 153 112 30 74 59 31 41
internal_count=504 199 83 116 72 20 52 82 61 29 32 34 41 24 21 29 305 84 221 203 173 20 30 153 112 30 74 59 31 41
is_linear=0
shrinkage=0.05


Tree=14
num_leaves=31
num_cat=0
split_feature=22 0 4 3 25 3 14 22 4 18 25 14 22 4 21 0 29 14 16 24 21 21 17 29 18 5 3 24 25 28
split_gain=690119 9068.36 5364.57 6291.79 2714.82 2287.66 2165.32 1797.99 993.647 917.344 667.141 920.522 778.282 598.192 363.024 75.1766 25.6975 24.1336 22.6577 30.0098 27.7524 64.7671 22.2606 14.6677 14.132 12.3955 20.6225 18.7797 13.1524 8.45772
threshold=16.730000000000004 2023.5000000000002 21.500000000000004 2.5000000000000004 190.27000000000001 4.5000000000000009 0.77312223884982734 148.80500000000004 8.5000000000000018 136.80500000000004 155.70142857142858 -0.048360679752653617 125.76500000000001 16.500000000000004 13.855000000000002 2023.5000000000002 14.191833333333333 -0.96435839813458457 -0.8783796973249266 1.7390376911859355 12.650000000000002 13.375000000000002 1.0000000180025095e-35 12.279031448202959 11.575000000000001 52.500000000000007 4.5000000000000009 1.7704143233835528 14.709340659340663 1.8392995291145222
decision_type=2 2 2 2 2 2 2 2 2 2 2 2 2 2 2 2 2 2 2 2 2 2 2 2 2 2 2 2 2 2
left_child=15 5 4 -4 6 9 7 -3 -7 13 12 -12 -11 -2 -10 17 25 -1 23 24 22 -22 -21 -19 -20 26 27 -17 -27 -24
right_child=1 2 3 -5 -6 8 -8 -9 14 10 11 -13 -14 -15 -16 16 -18 18 19 20 21 -23 29 -25 -26 28 -28 -29 -30 -31
leaf_value=-1.5652828958299425 1.3226006724617694 2.9942553838094068 1.2497519254684446 2.8688804785410564 2.4128438837387982 2.7686210060119629 2.7040826082229614 3.8283121517726353 1.9639943903142751 1.8769339617560892 1.4496405641237891 2.0289566159248351 2.3627938568592071 1.8569233131408691 2.3542733779320351 -1.4242079496383668 -1.5219679911931356 -1.4273859432765414 -1.4695374780231054 -1.5537834223578959 -1.6702237822792743 -1.5162262863583036 -1.4437594223022456 -1.4974649488925935 -1.5082795339472155 -1.3695457077026363 -1.4001927693684897 -1.5003025932312013 -1.4458175732539251 -1.5049224413358249
leaf_weight=18 11.000000000000002 12.000000000000002 12.000000000000002 11.999999999999998 17 9.9999999999999982 15.999999999999998 13.999999999999998 11.000000000000002 17 12.000000000000002 15.999999999999998 15.999999999999998 9.9999999999999982 12.999999999999998 11.999999999999998 11.999999999999998 14.000000000000002 36 17 11.000000000000002 18 10.000000000000002 15.999999999999998 68 10.000000000000002 11.999999999999998 25 12.999999999999998 12.999999999999998
leaf_count=18 11 12 12 12 17 10 16 14 11 17 12 16 16 10 13 12 12 14 36 17 11 18 10 16 68 10 12 25 13 13
internal_value=0 2.29055 2.68957 2.05932 2.94595 2.00504 3.16173 3.44336 2.34987 1.86207 1.96019 1.78068 2.1125 1.57704 2.1754 -1.49449 -1.45423 -1.5098 -1.50488 -1.51183 -1.5374 -1.57464 -1.5104 -1.46476 -1.49487 -1.44294 -1.45715 -1.47562 -1.41266 -1.47833
internal_weight=504 199 83 24 59 116 42 26 34 82 61 28 33 21 24 305 84 221 203 173 69 29 40 30 104 72 49 37 23 23
internal_count=504 199 83 24 59 116 42 26 34 82 61 28 33 21 24 305 84 221 203 173 69 29 40 30 104 72 49 37 23 23
is_linear=0
shrinkage=0.05


Tree=15
num_leaves=31
num_cat=0
split_feature=22 22 3 26 0 27 25 12 27 12 3 11 18 24 19 24 0 22 14 19 24 15 25 15 30 12 3 12 18 18
split_gain=622832 8208.85 4893.35 5337 3942.93 3484.67 2177.8 1913.2 1656.91 1429.15 1260.79 1362.04 771.239 564.413 582.198 411.229 67.8469 25.4353 21.7806 22.3664 24.401 44.2893 88.321 35.2146 14.0562 13.8087 13.9646 13.8836 9.8134 10.0201
threshold=16.730000000000004 144.59 2.5000000000000004 18.008777381266231 2023.5000000000002 162.77850000000004 190.70000000000005 -0.63920832810365547 154.37533333333334 -0.814291907305839 4.5000000000000009 -0.90892157495189674 178.87000000000003 23.887818938193838 149.81500000000003 20.126483255158757 2023.5000000000002 14.175000000000002 -0.96435839813458457 14.460000000000003 1.7390376911859355 0.66849116431036359 12.432225274725278 -0.90256213981333289 2.2227813302647061 0.35845153958890236 3.5000000000000004 0.96231527631374336 11.575000000000001 11.205000000000002
decision_type=2 2 2 2 2 2 2 2 2 2 2 2 2 2 2 2 2 2 2 2 2 2 2 2 2 2 2 2 2 2
left_child=16 2 3 -2 8 10 7 9 -3 -6 11 -4 -12 14 -5 -13 18 24 -1 20 23 22 -22 -20 25 -18 27 -27 29 -25
right_child=1 4 5 13 6 -7 -8 -9 -10 -11 12 15 -14 -15 -16 -17 17 -19 19 -21 21 -23 -24 28 -26 26 -28 -29 -30 -31
leaf_value=-1.4870187441507976 0.4658851051330567 2.4262462002890448 2.2279625129699707 1.3612626969814297 2.9593142211437229 2.8304772440592449 2.2102402980511004 3.3263256173384814 1.6423372873893152 2.1973494815826418 2.4425015568733208 1.2865592050552359 1.8827552032470702 2.0980322837829593 1.8687177291283241 1.7400067186355592 -1.3984344594618854 -1.4563611030578614 -1.3319806671142578 -1.3872577737878871 -1.5797746938817641 -1.4113644906452725 -1.4294800094936206 -1.4280060949779694 -1.4146198463439941 -1.3371576382563661 -1.3133034706115723 -1.4155210399627687 -1.4414964921546707 -1.3690980130975898
leaf_weight=18 9.9999999999999982 14.000000000000002 9.9999999999999982 10.000000000000002 15.999999999999998 14.999999999999998 12.999999999999998 19.000000000000004 12.999999999999998 9.9999999999999982 16.000000000000004 10.000000000000005 9.9999999999999982 9.9999999999999982 12.999999999999998 9.9999999999999982 17 9.9999999999999982 9.9999999999999982 27 17 28 23 21 14.999999999999998 13.000000000000002 19 9.9999999999999982 66 10.999999999999998
leaf_count=18 10 14 10 10 16 15 13 19 13 10 16 10 10 10 13 10 17 10 10 27 17 28 23 21 15 13 19 10 66 11
internal_value=2.57814e-09 2.17602 1.89873 1.47779 2.54793 2.15366 2.78027 2.94495 2.04881 2.66625 1.97237 1.75151 2.22721 1.78443 1.64809 1.51328 -1.41977 -1.38152 -1.43431 -1.42963 -1.43613 -1.45959 -1.49336 -1.42136 -1.3714 -1.36041 -1.34502 -1.37123 -1.43048 -1.40776
internal_weight=504 199 114 43 85 71 58 45 27 26 56 30 26 33 23 20 305 84 221 203 176 68 40 108 74 59 42 23 98 32
internal_count=504 199 114 43 85 71 58 45 27 26 56 30 26 33 23 20 305 84 221 203 176 68 40 108 74 59 42 23 98 32
is_linear=0
shrinkage=0.05


Tree=16
num_leaves=31
num_cat=0
split_feature=22 23 22 30 20 3 22 24 3 25 25 27 25 26 10 24 0 23 16 11 23 28 14 3 16 10 26 3 24 24
split_gain=562106 7792.2 5178.12 3876.89 3132.86 2102.85 1194.21 938.941 1386.22 883.033 2225.89 886.7 698.76 555.839 538.705 226.49 61.2318 26.8118 35.2611 40.1852 25.5982 24.9232 23.3443 40.0378 22.9454 14.8508 14.6386 14.4213 14.8579 14.3922
threshold=16.730000000000004 177.82714285714289 156.67000000000004 72.760275396400672 154.04000000000005 1.0000000180025095e-35 136.24500000000003 17.588451370359376 3.5000000000000004 155.70142857142858 159.35642857142861 153.32016666666672 181.64785714285716 21.875520846842647 0.79904096188274243 20.194475585740275 2023.5000000000002 12.484285714285717 0.87837969732492682 0.47369649395226454 14.882857142857143 1.7865303061280233 0.66607499652289859 1.5000000000000002 -1.0000000180025095e-35 0.78857998149907527 1.3063507245506389 4.5000000000000009 1.7984231004365439 1.34709210046452
decision_type=2 2 2 2 2 2 2 2 2 2 2 2 2 2 2 2 2 2 2 2 2 2 2 2 2 2 2 2 2 2
left_child=16 2 3 5 -4 -2 9 8 -3 11 -11 15 -9 -8 -14 -7 17 22 19 21 25 -19 26 -24 -22 27 -1 28 -18 -28
right_child=1 7 4 -5 -6 6 13 12 -10 10 -12 -13 14 -15 -16 -17 20 18 -20 -21 24 -23 23 -25 -26 -27 29 -29 -30 -31
leaf_value=-1.3838958300076998 1.1508574052290483 2.4632502499748679 3.1495952172712838 0.77221372723579407 1.9267991924285888 1.5513181686401363 1.9772909315008864 2.7148680686950684 3.2051470375061037 0.99746845093640391 1.9821571588516236 2.1869605600833895 2.4112302387461941 2.4239046270197093 1.9736783822377522 1.8735102081298827 -1.276114387512207 -1.3715703904628755 -1.4723945713043214 -1.3427346561266029 -1.4135093402862546 -1.4598228156566622 -1.4615875590931287 -1.3495561533960805 -1.3157311058044434 -1.2515093549092611 -1.2785440298227164 -1.2623750130335489 -1.3496186689897018 -1.336031031252733
leaf_weight=12.999999999999998 10.999999999999998 17.000000000000004 11.000000000000002 9.9999999999999982 9.9999999999999982 12.000000000000002 19.000000000000004 9.9999999999999982 9.9999999999999982 11.000000000000002 11.999999999999998 15.999999999999998 17.000000000000004 10.999999999999998 11.999999999999998 9.9999999999999982 9.9999999999999982 15.999999999999998 9.9999999999999982 46 10.000000000000002 15.999999999999998 10.999999999999998 29 14.999999999999998 14.999999999999998 12.999999999999998 11.999999999999998 22 67
leaf_count=13 11 17 11 10 10 12 19 10 10 11 12 16 17 11 12 10 10 16 10 46 10 16 11 29 15 15 13 12 22 67
internal_value=-1.18263e-09 2.06722 1.84682 1.71173 2.56731 1.80384 1.88277 2.51137 2.73803 1.75574 1.51122 1.90374 2.35445 2.14105 2.23017 1.69777 -1.34878 -1.36259 -1.384 -1.37267 -1.31244 -1.4157 -1.34842 -1.38036 -1.35484 -1.29447 -1.33469 -1.30912 -1.32665 -1.32669
internal_weight=504 199 133 112 21 102 91 66 27 61 23 38 39 30 29 22 305 221 88 78 84 32 133 40 25 59 93 44 32 80
internal_count=504 199 133 112 21 102 91 66 27 61 23 38 39 30 29 22 305 221 88 78 84 32 133 40 25 59 93 44 32 80
is_linear=0
shrinkage=0.05


Tree=17
num_leaves=31
num_cat=0
split_feature=22 23 16 23 11 19 19 25 19 30 3 26 14 21 18 17 22 28 25 12 4 25 22 22 18 15 3 23 21 22
split_gain=507320 6280.32 4622.8 2975.69 2378.42 2318.86 1800.57 1485.96 1384.84 1014.84 847.433 810.649 775.407 592.144 479.779 365.419 337.504 315.435 55.3503 32.6639 25.1976 23.3315 48.9724 21.3679 17.3063 15.2699 12.9916 13.8792 11.638 11.2182
threshold=98.115000000000009 177.82714285714289 0.87837969732492682 172.78642857142862 -0.11692317777808843 149.81500000000003 133.41000000000003 154.99250000000004 191.56500000000003 68.801460905486678 3.5000000000000004 16.825476770197149 0.49065764355977465 15.910000000000002 153.57500000000002 -1.0000000180025095e-35 14.175000000000002 19.962060237325211 12.446547619047621 -0.814291907305839 2.5000000000000004 12.292445054945057 9.8450000000000006 11.980000000000002 14.985000000000001 -0.94636709086600723 1.0000000180025095e-35 12.000714285714288 13.680000000000001 12.370000000000003
decision_type=2 2 2 2 2 2 2 2 2 2 2 2 2 2 2 2 2 2 2 2 2 2 2 2 2 2 2 2 2 2
left_child=5 2 3 4 6 16 -2 9 10 14 13 -9 -10 -3 -8 -13 18 -15 19 -1 -20 26 -23 25 29 -22 -21 -28 -29 -25
right_child=1 8 -4 -5 -6 -7 7 11 12 -11 -12 15 -14 17 -16 -17 -18 -19 20 21 23 22 -24 24 -26 -27 27 28 -30 -31
leaf_value=-1.3800121943155925 1.1848932752242456 2.7131214714050285 1.0431699269347721 2.6873877265236596 2.4526740807753344 -0.51653231620788576 2.5140662765502921 1.2039002656936646 2.3402185960249464 1.7520515335930718 2.8651356833321708 1.9522174141623756 1.7318760585784911 2.4488916778564445 2.0451324701309206 1.5671160493578229 -1.5397370998676008 2.0608855767683552 -1.323284361912654 -1.3302056868871055 -1.2202475547790528 -1.4012630122048515 -1.2793342876434328 -1.1989551830291749 -1.1768232549939837 -1.276134878216368 -1.2515544298532848 -1.3141200312861692 -1.2651292107322001 -1.2623895769533906
leaf_weight=11.999999999999998 12.999999999999998 10.000000000000002 18 10.999999999999998 12.999999999999998 9.9999999999999982 10.000000000000002 9.9999999999999982 11.000000000000002 18 13.999999999999998 11 9.9999999999999982 10.000000000000002 11.999999999999998 14 12.999999999999998 10.999999999999998 12.999999999999998 11.999999999999998 14.999999999999998 13.999999999999998 20 9.9999999999999982 13.999999999999998 66 37 27 22 23
leaf_count=12 13 10 18 11 13 10 10 10 11 18 14 11 10 10 12 14 13 11 13 12 15 14 20 10 14 66 37 27 22 23
internal_value=1.51377e-09 1.98858 1.78691 1.90644 1.82139 -1.26546 1.72813 1.8223 2.3858 2.03048 2.54226 1.58437 2.05053 2.39645 2.25828 1.73656 -1.29059 2.24565 -1.27923 -1.30103 -1.25696 -1.29385 -1.32954 -1.25022 -1.22341 -1.26579 -1.28147 -1.27467 -1.29212 -1.24317
internal_weight=504 196 130 112 101 308 88 75 66 40 45 35 21 31 22 25 298 21 285 144 141 132 34 128 47 81 98 86 49 33
internal_count=504 196 130 112 101 308 88 75 66 40 45 35 21 31 22 25 298 21 285 144 141 132 34 128 47 81 98 86 49 33
is_linear=0
shrinkage=0.05


Tree=18
num_leaves=31
num_cat=0
split_feature=22 23 22 30 20 17 22 4 25 16 4 25 25 27 22 4 25 25 16 29 14 14 30 26 26 4 18 15 18 5
split_gain=458286 6318.03 4397.98 3484.21 2724.68 1836.16 1016.87 977.229 848.131 1139.61 704.324 686.268 2010.04 781.454 600.39 217.769 51.9595 68.8061 19.0442 23.5801 20.5156 41.0975 26.9342 20.3956 16.2574 45.309 15.683 11.8015 17.1217 15.4525
threshold=16.730000000000004 177.82714285714289 156.67000000000004 72.760275396400672 154.04000000000005 0.81174490092936691 136.24500000000003 7.5000000000000009 191.66892857142861 -0.60785761079279388 17.500000000000004 155.70142857142858 159.35642857142861 153.32016666666672 156.67000000000004 17.500000000000004 15.217335164835168 13.467857142857143 -0.60785761079279388 12.279031448202959 -0.38044538728672533 -0.59350810288517952 1.7960735694621659 1.9688444880783884 1.5964469239233308 18.500000000000004 12.775 -0.23955157465779967 12.935 28.500000000000004
decision_type=2 2 2 2 2 2 2 2 2 2 2 2 2 2 2 2 2 2 2 2 2 2 2 2 2 2 2 2 2 2
left_child=16 2 3 5 -4 6 11 -8 9 -3 14 13 -13 15 -11 -2 17 18 19 -1 21 22 -20 24 -22 -26 -21 28 -19 -29
right_child=1 8 4 -5 -6 -7 7 -9 -10 10 -12 12 -14 -15 -16 -17 -18 27 20 26 23 -23 -24 -25 25 -27 -28 29 -30 -31
leaf_value=-1.1697092839649745 1.3522609376907344 2.7183348337809248 2.8751455307006828 0.6529519593715668 1.7347871160507204 1.0207660328258168 2.2693578940171455 1.6934768901151771 1.8657241387800738 2.6582766966386266 1.9753413094414605 0.88370537703687457 1.8194329738616943 1.9838282525539399 2.1358741326765585 1.6681893348693848 -1.2979337140133507 -1.2120608043670655 -1.3040077972412112 -1.2006273163689507 -1.2204449167056959 -1.339589023590088 -1.2063389698664349 -1.1876916612897601 -1.3468811208551577 -1.2150590896606446 -1.2698518943786621 -1.1698440837860105 -1.1376337331884048 -1.245967025756836
leaf_weight=28 10.000000000000002 14.999999999999998 11.000000000000002 9.9999999999999982 9.9999999999999982 10.999999999999998 13.000000000000002 17 10.999999999999998 11.000000000000002 18 11.000000000000002 11.999999999999998 15.999999999999998 10.999999999999998 11.999999999999998 19 9.9999999999999982 9.9999999999999982 18 49 12.999999999999998 24 28 11.000000000000002 15.999999999999998 14.999999999999998 20.000000000000004 34 9.9999999999999982
leaf_count=28 10 15 11 10 10 11 13 17 11 11 18 11 12 16 11 12 19 10 10 18 49 13 24 28 11 16 15 20 34 10
internal_value=6.77648e-09 1.86658 1.66811 1.54361 2.33212 1.63093 1.70469 1.94303 2.26651 2.34667 2.2073 1.58748 1.37191 1.71795 2.39708 1.52459 -1.21787 -1.21255 -1.22704 -1.20346 -1.23656 -1.26398 -1.23507 -1.22417 -1.23761 -1.26876 -1.23209 -1.17104 -1.15455 -1.19522
internal_weight=504 199 133 112 21 102 91 30 66 55 40 61 23 38 22 22 305 286 212 61 151 47 34 104 76 27 33 74 44 30
internal_count=504 199 133 112 21 102 91 30 66 55 40 61 23 38 22 22 305 286 212 61 151 47 34 104 76 27 33 74 44 30
is_linear=0
shrinkage=0.05


Tree=19
num_leaves=31
num_cat=0
split_feature=22 0 16 19 3 3 10 28 20 4 18 25 22 25 4 11 22 28 0 3 10 28 29 20 4 18 26 3 30 26
split_gain=413625 7107.94 3322.01 1943.63 1340.64 1150.51 2262.22 1338.5 944.467 852.593 698.677 653.532 619.225 595.042 575.365 551.707 329.864 289.389 59.9626 20.9642 21.7367 20.4568 34.9753 79.5522 15.9628 12.426 10.6643 12.5087 9.73255 20.7202
threshold=98.115000000000009 2023.5000000000002 0.87837969732492682 149.81500000000003 4.5000000000000009 4.5000000000000009 0.81925054981890411 26.152259210357901 191.76000000000002 8.5000000000000018 136.80500000000004 155.70142857142858 125.76500000000001 182.14321428571432 16.500000000000004 -0.9497838742125716 14.175000000000002 19.402497788972131 2023.5000000000002 4.5000000000000009 -0.83847110675477843 1.8059146323901247 12.280869419941192 11.640000000000002 26.500000000000004 9.7000000000000011 1.3063507245506389 1.5000000000000002 2.1940773295597551 2.0155189647031801
decision_type=2 2 2 2 2 2 2 2 2 2 2 2 2 2 2 2 2 2 2 2 2 2 2 2 2 2 2 2 2 2
left_child=3 4 5 16 10 7 -7 8 -3 -6 14 12 -12 -9 -2 -13 18 -11 19 21 -21 25 23 -23 28 -1 -27 -28 29 -20
right_child=1 2 -4 -5 9 6 -8 13 -10 17 11 15 -14 -15 -16 -17 -18 -19 24 20 -22 22 -24 -25 -26 26 27 -29 -30 -31
leaf_value=-1.2150248050689698 0.93301630020141568 2.6261944961547847 1.3420784343372691 -0.45698268890380861 2.1942791461944582 2.1472686154501774 3.1319121170043949 2.0947473907470697 2.0310682932535808 1.4390506362915034 1.4567874291363885 1.5373702653249102 1.8901651799678802 1.5492924022674561 1.4570448780059815 1.0825186594078937 -1.4119614381056567 1.7968199803278997 -1.0366506099700927 -1.1913029221927418 -1.1247325897216798 -1.1635657750643214 -1.1702032540973863 -1.3462637901306154 -1.1744391250610353 -1.1792093181610108 -1.1051107168197631 -1.1592560410499573 -1.1325437504312266 -1.1147719218813141
leaf_weight=9.9999999999999982 11.000000000000002 15.000000000000002 10.999999999999998 9.9999999999999982 9.9999999999999982 14.000000000000002 9.9999999999999982 10.000000000000002 11.999999999999998 10.000000000000002 17 15.000000000000002 15.999999999999998 9.9999999999999982 9.9999999999999982 11.999999999999998 12.999999999999998 12.999999999999998 11.999999999999998 17 44 13.000000000000002 38 10.999999999999998 9.9999999999999982 30 15.999999999999998 32 23 29
leaf_count=10 11 15 11 10 10 14 10 10 12 10 17 15 16 10 10 12 13 13 12 17 44 13 38 11 10 30 16 32 23 29
internal_value=-7.9532e-10 1.79558 2.15061 -1.14264 1.54021 2.27587 2.55754 2.13205 2.36169 1.80885 1.43077 1.51765 1.66691 1.82202 1.18255 1.33521 -1.16565 1.64127 -1.15442 -1.168 -1.14328 -1.17805 -1.20005 -1.2473 -1.11569 -1.16255 -1.15582 -1.14121 -1.10651 -1.09191
internal_weight=504 196 82 308 114 71 24 47 27 33 81 60 33 20 21 27 298 23 285 211 61 150 62 24 74 88 78 48 64 41
internal_count=504 196 82 308 114 71 24 47 27 33 81 60 33 20 21 27 298 23 285 211 61 150 62 24 74 88 78 48 64 41
is_linear=0
shrinkage=0.05


Tree=20
num_leaves=31
num_cat=0
split_feature=22 22 3 4 27 5 4 27 19 16 5 27 30 25 22 24 25 25 19 23 12 15 19 19 28 23 3 24 5 27
split_gain=373640 5322.35 3436.85 3098.07 2493.79 1761.32 2171.08 2075.61 2007.72 1048.77 1202.51 731.699 728.815 718.169 717.618 534.198 65.105 60.1554 18.5469 15.9694 43.2786 23.354 19.2377 12.4513 11.8918 14.7524 21.3856 10.739 10.2471 9.75767
threshold=16.730000000000004 144.59 2.5000000000000004 18.500000000000004 163.57166666666669 126.50000000000001 10.500000000000002 182.21793103448277 191.56500000000003 -0.8783796973249266 152.50000000000003 186.93683333333337 47.914965807827421 156.28321428571431 157.66500000000002 25.209549371196129 15.217335164835168 13.467857142857143 14.460000000000003 12.484285714285717 -0.73866412149774419 -0.87603971526095259 13.620000000000003 14.875000000000002 1.9438769046109372 11.640000000000002 1.5000000000000002 2.0802692016479933 62.500000000000007 14.179166666666669
decision_type=2 2 2 2 2 2 2 2 2 2 2 2 2 2 2 2 2 2 2 2 2 2 2 2 2 2 2 2 2 2
left_child=16 2 3 12 9 6 -3 -7 11 -4 15 -9 -2 -12 -8 -11 17 18 19 21 -21 -1 -22 27 25 -23 -27 29 -25 -19
right_child=1 5 4 -5 -6 7 14 8 -10 10 13 -13 -14 -15 -16 -17 -18 23 -20 20 22 24 -24 28 -26 26 -28 -29 -30 -31
leaf_value=-1.0422195053100587 1.1028663418509741 2.8886468696594241 1.8656759823069853 0.52950648784637455 2.3016886637761043 1.3894431414572816 1.7145522074265909 2.5438882460960972 1.4466857051849367 0.89387495734474853 1.9756672859191888 1.9898063659667971 1.625186549915987 1.3764307117462158 2.2856828516179863 1.3988088941574097 -1.1892855292872377 -1.0662887719961309 -1.0637920596382835 -1.2060559082031252 -1.0984732590469661 -1.0801151699490017 -1.171378941969438 -1.0514570909387924 -1.0794500312805178 -1.1883046296926645 -1.114918243317377 -1.0470405737559001 -0.987670726776123 -1.1319842338562012
leaf_weight=14.999999999999998 11.000000000000002 9.9999999999999982 17 14.999999999999998 12.999999999999998 19 11.000000000000002 13.000000000000002 9.9999999999999982 11.000000000000002 10.000000000000002 10.999999999999998 17 9.9999999999999982 10.999999999999998 9.9999999999999982 19 13.000000000000002 22 14.999999999999998 51 18 10.999999999999998 17.000000000000004 25 12.999999999999998 42 24 9.9999999999999982 9.9999999999999982
leaf_count=15 11 10 17 15 13 19 11 13 10 11 10 11 17 10 11 10 19 13 22 15 51 18 11 17 25 13 42 24 10 10
internal_value=3.2818e-10 1.68541 1.46213 1.10936 1.67578 1.98487 2.27778 1.80801 2.04192 1.53549 1.39858 2.28993 1.41999 1.67605 2.00012 1.13432 -1.09966 -1.09371 -1.10725 -1.11229 -1.12985 -1.10032 -1.11141 -1.05489 -1.10921 -1.11941 -1.13226 -1.07044 -1.02783 -1.09485
internal_weight=504 199 114 43 71 85 32 53 34 58 41 24 28 20 22 21 305 286 212 190 77 113 62 74 98 73 55 47 27 23
internal_count=504 199 114 43 71 85 32 53 34 58 41 24 28 20 22 21 305 286 212 190 77 113 62 74 98 73 55 47 27 23
is_linear=0
shrinkage=0.05


Tree=21
num_leaves=31
num_cat=0
split_feature=22 22 3 26 0 27 23 19 27 3 11 19 18 18 15 15 25 0 19 23 12 15 18 15 28 23 22 15 5 3
split_gain=337210 4803.42 3101.76 4029.78 2366.25 2250.65 1579.28 1507.14 1101.03 957.016 948.46 626.109 553.055 260.964 384.317 240.801 58.7573 58.6629 18.0802 18.4903 36.675 70.3362 23.7534 21.077 10.7324 13.3141 20.1065 42.2871 9.94616 17.3086
threshold=16.730000000000004 144.59 2.5000000000000004 18.008777381266231 2023.5000000000002 163.57166666666669 177.82714285714289 191.56500000000003 154.06516666666673 4.5000000000000009 -0.90892157495189674 177.75500000000002 181.83000000000001 139.30000000000004 0.45657509412473768 0.66849116431036359 15.217335164835168 2023.5000000000002 14.460000000000003 12.484285714285717 0.71503381463111937 -0.79120487837355613 11.790000000000001 -0.87603971526095259 1.9438769046109372 11.640000000000002 9.2300000000000022 0.61915727239714469 52.500000000000007 4.5000000000000009
decision_type=2 2 2 2 2 2 2 2 2 2 2 2 2 2 2 2 2 2 2 2 2 2 2 2 2 2 2 2 2 2
left_child=16 2 3 -2 8 9 -6 11 -3 10 -4 -8 -11 -5 -15 -12 17 18 19 23 21 -21 -23 -1 25 -25 -27 -28 29 -19
right_child=1 4 5 13 6 -7 7 -9 -10 12 15 -13 -14 14 -16 -17 -18 28 -20 20 -22 22 -24 24 -26 26 27 -29 -30 -31
leaf_value=-0.99010854085286459 0.17459490776062014 1.8559482534726457 1.6420861764387653 1.1214937643571334 2.6372367858886721 2.1866042503943812 1.9617010969864694 1.5503067582845689 1.2133870522181194 1.8498988908879896 0.89056407213210997 2.4120214535639839 1.3812888479232788 1.628743189031427 1.2107843041419983 1.2375518846511842 -1.1298212603518838 -1.0331700041487411 -1.0090317589896065 -1.226209888458252 -1.042630791019749 -1.1306255912780758 -1.0323921084403993 -1.0261094040340848 -1.0254775352478027 -1.035658621788025 -1.058805859607199 -1.1745911121368409 -0.97969091574350997 -0.96406528949737558
leaf_weight=14.999999999999998 9.9999999999999982 12.000000000000002 10.999999999999998 10.999999999999998 9.9999999999999982 12.999999999999998 19 15.999999999999998 14.999999999999998 17.000000000000004 10.000000000000005 12.999999999999998 9.9999999999999982 11.000000000000002 10.999999999999998 9.9999999999999982 19 37 21 9.9999999999999982 37 10.000000000000002 15.999999999999998 18 25 20 23 11.999999999999998 30 11.999999999999998
leaf_count=15 10 12 11 11 10 13 19 16 15 17 10 13 10 11 11 10 19 37 21 10 37 10 16 18 25 20 23 12 30 12
internal_value=-4.96705e-10 1.60114 1.38902 1.05389 1.88562 1.59199 2.06562 1.94653 1.49897 1.45871 1.26916 2.14464 1.67634 1.32034 1.41976 1.06406 -1.04468 -1.03902 -1.05301 -1.05797 -1.07759 -1.11352 -1.07017 -1.0453 -1.05375 -1.06344 -1.07565 -1.0985 -1.00236 -1.01625
internal_weight=504 199 114 43 85 71 58 48 27 58 31 32 27 33 22 20 305 286 207 186 73 36 26 113 98 73 55 35 79 49
internal_count=504 199 114 43 85 71 58 48 27 58 31 32 27 33 22 20 305 286 207 186 73 36 26 113 98 73 55 35 79 49
is_linear=0
shrinkage=0.05


Tree=22
num_leaves=31
num_cat=0
split_feature=22 0 16 19 23 22 7 23 18 22 21 19 23 20 27 22 14 0 7 10 28 28 20 23 15 16 19 18 19 26
split_gain=304521 5088.04 2895.2 1533.32 1232.09 968.842 908.214 674.847 1089.84 671.889 712.583 570.461 511.236 509.511 441.501 334.255 314.021 44.9536 16.5841 17.9732 16.7608 32.5869 61.7256 16.4604 12.9461 11.2145 10.5763 8.35964 7.12737 9.77463
threshold=98.115000000000009 2023.5000000000002 0.87837969732492682 149.81500000000003 181.05428571428573 161.39500000000004 1.0000000180025095e-35 162.42714285714288 141.93500000000003 130.62000000000003 150.80500000000004 191.56500000000003 150.19357142857146 178.78500000000005 149.8401666666667 14.175000000000002 -0.022576145604933043 2023.5000000000002 1.0000000180025095e-35 -0.83847110675477843 1.8059146323901247 2.1920866499210905 12.460000000000003 11.769285714285717 0.61915727239714469 0.87837969732492682 11.135000000000003 11.375000000000002 12.725000000000003 2.0635008551208194
decision_type=2 2 2 2 2 2 2 2 2 2 2 2 2 2 2 2 2 2 2 2 2 2 2 2 2 2 2 2 2 2
left_child=3 6 4 15 5 -3 7 8 14 10 -10 13 -8 -6 -2 17 -14 18 20 -20 23 22 -22 -1 26 28 -25 -28 -19 -30
right_child=1 2 -4 -5 11 -7 12 -9 9 -11 -12 -13 16 -15 -16 -17 -18 25 19 -21 21 -23 -24 24 -26 -27 27 -29 29 -31
leaf_value=-0.94428529739379885 1.2729363063971197 1.9231934833526605 1.0862430659207432 -0.37142750740051272 2.123571761449178 2.6031950170343574 1.824036676233465 0.88846615751584379 1.0902288928627966 1.7089771687984467 1.6282689046859742 1.5877002800212188 1.2176594647494228 1.7290036201477053 0.86604190270105996 -1.2488085673405576 1.5954646413976494 -0.97935372761317674 -1.0229980244356043 -0.96246435750614523 -1.009016342163086 -0.99149885177612307 -1.1489663637601413 -0.9567903518676758 -1.0467759831746419 -1.0026062705300072 -0.97578107198079422 -1.0212501495115218 -0.91702092742919916 -0.96169366041819249
leaf_weight=12.999999999999998 12.000000000000002 10.000000000000002 10.999999999999998 9.9999999999999982 18 10.999999999999998 10.999999999999998 11.999999999999998 16.000000000000004 15.999999999999998 9.9999999999999982 17 11 14.999999999999998 14.999999999999998 12.999999999999998 11 13.999999999999998 17 44 20 29 12.999999999999998 13.999999999999998 14.999999999999998 10.999999999999998 14.999999999999998 31 25 24
leaf_count=13 12 10 11 10 18 11 11 12 16 16 10 17 11 15 15 13 11 14 17 44 20 29 13 14 15 11 15 31 25 24
internal_value=-1.18263e-10 1.54067 1.84105 -0.980429 1.95799 2.27938 1.32462 1.23454 1.29472 1.45405 1.29717 1.82301 1.54572 1.94422 1.04688 -1.00087 1.40656 -0.989556 -1.00132 -0.979334 -1.01025 -1.03017 -1.06415 -0.996226 -1.00523 -0.956024 -0.994842 -1.00642 -0.947891 -0.938901
internal_weight=504 196 82 308 71 21 114 81 69 42 26 50 33 33 27 298 22 285 211 61 150 62 33 88 75 74 60 46 63 49
internal_count=504 196 82 308 71 21 114 81 69 42 26 50 33 33 27 298 22 285 211 61 150 62 33 88 75 74 60 46 63 49
is_linear=0
shrinkage=0.05


Tree=23
num_leaves=31
num_cat=0
split_feature=22 22 18 26 0 21 27 23 26 4 27 14 14 7 5 19 0 24 12 4 19 26 26 7 22 17 26 18 13 4
split_gain=274919 4012.97 2429.65 5006.66 1952.86 1428.98 1373.66 1318.67 1052.3 1205.41 956.684 539.321 752.831 441.169 313.426 61.4539 48.6725 14.4571 27.7737 41.5662 11.2835 17.0233 14.5477 10.4625 12.3605 22.4765 29.5506 13.5757 13.4452 9.20759
threshold=16.730000000000004 144.59 152.05500000000004 16.181418326366718 2023.5000000000002 15.910000000000002 162.3596666666667 181.05428571428573 18.460851916678958 14.500000000000002 154.06516666666673 -0.77517597200567023 -0.15100930614146788 1.0000000180025095e-35 110.50000000000001 18.220000000000002 2023.5000000000002 2.8826074825854584 -0.77245553105869302 7.5000000000000009 14.875000000000002 1.9156959923867338 1.9603922313140802 1.0000000180025095e-35 11.490000000000002 1.0000000180025095e-35 1.5964469239233308 11.575000000000001 1.0000000180025095e-35 13.500000000000002
decision_type=2 2 2 2 2 2 2 2 2 2 2 2 2 2 2 2 2 2 2 2 2 2 2 2 2 2 2 2 2 2
left_child=15 2 3 -2 10 14 11 -6 -9 -10 -3 -4 -13 -14 -5 16 17 18 19 -1 22 -22 -18 24 25 27 -27 29 -26 -20
right_child=1 4 6 5 7 -7 -8 8 9 -11 -12 12 13 -15 -16 -17 20 -19 23 -21 21 -23 -24 -25 28 26 -28 -29 -30 -31
leaf_value=-0.93496310060674459 0.040707609870217071 1.6872338970502214 1.5777840412580051 0.86663126548131286 2.2108231017464086 1.7355220361189412 1.8025716204392284 1.2605589771270753 2.1667894363403319 1.5216893127986364 1.088270907178521 0.8979298536594098 1.1452406276356089 1.5836192568143206 1.2280096968015037 -1.0328845447964139 -0.95669110242058242 -0.89191500663757317 -0.88230777263641336 -1.0695233861605327 -0.83081479072570774 -0.909765879313151 -0.90031306539263045 -0.92766794129913943 -0.95353711780748862 -0.95881084203720079 -1.0652690280567516 -0.96683291134081406 -0.88593390385309856 -0.94346807003021249
leaf_weight=11.000000000000002 10.999999999999998 12.000000000000002 12.999999999999998 12.000000000000002 19 10.999999999999998 19 9.9999999999999982 15.000000000000002 13.999999999999998 14.999999999999998 12.999999999999998 11 12 11.999999999999998 18 17 9.9999999999999982 10.000000000000002 11.999999999999998 11.000000000000002 18 35 51 19.000000000000004 16.000000000000004 10.999999999999998 38 11.999999999999998 15.999999999999998
leaf_count=11 11 12 13 12 19 11 19 10 15 14 15 13 11 12 12 18 17 10 10 12 11 18 35 51 19 16 11 38 12 16
internal_value=-9.05453e-10 1.44571 1.25183 0.971179 1.70574 1.26361 1.44168 1.86925 1.70285 1.85536 1.35448 1.30174 1.20206 1.37396 1.04732 -0.943266 -0.937645 -0.950557 -0.953548 -1.00517 -0.904808 -0.879819 -0.918744 -0.946686 -0.954636 -0.963925 -1.00218 -0.947785 -0.927368 -0.919945
internal_weight=504 199 114 46 85 35 68 58 39 29 27 49 36 23 24 305 287 206 196 23 81 29 52 173 122 91 27 64 31 26
internal_count=504 199 114 46 85 35 68 58 39 29 27 49 36 23 24 305 287 206 196 23 81 29 52 173 122 91 27 64 31 26
is_linear=0
shrinkage=0.05


Tree=24
num_leaves=31
num_cat=0
split_feature=22 0 12 3 22 24 19 3 4 18 24 4 24 14 19 22 21 19 27 0 3 29 12 4 18 21 21 16 4 15
split_gain=248266 4085.95 2811.4 2074.31 1910.65 1306.19 1102.26 753.454 757.235 569.479 569.005 528.939 338.975 661.458 596.394 314.158 255.725 225.479 130.295 36.9371 12.8658 18.676 15.3031 12.8268 12.1263 9.61104 28.4798 21.5843 11.5739 9.46786
threshold=98.115000000000009 2023.5000000000002 -0.97288670536264454 4.5000000000000009 162.16000000000003 3.6929638236987983 191.56500000000003 4.5000000000000009 8.5000000000000018 136.80500000000004 16.22160910046772 16.500000000000004 21.203409297600654 0.067682409684136302 150.59500000000003 14.175000000000002 13.855000000000002 164.66500000000005 155.54383333333337 2023.5000000000002 4.5000000000000009 12.279031448202959 -0.88622299073327826 26.500000000000004 12.775 12.460000000000003 13.375000000000002 1.0000000180025095e-35 22.500000000000004 0.85337989217000254
decision_type=2 2 2 2 2 2 2 2 2 2 2 2 2 2 2 2 2 2 2 2 2 2 2 2 2 2 2 2 2 2
left_child=5 7 -3 6 -5 15 10 9 -9 11 -4 -2 13 -11 -14 19 -10 -12 -15 20 22 -22 -1 -21 -23 28 -27 -28 -24 -29
right_child=1 2 3 4 -6 -7 -8 8 16 12 17 -13 14 18 -16 -17 -18 -19 -20 23 21 24 25 -25 -26 26 27 29 -30 -31
leaf_value=-0.95973733901977543 0.65208974751559157 0.95317762295405073 2.038738233392889 1.7231499195098872 2.7005578327178958 -0.32315830230712894 1.1673149585723877 1.7621153354644776 1.0668109135194255 0.87334084843888005 1.4822388712565102 1.1545317554473877 1.6349843502044672 1.4203326606750484 1.0889103794097901 -1.1444848500765288 1.4005706419547401 1.7667404908400315 1.1802691973172701 -0.85452338382601745 -0.85444653204509202 -0.88374472618103028 -0.90320672891577891 -0.91541454315185544 -0.94321611404418959 -0.97141141891479499 -0.94820139408111581 -0.86250339287977951 -0.85013837814331061 -0.91975142478942873
leaf_weight=14.999999999999998 11.000000000000002 11.999999999999998 10.999999999999998 10.000000000000002 9.9999999999999982 9.9999999999999982 10.999999999999998 9.9999999999999982 11.000000000000002 17 15.000000000000002 9.9999999999999982 10.000000000000002 10.000000000000002 9.9999999999999982 12.999999999999998 11.999999999999998 12.999999999999998 12.999999999999998 64 28 20 49 9.9999999999999982 14.999999999999998 19 15.999999999999998 26 12.999999999999998 9.9999999999999982
leaf_count=15 11 12 11 10 10 10 11 10 11 17 15 10 10 10 10 13 12 13 13 64 28 20 49 10 15 19 16 26 13 10
internal_value=-6.20882e-10 1.39111 1.66028 1.7815 2.21185 -0.885249 1.60936 1.19749 1.39888 1.11544 1.73403 0.891348 1.19388 1.10984 1.36195 -0.904111 1.24095 1.61433 1.28464 -0.893147 -0.903807 -0.884883 -0.911862 -0.862752 -0.909232 -0.906463 -0.919023 -0.899881 -0.892079 -0.878406
internal_weight=504 196 82 70 20 308 50 114 33 81 39 21 60 40 20 298 23 28 23 285 211 63 148 74 35 133 71 52 62 36
internal_count=504 196 82 70 20 308 50 114 33 81 39 21 60 40 20 298 23 28 23 285 211 63 148 74 35 133 71 52 62 36
is_linear=0
shrinkage=0.05


Tree=25
num_leaves=31
num_cat=0
split_feature=24 5 0 16 13 3 5 5 14 18 18 20 26 26 18 25 30 18 20 0 15 24 21 21 16 29 18 25 19 20
split_gain=208278 10538.9 3182.58 2448.18 1363.16 1047.66 1802.51 781.538 977.731 561.524 679.809 662.061 503.562 518.188 494.701 473.196 313.982 177.012 457.406 23.2918 19.2665 19.1041 16.2585 41.6025 16.7378 10.1358 13.2099 12.4203 10.1187 10.6085
threshold=3.6929638236987983 209.50000000000003 2023.5000000000002 0.87837969732492682 -0.99628250747696534 4.5000000000000009 130.50000000000003 128.50000000000003 0.8697593477501786 141.32500000000002 147.99000000000004 15.950000000000001 19.500594869213455 16.825476770197149 156.79000000000002 182.14321428571432 59.988975246007882 10.9 13.420000000000002 2023.5000000000002 0.61915727239714469 2.323209050691339 13.420000000000002 12.650000000000002 0.87837969732492682 12.2941680032077 11.610000000000001 12.119065934065937 13.375000000000002 14.430000000000001
decision_type=2 2 2 2 2 2 2 2 2 2 2 2 2 2 2 2 2 2 2 2 2 2 2 2 2 2 2 2 2 2
left_child=4 2 9 5 -1 7 -7 15 -9 11 -11 -2 13 -12 -14 -4 -16 18 20 22 -6 28 23 24 -19 -24 -27 -28 -21 -30
right_child=1 -3 3 -5 17 6 -8 8 -10 10 12 -13 14 -15 16 -17 -18 19 -20 21 -22 -23 25 -25 -26 26 27 -29 29 -31
leaf_value=-0.26420843124389654 1.2540670156478879 -0.2727413524280895 1.5346194458007807 0.86372095454822895 -0.82296159407671754 2.4466185760498043 1.5676953622273038 1.9697225062052404 1.3491043177517978 1.5036024153232574 1.0646788216554199 0.75624147863949043 0.72078376531600963 1.4896710604429246 0.91815264225006077 1.0482060074806214 1.2572223252720303 -0.8438134329659599 -1.2484733581542971 -0.83226461609204616 -0.90382198920616741 -0.86415410292776018 -0.78565243721008304 -0.93609004020690922 -0.91224300384521484 -0.79555459022521979 -0.80877460956573488 -0.87434399311359123 -0.8133245294744319 -0.75981678068637848
leaf_weight=9.9999999999999982 11.000000000000002 10.999999999999998 10.000000000000002 10.999999999999998 17.000000000000004 10.000000000000002 13.999999999999998 15.000000000000002 10.999999999999998 15.999999999999998 13.000000000000002 17 9.9999999999999982 15.999999999999998 11.000000000000002 9.9999999999999982 18 84 9.9999999999999982 24 12.999999999999998 19 9.9999999999999982 17 9.9999999999999982 11.999999999999998 9.9999999999999982 26 22 15.999999999999998
leaf_count=10 11 11 10 11 17 10 14 15 11 16 13 17 10 16 11 10 18 84 10 24 13 19 10 17 10 12 10 26 22 16
internal_value=2.09326e-09 1.2326 1.3184 1.55715 -0.838168 1.66612 1.93391 1.5264 1.70715 1.14573 1.21037 0.951816 1.14137 1.29916 1.02404 1.29141 1.12861 -0.85796 -0.955619 -0.842335 -0.858001 -0.82029 -0.8529 -0.864111 -0.851093 -0.831446 -0.840986 -0.85613 -0.806848 -0.790795
internal_weight=504 204 193 81 300 70 24 46 26 112 84 28 68 29 39 20 29 290 40 250 30 81 169 111 94 58 48 36 62 38
internal_count=504 204 193 81 300 70 24 46 26 112 84 28 68 29 39 20 29 290 40 250 30 81 169 111 94 58 48 36 62 38
is_linear=0
shrinkage=0.05


Tree=26
num_leaves=31
num_cat=0
split_feature=24 10 0 12 3 13 28 20 21 19 28 3 28 3 15 15 19 18 28 12 28 25 10 12 15 16 21 21 3 18
split_gain=187971 10896.4 2824.92 2427.38 1870.35 1230.25 994.251 904.271 871.199 826.256 731.907 645.047 598.204 570.978 354.253 311.546 274.611 159.754 426.432 88.7461 22.876 29.8531 21.7567 21.0327 18.7165 15.8167 20.242 26.7195 9.89578 11.4639
threshold=3.6929638236987983 -0.46038400545438724 2023.5000000000002 -0.97288670536264454 4.5000000000000009 -0.99628250747696534 18.488321084980864 164.42000000000004 139.30000000000004 191.56500000000003 18.707918167602426 4.5000000000000009 17.934279939146695 1.5000000000000002 0.71050481915882269 0.60383265664488517 182.34500000000003 10.9 2.0050620824642684 -0.4149617871988161 2.0211138141003735 15.132307692307693 0.91248814248966237 -0.69057042736241547 0.61915727239714469 1.0000000180025095e-35 14.925000000000002 12.650000000000002 4.5000000000000009 12.005000000000001
decision_type=2 2 2 2 2 2 2 2 2 2 2 2 2 2 2 2 2 2 2 2 2 2 2 2 2 2 2 2 2 2
left_child=5 -2 6 -4 9 -1 8 -6 -3 16 -8 13 -10 14 -12 -15 19 18 24 -5 23 22 28 -19 -7 -25 27 -27 29 -22
right_child=1 2 3 4 7 17 10 -9 12 -11 11 -13 -14 15 -16 -17 -18 20 -20 -21 21 -23 -24 25 -26 26 -28 -29 -30 -31
leaf_value=-0.25099802970886231 -0.43855578422546393 0.97577573359012604 0.82294974724451697 1.5343566417694097 2.3371084785461416 -0.78133716053432878 0.61670666933059692 1.6646982622146607 1.2673893054326373 1.0455116293647073 0.96041763782501188 1.3129707429144117 1.7910083675384521 0.9982058593205041 1.3812817096710206 0.67523167431354525 1.7625069141387941 -0.87853129560297194 -1.1906031513214113 1.3544807394345595 -0.75315087024982164 -0.85416579246520996 -0.7042928999120539 -0.79366512512892828 -0.86195229689280195 -0.82004815298935463 -0.77970237135887155 -0.90876092513402318 -0.75306102711221445 -0.80835533983567187
leaf_weight=9.9999999999999982 9.9999999999999982 11.999999999999998 11.999999999999998 15.999999999999995 10.000000000000002 18.000000000000004 10.999999999999998 9.9999999999999982 12.000000000000002 10.999999999999998 10.000000000000002 18 9.9999999999999982 14.000000000000002 9.9999999999999982 15.999999999999998 9.9999999999999982 10.999999999999998 9.9999999999999982 12.000000000000005 12.999999999999998 11.999999999999998 10.999999999999998 89 11.999999999999998 29 15.999999999999998 11.999999999999998 23 34
leaf_count=10 10 12 12 16 10 18 11 10 12 11 10 18 10 14 10 16 10 11 10 12 13 12 11 89 12 29 16 12 23 34
internal_value=-2.36526e-10 1.17097 1.25394 1.47929 1.59344 -0.79626 1.0924 2.0009 1.31847 1.42713 0.995099 1.05631 1.5054 0.963912 1.17085 0.825953 1.53759 -0.815062 -0.907838 1.45727 -0.800218 -0.780566 -0.769663 -0.811859 -0.813583 -0.806835 -0.827399 -0.846013 -0.779935 -0.793086
internal_weight=504 204 194 81 69 300 113 20 34 49 79 68 22 50 20 30 38 290 40 28 250 93 81 157 30 146 57 41 70 47
internal_count=504 204 194 81 69 300 113 20 34 49 79 68 22 50 20 30 38 290 40 28 250 93 81 157 30 146 57 41 70 47
is_linear=0
shrinkage=0.05


Tree=27
num_leaves=31
num_cat=0
split_feature=24 10 0 12 3 4 28 29 20 28 3 3 24 15 15 25 5 18 28 13 28 28 20 28 15 16 15 20 12 17
split_gain=169644 9834.04 2549.49 2190.71 1687.99 1162.93 897.312 1259.34 816.105 660.546 582.155 515.308 458.568 319.713 281.17 179.521 357.732 152.921 370.585 29.4791 24.0066 24.3185 21.2517 27.9158 55.5552 16.8319 16.5291 14.0713 19.6005 13.1454
threshold=3.6929638236987983 -0.46038400545438724 2023.5000000000002 -0.97288670536264454 4.5000000000000009 1.5000000000000002 18.488321084980864 156.64800000000002 164.42000000000004 18.707918167602426 4.5000000000000009 1.5000000000000002 17.588451370359376 0.71050481915882269 0.60383265664488517 181.64785714285716 128.50000000000003 10.9 2.0050620824642684 -0.98631490141008282 2.0211138141003735 2.2068852598257283 14.140000000000002 1.7620008620402923 -0.79120487837355613 1.0000000180025095e-35 -0.12545862287572049 11.675000000000002 0.49253244405029933 -0.56174490092936669
decision_type=2 2 2 2 2 2 2 2 2 2 2 2 2 2 2 2 2 2 2 2 2 2 2 2 2 2 2 2 2 2
left_child=5 -2 6 -4 12 -1 7 -3 -6 -8 11 13 -5 -11 -13 -14 -17 18 26 -19 22 29 23 -21 -25 -26 -7 -23 -29 -22
right_child=1 2 3 4 8 17 9 -9 -10 10 -12 14 15 -15 -16 16 -18 19 -20 20 21 27 -24 24 25 -27 -28 28 -30 -31
leaf_value=-0.27417519092559817 -0.4166280269622803 1.5229261774765819 0.78180226286252341 1.5656271177179675 2.2202530479431144 -0.73621744375962461 0.5858713353222067 0.91007092237472542 1.581463317871094 0.91239677906036354 1.2473221911324395 0.94829556260790115 1.4079140879891137 1.3122176504135132 0.64147008657455451 0.96180846691131561 1.375010485649109 -0.83542374830979582 -1.1310729789733889 -0.75977926594870437 -0.66255527843128559 -0.71732527659489564 -0.73214434097553127 -0.91414472103118904 -0.75012252330780038 -0.81676889790429008 -0.81212097108364112 -0.83351276571100419 -0.75291266441345217 -0.72645388285319012
leaf_weight=11.999999999999998 9.9999999999999982 19 11.999999999999998 17 10.000000000000002 13.000000000000002 10.999999999999998 14.999999999999998 9.9999999999999982 10.000000000000002 18 14.000000000000002 10.999999999999998 9.9999999999999982 15.999999999999998 11.000000000000002 9.9999999999999982 12.999999999999998 9.9999999999999982 70 10.999999999999998 12.999999999999998 29 9.9999999999999982 20 18 15.999999999999998 10.999999999999998 24 30
leaf_count=12 10 19 12 17 10 13 11 15 10 10 18 14 11 10 16 11 10 13 10 70 11 13 29 10 20 18 16 11 24 30
internal_value=8.45582e-10 1.11242 1.19124 1.40533 1.51377 -0.756447 1.03778 1.25255 1.90086 0.945344 1.00349 0.915716 1.35577 1.11231 0.784655 1.24428 1.15857 -0.776542 -0.868602 -0.762122 -0.758085 -0.73759 -0.770493 -0.779918 -0.809286 -0.781692 -0.778095 -0.761745 -0.778244 -0.70931
internal_weight=504 204 194 81 69 300 113 34 20 79 68 50 49 20 30 32 21 288 39 249 236 89 147 118 48 38 29 48 35 41
internal_count=504 204 194 81 69 300 113 34 20 79 68 50 49 20 30 32 21 288 39 249 236 89 147 118 48 38 29 48 35 41
is_linear=0
shrinkage=0.05


Tree=28
num_leaves=31
num_cat=0
split_feature=22 0 16 23 19 22 3 4 22 4 22 23 24 17 24 19 26 22 14 19 0 24 15 21 15 4 21 18 3 23
split_gain=166473 2710.52 2277 1089.91 815.069 778.178 674.864 691.234 818.905 643.401 551.98 582.26 551.043 727.625 384.19 366.289 307.908 276.9 43.5646 31.2431 14.7894 18.0499 26.0579 43.3808 23.2103 16.2468 11.0354 10.3365 9.84544 9.42511
threshold=98.115000000000009 2023.5000000000002 0.87837969732492682 181.05428571428573 149.81500000000003 161.39500000000004 3.5000000000000004 21.500000000000004 141.56500000000003 19.500000000000004 149.46000000000001 192.65642857142856 18.731921894805247 1.0000000180025095e-35 19.081140803671286 150.59500000000003 21.403054110647226 14.175000000000002 -0.98803388382128665 14.600000000000001 2023.5000000000002 1.7390376911859355 0.66849116431036359 12.650000000000002 -0.90256213981333289 13.500000000000002 16.700000000000006 11.575000000000001 3.5000000000000004 12.090714285714286
decision_type=2 2 2 2 2 2 2 2 2 2 2 2 2 2 2 2 2 2 2 2 2 2 2 2 2 2 2 2 2 2
left_child=4 6 3 5 17 -3 9 8 16 12 14 -12 -2 -14 -5 -11 -8 18 -1 20 21 24 23 25 -20 -23 28 -26 -21 -24
right_child=1 2 -4 10 -6 -7 7 -9 -10 15 11 -13 13 -15 -16 -17 -18 -19 19 26 -22 22 29 -25 27 -27 -28 -29 -30 -31
leaf_value=-0.82707257270812995 0.47021054526170092 1.4451325011253353 0.68898101286454638 1.7546429729461666 -0.28088404178619386 2.0545609300786798 1.267297929525375 0.8480648005846888 1.626749544143677 1.2605748396653391 1.0055145712459788 1.4604107022285462 0.59522891778212317 1.0988352984189989 1.3264335762370718 0.85806689083576204 0.90911479393641148 -0.96547155747046842 -0.65461921691894531 -0.73369231541951496 -0.70783193588256843 -0.78324029445648169 -0.69480650901794416 -0.84308685196770561 -0.71160649097327033 -0.7025611217205342 -0.64530887170271445 -0.74579358670248919 -0.68162445814713191 -0.75425745248794562
leaf_weight=10.999999999999998 11.999999999999998 10.000000000000002 10.999999999999998 10.000000000000002 9.9999999999999982 10.999999999999998 12.000000000000002 15.999999999999998 9.9999999999999982 13.000000000000002 17.000000000000004 11.999999999999998 13.000000000000002 15.999999999999998 10.999999999999998 9.9999999999999982 11.999999999999998 12.999999999999998 9.9999999999999982 14.999999999999998 45 12.000000000000002 15.000000000000002 18 33 12.999999999999998 10.999999999999998 67 23 11.999999999999998
leaf_count=11 12 10 11 10 10 11 12 16 10 13 17 12 13 16 11 10 12 13 10 15 45 12 15 18 33 13 11 67 23 12
internal_value=-1.0688e-09 1.13913 1.35837 1.46208 -0.724901 1.76436 0.981434 1.11907 1.2466 0.873906 1.33512 1.19375 0.755167 0.873081 1.53034 1.08557 1.08821 -0.739801 -0.729508 -0.725591 -0.73347 -0.739879 -0.759728 -0.783901 -0.727249 -0.741287 -0.689411 -0.734512 -0.702178 -0.721229
internal_weight=504 196 82 71 308 21 114 50 34 64 50 29 41 29 21 23 24 298 285 274 225 180 70 43 110 25 49 100 38 27
internal_count=504 196 82 71 308 21 114 50 34 64 50 29 41 29 21 23 24 298 285 274 225 180 70 43 110 25 49 100 38 27
is_linear=0
shrinkage=0.05


Tree=29
num_leaves=31
num_cat=0
split_feature=24 6 25 12 25 0 13 15 28 29 28 26 25 18 21 25 18 28 25 0 15 21 16 25 29 4 11 3 23 25
split_gain=138179 6886.7 1895.82 2179.33 1502.94 1262.73 1002.32 818.512 739.98 964.546 541.8 481.306 629.32 571.5 478.891 172.148 133.822 348.034 22.7024 30.8068 16.1838 15.2304 33.3206 41.647 11.3548 12.7985 10.0731 15.9266 11.0467 10.3589
threshold=3.6929638236987983 29.500000000000004 184.38104395604398 -0.97288670536264454 188.91260989010991 2023.5000000000002 -0.99628250747696534 0.20180807818479937 18.488321084980864 156.64800000000002 18.730488814733281 43.125902428319854 154.17750000000004 160.36000000000004 14.495000000000003 191.66892857142861 10.9 2.0050620824642684 15.217335164835168 2023.5000000000002 0.61915727239714469 13.420000000000002 0.6078576107927941 12.356153846153848 13.689666666666669 24.500000000000004 0.62420859727530387 4.5000000000000009 14.076428571428574 14.709340659340663
decision_type=2 2 2 2 2 2 2 2 2 2 2 2 2 2 2 2 2 2 2 2 2 2 2 2 2 2 2 2 2 2
left_child=6 2 3 -2 -4 8 -1 -7 9 -5 -10 12 -12 -14 -9 -6 17 20 19 21 -8 22 24 -24 25 -18 29 28 -28 -21
right_child=1 -3 4 5 15 7 16 14 10 -11 11 -13 13 -15 -16 -17 18 -19 -20 26 -22 -23 23 -25 -26 -27 27 -29 -30 -31
leaf_value=-0.19053506851196289 0.45399858504533769 0.0081546822271775458 1.7879247299830121 1.3994548615656401 1.2696079595883685 0.98715564608573914 -0.6694489214155408 1.7571767997741692 0.55833008045499977 0.84052409025338981 1.2682297438383103 0.65089388164606965 0.5738655924797057 1.0618460798263551 1.3041438204901559 1.0091931494799526 -0.69490184471255445 -1.0400381803512573 -0.75990006923675546 -0.5920594072341917 -0.74441141684850054 -0.67315383587243427 -0.69803314606348654 -0.83619324684143059 -0.73529516733609723 -0.64334989229838058 -0.65250607218061185 -0.62071266174316408 -0.70932103070345798 -0.65552955733405227
leaf_weight=9.9999999999999982 15.999999999999998 15.999999999999998 14.999999999999998 19 15.000000000000002 11.999999999999998 18.000000000000004 10.000000000000002 10.999999999999998 12.999999999999998 15.999999999999998 10.999999999999998 10.000000000000002 14.999999999999998 13.999999999999998 10.999999999999998 61 9.9999999999999982 9.9999999999999982 10.000000000000002 11.999999999999998 53 12.000000000000002 9.9999999999999982 12.999999999999998 14.999999999999998 13.999999999999998 11.999999999999998 22 18
leaf_count=10 16 16 15 19 15 12 18 10 11 13 16 11 10 15 14 11 61 10 10 10 12 53 12 10 13 15 14 12 22 18
internal_value=1.07527e-09 1.00397 1.08872 1.00487 1.38937 1.07215 -0.682701 1.32432 0.976589 1.17239 0.877135 0.944574 1.02337 0.866654 1.49291 1.15943 -0.699672 -0.784585 -0.686086 -0.68301 -0.699434 -0.695205 -0.705734 -0.760833 -0.692113 -0.684727 -0.656695 -0.670598 -0.687226 -0.632862
internal_weight=504 204 188 147 41 131 300 36 95 32 63 52 41 25 24 26 290 40 250 240 30 164 111 22 89 76 76 48 36 28
internal_count=504 204 188 147 41 131 300 36 95 32 63 52 41 25 24 26 290 40 250 240 30 164 111 22 89 76 76 48 36 28
is_linear=0
shrinkage=0.05


Tree=30
num_leaves=31
num_cat=0
split_feature=23 14 12 18 12 23 23 15 19 0 18 23 19 19 12 27 20 15 30 19 19 13 30 20 12 28 23 10 28 18
split_gain=124829 4838.99 3600.12 1816.85 2450.79 878.663 1126.47 912.891 915.257 845.945 772.374 746.482 778.646 814.643 441.321 357.867 319.534 123.235 386.369 40.8292 34.6483 24.8917 16.7649 26.6234 46.8251 12.2577 17.6212 10.7045 9.47842 9.43799
threshold=62.850714285714297 -0.99591939645432936 0.71503381463111937 166.69000000000003 -0.97288670536264454 172.78642857142862 181.05428571428573 0.87291090774974645 191.56500000000003 2023.5000000000002 181.83000000000001 162.42714285714288 133.41000000000003 150.59500000000003 -0.72696319516528884 154.37533333333334 175.17000000000004 -0.97008449772828931 2.2041480762042878 18.220000000000002 14.875000000000002 -0.98631490141008282 1.8286231848802277 12.460000000000003 0.60726729507090926 1.8337213747149856 11.769285714285717 -0.70973637838083836 1.4602170270191366 12.675000000000002
decision_type=2 2 2 2 2 2 2 2 2 2 2 2 2 2 2 2 2 2 2 2 2 2 2 2 2 2 2 2 2 2
left_child=1 -1 3 4 -2 10 -7 8 16 11 14 12 -6 -14 -5 -15 -8 18 -3 20 21 -19 23 -23 -25 26 -24 -27 -28 -30
right_child=2 17 -4 5 9 6 7 -9 -10 -11 -12 -13 13 15 -16 -17 -18 19 -20 -21 -22 22 25 24 -26 27 28 -29 29 -31
leaf_value=0.44879207611083988 0.13664443731307982 -0.62628430759205533 0.13884251813093823 0.91045870184898348 0.61616667497616551 1.672918437321981 1.444759516716003 1.5541916251182557 0.69408602416515353 1.2797275416991292 0.60714893609285359 0.48626833915710449 1.3709895338330951 1.1014133563408481 1.3802035856246944 0.7482315883040429 1.0747013466698785 -0.73317554791768391 -1.0179616546630859 -0.74944452444712328 -0.61355008227484564 -0.65567244218320264 -0.61173377434412646 -0.78583800976092988 -0.65405615057264066 -0.67516226401695878 -0.6521970722410414 -0.62496298263812888 -0.72952172205998334 -0.66927227973937997
leaf_weight=9.9999999999999982 9.9999999999999982 17.000000000000004 11.999999999999998 10.000000000000002 12.999999999999998 14.999999999999998 10.000000000000002 11.999999999999998 11.999999999999998 17 9.9999999999999982 9.9999999999999982 13.999999999999998 13.000000000000002 10.000000000000002 15.999999999999998 13.999999999999998 11.999999999999998 9.9999999999999982 11.999999999999998 42 49 11.999999999999998 13.000000000000002 13.999999999999998 12.999999999999991 18 58.000000000000007 13.000000000000002 12.999999999999998
leaf_count=10 10 17 12 10 13 15 10 12 12 17 10 10 14 13 10 16 14 12 10 12 42 49 12 13 14 13 18 58 13 13
internal_value=-3.75486e-10 -0.632972 0.978229 1.03238 0.876114 1.18865 1.29471 1.17652 1.05062 0.965207 0.965937 0.884194 0.955252 1.05777 1.14533 0.906554 1.22889 -0.669518 -0.77135 -0.659297 -0.655087 -0.663202 -0.659065 -0.67764 -0.717507 -0.64795 -0.665441 -0.634154 -0.680088 -0.699397
internal_weight=504 306 198 186 93 93 63 48 36 83 30 66 56 43 20 29 24 296 27 269 257 215 203 76 27 127 56 71 44 26
internal_count=504 306 198 186 93 93 63 48 36 83 30 66 56 43 20 29 24 296 27 269 257 215 203 76 27 127 56 71 44 26
is_linear=0
shrinkage=0.05


Tree=31
num_leaves=31
num_cat=0
split_feature=22 22 16 6 25 0 19 19 19 25 21 19 27 16 22 5 12 14 19 25 25 22 21 22 19 22 16 22 3 19
split_gain=123576 1909.43 2944.79 1126.82 1078.88 773.025 781.648 679.776 545.018 519.039 505.789 478.528 455.61 372.96 242.32 231.466 87.0987 85.0657 26.4024 13.9386 23.0389 47.0337 12.2273 11.4238 28.4003 13.5062 11.1946 8.37739 7.92248 7.57635
threshold=98.115000000000009 144.59 0.87837969732492682 15.500000000000002 166.13142857142859 2023.5000000000002 133.41000000000003 191.56500000000003 149.81500000000003 154.99250000000004 134.19000000000003 177.75500000000002 154.37533333333334 1.0000000180025095e-35 14.175000000000002 128.50000000000003 -0.92641089502887486 -0.98803388382128665 14.600000000000001 12.446547619047621 12.356153846153848 10.225000000000003 16.700000000000006 11.260000000000002 11.545000000000002 9.0250000000000004 -0.8783796973249266 9.4350000000000023 3.5000000000000004 11.290000000000001
decision_type=2 2 2 2 2 2 2 2 2 2 2 2 2 2 2 2 2 2 2 2 2 2 2 2 2 2 2 2 2 2
left_child=8 2 5 -3 12 6 -2 11 14 10 16 -6 -5 -11 17 -7 -8 -1 19 20 23 -22 28 25 -25 -19 -21 -28 -20 -29
right_child=1 3 -4 4 7 15 9 -9 -10 13 -12 -13 -14 -15 -16 -17 -18 18 22 26 21 -23 -24 24 -26 -27 27 29 -30 -31
leaf_value=-0.76344968188892715 0.5557808715632806 1.6319720224900678 0.23930252720327938 1.0236262050541962 1.1875184761850457 1.0634695963426066 0.85569743871688808 0.97553381700264785 -0.26147627830505371 0.97576701760292028 1.3955521416664123 1.5727658237729756 0.56854895028201013 0.60986657165564029 -0.84785462159376879 1.3958434677124023 1.0643822240829464 -0.65850964122348365 -0.63009184837341314 -0.5669968301599676 -0.76602073192596409 -0.6161945256319914 -0.54196062738245188 -0.72534733295440645 -0.62124665661862022 -0.60922077913753325 -0.57761396884918215 -0.59581695199012763 -0.58338474812714958 -0.634609173920195
leaf_weight=10.999999999999998 14.999999999999998 10.999999999999998 17 11.000000000000002 19 11.000000000000002 10.000000000000002 19 9.9999999999999982 15.000000000000002 9.9999999999999982 13.999999999999998 10.999999999999998 12.999999999999998 12.999999999999998 9.9999999999999982 10.000000000000002 18 14.999999999999998 10.999999999999998 10.000000000000002 10.999999999999998 10.999999999999998 10.000000000000002 19 61 9.9999999999999982 15.999999999999998 23 59
leaf_count=11 15 11 17 11 19 11 10 19 10 15 10 14 11 13 13 10 10 18 15 11 10 11 11 10 19 61 10 16 23 59
internal_value=1.16055e-09 0.981453 0.844888 1.15979 1.0896 0.954409 0.877504 1.21378 -0.624561 0.960708 1.10521 1.35096 0.796088 0.805885 -0.636745 1.22174 0.96004 -0.627116 -0.621643 -0.628886 -0.639621 -0.68754 -0.588384 -0.630304 -0.657143 -0.620451 -0.61446 -0.620602 -0.601822 -0.626333
internal_weight=504 196 111 85 74 94 73 52 308 58 30 33 22 28 298 21 20 285 274 225 129 21 49 108 29 79 96 85 38 75
internal_count=504 196 111 85 74 94 73 52 308 58 30 33 22 28 298 21 20 285 274 225 129 21 49 108 29 79 96 85 38 75
is_linear=0
shrinkage=0.05


Tree=32
num_leaves=31
num_cat=0
split_feature=22 22 12 21 27 25 30 25 19 23 14 22 23 19 22 22 14 28 12 28 15 11 28 16 21 19 18 12 22 30
split_gain=111528 1747.72 1935.21 1361.52 1101.38 751.936 788.532 673.632 491.879 470.776 438.701 576.339 433.589 422.22 267.365 218.694 76.7718 24.2117 14.807 17.3698 29.7509 14.5659 24.5568 14.1786 8.54161 7.66169 8.31547 10.866 7.10758 15.2477
threshold=98.115000000000009 156.67000000000004 -0.97288670536264454 14.925000000000002 162.77850000000004 154.99250000000004 19.721504359169042 184.92049450549453 149.81500000000003 185.66130952380954 -0.36247790445086708 136.98000000000005 156.87857142857146 13.680000000000001 125.76500000000001 14.175000000000002 -0.98803388382128665 2.0363911122463025 0.63920241694561786 1.7865303061280233 -0.46800559042974538 0.063390085881955341 1.5054078661443886 1.0000000180025095e-35 10.925000000000002 14.875000000000002 12.005000000000001 0.89404822654372251 11.980000000000002 2.1975603491800331
decision_type=2 2 2 2 2 2 2 2 2 2 2 2 2 2 2 2 2 2 2 2 2 2 2 2 2 2 2 2 2 2
left_child=8 2 -2 -3 5 6 -4 -5 15 -6 -7 -12 13 -8 -15 16 -1 18 19 21 -21 22 -18 -22 -19 26 -26 -28 -20 -30
right_child=1 3 4 7 9 10 12 -9 -10 -11 11 -13 -14 14 -16 -17 17 24 28 20 23 -23 -24 -25 25 -27 27 -29 29 -31
leaf_value=-0.72527720277959651 0.30512916962305708 1.5180195858604031 1.3123058597246806 0.78048665258619521 1.3758669122060139 0.49613922983407976 0.48954962968826293 1.2341738732655845 -0.24840245246887208 0.95569920539855957 0.60311830384656773 1.0680131812890372 1.1113636888563634 0.69044212822802342 1.0405027329921723 -0.80546189088087816 -0.68355644832957863 -0.6118045282363892 -0.59369481349813524 -0.70880764614452019 -0.58687129271657834 -0.58126530336297078 -0.57790524742820049 -0.66042576789855956 -0.54075057506561286 -0.53931379616260533 -0.56950170022469981 -0.63051482200622555 -0.52514219284057606 -0.60726513385772707
