tree
version=v4
num_class=1
num_tree_per_iteration=1
label_index=0
max_feature_idx=30
objective=regression
feature_names=Column_0 Column_1 Column_2 Column_3 Column_4 Column_5 Column_6 Column_7 Column_8 Column_9 Column_10 Column_11 Column_12 Column_13 Column_14 Column_15 Column_16 Column_17 Column_18 Column_19 Column_20 Column_21 Column_22 Column_23 Column_24 Column_25 Column_26 Column_27 Column_28 Column_29 Column_30
feature_infos=[2023:2024] [1:12] [1:4] [0:6] [1:31] [1:365] [1:52] [0:1] [0:1] [0:1] [-0.9999994220246925:0.99998555065071859] [-0.99997919295908233:0.9999907524084426] [-0.9999994220246925:0.99995318436087299] [-0.99999768809943823:0.99996300980480612] [-0.99999479822624138:0.99999479822624138] [-0.99997919295908233:0.99991677270219526] [-0.97492791218182362:0.97492791218182362] [-0.90096886790241903:1] [45.359999999999999:130.87] [45.359999999999999:130.87] [45.359999999999999:130.87] [45.359999999999999:130.87] [42.520000000000003:108.69] [63.957142857142856:97.260000000000005] [2.0937025758668963:21.148850244556286] [65.856428571428566:93.40285714285713] [4.870249897688713:17.344410522517819] [63.236333333333327:90.121000000000009] [7.8246990215805203:14.613280013693632] [61.310888888888897:87.913444444444451] [9.0141587310167264:13.228413367151667]
tree_sizes=2924 3010 3002 2982 3062 3035 3023 3052 3007 3047 2974 3002 3025 3059 3069 3007 3062 2988 3046 3039 3049 3023 2993 3037 3051 3064 3082 3081 3088 3024 3087 3095 3073 3033 3034 3090 3076 3021 3054 3045 3033 3075 3124 3089 3071 3075 3036 3048 3056 3024 3078 3048 3007 3052 3100 3010 3070 3002 3063 3092 3080 3115 3122 2970 3116 3078 3023 3137 3102 3089 3125 3070 3049 3074 3072 3098 3099 3109 3070 3134 3095 3100 3082 3108 3097 3065 3081 3211 3098 3019 3072 3076 3076 3103 3115 3076 3109 3096 3071 3075 3098 3056 3070 3063 3171 3064 3094 3066 3135 3060 3161 3011 3034 3041 3108 3108 3059 3086 3104 3098 3095 3136 3066 3044 3081 3092 3168 3153 3103 3149 3082 3093 3120 3148 3093 3102 3140 3089 3109 3065 3063 3160 3093 3065 3203 3098 3157 3098 3154 3082 3085 3155 3200 3126 3101 3108 3097 3140 3164 3150 3190 3128 3157 3101 3133 3100 3134 3103 3107 3118 3132 3109 3165 3115 3091 3128 3067 3101 3092 3139 3160 3141 3062 3126 3142 3144 3098 3068 3158 3127 3110 3220 3148 3096 3163 3116 3120 3161 3178 3101 3183 3085 3148 3170 3118 3160 3083 3034 3119 3081 3099 3158 3201 3190 3139 3138 3125 3142 3106 3150 3115 3125 3125 3135 3179 3137 3167 3138 3162 3168 3122 3156 3179 3173 3157 3141 3198 3143 3129 3109 3159 3056 3164 3126 3131 3125 3103 3106 3174 3107 3128 3109 3108 3141 3100 3160 3164 3104 3073 3194 3163 3157 3182 3164 3136 3147 3215 3188 3093 3120 3133 3120 3116 3131 3134 3143 3179 3194 3211 3110 3134 3135 3231 3168 3133 3173 3125 3128 3177 3164 3190 3121 3215 3132 3150 3142 3138 3213 3134 3175

Tree=0
num_leaves=31
num_cat=0
split_feature=0 3 3 14 5 26 28 24 12 28 11 27 27 27 26 24 26 1 27 20 5 25 3 19 22 16 26 19 25 20
split_gain=21138.7 6819.83 2747.57 2356.58 1797.6 1209.37 942.051 2427.28 1628.95 911.835 799.458 792.994 729.823 1995.73 723.303 716.721 668.493 607.132 571.239 558.524 534.512 905.185 521.259 461.645 485.568 448.175 594.381 518.174 403.022 384.109
threshold=2023.5000000000002 4.5000000000000009 4.5000000000000009 0.89114827483048498 294.50000000000006 9.043722325118841 9.6569250719673025 7.6980014923688316 -0.51297808981038739 11.973655702502176 -0.82899557272681157 74.548166666666688 86.501425287356341 87.15933333333335 11.677692537715041 8.4093459841278442 10.504611629365177 10.500000000000002 77.645074712643677 58.695000000000007 38.500000000000007 72.211593406593423 5.5000000000000009 57.775000000000013 52.690000000000005 1.0000000180025095e-35 11.387558214770708 74.115000000000023 85.861785714285745 74.115000000000023
decision_type=2 2 2 2 2 2 2 2 2 2 2 2 2 2 2 2 2 2 2 2 2 2 2 2 2 2 2 2 2 2
left_child=1 6 12 16 5 -3 7 -1 17 10 -7 -12 15 28 -15 -2 -4 18 -8 -10 21 -21 -18 -22 -25 -26 27 -27 -14 -28
right_child=2 4 3 -5 -6 9 8 -9 19 -11 11 -13 13 14 -16 -17 22 -19 -20 20 23 -23 -24 24 25 26 29 -29 -30 -31
leaf_value=76.410799435113162 78.346350662427142 77.295815991718868 78.784466042925217 77.662266078401899 77.268018646772319 78.383516048897604 77.723026063103774 77.416466034163335 77.457144560571237 77.539299367079437 78.025707958141581 77.560466055818154 77.594816043932539 78.292927586934567 77.818370786233331 77.934930926612424 78.144619896451701 77.283500506020474 77.290647834024853 77.222916041423176 77.447042990714849 76.550166037489277 78.612284255867863 77.395999365160165 77.206045579040122 76.550102416791901 76.926215979851079 77.035420577932697 77.145916039158195 77.300434778776562
leaf_weight=12.000000000000002 12.999999999999998 9.9999999999999982 14.999999999999998 9.9999999999999982 19 9.9999999999999982 25 11.999999999999998 13.999999999999998 14.999999999999998 31 12.999999999999998 10.000000000000002 12.999999999999998 21 57 13 29 10.999999999999998 10.000000000000002 12.999999999999998 9.9999999999999982 11 14.999999999999998 44 11.000000000000002 12.000000000000002 10.999999999999998 9.9999999999999982 15.999999999999998
leaf_count=12 13 10 15 10 19 10 25 12 14 15 31 13 10 13 21 57 13 29 11 10 13 10 11 15 44 11 12 11 10 16
internal_value=77.5794 77.3522 78.0301 78.347 77.7047 77.8097 77.2112 76.9136 77.2435 77.8842 77.98 77.8883 77.9048 77.7667 77.9998 78.0113 78.5226 77.4538 77.5909 77.1558 77.1261 76.8865 78.359 77.1654 77.1318 77.0897 76.9872 76.7928 77.3704 77.1401
internal_weight=516 343 173 49 98 79 245 24 221 69 54 44 124 54 34 70 39 65 36 156 142 20 24 122 109 94 50 22 20 28
internal_count=516 343 173 49 98 79 245 24 221 69 54 44 124 54 34 70 39 65 36 156 142 20 24 122 109 94 50 22 20 28
is_linear=0
shrinkage=1


Tree=1
num_leaves=31
num_cat=0
split_feature=25 3 3 11 27 29 1 23 15 25 25 20 14 27 11 29 19 30 1 28 5 21 28 10 15 27 25 27 12 27
split_gain=19124.3 5249.99 3097.36 1844.6 2923.67 988.79 1337.99 1323.97 1107.52 983.254 2039.58 857.657 857.317 817.702 792.557 893.368 660.722 590.169 580.955 551.905 854.21 549.74 520.548 508.497 470.32 448.067 431.638 381.38 319.781 336.48
threshold=81.6357142857143 4.5000000000000009 4.5000000000000009 0.43540432083943431 73.585333333333338 73.599411616161632 4.5000000000000009 73.200000000000003 0.98005052076767474 72.631785714285726 73.506071428571445 80.285000000000011 -0.074117039608866245 84.294201149425305 0.7254836971458194 87.26052871410738 76.445000000000007 12.728269460401011 4.5000000000000009 11.973655702502176 222.50000000000003 68.795000000000016 11.828923011766365 0.92602006027323147 -0.33830597889949449 74.167666666666676 75.268214285714294 73.292534482758654 -0.75015329512557205 77.792816091954037
decision_type=2 2 2 2 2 2 2 2 2 2 2 2 2 2 2 2 2 2 2 2 2 2 2 2 2 2 2 2 2 2
left_child=1 5 13 11 -5 7 -7 27 12 -9 -11 19 26 -2 15 16 24 18 23 20 21 -3 -18 -4 -15 -14 -8 -1 29 -27
right_child=2 3 17 4 -6 6 8 9 -10 10 -12 -13 25 14 -16 -17 22 -19 -20 -21 -22 -23 -24 -25 -26 28 -28 -29 -30 -31
leaf_value=-0.34859570908110316 0.67376380647931788 0.4001331644979389 0.50430053710937484 0.25478953530913906 -0.6344569401608573 0.18739536181092264 -0.31926413360854677 -0.21529305744916202 -0.77670344547791925 -1.3036565959453583 -0.49329774480482397 -0.11533987919489544 0.18488657474517822 0.40811715483665456 -0.083038819474833353 0.021710179040306494 0.60416640801863242 0.50217218597729996 1.2302180910110474 0.039125949144363403 0.19240019936482178 0.90001504204489968 0.2084619600106688 0.9711271371160235 0.89305027544498439 0.1448839778701464 -0.64870236615339927 -0.017035426301035016 -0.28428171583481376 -0.23796447976069018
leaf_weight=41 13.999999999999998 11.000000000000002 10.000000000000002 19 18 15.999999999999998 58 9.9999999999999982 10.999999999999998 11.999999999999998 22 11.999999999999998 9.9999999999999982 10.000000000000002 13.999999999999998 19 10.999999999999998 11.999999999999998 9.9999999999999982 10.999999999999998 19 10.999999999999998 34 13.999999999999998 9.9999999999999982 12.000000000000002 11.999999999999998 10.999999999999998 31 10.999999999999998
leaf_count=41 14 11 10 19 18 16 58 10 11 12 22 12 10 10 14 19 11 12 10 11 19 11 34 14 10 12 12 11 31 11
internal_value=2.26347e-09 -0.20222 0.458195 0.103211 -0.177817 -0.322254 -0.246522 -0.449262 -0.294402 -0.651122 -0.779307 0.26568 -0.254811 0.31632 0.265257 0.323306 0.411465 0.803631 0.910028 0.353608 0.437981 0.650074 0.30519 0.776616 0.650584 -0.122545 -0.375739 -0.278458 -0.179477 -0.0382175
internal_weight=516 358 158 101 37 257 161 96 145 44 34 64 134 112 98 84 65 46 34 52 41 22 45 24 20 64 70 52 54 23
internal_count=516 358 158 101 37 257 161 96 145 44 34 64 134 112 98 84 65 46 34 52 41 22 45 24 20 64 70 52 54 23
is_linear=0
shrinkage=0.05


Tree=2
num_leaves=31
num_cat=0
split_feature=0 7 7 14 5 30 28 24 12 25 14 10 18 17 26 23 5 28 28 1 23 16 25 15 26 25 22 15 15 24
split_gain=17295.2 5570.42 2224.07 2004.22 1470.12 1110.7 829.56 2147.8 1384.5 644.065 847.764 713.814 964.749 764.146 604.996 573.995 944.822 511.1 588.82 498.755 477.775 466.843 433.128 422.776 332.963 321.218 303.95 355.133 419.267 298.32
threshold=2023.5000000000002 1.0000000180025095e-35 1.0000000180025095e-35 0.89114827483048498 294.50000000000006 11.823623169410189 9.6569250719673025 7.6980014923688316 -0.51297808981038739 87.594285714285732 0.86167488712516305 0.9193901325473397 83.735000000000014 1.0000000180025095e-35 10.504611629365177 76.281904761904769 168.50000000000003 11.973655702502176 11.052099680611823 10.500000000000002 81.877857142857152 -0.8783796973249266 76.118791208791222 -0.83612626785978394 11.677692537715041 73.588214285714301 54.625000000000007 -0.086975421574875353 -0.46800559042974538 13.278978302193387
decision_type=2 2 2 2 2 2 2 2 2 2 2 2 2 2 2 2 2 2 2 2 2 2 2 2 2 2 2 2 2 2
left_child=1 6 9 14 5 17 7 -1 19 11 24 12 20 -14 -4 23 -17 18 22 -8 -2 -16 -3 -10 -11 -21 -25 28 -28 -26
right_child=2 4 3 -5 -6 -7 8 -9 15 10 -12 -13 13 -15 21 16 -18 -19 -20 25 -22 -23 -24 26 29 -27 27 -29 -30 -31
leaf_value=-1.0852100302775698 0.29241120537122089 0.35505801005207976 1.1038118616739909 0.061282901763916021 -0.28187243122803535 -0.19598498635127076 0.015487252589729099 -0.13920917610327405 -0.11933458729794151 0.44773618419965111 -0.23386776230551978 0.77912757813930522 0.31997647144292535 -0.18967313617467874 0.49617447348741389 -0.94881510951302239 -0.36653438814376532 -0.015653395652770997 0.57354569137096412 -0.033761854767799367 0.66570880651474007 0.93875582434914284 -0.026409246704795143 -0.1813775749548393 -0.04188383655114606 -0.38386168981853286 -0.40279080361912123 -0.33990761376285961 -0.78030101358890536 0.32635542587800459
leaf_weight=12.000000000000002 14.999999999999998 23 14.999999999999998 9.9999999999999982 19 13.999999999999998 36 11.999999999999998 19 14.999999999999998 10.999999999999998 9.9999999999999982 19 12.000000000000002 12.999999999999996 11.000000000000002 19 10.999999999999998 20 10.000000000000002 20 11.000000000000004 10.999999999999998 17 11.000000000000002 19 19.000000000000004 59 11.999999999999998 10.999999999999998
leaf_count=12 15 23 15 10 19 14 36 12 19 15 11 10 19 12 13 11 19 11 20 10 20 11 11 17 11 19 19 59 12 11
internal_value=2.68387e-10 -0.205581 0.407598 0.692788 0.113012 0.207984 -0.333019 -0.61221 -0.302699 0.294901 0.151514 0.385462 0.325815 0.122693 0.854712 -0.383481 -0.580037 0.294993 0.358273 -0.108822 0.505724 0.699024 0.231642 -0.336682 0.266087 -0.263138 -0.375277 -0.411902 -0.548924 0.142236
internal_weight=516 343 173 49 98 79 245 24 221 124 48 76 66 31 39 156 30 65 54 65 35 24 34 126 37 29 107 90 31 22
internal_count=516 343 173 49 98 79 245 24 221 124 48 76 66 31 39 156 30 65 54 65 35 24 34 126 37 29 107 90 31 22
is_linear=0
shrinkage=0.05


Tree=3
num_leaves=31
num_cat=0
split_feature=25 7 7 11 27 4 25 29 1 24 27 27 29 4 13 19 22 29 12 28 21 23 19 23 26 26 21 28 30 30
split_gain=15668.2 4241.14 2562.55 1607.27 2527.35 956.967 1629.98 1086.47 1102.32 759.19 752.909 1766.12 721.988 720.409 678.776 603.37 567.974 507.923 576.811 457.834 487.584 527.807 439.614 489.789 429.554 338.019 318.074 482.483 306.785 297.207
threshold=81.6357142857143 1.0000000180025095e-35 1.0000000180025095e-35 0.43540432083943431 73.585333333333338 4.5000000000000009 73.450714285714298 73.599411616161632 5.5000000000000009 6.9306155414874073 86.501425287356341 87.15933333333335 87.122467540574306 21.500000000000004 0.283138326639013 85.735000000000014 80.315000000000012 74.273425505050525 -0.57078386445773377 11.828923011766365 74.610000000000014 86.508809523809546 86.795000000000002 72.795714285714311 10.884628434756506 10.021942939595016 68.615000000000023 11.520081049405876 10.853604960056053 10.906659140381267
decision_type=2 2 2 2 2 2 2 2 2 2 2 2 2 2 2 2 2 2 2 2 2 2 2 2 2 2 2 2 2 2
left_child=1 5 10 13 -5 6 -1 9 14 -7 19 -12 15 22 -9 -13 -4 18 -10 -2 -21 -22 23 -3 -20 -19 29 -28 -27 -11
right_child=2 3 16 4 -6 7 -8 8 17 26 11 12 -14 -15 -16 -17 -18 25 24 20 21 -23 -24 -25 -26 28 27 -29 -30 -31
leaf_value=-0.21156156812520588 0.63688994571566582 0.51930195860564687 0.60671949569256078 0.23137369657817641 -0.5954080209136009 -0.78615103371187367 -0.9266598194340866 -0.068044639548117472 0.2399306267499923 -0.63228224332516014 -0.23719864605288757 0.74862024142191941 0.031502830440347844 -0.015025293513348229 0.42877302050590516 0.23202072501182558 0.98150824149449667 -0.45952220753981515 -0.45687455654144271 0.10487634800374508 0.70036469300587956 0.25547405680020652 0.56254061684012413 0.086990521103143703 0.0065658140182495127 -0.047901543776194259 -0.062072306792987024 -0.44890872027192802 -0.31305230098776521 -0.3375348984003067
leaf_weight=17 15.999999999999998 10.000000000000002 31 19 18 10.999999999999998 14.999999999999998 22 10.000000000000002 12.999999999999998 19 13.000000000000002 10.999999999999998 19 9.9999999999999982 9.9999999999999982 14.999999999999998 26 10.000000000000002 15.999999999999998 12.000000000000002 14.999999999999998 15.999999999999998 19 9.9999999999999982 14.999999999999998 19 13.999999999999998 40 25
leaf_count=17 16 10 31 19 18 11 15 22 10 13 19 13 11 19 10 10 15 26 10 16 12 15 16 19 10 15 19 14 40 25
internal_value=-1.41151e-09 -0.183038 0.414732 0.0914828 -0.170844 -0.290924 -0.546764 -0.254538 -0.171337 -0.399632 0.285685 0.148906 0.364671 0.243141 0.0872109 0.524012 0.728933 -0.245874 -0.070126 0.408555 0.323593 0.453203 0.352144 0.236063 -0.225154 -0.310965 -0.339748 -0.226185 -0.240738 -0.43837
internal_weight=516 358 158 101 37 257 32 225 143 82 112 53 34 64 32 23 46 111 30 59 43 27 45 29 20 81 71 33 55 38
internal_count=516 358 158 101 37 257 32 225 143 82 112 53 34 64 32 23 46 111 30 59 43 27 45 29 20 81 71 33 55 38
is_linear=0
shrinkage=0.05


Tree=4
num_leaves=31
num_cat=0
split_feature=25 3 3 20 23 23 0 4 20 12 28 27 19 22 5 25 24 22 13 17 18 13 22 18 25 22 27 28 28 24
split_gain=14140.6 3827.63 2312.7 1652.56 1740.68 2479.55 1262.64 1038.27 1521.02 1098.05 746.286 691.678 699.955 651.356 725.249 645.333 609.723 512.596 496.005 720.082 483.52 461.355 420.897 345.313 414.592 394.187 444.632 359.508 351.115 330.021
threshold=81.6357142857143 4.5000000000000009 4.5000000000000009 85.00500000000001 71.971428571428575 70.84714285714287 2023.5000000000002 4.5000000000000009 77.610000000000014 -0.69057042736241547 11.973655702502176 84.294201149425305 84.240000000000023 71.02000000000001 252.50000000000003 87.12607142857145 6.1459813601877373 80.315000000000012 -0.84313311835787952 -1.0000000180025095e-35 88.560000000000016 -0.27694043983797384 64.365000000000009 76.445000000000007 72.631785714285726 58.000000000000007 72.66200000000002 10.482560859803788 10.887932402958716 9.2522383430768311
decision_type=2 2 2 2 2 2 2 2 2 2 2 2 2 2 2 2 2 2 2 2 2 2 2 2 2 2 2 2 2 2
left_child=1 6 11 4 5 -3 7 8 -1 21 13 -2 18 14 22 -14 -11 -4 -13 20 -20 -9 -6 25 -25 26 -18 -27 -28 -23
right_child=2 3 17 -5 10 -7 -8 9 -10 16 -12 12 15 -15 -16 -17 23 -19 19 -21 -22 29 -24 24 -26 27 28 -29 -30 -31
leaf_value=-0.2554163064807653 0.60014842067446028 0.19421107936650511 0.57638352024218731 -0.52320233404636385 0.57983520030975333 -0.80944137394428251 0.22438967972993851 0.19327786487455553 -0.98353943538207289 -0.70573172032833098 -0.10506716638803482 0.66844949126243591 0.30050911486148835 0.69021789034207659 -0.00694932833313942 -0.074217149504908805 -0.37582496864100301 0.93243282238642378 0.61951281497875865 -0.00016515572865804032 0.18307541026310489 -0.38277944742955944 0.18290319903330371 -0.25421406381270467 -0.5900611823797226 -0.53505727723240859 0.2239316447079181 -0.26965333118088664 -0.15855741982658705 -0.06113567424231562
leaf_weight=16.000000000000004 13.999999999999998 16.000000000000004 31 9.9999999999999982 17.000000000000004 9.9999999999999982 11.999999999999998 12.999999999999998 12.999999999999998 9.9999999999999982 9.9999999999999982 9.9999999999999982 20 11.999999999999998 14.999999999999998 27 11.999999999999998 14.999999999999998 14.999999999999995 15.000000000000005 10.999999999999998 10.999999999999998 10.999999999999998 17 20 15.999999999999998 10.000000000000002 63 14.999999999999998 29
leaf_count=16 14 16 31 10 17 10 12 13 13 10 10 10 20 12 15 27 12 15 15 15 11 11 11 17 20 16 10 63 15 29
internal_value=8.90171e-10 -0.173886 0.393996 0.0869087 0.153954 -0.191809 -0.276378 -0.300905 -0.581816 -0.26319 0.292259 0.271401 0.224437 0.3645 0.273602 0.0852408 -0.327474 0.692487 0.352716 0.275708 0.434866 -0.0654886 0.423898 -0.302751 -0.435753 -0.260328 -0.125647 -0.323406 -0.00556179 -0.149588
internal_weight=516 358 158 101 91 26 257 245 29 216 65 112 98 55 43 47 163 46 51 41 26 53 28 153 37 116 37 79 25 40
internal_count=516 358 158 101 91 26 257 245 29 216 65 112 98 55 43 47 163 46 51 41 26 53 28 153 37 116 37 79 25 40
is_linear=0
shrinkage=0.05


Tree=5
num_leaves=31
num_cat=0
split_feature=0 7 14 7 24 4 16 12 28 28 28 28 20 20 4 14 29 13 28 17 19 23 28 22 23 14 22 15 10 24
split_gain=12729 4112.1 1745.7 2434.52 1327.58 937.034 1558.81 990.991 638.66 1147.72 619.824 575.987 571.955 874.599 581.137 491.848 423.866 421.376 420.881 420.172 417.078 537.167 413.721 423.595 387.109 365.012 364.939 327.107 319.975 261.601
threshold=2023.5000000000002 1.0000000180025095e-35 0.97086220929134248 1.0000000180025095e-35 7.8367186117843799 4.5000000000000009 1.0000000180025095e-35 -0.69057042736241547 10.79260389630671 11.052099680611823 11.785004940424416 11.741134693288737 76.115000000000023 71.495000000000019 18.500000000000004 0.84314627594921276 73.615388888888901 -0.40613878790836594 12.770645442997274 1.0000000180025095e-35 66.79000000000002 74.929285714285726 11.424923027809347 77.075000000000017 86.812142857142874 -0.78326178756187226 80.315000000000012 0.45657509412473768 0.80926549319045582 14.122603418998748
decision_type=2 2 2 2 2 2 2 2 2 2 2 2 2 2 2 2 2 2 2 2 2 2 2 2 2 2 2 2 2 2
left_child=1 5 3 10 -3 6 -1 17 16 -10 22 -11 13 20 -15 25 -6 -7 24 29 -9 -22 23 -2 -12 -14 27 -5 -21 -20
right_child=2 4 -4 26 8 7 -8 12 9 11 18 -13 15 14 -16 -17 -18 -19 19 28 21 -23 -24 -25 -26 -27 -28 -29 -30 -31
leaf_value=-0.083796161413192738 0.51508347078093453 -0.290603729751375 -0.11640438172552321 0.48961369072397543 0.21832631056895477 0.23013466309756039 -0.83929346899191537 -0.45297037285566333 -0.34625918132563438 0.41136138117627097 0.21040022338137906 0.035541255094788296 -0.35070089599612403 -0.42823009602725498 -0.88852640291055052 -0.52603598542511465 0.6215165289965543 -0.13020227735125742 0.29664396551939148 -0.051789061589674501 -0.056392814992712093 -0.43213017940521237 0.68980969289938621 0.10045898231593045 -0.15205230689965762 -0.07096031568078108 0.92261866331100473 0.84627633213996889 0.32958126555789602 0.63680291891098029
leaf_weight=11.000000000000002 14.000000000000002 18 18 18.000000000000004 16.000000000000004 9.9999999999999982 18 25 11.999999999999998 19 17.000000000000004 22 15.999999999999998 16.000000000000004 11.999999999999998 9.9999999999999982 10.999999999999998 43 13.000000000000002 11.000000000000002 26 14.999999999999998 11.999999999999998 10.999999999999998 12.999999999999998 43 14.999999999999998 9.9999999999999982 10.999999999999998 9.9999999999999982
leaf_count=11 14 18 18 18 16 10 18 25 12 19 17 22 16 16 12 10 11 43 13 11 26 15 12 11 13 43 15 10 11 10
internal_value=-3.54706e-10 -0.176367 0.349676 0.403802 0.0973643 -0.28586 -0.552726 -0.250031 0.184657 0.0838238 0.281019 0.209702 -0.3111 -0.391345 -0.6255 -0.201781 0.382589 -0.0622142 0.198403 0.295114 -0.292006 -0.193858 0.448485 0.332649 0.0533375 -0.146822 0.723607 0.616993 0.138896 0.444539
internal_weight=516 343 173 155 98 245 29 216 80 53 112 41 163 94 28 69 27 53 75 45 66 41 37 25 30 59 43 28 22 23
internal_count=516 343 173 155 98 245 29 216 80 53 112 41 163 94 28 69 27 53 75 45 66 41 37 25 30 59 43 28 22 23
is_linear=0
shrinkage=0.05


Tree=6
num_leaves=31
num_cat=0
split_feature=25 7 7 30 6 0 23 4 16 12 27 27 30 19 29 28 4 19 26 20 23 20 20 12 4 22 19 26 26 21
split_gain=11631.6 3098.46 1884.56 1506.9 1648.48 983.365 925.381 845.673 1406.83 894.37 635.491 1481.59 606.171 775.924 588.331 506.184 501.894 490.912 446.724 435.207 394.622 390.071 375.72 555.59 350.418 378.702 322.629 321.383 283.254 369.413
threshold=81.6357142857143 1.0000000180025095e-35 1.0000000180025095e-35 11.823623169410189 41.500000000000007 2023.5000000000002 72.487857142857152 4.5000000000000009 1.0000000180025095e-35 -0.69057042736241547 86.501425287356341 87.15933333333335 10.57189449976754 69.985000000000014 87.122467540574306 11.973655702502176 19.500000000000004 85.735000000000014 10.504611629365177 76.475000000000009 73.848571428571447 70.745000000000019 60.190000000000005 -0.37447172655954952 22.500000000000004 59.550000000000004 59.570000000000007 12.877278876455815 10.263543669159665 74.610000000000014
decision_type=2 2 2 2 2 2 2 2 2 2 2 2 2 2 2 2 2 2 2 2 2 2 2 2 2 2 2 2 2 2
left_child=1 5 10 4 15 7 -6 8 -1 24 21 -12 13 -11 17 16 20 -13 -4 22 -3 -2 -14 -24 -9 -26 -21 -20 -23 -30
right_child=2 3 18 -5 6 -7 -8 9 -10 12 11 14 19 -15 -16 -17 -18 -19 27 26 -22 28 23 -25 25 -27 -28 -29 29 -31
leaf_value=-0.079606365073810914 0.12906072182314737 0.33220219639214604 0.85078498125076296 -0.36820920240134003 -0.54013572768731544 0.19200836817423506 0.12443865135312081 -0.17167505212128165 -0.79732879085673236 -0.76786737564418983 -0.23262913430991927 0.66506728163132278 -0.064327729290181948 -0.19120566226541996 0.017878356846896086 -0.021798687089573256 0.13636545853482351 0.19909056127071381 0.3158243522047996 0.10320927649736406 0.67966774312349465 0.66594815254211426 -0.112464071114858 -0.45863336768804813 -0.090215002000331862 0.319056271314621 -0.20690099671483042 0.64634194781905729 0.12427053885026412 0.47418206619719672
leaf_weight=11.000000000000002 13.999999999999998 22 14.999999999999998 15.999999999999998 11.000000000000002 11.999999999999998 9.9999999999999982 30 18 14.000000000000002 19 13.000000000000002 10.999999999999998 9.9999999999999982 10.999999999999998 10.999999999999998 18 9.9999999999999982 12.000000000000002 9.9999999999999982 12.999999999999998 9.9999999999999982 14.999999999999998 51 13.000000000000002 9.9999999999999982 52 19 10.999999999999998 24
leaf_count=11 14 22 15 16 11 12 10 30 18 14 19 13 11 10 11 11 18 10 12 10 13 10 15 51 13 10 52 19 11 24
internal_value=-1.5522e-09 -0.157708 0.357338 0.0769353 0.160727 -0.249921 -0.223672 -0.271567 -0.525089 -0.237529 0.246671 0.121009 -0.295545 -0.527592 0.318631 0.286858 0.350919 0.462469 0.626786 -0.255479 0.461261 0.359554 -0.334868 -0.379959 -0.0591035 0.087729 -0.156883 0.5184 0.431263 0.36421
internal_weight=516 358 158 101 85 257 21 245 29 216 112 53 163 24 34 64 53 23 46 139 35 59 77 66 53 23 62 31 45 35
internal_count=516 358 158 101 85 257 21 245 29 216 112 53 163 24 34 64 53 23 46 139 35 59 77 66 53 23 62 31 45 35
is_linear=0
shrinkage=0.05


Tree=7
num_leaves=31
num_cat=0
split_feature=25 3 3 20 23 23 0 28 24 12 23 15 28 27 25 24 10 22 6 30 30 18 12 20 23 14 25 22 23 23
split_gain=10497.6 2796.36 1700.81 1494.02 1406.49 2232.2 887.487 654.922 1701.36 944.677 636.929 908.18 612.407 583.792 630.495 1220.1 735.084 558.87 580.183 441.502 525.813 419.6 397.564 377.791 717.712 342.537 330.635 329.329 320.004 379.402
threshold=81.6357142857143 4.5000000000000009 4.5000000000000009 85.00500000000001 71.971428571428575 70.84714285714287 2023.5000000000002 9.6569250719673025 7.6980014923688316 0.074116354202380205 76.281904761904769 0.47369649395226454 11.973655702502176 84.294201149425305 85.430576923076941 9.7337628632504245 0.95998215779580554 71.02000000000001 36.500000000000007 12.728269460401011 12.288462934678241 81.465000000000018 0.84660111278280559 88.830000000000013 88.042142857142878 -0.81052678282060076 72.833928571428586 64.365000000000009 71.5732142857143 74.881428571428586
decision_type=2 2 2 2 2 2 2 2 2 2 2 2 2 2 2 2 2 2 2 2 2 2 2 2 2 2 2 2 2 2
left_child=1 6 13 4 5 -3 7 8 -1 21 22 -12 17 -2 -15 -16 23 18 27 20 -4 28 25 24 -17 -11 -24 -6 -9 -30
right_child=2 3 19 -5 12 -7 -8 9 -10 10 11 -13 -14 14 15 16 -18 -19 -20 -21 -22 -23 26 -25 -26 -27 -28 -29 29 -31
leaf_value=-0.92703780333201069 0.53635987809726171 0.19229226373136041 0.4375621373836811 -0.50701918393373491 0.50172987977663674 -0.75998372271656989 0.18240794241428376 0.055890812937702455 -0.085076966493700945 -0.56800659384046293 -0.86227171421051008 -0.21709800526499748 -0.098768884837627413 0.36918225505135283 -0.33242577841648691 0.53103631409731766 0.55236310362815855 0.62830832799275715 -0.021932223149009847 0.33470766246318817 0.84217887095042654 0.11652722358703614 0.059763110371736386 -0.055373671650886538 -0.054236716562882072 -0.2855467528104782 -0.25111833292245866 0.15447271682999353 -0.36741110955675449 -0.12307117787447382
leaf_weight=12.000000000000002 13.999999999999998 16.000000000000004 12.999999999999998 9.9999999999999982 18.000000000000004 9.9999999999999982 11.999999999999998 13.999999999999998 11.999999999999998 13.999999999999998 12.000000000000002 9.9999999999999982 9.9999999999999982 33 12.999999999999998 11.000000000000002 11.999999999999998 11.999999999999998 13.999999999999998 11.999999999999998 21 15.999999999999998 12.999999999999998 19 9.9999999999999982 46 25 10.999999999999998 24 47
leaf_count=12 14 16 13 10 18 10 12 14 12 14 12 10 10 33 13 11 12 12 14 12 21 16 13 19 10 46 25 11 24 47
internal_value=-3.65919e-10 -0.149822 0.339471 0.0730886 0.136837 -0.173968 -0.237425 -0.257989 -0.506057 -0.231049 -0.325888 -0.569011 0.261158 0.234338 0.191192 0.100827 0.20914 0.3266 0.242402 0.595447 0.687472 -0.118369 -0.271309 0.106173 0.252335 -0.351454 -0.144764 0.370012 -0.162585 -0.205665
internal_weight=516 358 158 101 91 26 257 245 24 221 120 22 65 112 98 65 52 55 43 46 34 101 98 40 21 60 38 29 85 71
internal_count=516 358 158 101 91 26 257 245 24 221 120 22 65 112 98 65 52 55 43 46 34 101 98 40 21 60 38 29 85 71
is_linear=0
shrinkage=0.05


Tree=8
num_leaves=31
num_cat=0
split_feature=25 3 3 20 24 27 0 28 24 28 28 10 27 27 29 25 25 24 19 18 21 22 18 25 25 28 18 24 24 24
split_gain=9474.04 2523.72 1534.98 1348.36 1341.23 848.338 800.957 591.067 1535.47 670.118 566.231 575.495 540.175 1301.47 502.096 440.667 622.119 499.803 434.541 426.118 409.878 405.783 402.479 342.325 375.023 409.813 337.748 358.096 570.76 280.467
threshold=81.6357142857143 4.5000000000000009 4.5000000000000009 85.00500000000001 7.8367186117843799 76.716000000000008 2023.5000000000002 9.6569250719673025 7.6980014923688316 10.331252408410728 10.79260389630671 0.65883702558178847 86.501425287356341 87.15933333333335 87.122467540574306 74.096071428571449 73.066346153846169 11.107411583577399 85.735000000000014 75.825000000000017 71.890000000000015 80.315000000000012 73.830000000000013 78.313928571428576 77.052609890109906 11.009248268918251 64.990000000000023 9.216244415884864 12.775947441753546 12.884522776323729
decision_type=2 2 2 2 2 2 2 2 2 2 2 2 2 2 2 2 2 2 2 2 2 2 2 2 2 2 2 2 2 2
left_child=1 6 12 4 -3 10 7 8 -1 22 -6 29 19 -14 18 16 26 -18 -15 -2 -21 -4 -9 24 25 -17 -11 -28 -29 -12
right_child=2 3 21 -5 5 -7 -8 9 -10 15 11 -13 13 14 -16 23 17 -19 -20 20 -22 -23 -24 -25 -26 -27 27 28 -30 -31
leaf_value=-0.88068589568138111 0.60738834467801184 -0.28560176081955435 0.46237392762014945 -0.48166822791099551 0.35278546824341728 0.58589386298106272 0.17328754862149556 -0.15196708085782384 -0.080823113210499287 -0.09720918756464253 -0.21207751830418903 0.30843306367213907 -0.22467960652552155 0.61547536162229666 0.014146624370054765 -0.40331076168351709 -0.74293492117098392 -0.29255510080944408 0.1770680719614029 0.022629107878758357 0.3514144566495504 0.7791624303658804 0.22623642136653266 -0.40901253734316145 0.047151965387165547 -0.12274513466561095 -0.068867265582084655 -0.60435772471957749 -0.20036840092609909 0.11818082034587861
leaf_weight=12.000000000000002 10.999999999999998 15.999999999999998 31 9.9999999999999982 21 12.999999999999998 11.999999999999998 17.000000000000004 11.999999999999998 23 18.000000000000004 12.999999999999998 19 13.000000000000002 10.999999999999998 18 14.000000000000002 10.999999999999998 9.9999999999999982 12.999999999999998 35 14.999999999999998 11.999999999999998 13.999999999999998 20 47 9.9999999999999982 18 17 9.9999999999999982
leaf_count=12 11 16 31 10 21 13 12 17 12 23 18 13 19 13 11 18 14 11 10 13 35 15 12 14 20 47 10 18 17 10
internal_value=-9.25186e-10 -0.142331 0.322497 0.0694341 0.129995 0.218655 -0.225554 -0.245089 -0.480755 -0.219497 0.141654 0.0335132 0.222621 0.106765 0.291985 -0.253334 -0.331488 -0.544768 0.424863 0.326694 0.262368 0.565675 0.00453092 -0.179917 -0.142183 -0.20044 -0.253076 -0.332742 -0.408134 -0.0941281
internal_weight=516 358 158 101 91 75 257 245 24 221 62 41 112 53 34 192 93 25 23 59 48 46 29 99 85 65 68 45 35 28
internal_count=516 358 158 101 91 75 257 245 24 221 62 41 112 53 34 192 93 25 23 59 48 46 29 99 85 65 68 45 35 28
is_linear=0
shrinkage=0.05


Tree=9
num_leaves=31
num_cat=0
split_feature=25 16 16 30 6 18 0 4 16 12 20 20 30 29 30 11 11 28 4 26 20 23 11 27 18 13 20 12 21 26
split_gain=8550.33 2277.66 1385.32 1314.39 1412.61 852.1 722.864 744.975 1286.33 702.368 518.468 785.016 905.408 571.769 478.987 767.968 453.527 407.245 428.098 390.46 363.068 353.029 349.822 413.441 344.773 326.451 325.112 480.424 323.784 293.07
threshold=81.6357142857143 -0.60785761079279388 -0.60785761079279388 11.823623169410189 41.500000000000007 79.685000000000016 2023.5000000000002 4.5000000000000009 1.0000000180025095e-35 -0.69057042736241547 67.645000000000024 88.180000000000021 12.22407721167866 87.26052871410738 10.57189449976754 0.97263757644091875 0.6174544326165855 11.973655702502176 19.500000000000004 10.504611629365177 76.475000000000009 88.042142857142878 0.40418040343369133 88.722166666666681 78.605000000000018 -0.27694043983797384 60.190000000000005 -0.37447172655954952 80.680000000000021 12.877278876455815
decision_type=2 2 2 2 2 2 2 2 2 2 2 2 2 2 2 2 2 2 2 2 2 2 2 2 2 2 2 2 2 2
left_child=1 3 19 4 17 -6 7 8 -3 25 -4 12 -12 22 15 -11 21 18 24 -2 26 -14 23 -13 -1 -9 -16 -28 -27 -21
right_child=2 6 10 -5 5 -7 -8 9 -10 14 11 13 16 -15 20 -17 -18 -19 -20 29 -22 -23 -24 -25 -26 28 27 -29 -30 -31
leaf_value=0.62449290018815262 0.74680907875299463 -0.044806127656589839 -0.13208562791347506 -0.34977702228352431 -0.51529401703314337 0.1224237310513854 0.1646231696009636 0.17490088320695438 -0.73110493615580108 -0.79322910279035552 0.78236208395524465 0.4418072767117443 0.50200533866882324 -0.19899870951970419 -0.037534953789277514 -0.21953125361885345 -0.021129300594329836 -0.015874520756981588 0.1202854794760545 0.24261269012155628 -0.12663042804286365 0.16386110335588455 -0.054442900717258463 0.036640135357156399 0.29971399280157957 -0.20112497189949297 -0.08239777565002443 -0.40429971926644737 0.11746540015394039 0.55823622443958332
leaf_weight=12.999999999999998 14.999999999999998 11.000000000000002 9.9999999999999982 15.999999999999998 11.000000000000002 9.9999999999999982 11.999999999999998 12.999999999999998 18 10.000000000000002 10.999999999999998 17.000000000000004 19 11.999999999999998 10.999999999999998 13.999999999999998 9.9999999999999982 10.999999999999998 18 12.000000000000002 62 12.999999999999998 9.9999999999999982 9.9999999999999982 22 29 14.999999999999998 51 10.999999999999998 19
leaf_count=13 15 11 10 16 11 10 12 13 18 10 11 17 19 12 11 14 10 11 18 12 62 13 10 10 22 29 15 51 11 19
internal_value=-1.07499e-09 -0.135215 0.306372 0.0659624 0.144219 -0.211619 -0.214276 -0.232835 -0.470785 -0.200888 0.21149 0.245174 0.378547 0.100912 -0.2523 -0.458572 0.272786 0.260979 0.318439 0.537391 -0.216685 0.364634 0.198181 0.291745 0.420346 -0.0427697 -0.289197 -0.33114 -0.113513 0.436059
internal_weight=516 358 158 101 85 21 257 245 29 216 112 102 53 49 163 24 42 64 53 46 139 32 37 27 35 53 77 66 40 31
internal_count=516 358 158 101 85 21 257 245 29 216 112 102 53 49 163 24 42 64 53 46 139 32 37 27 35 53 77 66 40 31
is_linear=0
shrinkage=0.05


Tree=10
num_leaves=31
num_cat=0
split_feature=25 3 11 27 3 4 25 29 1 23 28 20 25 30 5 20 28 27 10 30 4 20 26 28 19 26 29 5 27 26
split_gain=7716.67 2055.58 1252.05 2090.24 1250.25 581.418 1247.93 622.951 665.527 649.791 732.248 497.613 469.486 519.857 767.049 448.335 461.988 487.434 391.379 386.144 534.483 371.133 461.646 364.585 331.763 397.765 331.306 293.61 281.172 224.508
threshold=81.6357142857143 4.5000000000000009 0.43540432083943431 73.585333333333338 4.5000000000000009 4.5000000000000009 73.450714285714298 73.599411616161632 5.5000000000000009 73.200000000000003 10.613456226832023 80.285000000000011 85.430576923076941 12.15924974109941 64.500000000000014 78.410000000000011 11.741134693288737 74.295545977011514 0.61915405168109316 12.728269460401011 22.500000000000004 71.890000000000015 10.012220415087361 10.170166486779509 76.050000000000011 11.988341613128792 86.731166666666681 186.50000000000003 73.059000000000012 10.112092034560154
decision_type=2 2 2 2 2 2 2 2 2 2 2 2 2 2 2 2 2 2 2 2 2 2 2 2 2 2 2 2 2 2
left_child=1 5 11 -4 12 6 -1 9 18 28 -11 23 24 -14 -15 21 17 -17 -9 20 26 -10 -23 -3 -2 -26 -6 -25 29 -7
right_child=4 2 3 -5 19 7 -8 8 15 10 -12 -13 13 14 -16 16 -18 -19 -20 -21 -22 22 -24 27 25 -27 -28 -29 -30 -31
leaf_value=-0.10968044891076929 0.56898283308202569 0.53482009410858156 0.19691904500911112 -0.55497375354170797 0.56724532063190736 -0.059859443306922888 -0.7353870412458976 0.31444078683853149 -0.14310387640788749 -0.78039177981289953 -0.29642836112115117 -0.093708404401938117 0.42118153373400374 -0.31621345389973032 0.14760753313138925 0.33234342228282571 -0.27962747407811034 -0.090125240861541708 -0.046751218563877046 0.26667571949462093 0.30992567837238316 -0.65724914073944074 -0.24449099206498692 0.34434336580728231 0.43434118191401155 0.075949113070964816 0.95004975080490128 0.078736388812894409 0.012939367070794107 -0.35533982051743407
leaf_weight=17 10.999999999999998 9.9999999999999982 19 18 13.000000000000002 10.000000000000002 14.999999999999998 11.999999999999998 37 10.999999999999998 27 11.999999999999998 11.999999999999998 10.999999999999998 47 11.000000000000002 13.999999999999998 18 20 11.999999999999998 10.999999999999998 10.000000000000002 21 19 15.000000000000002 15.999999999999998 9.9999999999999982 23 15.999999999999998 18
leaf_count=17 11 10 19 18 13 10 15 12 37 11 27 12 12 11 47 11 14 18 20 12 11 10 21 19 15 16 10 23 16 18
internal_value=7.43524e-10 -0.128454 0.0626643 -0.168867 0.291054 -0.203563 -0.40298 -0.175201 -0.1122 -0.285068 -0.436523 0.196518 0.200915 0.12162 0.0596415 -0.170116 -0.0437503 0.0701215 0.0886958 0.510521 0.596584 -0.250024 -0.377639 0.263493 0.333074 0.249365 0.733682 0.198892 -0.154265 -0.249811
internal_weight=516 358 101 37 158 257 32 225 143 82 38 64 112 70 58 111 43 29 32 46 34 68 31 52 42 31 23 42 44 28
internal_count=516 358 101 37 158 257 32 225 143 82 38 64 112 70 58 111 43 29 32 46 34 68 31 52 42 31 23 42 44 28
is_linear=0
shrinkage=0.05


Tree=11
num_leaves=31
num_cat=0
split_feature=25 3 20 24 3 12 6 4 25 25 24 19 28 20 27 27 25 28 22 20 18 21 28 4 22 27 4 19 19 25
split_gain=6964.29 1855.16 1184.52 1210.38 1128.35 724.819 568.415 524.73 1126.26 559.266 560.262 479.024 625.47 551.9 451.889 1128.58 458.041 376.057 358.127 354.018 330.81 325.192 233.272 285.417 234.811 360.129 317.232 228.661 224.691 268.904
threshold=81.6357142857143 4.5000000000000009 85.00500000000001 7.8367186117843799 4.5000000000000009 -0.82958102951528834 36.500000000000007 4.5000000000000009 73.450714285714298 74.096071428571449 6.9306155414874073 79.440000000000012 10.651602437060454 77.190000000000012 86.501425287356341 87.15933333333335 87.432500000000019 11.741134693288737 80.315000000000012 69.475000000000009 75.825000000000017 71.890000000000015 11.642660704522889 19.500000000000004 60.015000000000008 73.558235632183909 11.500000000000002 89.63000000000001 71.165000000000006 76.9796153846154
decision_type=2 2 2 2 2 2 2 2 2 2 2 2 2 2 2 2 2 2 2 2 2 2 2 2 2 2 2 2 2 2
left_child=1 7 3 -3 14 -5 17 8 -1 10 -9 12 -11 -13 20 -16 -17 19 -6 -7 -2 -22 24 -24 25 -12 -26 -18 29 -14
right_child=4 2 -4 5 18 6 -8 9 -10 11 22 13 28 -15 15 16 27 -19 -20 -21 21 -23 23 -25 26 -27 -28 -29 -30 -31
leaf_value=-0.1041964260094306 0.53337790966033938 -0.27851061150431633 -0.45700506627559662 0.59680605053901681 0.387949894080239 0.16251502712567645 -0.11920140992151573 -0.60387821555137633 -0.6986177196105321 0.2202310488216187 0.097137092492159682 -0.49142189707074835 -0.31253419909568037 -0.029325920358921093 -0.22374233776017238 0.52275142832235855 0.26873781376589945 0.049987810065871795 0.68555547972520203 0.50603527098894119 0.01584041302020733 0.30869691083473821 -0.15336063482931683 -0.45437319278717042 -0.41251464858651166 -0.23899036586284639 -0.11381479889154433 -0.049285284876823432 -0.025666130683384837 0.0050172233581542974
leaf_weight=17 10.999999999999998 15.999999999999998 9.9999999999999982 9.9999999999999982 31 15.000000000000002 15.999999999999998 9.9999999999999982 14.999999999999998 19 17 14.000000000000002 20.000000000000004 11.999999999999998 19 10.999999999999998 13.000000000000002 19 14.999999999999998 14.999999999999998 12.999999999999998 35 13.999999999999998 18 15.999999999999998 14.999999999999998 20 9.9999999999999982 40 9.9999999999999982
leaf_count=17 11 16 10 10 31 15 16 10 15 19 17 14 20 12 19 11 13 19 15 15 13 35 14 18 16 15 20 10 40 10
internal_value=1.59755e-10 -0.122031 0.0595311 0.116293 0.276501 0.200518 0.139551 -0.193384 -0.382831 -0.166441 -0.247042 -0.0893442 -0.0341884 -0.278147 0.190869 0.0849038 0.257382 0.224041 0.484995 0.334275 0.286059 0.229382 -0.211358 -0.32268 -0.158971 -0.0604227 -0.24657 0.130467 -0.103245 -0.206684
internal_weight=516 358 101 91 158 75 65 257 32 225 110 115 89 26 112 53 34 49 46 30 59 48 100 32 68 32 36 23 70 30
internal_count=516 358 101 91 158 75 65 257 32 225 110 115 89 26 112 53 34 49 46 30 59 48 100 32 68 32 36 23 70 30
is_linear=0
shrinkage=0.05


Tree=12
num_leaves=31
num_cat=0
split_feature=23 18 3 23 24 15 23 12 3 4 21 4 22 12 10 5 20 20 12 12 30 26 21 5 22 5 19 19 20 22
split_gain=5654.81 1989.15 1185.72 1097.45 983.981 3099.76 1217.87 922.477 880.029 794.635 774.6 680.554 914.665 588.627 588.456 538.294 489.435 719.086 468.801 667.699 525.919 410.433 405.895 372.121 326.816 303.193 380.188 296.36 330.416 577.961
threshold=80.83345238095238 81.465000000000018 4.5000000000000009 78.721428571428575 7.6980014923688316 -0.80671910480222953 72.090000000000018 -0.70291267844185523 4.5000000000000009 16.500000000000004 77.805000000000021 25.500000000000004 80.315000000000012 0.074116354202380205 0.23537774960157334 354.50000000000006 93.455000000000013 67.645000000000024 0.91161058030431363 0.86972315351350449 11.940490298632563 10.440785171270296 58.730000000000011 134.50000000000003 67.915000000000006 280.50000000000006 78.795000000000016 70.200000000000003 81.995000000000019 70.200000000000003
decision_type=2 2 2 2 2 2 2 2 2 2 2 2 2 2 2 2 2 2 2 2 2 2 2 2 2 2 2 2 2 2
left_child=1 4 16 7 5 -1 15 -3 13 -8 -5 12 21 25 -10 -7 17 -2 19 20 22 -4 -15 -18 -24 26 -6 -19 29 -29
right_child=2 3 11 10 8 6 9 -9 14 -11 -12 -13 -14 18 -16 -17 23 27 -20 -21 -22 -23 24 -25 -26 -27 -28 28 -30 -31
leaf_value=-1.1642454731464387 -0.11800789790494103 0.57693807110190398 0.61744944832541704 -0.5168844997882841 -0.063523925358758254 0.35782864466309539 -0.71644014815489432 0.10828326711697239 -0.055685184181978313 -0.12809678966348823 0.091141376712105496 0.091915493119846703 0.90121843574258187 -0.055764479591296268 0.36200145574716425 -0.16096521243453027 0.11306633800268172 0.090341248582391176 -0.049495367964972621 -0.66741574569181961 0.06909353841434826 0.2254827101440991 -0.3062304450789603 -0.25606313307176937 -0.62502779483795168 -0.19205626038641765 0.28719230949878694 0.24765543103218071 0.21150567593245673 0.71320402771234515
leaf_weight=9.9999999999999982 13.999999999999998 13.999999999999998 11.000000000000002 10.000000000000002 34 10.000000000000002 12.000000000000002 42 24 10.999999999999998 10.999999999999998 10.999999999999998 11.999999999999998 12.999999999999998 12.999999999999998 9.9999999999999982 18.000000000000004 17 23 10.999999999999998 10.999999999999998 17 41 10.999999999999998 9.9999999999999982 29 9.9999999999999982 15.000000000000002 29 11.999999999999998
leaf_count=10 14 14 11 10 34 10 12 42 24 11 11 11 12 13 13 10 18 17 23 11 11 17 41 11 10 29 10 15 29 12
internal_value=4.47973e-10 -0.114498 0.239281 0.109854 -0.17801 -0.371324 -0.186924 0.225447 -0.131226 -0.435059 -0.198395 0.440213 0.535994 -0.176418 0.0910696 0.0984317 0.150941 0.210237 -0.250006 -0.30363 -0.250275 0.37947 -0.305167 -0.0269483 -0.36874 -0.0665414 0.0161843 0.273188 0.328695 0.454566
internal_weight=516 349 167 77 272 53 43 56 219 23 21 51 40 182 37 20 116 87 109 86 75 28 64 29 51 73 44 73 56 27
internal_count=516 349 167 77 272 53 43 56 219 23 21 51 40 182 37 20 116 87 109 86 75 28 64 29 51 73 44 73 56 27
is_linear=0
shrinkage=0.05


Tree=13
num_leaves=31
num_cat=0
split_feature=25 3 11 5 14 3 0 28 28 12 20 30 25 20 16 16 14 20 28 30 30 3 15 25 28 26 25 19 5 29
split_gain=5729.5 1520.26 1142.34 1819.15 1865.56 924.118 542.363 514.927 1093.92 675.608 420.764 670.727 402.98 567.681 454.186 453.741 452.575 381.996 357.198 326.586 440.748 321.931 374.815 586.688 301.787 468.781 262.332 317.384 244.933 217.274
threshold=81.6357142857143 4.5000000000000009 0.5475998096715059 34.500000000000007 -0.1891542847771282 4.5000000000000009 2023.5000000000002 9.6569250719673025 9.0243630033906559 0.074116354202380205 58.695000000000007 11.940490298632563 87.594285714285732 80.285000000000011 1.0000000180025095e-35 1.0000000180025095e-35 0.86167488712516305 80.285000000000011 10.170166486779509 12.728269460401011 12.288462934678241 1.5000000000000002 -0.46800559042974538 72.833928571428586 11.294188162317544 12.38041074961634 89.583571428571446 88.360000000000014 186.50000000000003 86.531678526841461
decision_type=2 2 2 2 2 2 2 2 2 2 2 2 2 2 2 2 2 2 2 2 2 2 2 2 2 2 2 2 2 2
left_child=1 6 17 -4 -5 12 7 8 -1 -9 -11 21 13 15 -15 -2 26 18 -3 20 -7 24 -23 -24 -12 -26 -14 -28 -20 -22
right_child=5 2 3 4 -6 19 -8 9 -10 10 11 -13 16 14 -16 -17 -18 -19 28 -21 29 22 23 -25 25 -27 27 -29 -30 -31
leaf_value=-0.12602203530924658 0.70746496438980078 0.50257654011249542 0.35521274073557424 -0.015775328416090743 -0.90050791606984348 0.28982192507156962 0.15292401810487111 -0.072174736459066371 -0.81072864353656771 0.047055237401615491 -0.07019497686997056 -0.050059215426445008 -0.023149241932800838 -0.035171634586233839 0.29855498122898017 0.25947696108084461 -0.21779429804195061 -0.079046380519866954 0.30684502799505076 0.21522457947333656 0.50692220123654053 -0.27795451473106042 -0.3705990828573702 -0.85880187034606947 -0.60360191464424118 -0.11946321368217468 0.46314048767089827 0.088465157380470866 0.068682487607002268 0.82894530743360528
leaf_weight=14.000000000000002 10.000000000000002 9.9999999999999982 10.999999999999998 13 11 12.999999999999998 11.999999999999998 101 9.9999999999999982 10.999999999999998 15.999999999999998 25 13.999999999999998 19 22 12.999999999999998 10.999999999999998 11.999999999999998 19 11.999999999999998 11.000000000000002 21.999999999999996 16.000000000000007 9.9999999999999982 10.000000000000002 9.9999999999999982 10.000000000000002 12.999999999999998 25 9.9999999999999982
leaf_count=14 10 10 11 13 11 13 12 101 10 11 16 25 14 19 22 13 11 12 19 12 11 22 16 10 10 10 10 13 25 10
internal_value=-1.13194e-09 -0.110685 0.0536733 -0.177238 -0.421278 0.250794 -0.175278 -0.191353 -0.411316 -0.167466 -0.247669 -0.277412 0.173298 0.255434 0.143901 0.454254 0.0637839 0.176126 0.232831 0.439478 0.518626 -0.345076 -0.429846 -0.558369 -0.232049 -0.361533 0.147496 0.251367 0.171525 0.660267
internal_weight=516 358 101 35 24 158 257 245 24 221 120 109 112 64 41 23 48 66 54 46 34 84 48 26 36 20 37 23 44 21
internal_count=516 358 101 35 24 158 257 245 24 221 120 109 112 64 41 23 48 66 54 46 34 84 48 26 36 20 37 23 44 21
is_linear=0
shrinkage=0.05


Tree=14
num_leaves=31
num_cat=0
split_feature=25 3 30 5 3 0 4 20 12 24 30 13 20 20 30 29 5 30 4 20 29 12 29 20 12 13 5 21 14 21
split_gain=5170.88 1372.03 1039.48 1076.33 834.017 489.483 507.015 1198.18 460.793 393.239 390.6 642.635 379.2 567.611 693.14 455.829 351.155 294.744 437.462 280.713 279.11 276.366 310.741 275.355 362.736 263.83 242.032 344.266 285.85 232.986
threshold=81.6357142857143 4.5000000000000009 11.823623169410189 294.50000000000006 4.5000000000000009 2023.5000000000002 4.5000000000000009 77.610000000000014 -0.69057042736241547 13.70110075540495 10.57189449976754 0.89693010073300883 67.645000000000024 88.180000000000021 12.22407721167866 87.26052871410738 128.50000000000003 12.728269460401011 22.500000000000004 76.475000000000009 86.731166666666681 0.73865729060996177 86.823194756554315 60.190000000000005 -0.37447172655954952 -0.40613878790836594 195.50000000000003 68.795000000000016 0.58568355321212728 80.680000000000021
decision_type=2 2 2 2 2 2 2 2 2 2 2 2 2 2 2 2 2 2 2 2 2 2 2 2 2 2 2 2 2 2
left_child=1 5 3 9 12 6 7 -1 25 26 11 -10 -2 14 -14 21 -16 18 20 23 -6 22 -15 -12 -25 -8 27 28 -3 -27
right_child=4 2 -4 -5 17 -7 8 -9 10 -11 19 -13 13 15 16 -17 -18 -19 -20 -21 -22 -23 -24 24 -26 29 -28 -29 -30 -31
leaf_value=-0.088391213305294494 -0.12919586122035981 0.063027621691043548 -0.31872561387717724 -0.21102706309604016 0.46396202467955067 0.14527781903743744 0.20396933525800709 -0.73463706626341896 -0.68947672605514509 -0.072768936157226558 0.0029338107867674396 -0.16467676013708116 0.66017356352372614 0.43042813862363483 0.10090019989472171 -0.19701193720102311 0.39861298426985742 0.20446335449814798 0.23335527132519265 -0.085725887047667662 0.81532040357589719 -0.066919806897640238 0.089066193898518886 -0.051132147312164311 -0.33084141784438903 -0.14939306176966058 0.11658920778168574 0.52551814506451289 0.41860267877578733 0.11735271188345822
leaf_weight=16.000000000000004 9.9999999999999982 13.000000000000002 15.999999999999998 19 13.000000000000002 11.999999999999998 9.9999999999999982 12.999999999999998 10.000000000000002 9.9999999999999982 10.999999999999998 13.999999999999998 10.999999999999998 12.000000000000002 26 11.999999999999998 15.999999999999998 11.999999999999998 10.999999999999998 62 9.9999999999999982 9.9999999999999982 14.999999999999998 14.999999999999998 51 32 18 14.999999999999998 9.9999999999999982 10.999999999999998
leaf_count=16 10 13 16 19 13 12 10 13 10 10 11 14 11 12 26 12 16 12 11 62 10 10 15 15 51 32 18 15 10 11
internal_value=9.20493e-11 -0.105151 0.0509896 0.120583 0.238254 -0.166514 -0.181785 -0.378088 -0.15543 0.216047 -0.197073 -0.383343 0.164634 0.19344 0.306851 0.0707712 0.214315 0.417504 0.492695 -0.164911 0.616727 0.15762 0.240783 -0.22867 -0.267271 -0.0273586 0.267621 0.339162 0.217625 -0.0811558
internal_weight=516 358 101 85 158 257 245 29 216 66 163 24 112 102 53 49 42 46 34 139 23 37 27 77 66 53 56 38 23 43
internal_count=516 358 101 85 158 257 245 29 216 66 163 24 112 102 53 49 42 46 34 139 23 37 27 77 66 53 56 38 23 43
is_linear=0
shrinkage=0.05


Tree=15
num_leaves=31
num_cat=0
split_feature=25 3 20 26 5 28 3 28 0 28 24 12 15 20 30 25 12 5 19 22 20 12 19 26 3 26 26 18 15 30
split_gain=4666.72 1238.26 1014.17 1062.01 894.682 1335.46 752.7 650.993 441.758 455.311 1094.9 570.2 391.852 369.69 597.386 356.127 510.902 697.044 370.929 307.15 863.249 412.8 287.05 284.487 283.005 532.26 280.367 263.587 264.932 262.855
threshold=81.6357142857143 4.5000000000000009 85.00500000000001 8.8722751653801151 252.50000000000003 10.79260389630671 4.5000000000000009 11.741134693288737 2023.5000000000002 9.6569250719673025 7.6980014923688316 0.074116354202380205 0.83257057741090901 58.695000000000007 11.940490298632563 85.430576923076941 0.63920241694561786 92.500000000000014 76.320000000000007 58.710000000000008 77.610000000000014 0.84660111278280559 76.050000000000011 11.988341613128792 2.5000000000000004 12.034306592915412 10.504611629365177 79.440000000000012 0.15101637606963203 12.39638658588723
decision_type=2 2 2 2 2 2 2 2 2 2 2 2 2 2 2 2 2 2 2 2 2 2 2 2 2 2 2 2 2 2
left_child=1 8 3 -3 7 -6 15 12 9 10 -1 27 -5 -13 19 22 17 29 -19 20 -15 24 -2 -24 25 -21 -8 28 -11 -17
right_child=6 2 -4 4 5 -7 26 -9 -10 11 -12 13 -14 14 -16 16 -18 18 -20 21 -22 -23 23 -25 -26 -27 -28 -29 -30 -31
leaf_value=-0.7172510899603366 0.49094135111028497 -0.35967898097905249 -0.42951259016990662 0.49495339078173323 0.28186048219601306 -0.46409080835680172 0.57408436059951784 0.035867820915422947 0.13801393508911133 -0.1736019135288456 -0.04181807413697243 0.052342663028023463 0.12855811655521393 -0.24957912876492455 -0.037232036396861082 0.57461867958307244 -0.17131782869497936 0.26375907280228356 -0.086869784444570552 -0.44709142629916843 -0.79635219411416491 -0.038511573391802174 0.35007586369911825 0.046982630714774133 -0.53566777507464092 0.038112407922744757 0.3107630409059986 0.086057288232056994 0.020092850813159237 0.21208961814641955
leaf_weight=12.000000000000002 10.999999999999998 10.999999999999998 9.9999999999999982 27 12.000000000000002 11.999999999999998 14.999999999999998 19 11.999999999999998 51 11.999999999999998 10.999999999999998 9.9999999999999982 21 25 10.000000000000002 14.999999999999998 10.999999999999998 24 13.000000000000002 10.999999999999998 17 15.000000000000002 15.999999999999998 11.999999999999998 9.9999999999999982 31 23 27 9.9999999999999982
leaf_count=12 11 11 10 27 12 12 15 19 12 51 12 11 10 21 25 10 15 11 24 13 11 17 15 16 12 10 31 23 27 10
internal_value=2.15052e-10 -0.0998936 0.0484401 0.100962 0.164301 -0.0911152 0.226341 0.273764 -0.158188 -0.172696 -0.379535 -0.150234 0.395928 -0.223915 -0.251795 0.156402 0.0873399 0.157883 0.0233279 -0.315653 -0.437532 -0.24065 0.271505 0.193641 -0.338831 -0.236133 0.396629 -0.0626918 -0.106554 0.393354
internal_weight=516 358 101 91 80 24 158 56 257 245 24 221 37 120 109 112 70 55 35 84 32 52 42 31 35 23 46 101 78 20
internal_count=516 358 101 91 80 24 158 56 257 245 24 221 37 120 109 112 70 55 35 84 32 52 42 31 35 23 46 101 78 20
is_linear=0
shrinkage=0.05


Tree=16
num_leaves=31
num_cat=0
split_feature=25 3 11 27 3 22 30 11 20 29 24 22 22 30 12 23 25 20 28 14 26 3 18 24 18 29 29 23 22 25
split_gain=4211.71 1117.53 985.087 1892.59 679.312 413.777 425.523 838.342 429.032 526.438 715.399 643.281 472.001 418.225 394.881 379.692 340.124 469.597 359.585 358.51 339.36 334.433 325.524 338.976 433.337 260.714 322.166 245.59 213.783 211.534
threshold=81.6357142857143 4.5000000000000009 0.5475998096715059 73.585333333333338 4.5000000000000009 74.565000000000012 10.57189449976754 0.51849435583340198 58.695000000000007 73.109277777777791 10.747294690053836 63.025000000000013 64.015000000000015 11.940490298632563 0.14250626876356556 72.347857142857166 87.594285714285732 86.845000000000013 12.625762309565646 0.86167488712516305 10.844614705484769 1.5000000000000002 93.455000000000013 9.1552651608249196 82.510000000000005 86.991123595505641 81.932528089887668 75.246547619047632 58.270000000000003 89.583571428571446
decision_type=2 2 2 2 2 2 2 2 2 2 2 2 2 2 2 2 2 2 2 2 2 2 2 2 2 2 2 2 2 2
left_child=1 5 15 -4 16 6 7 -1 -8 10 -10 13 -13 14 -11 -3 17 20 -19 29 -2 -16 23 -17 -25 26 -6 -12 -9 -18
right_child=4 2 3 -5 25 -7 8 28 9 11 27 12 -14 -15 21 22 19 18 -20 -21 -22 -23 -24 24 -26 -27 -28 -29 -30 -31
leaf_value=-0.71153916850686072 0.55418878151820261 0.39085817379610882 0.1689901686812702 -0.5690757719799876 0.26373523978086622 0.10454999764760337 0.16707011298699814 -0.37167158842086784 -0.60091378092765813 0.001641335967799713 -0.066897532045841201 -0.48083234210809078 -0.15408773251942226 0.26344535499811172 -0.042128927558660496 -0.066047900418440497 -0.030758798548153471 -0.080581670720130186 0.26017640312512719 -0.20264363939111885 0.22604016989469528 -0.44164806929501621 -0.15887626588344575 0.082208706350887506 0.46569262376198406 0.19683369057519096 0.58676020212863622 -0.3703713405132294 -0.088531189709901814 0.21575048057281454
leaf_weight=9.9999999999999982 12.999999999999998 13.999999999999998 19 15.999999999999998 12.999999999999998 14.999999999999998 10.999999999999998 10.000000000000002 13.999999999999998 58 20.000000000000004 14.999999999999998 42 10.999999999999998 10.000000000000002 11.999999999999998 13.999999999999998 16.000000000000004 14.999999999999998 10.999999999999998 20 10.999999999999998 9.9999999999999982 17.000000000000004 12.999999999999998 13.999999999999998 19 9.9999999999999982 20 23
leaf_count=10 13 14 19 16 13 15 11 10 14 58 20 15 42 11 10 12 14 16 15 11 20 11 10 17 13 14 19 10 20 23
internal_value=-7.76824e-10 -0.094899 0.0460181 -0.168411 0.215024 -0.150279 -0.166074 -0.315068 -0.13657 -0.154057 -0.305783 -0.108643 -0.240073 -0.0254036 -0.065623 0.159731 0.148582 0.224041 0.0843013 0.04797 0.355311 -0.251401 0.0975041 0.158547 0.248385 0.376797 0.455531 -0.168055 -0.182911 0.122477
internal_weight=516 358 101 35 158 257 242 40 202 191 44 147 57 90 79 66 112 64 31 48 33 21 52 42 30 46 32 30 30 37
internal_count=516 358 101 35 158 257 242 40 202 191 44 147 57 90 79 66 112 64 31 48 33 21 52 42 30 46 32 30 30 37
is_linear=0
shrinkage=0.05


Tree=17
num_leaves=31
num_cat=0
split_feature=25 3 30 21 6 3 4 4 16 21 28 25 24 29 14 25 11 27 27 25 22 18 21 21 11 14 29 26 27 24
split_gain=3801.07 1008.57 912.122 929.33 634.581 613.079 497.404 408.31 1147.48 714.217 377.258 457.224 501.094 436.733 399.235 383.503 348.676 325.9 849.407 344.138 259.665 228.919 247.058 225.243 249.438 219.498 190.42 237.105 235.897 198.223
threshold=81.6357142857143 4.5000000000000009 11.823623169410189 81.510000000000005 45.500000000000007 4.5000000000000009 16.500000000000004 4.5000000000000009 1.0000000180025095e-35 78.325000000000017 11.718301365747115 74.621593406593419 6.9306155414874073 73.624400252525263 0.89114827483048498 75.512857142857158 0.35645927230573393 86.501425287356341 87.15933333333335 87.432500000000019 80.315000000000012 75.825000000000017 71.000000000000014 81.825000000000003 0.080547328232315238 0.46801289393398077 74.273425505050525 10.504611629365177 72.435166666666689 10.149479656334735
decision_type=2 2 2 2 2 2 2 2 2 2 2 2 2 2 2 2 2 2 2 2 2 2 2 2 2 2 2 2 2 2
left_child=1 7 3 4 6 17 16 8 -1 -10 11 12 -9 -13 15 -15 -3 21 -19 -20 -7 -2 -23 24 -12 -17 27 29 -29 -14
right_child=5 2 -4 -5 -6 20 -8 10 9 -11 23 13 26 14 -16 25 -18 18 19 -21 -22 22 -24 -25 -26 -27 -28 28 -30 -31
leaf_value=0.076658628384272259 0.42772591628811574 0.24977606275807257 -0.30260886093601586 -0.34386037766933442 -0.18153662966056305 0.27532266003470268 0.081180150409539548 -0.45902698536713915 -0.84059538960456825 -0.24301002442836764 -0.072913030938555806 -0.30186087965965269 0.22430650308728209 0.26748801049861043 0.3438032865524292 0.040888781100511556 0.59203937920657068 -0.21660089649652181 0.43081562166864223 0.090787057306126531 0.52873584349950153 -0.033200129595669835 0.23669341380733089 -0.41556024597241326 -0.32324304668342368 -0.17565873935818674 -0.25130342464697991 -0.34166077808900314 -0.068392896439347955 -0.071794116382415479
leaf_weight=11.999999999999998 10.999999999999998 23 15.999999999999998 9.9999999999999982 10.999999999999998 31 30 11.999999999999998 10.000000000000002 9.9999999999999982 24 9.9999999999999982 10.000000000000002 10.999999999999998 9.9999999999999982 25 10.999999999999998 19 10.999999999999998 23 14.999999999999998 10.999999999999998 37 12.999999999999998 17 22 19 10.999999999999998 28 12.999999999999998
leaf_count=12 11 23 16 10 11 31 30 12 10 10 24 10 10 11 10 25 11 19 11 23 15 11 37 13 17 22 19 11 28 13
internal_value=-1.38486e-10 -0.090154 0.0437172 0.108908 0.169277 0.204273 0.229573 -0.142765 -0.30988 -0.541803 -0.118997 -0.0826146 -0.157491 0.00666051 0.0520313 0.00172578 0.360508 0.141153 0.0511633 0.200796 0.357957 0.221991 0.174843 -0.23421 -0.176708 -0.0604739 -0.112818 -0.0703795 -0.145468 0.0569453
internal_weight=516 358 101 85 75 158 64 257 32 20 225 171 93 78 68 58 34 112 53 34 46 59 48 54 41 47 81 62 39 23
internal_count=516 358 101 85 75 158 64 257 32 20 225 171 93 78 68 58 34 112 53 34 46 59 48 54 41 47 81 62 39 23
is_linear=0
shrinkage=0.05


Tree=18
num_leaves=31
num_cat=0
split_feature=25 25 18 15 24 22 24 14 16 16 13 23 4 14 16 4 22 23 4 26 22 25 4 17 13 24 24 22 30 30
split_gain=3430.46 932.723 1147.35 927.955 2353.88 639.559 660.996 567.585 558.712 524.921 442.59 390.526 654.44 340.993 379.608 301.811 298.298 289.894 289.661 271.988 271.559 262.254 545.522 350.598 258.112 257.878 247.336 238.894 216.24 199.345
threshold=81.6357142857143 80.390000000000001 77.835000000000022 -0.11264892825599863 7.8803528599497161 71.02000000000001 12.941690019826437 0.98900806995500201 -0.8783796973249266 -0.60785761079279388 0.57605713708605399 73.114285714285728 12.500000000000002 0.94101405461977705 -0.60785761079279388 8.5000000000000018 59.610000000000007 75.920714285714311 23.500000000000004 9.1944793450360631 80.315000000000012 85.179862637362646 14.500000000000002 0.81174490092936691 0.87291090774974645 10.673931213513777 10.971298814458446 70.560000000000016 12.605927629151708 11.007680057572914
decision_type=2 2 2 2 2 2 2 2 2 2 2 2 2 2 2 2 2 2 2 2 2 2 2 2 2 2 2 2 2 2
left_child=1 2 3 4 -1 10 -7 9 -5 20 13 18 -13 14 17 -12 19 -4 26 -10 -2 28 -23 -24 -17 -21 -6 -18 -11 -16
right_child=7 -3 5 8 11 6 -8 -9 16 21 15 12 -14 -15 29 24 27 -19 -20 25 -22 22 23 -25 -26 -27 -28 -29 -30 -31
leaf_value=-0.85253603330680316 0.27961942481583563 -0.51900974512100218 0.28788731124471212 0.27650691966215768 0.23035692179744888 0.60106308817863452 0.026173376291990281 -0.15237370837818495 -0.16460995694001518 0.081582841277122509 -0.37135131597518922 -0.55177997350692753 -0.13108788429526613 0.350359268784523 0.049699823558330525 -0.21355647941430403 -0.21871373900635677 -0.041530855135484178 -0.26850070148706434 0.23704231325536967 0.54776667271341595 -0.132721841832002 0.12385149062719457 0.45253543376922611 0.10801808008780847 -0.038837909926142958 -0.070583212292856648 -0.025160307407379151 0.36008653919333999 -0.23473489859274457
leaf_weight=13.999999999999998 29 11.999999999999998 17.000000000000004 11.999999999999998 11.000000000000002 10.000000000000002 9.9999999999999982 10.999999999999998 14.999999999999998 9.9999999999999982 9.9999999999999982 12.999999999999998 32 9.9999999999999982 11.000000000000002 12.000000000000002 44 10.999999999999998 9.9999999999999982 15.999999999999998 13.999999999999998 18 43 9.9999999999999982 12.999999999999998 18 18 25 23 13.999999999999998
leaf_count=14 29 12 17 12 11 10 10 11 15 10 10 13 32 10 11 12 44 11 10 16 14 18 43 10 13 18 18 25 23 14
internal_value=-1.50167e-10 -0.0856463 -0.0706164 -0.136118 -0.252296 0.0559462 0.313618 0.194059 -0.0485376 0.219983 0.00336011 -0.152256 -0.252621 0.0825595 0.0320312 -0.139199 -0.0815929 0.158473 -0.0364507 0.0127438 0.366923 0.159229 0.105098 0.185867 -0.0463377 0.0909881 0.0435665 -0.148586 0.275691 -0.109584
internal_weight=516 358 346 228 98 118 20 158 130 147 98 84 45 63 53 35 118 28 39 49 43 104 71 53 25 34 29 69 33 25
internal_count=516 358 346 228 98 118 20 158 130 147 98 84 45 63 53 35 118 28 39 49 43 104 71 53 25 34 29 69 33 25
is_linear=0
shrinkage=0.05


Tree=19
num_leaves=31
num_cat=0
split_feature=25 4 25 20 3 21 4 3 4 22 20 20 26 26 28 29 21 28 29 20 20 30 24 30 29 20 30 28 28 29
split_gain=3116.07 817.817 1658.89 1647.66 853.777 1036.8 729.468 566.631 502.954 528.379 430.263 435.944 748.939 402.177 383.033 822.308 340.228 303.317 408.082 277.16 475.146 512.03 421.158 378.855 339.034 268.719 261.907 252.707 391.385 227.949
threshold=81.011071428571441 4.5000000000000009 73.450714285714298 76.905000000000015 4.5000000000000009 58.820000000000007 2.5000000000000004 4.5000000000000009 25.500000000000004 80.315000000000012 75.965000000000018 71.495000000000019 10.055832336346279 10.559367730816954 10.79260389630671 73.615388888888901 77.50500000000001 10.331252408410728 77.024438202247197 67.365000000000023 88.180000000000021 12.273124551028358 10.124661752027913 12.480685424334576 87.26052871410738 63.345000000000006 12.561548123679431 11.052099680611823 11.850399637455007 73.307222222222236
decision_type=2 2 2 2 2 2 2 2 2 2 2 2 2 2 2 2 2 2 2 2 2 2 2 2 2 2 2 2 2 2
left_child=1 2 6 -4 10 -6 -1 19 9 26 11 13 -13 25 15 -7 -14 -12 -19 -2 21 -21 -22 -23 -24 -3 -9 -16 -29 -15
right_child=7 4 3 -5 5 14 -8 8 -10 -11 17 12 16 29 27 -17 -18 18 -20 20 22 23 24 -25 -26 -27 -28 28 -30 -31
leaf_value=0.21528476012249784 -0.13140208065509795 -0.10393838082489215 -0.18577027049931608 -1.0725519573688507 -0.29688499788443251 0.050554546538521261 -0.33602725833654407 0.45564536506479425 0.0089859771728515638 0.66607059148641734 0.15748860008186766 -0.61806428409539738 0.057590097730809975 -0.31358353521512905 -0.16190209269523623 0.55847082455952968 -0.32738452901442849 -0.11236365840903351 0.22909638047218325 0.50697639909173764 -0.23996231447566641 -0.094248310002413668 0.19342322083810967 0.24878916323184966 -0.14274858862161638 0.17417174056172371 0.12961854700531281 0.33171318517281456 -0.043116238911946617 -0.10280422385910462
leaf_weight=15.000000000000002 9.9999999999999982 19 11.000000000000002 9.9999999999999982 14.999999999999998 17 9.9999999999999982 11.000000000000002 9.9999999999999982 12.999999999999998 18 12.999999999999998 11.000000000000002 23 9.9999999999999982 14.999999999999998 11.999999999999998 70 9.9999999999999982 13.999999999999998 10.999999999999998 10.999999999999998 30 30 9.9999999999999982 15.999999999999998 13.999999999999998 13.000000000000002 14.999999999999998 29
leaf_count=15 10 19 11 10 15 17 10 11 10 13 18 13 11 23 10 15 12 70 10 14 11 11 30 30 10 16 14 13 15 29
internal_value=-1.89874e-10 -0.0838686 -0.280435 -0.608047 -0.0543195 0.0803497 -0.00524005 0.180011 0.32449 0.407518 -0.106115 -0.168388 -0.314721 -0.107837 0.161186 0.28864 -0.143266 -0.0279561 -0.0696812 0.120226 0.143965 0.245902 0.0340319 0.156755 0.10938 0.0231977 0.27307 0.0538554 0.130912 -0.196034
internal_weight=516 352 46 21 306 85 25 164 48 38 221 123 36 87 70 32 23 98 80 116 106 55 51 41 40 35 25 38 28 52
internal_count=516 352 46 21 306 85 25 164 48 38 221 123 36 87 70 32 23 98 80 116 106 55 51 41 40 35 25 38 28 52
is_linear=0
shrinkage=0.05


Tree=20
num_leaves=31
num_cat=0
split_feature=25 4 25 20 3 24 28 4 3 4 22 20 19 15 27 20 24 20 20 30 24 30 15 30 21 30 12 23 22 28
split_gain=2812.26 738.08 1497.15 1487.01 770.533 939.927 818.307 658.345 511.385 453.916 476.862 388.312 410.341 328.998 423.972 313.028 277.947 250.137 428.819 462.107 380.096 341.917 314.143 253.387 240.06 236.371 223.682 218.154 212.996 200.427
threshold=81.011071428571441 4.5000000000000009 73.450714285714298 76.905000000000015 4.5000000000000009 7.5066162525037141 10.394915153522305 2.5000000000000004 4.5000000000000009 25.500000000000004 80.315000000000012 75.965000000000018 55.725000000000009 -0.46800559042974538 73.585333333333338 56.45000000000001 7.1247402699223423 67.365000000000023 88.180000000000021 12.273124551028358 10.124661752027913 12.480685424334576 0.048362943894782788 12.641258243273443 80.545000000000016 12.561548123679431 -0.11798870221290077 88.042142857142878 59.205000000000005 11.229689949960202
decision_type=2 2 2 2 2 2 2 2 2 2 2 2 2 2 2 2 2 2 2 2 2 2 2 2 2 2 2 2 2 2
left_child=1 2 7 -4 11 -6 -7 -1 17 10 25 12 -3 -8 -15 -14 -13 -2 19 -19 -20 -21 23 -22 -18 -10 -17 -23 -28 -26
right_child=8 4 3 -5 5 6 13 -9 9 -11 -12 16 15 14 -16 26 24 18 20 21 22 27 -24 -25 29 -27 28 -29 -30 -31
leaf_value=0.20452052650352315 -0.12483197689056397 -0.46696259617805486 -0.17648175792260601 -1.0189243447780609 -0.3549158868464557 0.47019259174664818 0.20431659325309426 -0.31922589987516403 0.43286310542713502 0.0085366833209991454 0.63276706658876858 0.19886378397544224 0.12060981724749914 0.1245323038414905 -0.21917495008777169 -0.083124103457952042 -0.10399831883101301 0.48162757200854167 -0.22796419371258128 -0.089535897970199591 0.41935142070054998 0.33168986737728118 -0.043400211063654798 0.071594555675983426 0.25202319622039787 0.12313761902706964 -0.116848521647246 0.045669389665126806 -0.31908933435877168 -0.064542101025581361
leaf_weight=15.000000000000002 9.9999999999999982 9.9999999999999982 11.000000000000002 9.9999999999999982 10.999999999999998 14.999999999999998 23 9.9999999999999982 11.000000000000002 9.9999999999999982 12.999999999999998 11.999999999999998 10.999999999999998 19 17 49 66 13.999999999999998 10.999999999999998 10.999999999999998 10.000000000000002 20.000000000000004 19 10.999999999999998 10.000000000000002 13.999999999999998 23 9.9999999999999982 30 9.9999999999999982
leaf_count=15 10 10 11 10 11 15 23 10 11 10 13 12 11 19 17 49 66 14 11 11 10 20 19 11 10 14 23 10 30 10
internal_value=1.10098e-10 -0.0796752 -0.266413 -0.577645 -0.0516035 0.0763322 0.140437 -0.00497804 0.17101 0.308266 0.387142 -0.10081 -0.159969 0.0566004 -0.0377739 -0.132801 -0.0265583 0.114215 0.136766 0.233607 0.0323303 0.148917 0.103911 0.237193 -0.0580125 0.259417 -0.16013 0.23635 -0.231324 0.0937405
internal_weight=516 352 46 21 306 85 74 25 164 48 38 221 123 59 36 113 98 116 106 55 51 41 40 21 86 25 102 30 53 20
internal_count=516 352 46 21 306 85 74 25 164 48 38 221 123 59 36 113 98 116 106 55 51 41 40 21 86 25 102 30 53 20
is_linear=0
shrinkage=0.05


Tree=21
num_leaves=31
num_cat=0
split_feature=25 14 18 23 25 19 26 27 14 27 3 23 29 11 22 14 27 3 3 30 22 23 13 28 28 28 25 15 15 5
split_gain=2538.06 671.225 639.724 659.409 1036.13 574.412 822.569 679.488 684.281 677.401 580.579 537.63 481.691 472.45 541.504 462.536 457.333 441.865 392.502 265.543 443.636 258.891 238.799 217.07 374.491 325.088 227.392 227.157 200.889 192.619
threshold=81.011071428571441 0.99531687387553236 85.665000000000006 81.167857142857159 78.313928571428576 67.145000000000024 9.403235345528941 73.471988505747149 0.24268179498748979 74.639166666666682 2.5000000000000004 78.721428571428575 74.15090909090911 0.84199059757024453 62.855000000000011 0.98900806995500201 73.13933333333334 4.5000000000000009 4.5000000000000009 12.288462934678241 80.315000000000012 73.51428571428572 0.26659387353423869 11.807858092915152 12.770645442997274 11.367137264846194 87.12607142857145 -0.82537257950235043 0.49066019586310566 166.50000000000003
decision_type=2 2 2 2 2 2 2 2 2 2 2 2 2 2 2 2 2 2 2 2 2 2 2 2 2 2 2 2 2 2
left_child=1 2 3 4 5 6 -1 16 9 10 -9 12 -4 22 -15 17 18 23 28 -19 -21 -10 -8 25 27 -2 -26 -25 -7 -23
right_child=15 -3 11 -5 -6 7 13 8 21 -11 -12 -13 -14 14 -16 -17 -18 19 -20 20 -22 29 -24 24 26 -27 -28 -29 -30 -31
leaf_value=-0.60383752038081484 0.11918972181646446 0.32808935075998308 0.012294571877767642 0.20745350817839303 -0.53707755943139401 -0.20642727605998515 -0.13611756624710378 -0.22026449938615156 0.16059384743372601 -0.10979676182071368 -0.71210573961337409 -0.16962645868460338 0.38934338740073149 -0.59291602887890538 -0.084541084021329885 -0.15070317035371608 0.28977817757986485 0.13587320212806975 0.19348865572144003 0.26770927423522584 0.67233604192733765 0.033936877051989243 0.11689179883553431 0.11609100922942157 0.3266825865954161 0.4607426686720415 0.095825685746967801 -0.16475400099944737 0.0081349482138951615 -0.19151842527091503
leaf_weight=11.999999999999998 19.000000000000004 9.9999999999999982 18 14.999999999999998 14.999999999999998 20 33 12.000000000000002 14.999999999999998 30 11.999999999999998 14.999999999999998 15.999999999999998 11.000000000000002 9.9999999999999982 10.999999999999998 15.999999999999998 13.999999999999998 17 21.000000000000004 9.9999999999999982 18 12.999999999999998 12.000000000000002 15.999999999999998 10.999999999999998 32 18 24 20
leaf_count=12 19 10 18 15 15 20 33 12 15 30 12 15 16 11 10 11 16 14 17 21 10 18 13 12 16 11 32 18 24 20
internal_value=-4.49417e-10 -0.0756914 -0.0874979 -0.115463 -0.132887 -0.109834 -0.222605 -0.0614157 -0.142925 -0.268192 -0.466185 0.0797224 0.189729 -0.154325 -0.350833 0.16246 0.05185 0.184975 -0.0105574 0.316611 0.398234 -0.0152943 -0.0646149 0.130126 0.0861649 0.244426 0.172778 -0.052416 -0.0893933 -0.0847238
internal_weight=516 352 342 293 278 263 79 184 107 54 24 49 34 67 21 164 77 153 61 45 31 53 46 108 78 30 48 30 44 38
internal_count=516 352 342 293 278 263 79 184 107 54 24 49 34 67 21 164 77 153 61 45 31 53 46 108 78 30 48 30 44 38
is_linear=0
shrinkage=0.05


Tree=22
num_leaves=31
num_cat=0
split_feature=0 18 14 30 15 26 7 21 30 22 7 28 21 26 28 14 20 30 30 10 5 23 15 15 27 17 11 17 27 10
split_gain=2295.32 1051.47 735.322 573.155 1369.76 1028.73 750.026 607.258 560.689 623.258 510.85 349.456 391.842 339.616 336.404 294.851 337.898 290.698 466.762 296.696 290.503 262.604 243.995 231.026 209.449 202.468 189.721 189.639 190.568 183.914
threshold=2023.5000000000002 81.465000000000018 0.97086220929134248 10.57189449976754 -0.3744658827978154 8.8722751653801151 1.0000000180025095e-35 76.905000000000015 10.859029084312526 69.745000000000019 1.0000000180025095e-35 11.785004940424416 84.720000000000013 10.504611629365177 12.770645442997274 -0.33223377050200648 61.835000000000001 11.167765005341204 11.409968422097961 0.49065764355977465 224.50000000000003 73.178571428571431 -0.82537257950235043 0.56191161272202661 74.614850574712662 -0.22252093395631442 -0.20180761162458913 1.0000000180025095e-35 87.15933333333335 0.15101559051660998
decision_type=2 2 2 2 2 2 2 2 2 2 2 2 2 2 2 2 2 2 2 2 2 2 2 2 2 2 2 2 2 2
left_child=1 3 10 4 -1 7 17 -5 9 -3 11 12 -2 -12 22 -6 -17 19 -19 29 -8 26 -13 -23 -10 -18 -20 -16 -29 -7
right_child=2 8 -4 5 15 6 20 -9 24 -11 13 14 -14 -15 27 16 25 18 21 -21 -22 23 -24 -25 -26 -27 -28 28 -30 -31
leaf_value=-0.76382007829167631 0.42960412397104153 0.069382837216059354 -0.15400514801343282 -0.70075070708990073 -0.37867458567023277 -0.0051284912228584294 0.30690139068497546 -0.14972544878721236 0.109153027903466 0.56488868879492993 0.52209512074788422 0.11028645783662794 0.10310113042593004 0.22726394177547526 0.2521867222112158 -0.28324160973231 -0.11956432908773425 -0.37806393783539538 -0.084004215684465394 0.20102783074745767 -0.0032820006975760826 -0.25143174091974896 -0.18078117234011493 0.026072762310504916 -0.10138868140401665 0.18506338273485495 0.15691900241833467 -0.10030703707174818 0.19400860883972862 -0.20144661638666606
leaf_weight=10.999999999999998 17 15.000000000000002 18 10.000000000000002 9.9999999999999982 40 18.000000000000004 9.9999999999999982 21 10.999999999999998 14.999999999999998 12.000000000000002 20 28 23 11.999999999999998 9.9999999999999964 18 22 12.999999999999998 12.999999999999998 30 18 9.9999999999999982 27 12.000000000000004 12.999999999999998 11.000000000000002 10.999999999999998 17
leaf_count=11 17 15 18 10 10 40 18 10 21 11 15 12 20 28 23 12 10 18 22 13 13 30 18 10 27 12 13 11 11 17
internal_value=1.02337e-10 -0.0748933 0.148488 -0.120809 -0.264774 -0.0838089 -0.04861 -0.425238 0.0920167 0.27902 0.183616 0.127372 0.253116 0.330112 0.0653385 -0.140012 -0.0698171 -0.091484 -0.149414 -0.0145196 0.176824 -0.0945383 -0.0643541 -0.182056 -0.00927668 0.0465962 0.00548155 0.1518 0.0468508 -0.0636795
internal_weight=516 343 173 269 55 214 194 20 74 26 155 112 37 43 75 44 34 163 93 70 31 75 30 40 48 22 35 45 22 57
internal_count=516 343 173 269 55 214 194 20 74 26 155 112 37 43 75 44 34 163 93 70 31 75 30 40 48 22 35 45 22 57
is_linear=0
shrinkage=0.05


Tree=23
num_leaves=31
num_cat=0
split_feature=0 18 4 26 21 27 30 13 26 7 10 4 30 22 27 27 12 14 24 24 24 24 23 23 18 30 27 22 30 19
split_gain=2071.53 948.955 761.476 575.172 611.866 572.117 517.273 1298.46 928.433 676.898 578.367 515.911 506.022 562.491 340.44 321.887 460.726 448.554 291.729 269.147 602.753 303.596 285.685 249.633 209.244 198.117 190.068 169.527 146.026 258.849
threshold=2023.5000000000002 81.465000000000018 4.5000000000000009 10.780907421705288 85.38000000000001 85.18716666666667 10.57189449976754 -0.36447964422024054 8.8722751653801151 1.0000000180025095e-35 -0.57078386445773377 12.500000000000002 10.859029084312526 69.745000000000019 86.431333333333342 86.91453448275864 -0.82958102951528834 0.499058218547695 8.8542309265925265 9.7501789678625759 10.747294690053836 8.8875634110430486 69.780714285714296 69.780714285714296 89.685000000000016 11.437514415850545 74.210666666666683 57.475000000000001 11.060957815135184 63.650000000000006
decision_type=2 2 2 2 2 2 2 2 2 2 2 2 2 2 2 2 2 2 2 2 2 2 2 2 2 2 2 2 2 2
left_child=1 6 14 4 5 -4 7 -1 10 19 -8 -11 13 -3 -2 16 -5 24 -9 21 -21 25 -22 -20 -17 -10 -14 -24 -29 -30
right_child=2 12 3 15 -6 -7 8 18 9 11 -12 -13 26 -15 -16 17 -18 -19 23 20 22 -23 27 -25 -26 -27 -28 28 29 -31
leaf_value=-0.76689253926277168 0.057213426828384387 0.065913697878519681 0.30271188827121953 0.41027565353056961 0.089033843204379085 0.77932906389236456 -0.13509721048176285 -0.00091380281817345403 -0.13832072551394334 0.46357086181640605 -0.67285516433417802 0.027227258327461423 0.11410816649073048 0.53664425232193691 -0.35536407172679901 0.1976879873871803 0.1104355728540283 -0.28376318663358691 -0.080792688239704466 -0.41680394448339941 0.16821108639240268 0.21299974067279925 -0.018724958649997053 -0.40442970615740004 -0.07380967952988364 0.085506274861594053 -0.089347307178480884 -0.060334522630039016 -0.051739493384957314 -0.34547902882099152
leaf_weight=9.9999999999999982 10.000000000000002 15.000000000000002 17.000000000000004 17 15.999999999999998 9.9999999999999982 10.000000000000002 21 29 10.000000000000002 9.9999999999999982 21 19 10.999999999999998 9.9999999999999982 20.000000000000004 52 9.9999999999999982 11.000000000000002 15.999999999999998 9.9999999999999982 12.999999999999998 29 12.999999999999998 10.999999999999998 14.999999999999998 29 19 11.999999999999998 20
leaf_count=10 10 15 17 17 16 10 10 21 29 10 10 21 19 11 10 20 52 10 11 16 10 13 29 13 11 15 29 19 12 20
internal_value=2.21279e-10 -0.0711486 0.141063 0.17899 0.334045 0.479237 -0.114769 -0.251535 -0.0796184 -0.0461795 -0.403976 0.167983 0.0874159 0.265069 -0.149075 0.118378 0.184309 0.00742003 -0.137011 -0.0869098 -0.134024 0.000706837 -0.0837525 -0.256096 0.10135 -0.0620161 -0.00881285 -0.115248 -0.170134 -0.235327
internal_weight=516 343 173 153 43 27 269 55 214 194 20 31 74 26 20 110 69 41 45 163 106 57 90 24 31 44 48 80 51 32
internal_count=516 343 173 153 43 27 269 55 214 194 20 31 74 26 20 110 69 41 45 163 106 57 90 24 31 44 48 80 51 32
is_linear=0
shrinkage=0.05


Tree=24
num_leaves=31
num_cat=0
split_feature=0 18 4 24 15 30 30 22 3 24 12 24 4 18 5 24 19 24 24 3 20 19 30 27 24 20 4 24 30 15
split_gain=1869.55 856.432 687.232 470.882 2358.74 578.478 456.685 507.648 445.601 410.398 372.166 334.67 325.081 301.462 260.946 387.226 256.448 334.111 522.092 247.57 310.617 444.75 484.23 228.878 333.544 252.799 224.211 211.539 210.082 205.521
threshold=2023.5000000000002 81.465000000000018 4.5000000000000009 7.6980014923688316 -0.80671910480222953 11.314170463917115 10.859029084312526 69.745000000000019 4.5000000000000009 6.968811307209644 0.074116354202380205 8.9526580260303295 2.5000000000000004 77.440000000000012 312.50000000000006 12.253000547417875 77.190000000000012 11.726944224409918 13.553016899711709 4.5000000000000009 62.850000000000009 60.900000000000006 11.424416481094967 84.367097701149447 10.104152067066765 94.270000000000024 23.500000000000004 13.030292891012129 10.623225811183792 0.93769647993491489
decision_type=2 2 2 2 2 2 2 2 2 2 2 2 2 2 2 2 2 2 2 2 2 2 2 2 2 2 2 2 2 2
left_child=1 3 12 4 -1 9 7 -3 16 29 14 -10 -2 19 15 -5 17 -4 -19 20 -12 -22 -23 -18 -25 27 -13 -26 -16 -6
right_child=2 6 8 10 5 -7 -8 -9 11 -11 13 26 -14 -15 28 -17 23 18 -20 -21 21 22 -24 24 25 -27 -28 -29 -30 -31
leaf_value=-0.93420000299811368 0.059960142970085117 0.062618015607198069 0.39754949063062672 0.17053357620230492 -0.21778783801604396 0.25080137385055423 -0.0083722073254951582 0.50981204184618867 0.56124031305313105 -0.43300128829750151 0.050343489254775803 0.31908906938677489 -0.34320325732231138 -0.32823191863649037 -0.29994650239294213 -0.071797937760129577 0.26503280028700832 -0.16445706427097317 0.34646946698427206 0.10295661321053139 0.077466563321650028 -0.4815302340686321 -0.15349580417283709 -0.17040281258523465 0.27809927243935434 -0.084129815442221506 0.033552171289920808 0.021957119022096908 -0.012266651391983033 0.081421731164058056
leaf_weight=9.9999999999999982 10.000000000000002 15.000000000000002 15.999999999999998 34 11.000000000000002 9.9999999999999982 48 10.999999999999998 9.9999999999999982 10.999999999999998 19 22 9.9999999999999982 17 11.000000000000002 32 11.999999999999998 10.000000000000002 9.9999999999999982 12.999999999999998 13.999999999999998 14.999999999999998 45 15.999999999999998 19 13.999999999999998 9.9999999999999982 13.999999999999998 14.999999999999998 11.999999999999998
leaf_count=10 10 15 16 34 11 10 48 11 10 11 19 22 10 17 11 32 12 10 10 13 14 15 45 16 19 14 10 14 15 12
internal_value=1.77962e-10 -0.0675912 0.13401 -0.10903 -0.24103 -0.083491 0.0830451 0.251815 0.170041 -0.181812 -0.0758768 0.308759 -0.141622 -0.13277 0.000186916 0.0530395 0.117553 0.227248 0.0910062 -0.101422 -0.129991 -0.176294 -0.235504 0.0648989 0.0267781 0.0939036 0.229859 0.169433 -0.133977 -0.0616785
internal_weight=516 343 173 269 54 44 74 26 153 34 215 42 20 123 92 66 111 36 20 106 93 74 60 75 63 47 32 33 26 23
internal_count=516 343 173 269 54 44 74 26 153 34 215 42 20 123 92 66 111 36 20 106 93 74 60 75 63 47 32 33 26 23
is_linear=0
shrinkage=0.05


Tree=25
num_leaves=31
num_cat=0
split_feature=25 25 18 15 24 25 4 3 26 16 21 21 19 29 12 12 21 12 3 24 26 14 26 29 20 12 19 16 26 1
split_gain=1732.35 732.698 689.811 661.001 1798.8 455.354 358.882 397.859 432.709 342.868 320.227 874.232 317.545 376.942 290.15 302.509 274.166 240.116 241.622 236.064 227.517 218.01 290.13 261.131 201.822 208.067 196.2 156.24 133.071 334.078
threshold=81.6357142857143 80.390000000000001 77.835000000000022 -0.11264892825599863 7.8803528599497161 70.536071428571447 27.500000000000004 5.5000000000000009 11.543737872137887 -0.8783796973249266 75.600000000000009 70.750000000000014 64.27000000000001 71.008863636363643 0.67008845381070758 -0.32614396506100213 88.615000000000023 0.074116354202380205 2.5000000000000004 10.104152067066765 11.988341613128792 0.92961458903700878 13.460508471489302 86.937808988764047 68.385000000000005 0.14250626876356556 76.050000000000011 1.0000000180025095e-35 11.196232127518613 3.5000000000000004
decision_type=2 2 2 2 2 2 2 2 2 2 2 2 2 2 2 2 2 2 2 2 2 2 2 2 2 2 2 2 2 2
left_child=1 2 3 4 -1 -4 7 8 14 -5 11 -7 -6 -14 15 -2 28 18 -15 -10 -8 22 27 -24 -12 26 -26 -21 29 -11
right_child=6 -3 5 9 12 10 20 -9 19 16 24 -13 13 17 -16 -17 -18 -19 -20 21 -22 -23 23 -25 25 -27 -28 -29 -30 -31
leaf_value=-0.72109985468643056 0.20162964272830219 -0.44495714927713081 -0.27219305694103241 0.23021827439467113 -0.30192599296569828 0.033587616006302279 -0.22868071198463433 0.38579553953475426 -0.14308602424959344 0.25710430492957437 -0.21690345525741581 0.44861592733197747 0.19393656502167386 -0.16760416885217028 0.057090354882753817 0.51152395861489441 -0.27682351941863698 -0.23409201595932247 0.11172334589064122 -0.21577310144901271 0.10860005974769593 0.31300892710685729 0.360810455138033 0.044345949683338409 -0.015150552484291516 -0.10733316645026209 0.28348273397846657 0.036164295673370365 -0.098093008326414308 -0.034074275371703232
leaf_weight=13.999999999999998 18 11.999999999999998 9.9999999999999982 11.999999999999998 17 43 10.000000000000002 18 11.999999999999998 11.999999999999998 9.9999999999999982 18 11.999999999999998 15.000000000000002 12.999999999999998 13.999999999999998 11.999999999999998 24 15.999999999999998 10.000000000000002 9.9999999999999982 9.9999999999999982 11.000000000000002 15.999999999999998 11.000000000000002 14.999999999999998 10.999999999999998 15.999999999999998 39 55
leaf_count=14 18 12 10 12 17 43 10 18 12 12 10 18 12 15 13 14 12 24 16 10 10 10 11 16 11 15 11 16 39 55
internal_value=-1.4375e-09 -0.0608625 -0.0475413 -0.0983304 -0.196384 0.0505936 0.137904 0.166591 0.13371 -0.0244133 0.0804813 0.156055 -0.108931 -0.0599621 0.256285 0.337208 -0.050308 -0.115358 -0.0234351 0.0601654 -0.0600403 0.09888 0.0584783 0.173276 -0.0176038 0.036261 0.134166 -0.0607347 -0.0246647 0.0180771
internal_weight=516 358 346 228 98 118 158 138 120 130 108 61 84 67 45 32 118 55 31 75 20 63 53 27 47 37 22 26 106 67
internal_count=516 358 346 228 98 118 158 138 120 130 108 61 84 67 45 32 118 55 31 75 20 63 53 27 47 37 22 26 106 67
is_linear=0
shrinkage=0.05


Tree=26
num_leaves=31
num_cat=0
split_feature=25 30 30 16 12 3 21 3 28 24 5 19 12 3 28 25 18 15 20 20 30 24 15 30 30 23 28 28 21 19
split_gain=1583.61 419.471 592.258 569.704 478.69 1044.88 1368.38 524.196 545.013 858.697 521.305 448.18 373.52 314.371 310.257 293.813 264.617 192.068 189.349 310.546 338.526 294.98 279.885 255.679 203.41 190.628 185.397 252.293 225.65 163.617
threshold=81.011071428571441 10.057059809327077 10.315812282773818 -0.8783796973249266 0.86972315351350449 1.5000000000000002 64.590000000000018 5.5000000000000009 9.6569250719673025 8.2990846023402209 201.50000000000003 70.340000000000018 0.65231507897944274 4.5000000000000009 10.331252408410728 76.188928571428576 73.830000000000013 -0.70138200245277993 67.365000000000023 88.180000000000021 12.273124551028358 10.124661752027913 0.048362943894782788 12.480685424334576 12.641258243273443 88.042142857142878 10.702782997375371 11.718301365747115 81.825000000000003 78.795000000000016
decision_type=2 2 2 2 2 2 2 2 2 2 2 2 2 2 2 2 2 2 2 2 2 2 2 2 2 2 2 2 2 2
left_child=1 -1 -3 12 7 -6 -7 8 9 -5 -9 -8 15 18 16 -4 -10 -15 -2 20 -20 -21 24 -22 -23 -25 -16 29 -29 -28
right_child=13 2 3 4 5 6 11 10 14 -11 -12 -13 -14 17 26 -17 -18 -19 19 21 23 22 -24 25 -26 -27 27 28 -30 -31
leaf_value=-0.31850212971369429 -0.12418585062026977 0.2966809317469597 0.12610272530466315 -0.66551197677850704 0.067915712845952894 -0.8519460767507554 0.056693227352066458 0.27955761448968025 -0.047566902025469704 -0.038160905257488296 -0.10637535415589811 -0.40580452948808676 0.33124593771420996 0.40917895535628007 -0.2248223440455539 -0.19561520733616569 0.27240424280365311 0.17819787561893463 0.39810949606554852 -0.21476269377903506 -0.092859170653603301 0.36661511123180379 -0.061445401648157517 0.27807077065110203 0.055035276846452201 0.010703291445970535 -0.039931597077009974 -0.088162332192054826 -0.32723012268543245 0.15083921828440258
leaf_weight=14.999999999999998 9.9999999999999982 11.999999999999998 20.000000000000004 10.000000000000002 19 10.999999999999998 11.000000000000002 21 14.000000000000002 11.999999999999998 14.999999999999998 9.9999999999999982 12.999999999999998 11.999999999999998 21 10.999999999999998 11.999999999999998 36 13.999999999999998 10.999999999999998 10.999999999999998 10.000000000000002 19 20.000000000000004 10.999999999999998 9.9999999999999982 57 41 12.999999999999998 13.999999999999998
leaf_count=15 10 12 20 10 19 11 11 21 14 12 15 10 13 12 21 11 12 36 14 11 11 10 19 20 11 10 57 41 13 14
internal_value=3.02832e-10 -0.0597887 -0.0482733 -0.0610101 -0.0872055 -0.225793 -0.400182 -0.0564753 -0.0889918 -0.32332 0.118752 -0.163544 0.106284 0.128327 -0.0590195 0.0119447 0.100112 0.235943 0.0837962 0.103417 0.185828 0.0145429 0.0776019 0.113341 0.203407 0.188948 -0.087358 -0.064264 -0.145716 -0.00231482
internal_weight=516 352 337 325 281 51 32 230 194 22 36 21 44 164 172 31 26 48 116 106 55 51 40 41 21 30 146 125 54 71
internal_count=516 352 337 325 281 51 32 230 194 22 36 21 44 164 172 31 26 48 116 106 55 51 40 41 21 30 146 125 54 71
is_linear=0
shrinkage=0.05


Tree=27
num_leaves=31
num_cat=0
split_feature=25 4 4 16 6 3 26 28 4 28 14 20 20 24 20 20 20 28 15 24 5 12 18 26 4 24 20 24 17 26
split_gain=1429.2 589.8 1271.18 1250.75 403.514 366.889 711.595 398.816 605.528 316.276 313.459 304.339 313.653 314.725 289.319 473.226 690.954 261.115 248.875 235.058 212.001 207.914 181.131 199.08 179.942 248.58 202.256 141.762 137.453 153.359
threshold=81.011071428571441 4.5000000000000009 3.5000000000000004 1.0000000180025095e-35 34.500000000000007 4.5000000000000009 8.8722751653801151 10.79260389630671 13.500000000000002 11.052099680611823 0.98900806995500201 75.965000000000018 56.45000000000001 6.968811307209644 66.79000000000002 81.465000000000018 77.835000000000022 11.741134693288737 0.90254336016595926 8.1507702321066215 124.50000000000001 -0.159513159777915 74.745000000000019 10.804965764161652 13.500000000000002 10.19976012806678 89.140000000000015 11.266643011390524 -0.56174490092936669 13.552475377904981
decision_type=2 2 2 2 2 2 2 2 2 2 2 2 2 2 2 2 2 2 2 2 2 2 2 2 2 2 2 2 2 2
left_child=1 2 3 4 -1 11 -7 8 -8 -9 14 12 -3 -14 -2 16 20 -11 24 -13 27 -15 -21 -24 25 -17 -27 -16 -26 -30
right_child=10 5 -4 -5 -6 6 7 9 -10 17 -12 19 13 21 15 18 -18 -19 -20 22 -22 -23 23 -25 28 26 -28 -29 29 -31
leaf_value=0.41073497056961045 -0.10659063119779935 0.13674086223949086 -0.66615688782185323 -0.43004265001841957 -0.038438839316368101 -0.33961905062198644 0.56954420387744886 -0.20283180854748936 0.088860781647657094 0.27185229010020312 -0.135892260751941 0.17537886817008258 -0.37435349002480511 -0.031670764232562348 0.19854427405766073 -0.15111223006000121 0.58069740874426701 -0.013278297973530634 -0.14408284842967986 0.026853752482150287 0.3523053442889994 -0.17749247003685345 -0.29835995882749561 -0.037844590944322673 0.026916729862039759 -0.013789905539967793 0.2969050230830908 -0.035653258611758547 0.29444090981896104 0.071729372306303538
leaf_weight=10.000000000000002 10.999999999999998 10.999999999999998 11.999999999999998 13.999999999999998 9.9999999999999982 9.9999999999999982 10.000000000000002 11.999999999999998 19 12.999999999999998 10.999999999999998 15.999999999999998 12.999999999999998 44 14.000000000000002 11.999999999999998 13.999999999999998 21 9.9999999999999982 49 10.999999999999998 55 10.999999999999998 22 10.999999999999991 11.000000000000002 9.9999999999999982 11.999999999999998 26.000000000000007 10.999999999999998
leaf_count=10 11 11 12 14 10 10 10 12 19 13 11 16 13 44 14 12 14 21 10 49 11 55 11 22 11 11 10 12 26 11
internal_value=-3.10621e-10 -0.0567993 -0.223729 -0.0675775 0.186148 -0.0317053 0.0565748 0.109401 0.254614 0.0178533 0.121911 -0.0656592 -0.118033 -0.143055 0.140446 0.159582 0.281508 0.0957422 0.0912501 7.50532e-05 0.168301 -0.112683 -0.0341306 -0.124683 0.120304 0.0304247 0.13416 0.0904531 0.182095 0.228229
internal_weight=516 352 46 34 20 306 85 75 29 46 164 221 123 112 153 142 51 34 91 98 37 99 82 33 81 33 21 26 48 37
internal_count=516 352 46 34 20 306 85 75 29 46 164 221 123 112 153 142 51 34 91 98 37 99 82 33 81 33 21 26 48 37
is_linear=0
shrinkage=0.05


Tree=28
num_leaves=31
num_cat=0
split_feature=23 4 22 20 4 18 22 19 20 28 3 12 4 22 26 18 24 12 26 24 22 22 19 20 20 29 5 21 20 26
split_gain=1303.27 595.174 1391.66 1713.53 709.353 611.923 400.986 395.588 1172.83 839.627 323.124 321.026 320.554 380.907 300.019 297.166 269.956 248.312 247.235 345.841 206.491 202.783 189.771 306.665 376.726 236.654 180.99 169.405 555.999 457.403
threshold=80.682142857142878 4.5000000000000009 58.710000000000008 81.465000000000018 5.5000000000000009 81.465000000000018 57.475000000000001 67.145000000000024 76.115000000000023 10.79260389630671 4.5000000000000009 -0.11798870221290077 25.500000000000004 80.315000000000012 10.440785171270296 62.890000000000008 13.680691409859351 -0.70291267844185523 9.403235345528941 10.494706649291466 59.45000000000001 53.955000000000005 65.50500000000001 93.455000000000013 67.645000000000024 86.962770287141083 254.50000000000003 83.555000000000021 78.885000000000019 12.212311208315418
decision_type=2 2 2 2 2 2 2 2 2 2 2 2 2 2 2 2 2 2 2 2 2 2 2 2 2 2 2 2 2 2
left_child=1 2 -1 11 -3 6 15 8 9 -8 22 -4 13 14 -12 -6 20 -7 -17 21 -9 -20 -2 24 -24 -25 -19 28 -26 -30
right_child=10 4 3 -5 5 17 7 16 -10 -11 12 -13 -14 -15 -16 18 -18 26 19 -21 -22 -23 23 25 27 -27 -28 -29 29 -31
leaf_value=-0.66057090300780086 -0.14077613300178202 0.33210596635651135 -0.065325321555137636 -0.61324919819831847 0.23136295756468406 0.26489316299557686 -0.84209877908229813 -0.23212268111797482 0.019480509080347562 -0.24223202546792375 0.38765856352719386 0.29580762516707176 -0.0094457425177097327 0.52088909127439065 0.052536766647416001 -0.25930847048759464 -0.2821674356503146 0.089873326087699212 0.017252822897650975 -0.10741504568320055 -0.017634553691690289 0.32835223466157915 -0.12154291272163392 0.052828976511955256 0.03703852780163288 -0.25053925931453708 -0.1521091975271702 0.098617842374369505 0.67159465795382844 0.19336711704730988
leaf_weight=12.999999999999998 9.9999999999999982 12.999999999999998 9.9999999999999982 9.9999999999999982 12.999999999999998 15.999999999999998 10.000000000000002 12.999999999999998 21 13.999999999999998 11.000000000000002 16.000000000000004 11.999999999999998 11.999999999999998 17 9.9999999999999982 13.999999999999998 34 11.000000000000002 26 82 9.9999999999999982 11.999999999999998 18.000000000000004 15.999999999999998 9.9999999999999982 9.9999999999999982 32 10.000000000000002 9.9999999999999982
leaf_count=13 10 13 10 10 13 16 10 13 21 14 11 16 12 12 17 10 14 34 11 26 82 10 12 18 16 10 10 32 10 10
internal_value=-4.67917e-10 -0.0556993 -0.217148 -0.0570229 -0.029063 -0.0455954 -0.0835802 -0.128683 -0.253403 -0.492177 0.113364 0.15691 0.217206 0.285201 0.184192 0.0156449 -0.0771924 0.0962149 -0.0335539 0.014479 -0.0469856 0.165395 0.0676039 0.0868983 0.136744 -0.0555168 0.0348773 0.182324 0.256729 0.432481
internal_weight=516 346 49 36 297 284 224 154 45 24 170 26 52 40 28 70 109 60 57 47 95 21 118 108 80 28 44 68 36 20
internal_count=516 346 49 36 297 284 224 154 45 24 170 26 52 40 28 70 109 60 57 47 95 21 118 108 80 28 44 68 36 20
is_linear=0
shrinkage=0.05


Tree=29
num_leaves=31
num_cat=0
split_feature=25 14 4 25 29 28 24 11 3 23 23 4 13 14 4 3 15 14 14 26 21 21 30 28 12 24 23 13 30 30
split_gain=1183.23 504.72 801.938 1129.87 327.892 744.206 620.882 713.605 528.469 298.016 369.187 283.929 273.234 262.669 257.256 242.107 295.225 238.851 246.572 223.433 309.454 198.121 346.605 197.459 146.596 143.843 163.787 140.883 148.622 135.833
threshold=81.011071428571441 0.99531687387553236 4.5000000000000009 73.450714285714298 73.599411616161632 10.359478216690059 7.2124762727447846 0.70138038092733435 4.5000000000000009 73.51428571428572 71.05428571428574 2.5000000000000004 -0.40613878790836594 0.98900806995500201 6.5000000000000009 5.5000000000000009 0.93769647993491489 0.94738457656407282 0.79317318001497539 10.780907421705288 82.715000000000018 81.825000000000003 10.945622231174971 11.009248268918251 0.22700019328474738 9.9285698971897087 88.042142857142878 0.33222858587828868 11.305202845517455 10.837400881722884
decision_type=2 2 2 2 2 2 2 2 2 2 2 2 2 2 2 2 2 2 2 2 2 2 2 2 2 2 2 2 2 2
left_child=1 2 3 11 6 8 7 -4 12 10 -8 -1 -6 15 -7 16 17 18 19 20 -2 23 -23 27 -12 -21 -27 28 -16 -25
right_child=13 -3 4 -5 5 14 9 -9 -10 -11 24 -13 -14 -15 21 -17 -18 -19 -20 25 -22 22 -24 29 -26 26 -28 -29 -30 -31
leaf_value=0.13852727413177487 0.42519531505448466 0.29845517367124558 -0.65152140714228135 -0.55181133872584298 0.29153532911092034 0.19889147698879242 -0.11745548592163967 -0.067925607887181369 0.47451595366001131 -0.16070619245192835 0.019029547224442167 -0.22221384584903717 -0.031358426181893599 -0.12506943995302375 0.091640663743019074 0.29008754298090933 -0.13304820656776428 0.3610076487064362 -0.048397896075177763 -0.067598121582219992 0.098338825702667235 0.058737455172972242 -0.28500788868828253 0.16589576831230751 0.23067391042908036 0.25096829568638518 0.058921214099973446 -0.26461464601258439 -0.16475072942960722 -0.01413252299858464
leaf_weight=12.000000000000002 14.000000000000002 9.9999999999999982 10.000000000000002 19 10.000000000000002 9.9999999999999982 26 10.999999999999998 11.999999999999998 35 14.999999999999998 9.9999999999999982 19 10.999999999999998 10.000000000000002 20 11.999999999999998 9.9999999999999982 21 11.999999999999998 14.999999999999998 10.999999999999998 22 12.999999999999998 18 17 32 11.999999999999998 12.999999999999998 54
leaf_count=12 14 10 10 19 10 10 26 11 12 35 15 10 19 11 10 20 12 10 21 12 15 11 22 13 18 17 32 12 13 54
internal_value=7.40004e-11 -0.051681 -0.0619189 -0.269371 -0.0336612 0.00737284 -0.100029 -0.345828 0.195457 -0.0451169 0.0234531 -0.025446 0.0799842 0.110925 -0.0458096 0.127892 0.103502 0.126961 0.105876 0.141873 0.256132 -0.0639356 -0.170426 -0.0294827 0.134472 0.0875535 0.12555 -0.125735 -0.0532762 0.0207983
internal_weight=516 352 342 41 301 186 115 21 41 94 59 22 29 164 145 153 133 121 111 90 29 135 33 102 33 61 49 35 23 67
internal_count=516 352 342 41 301 186 115 21 41 94 59 22 29 164 145 153 133 121 111 90 29 135 33 102 33 61 49 35 23 67
is_linear=0
shrinkage=0.05


Tree=30
num_leaves=31
num_cat=0
split_feature=23 4 4 10 4 18 20 19 17 29 3 4 6 30 19 30 20 30 15 28 19 20 20 29 10 30 19 12 19 23
split_gain=1081.35 504.007 1093.63 762.611 615.175 514.561 336.299 647.921 1140.16 378.975 276.533 286.47 257.904 236.266 245.562 227.567 272.344 209.28 203.536 189.456 172.889 262.513 339.224 212.067 167.615 152.654 331.489 142.395 138.366 141.962
threshold=80.682142857142878 4.5000000000000009 3.5000000000000004 0.534952257794027 5.5000000000000009 81.465000000000018 75.965000000000018 67.685000000000016 1.0000000180025095e-35 73.877761363636367 4.5000000000000009 25.500000000000004 30.500000000000004 10.859029084312526 74.315000000000012 12.728269460401011 76.115000000000023 11.528880913094897 0.49066019586310566 10.331252408410728 65.50500000000001 93.455000000000013 67.645000000000024 86.962770287141083 -0.33425342068356556 12.114911786729236 78.010000000000005 0.24372619187392155 82.220000000000013 88.042142857142878
decision_type=2 2 2 2 2 2 2 2 2 2 2 2 2 2 2 2 2 2 2 2 2 2 2 2 2 2 2 2 2 2
left_child=1 2 3 12 -3 6 7 8 17 -9 20 15 -1 14 -7 16 -12 -6 27 -8 -2 22 -22 -23 -21 -24 -27 -15 -28 -30
right_child=10 4 -4 -5 5 13 19 9 -10 -11 11 -13 -14 18 -16 -17 -18 -19 -20 24 21 23 25 -25 -26 26 28 -29 29 -31
leaf_value=0.25712650255723424 -0.13796622902154923 0.31011586819703763 -0.63834447752345691 -0.42314101186665626 -0.24064528610971234 0.027987466454505911 0.1580037938555082 0.042110804749771635 -0.76072315484285358 -0.16207281647313557 0.11940837830305095 -0.014937275648117067 -0.057376394793391232 -0.18033502227984938 0.35755391636720074 0.05703998662531376 0.43898478410672398 0.044638357833027845 0.202888280749321 -0.13426514821393151 -0.11963061044613521 0.050143647525045604 0.033659582212567332 -0.23703325867652891 0.017471554416876572 0.37664322068816736 -0.040791656374931339 0.049472144033227652 0.29093731939792628 0.040355886444449429
leaf_weight=11.000000000000002 9.9999999999999982 12.999999999999998 10.999999999999998 10.999999999999998 18.000000000000004 10.000000000000002 14.999999999999998 47 9.9999999999999982 44 10.000000000000002 11.999999999999998 15.999999999999998 13.000000000000002 12.999999999999998 9.9999999999999982 20 9.9999999999999982 9.9999999999999982 28 11.999999999999998 18.000000000000004 15.999999999999998 9.9999999999999982 52 19 9.9999999999999982 13.999999999999998 13.000000000000002 9.9999999999999982
leaf_count=11 10 13 11 11 18 10 15 47 10 44 10 12 16 13 13 10 20 10 10 28 12 18 16 10 52 19 10 14 13 10
internal_value=5.87491e-11 -0.0507357 -0.199306 -0.0722153 -0.0262242 -0.04162 -0.0764523 -0.129027 -0.302433 -0.0566153 0.103262 0.199326 0.0707544 0.0884202 0.214264 0.263604 0.332459 -0.138758 0.0101929 -0.00506154 0.060929 0.0793453 0.125463 -0.0524195 -0.0356363 0.168715 0.21027 -0.0611758 0.11448 0.181989
internal_weight=516 346 49 38 297 284 224 129 38 91 170 52 27 60 23 40 30 28 37 95 118 108 80 28 80 68 52 27 33 23
internal_count=516 346 49 38 297 284 224 129 38 91 170 52 27 60 23 40 30 28 37 95 118 108 80 28 80 68 52 27 33 23
is_linear=0
shrinkage=0.05


Tree=31
num_leaves=31
num_cat=0
split_feature=25 14 14 0 22 30 15 22 26 28 12 3 14 21 14 20 20 20 12 23 15 5 27 26 28 22 30 14 28 20
split_gain=982.577 430.212 528.651 447.375 425.181 430.234 1162.91 583.845 659.174 453.64 315.715 295.896 278.9 229.853 228.349 230.084 410.923 563.806 213.996 274.629 191.725 179.576 178.968 174.883 162.758 157.036 138.976 137.327 267.667 154.103
threshold=81.011071428571441 0.99531687387553236 0.97086220929134248 2023.5000000000002 70.560000000000016 10.509307880057635 -0.3744658827978154 63.690000000000005 9.1009854761134221 10.331252408410728 -0.69057042736241547 4.5000000000000009 0.45369364581266863 82.715000000000018 0.98900806995500201 66.79000000000002 81.465000000000018 77.835000000000022 0.074116354202380205 76.550714285714307 0.90254336016595926 124.50000000000001 74.548166666666688 9.5258960808840971 10.095272523478265 67.915000000000006 10.93577122363955 0.62671365618031138 12.625762309565646 84.665000000000006
decision_type=2 2 2 2 2 2 2 2 2 2 2 2 2 2 2 2 2 2 2 2 2 2 2 2 2 2 2 2 2 2
left_child=1 2 3 4 5 6 -1 9 -9 26 -6 18 24 25 15 -2 17 21 -11 23 27 -17 -13 -20 -8 -10 -7 29 -29 -18
right_child=14 -3 -4 -5 10 7 12 8 13 11 -12 22 -14 -15 -16 16 20 -19 19 -21 -22 -23 -24 -25 -26 -27 -28 28 -30 -31
leaf_value=-0.69533112108707429 -0.10339791178703309 0.27616528391838074 -0.32028858661651616 0.27151209061796017 0.32921731591224673 0.089458904266357386 -0.069239493631399571 -0.55752148136496549 0.023374226068456971 0.0079902984201908108 0.017313075576757275 0.1922368562221527 0.11145892125399162 -0.32013836085796354 -0.11895467097109014 0.073675251150360485 -0.033682030141353611 0.51784773383821758 -0.23755130938121249 -0.37259739220142363 -0.13625988364219666 0.31467266109856695 -0.066824715211987504 -0.030828057285888416 -0.33754705190658574 -0.20476591857996854 0.35306438803672791 -0.13769485354423522 0.17228162747163039 0.18422884055694869
leaf_weight=9.9999999999999982 10.999999999999998 9.9999999999999982 18 10.999999999999998 9.9999999999999982 10.000000000000002 13.000000000000002 9.9999999999999982 24 48 43 20.000000000000004 11.999999999999998 9.9999999999999982 10.999999999999998 26 9.9999999999999982 13.999999999999998 13.999999999999998 9.9999999999999982 9.9999999999999982 10.999999999999998 9.9999999999999982 38 9.9999999999999982 10.999999999999998 9.9999999999999982 15.000000000000002 12.999999999999998 43
leaf_count=10 11 10 18 11 10 10 13 10 24 48 43 20 12 10 11 26 10 14 14 10 10 11 10 38 10 11 10 15 13 43
internal_value=5.95974e-10 -0.0470955 -0.0565475 -0.0418953 -0.0529096 -0.0792205 -0.219809 -0.0497951 -0.190328 -0.00148688 0.0761629 -0.0333081 -0.0839451 -0.108729 0.101083 0.116903 0.133968 0.247585 -0.0712693 -0.132632 0.070293 0.145323 0.105883 -0.0864843 -0.185895 -0.048327 0.221262 0.0957933 0.0062228 0.143114
internal_weight=516 352 342 324 313 260 45 215 55 160 53 140 35 45 164 153 142 51 110 62 91 37 30 52 23 35 20 81 28 53
internal_count=516 352 342 324 313 260 45 215 55 160 53 140 35 45 164 153 142 51 110 62 91 37 30 52 23 35 20 81 28 53
is_linear=0
shrinkage=0.05


Tree=32
num_leaves=31
num_cat=0
