tree
version=v4
num_class=1
num_tree_per_iteration=1
label_index=0
max_feature_idx=30
objective=regression
feature_names=Column_0 Column_1 Column_2 Column_3 Column_4 Column_5 Column_6 Column_7 Column_8 Column_9 Column_10 Column_11 Column_12 Column_13 Column_14 Column_15 Column_16 Column_17 Column_18 Column_19 Column_20 Column_21 Column_22 Column_23 Column_24 Column_25 Column_26 Column_27 Column_28 Column_29 Column_30
feature_infos=[2023:2024] [1:12] [1:4] [0:6] [1:31] [1:365] [1:52] [0:1] [0:1] [0:1] [-0.9999994220246925:0.99998555065071859] [-0.99997919295908233:0.9999907524084426] [-0.9999994220246925:0.99995318436087299] [-0.99999768809943823:0.99996300980480612] [-0.99999479822624138:0.99999479822624138] [-0.99997919295908233:0.99991677270219526] [-0.97492791218182362:0.97492791218182362] [-0.90096886790241903:1] [36.780000000000001:115.36] [36.780000000000001:115.36] [36.780000000000001:115.36] [36.780000000000001:96.890000000000001] [33.810000000000002:96.890000000000001] [53.439999999999998:99.338571428571427] [1.5957831336111317:18.812919319800198] [52.957142857142863:93.652142857142849] [3.2868834398646132:17.966959561857976] [53.452666666666673:92.168999999999997] [6.1262169194243139:15.647261402841833] [51.589000000000006:83.504269662921345] [6.9729640095623422:13.55650481140823]
tree_sizes=2923 3019 3038 3073 3068 2992 3089 3061 3072 3028 3048 3058 3081 2993 3064 3039 3028 3089 3066 3087 3101 3061 3049 3002 3013 3037 3019 3007 3059 3055 3079 3148 3062 3061 3061 3088 3044 3086 3032 3117 3065 3010 3075 3044 3067 3058 3055 3051 3015 3035 3048 3048 3072 3058 3131 3020 3093 2979 3032 3068 3128 3013 3055 3067 3002 3091 3084 3073 3072 3195 3112 3071 3081 3141 3104 3063 3063 3080 3122 3029 3037 3111 3088 3112 3101 3133 3126 3072 3128 3080 3013 3080 3095 3111 3135 3051 3173 3113 3133 3124 3133 3123 3086 3157 3144 3078 3097 3089 3065 3201 3120 3049 3128 3152 3220 3101 3117 3158 3137 3067 3119 3071 3079 3176 3078 3055 3127 3115 3102 3050 3172 3164 3107 3088 3099 3114 3037 3091 3163 3108 3137 3120 3120 3143 3106 3177 3104 3170 3175 3118 3132 3192 3135 3166 3157 3143 3160 3086 3132 3136 3156 3122 3107 3133 3116 3193 3144 3158 3146 3136 3145 3136 3222 3200 3145 3178 3149 3154 3113 3201 3051 3115 3107 3163 3147 3154 3119 3172 3165 3166 3162 3110 3183 3157 3167 3182 3126 3095 3120 3111 3108 3161 3132 3139 3101 3121 3161 3114 3144 3143 3050 3149 3100 3170 3172 3162 3155 3180 3183 3210 3163 3173 3184 3120 3197 3139 3153 3192 3220 3205 3147 3097 3128 3211 3171 3165 3168 3163 3143 3137 3161 3191 3189 3203 3134 3161 3148 3137 3179 3199 3211 3153 3156 3143 3131 3147 3214 3138 3180 3172 3152 3224 3201 3188 3182 3186 3072 3170 3220 3186 3201 3213 3107 3176 3179 3192 3151 3239 3152 3087 3158 3109 3160 3152 3159 3162 3147 3177 3135 3195 3122 3175 3114 3167 3228 3200 3209 3193 3211 3243

Tree=0
num_leaves=31
num_cat=0
split_feature=25 22 17 24 3 28 22 3 14 24 13 24 18 14 5 22 15 14 22 24 24 26 22 22 19 25 14 15 22 28
split_gain=27081.2 7882.88 2062.99 1994.09 1424.44 1635.32 1126.54 1441.12 1431.25 1117.05 858.713 858.344 857.971 784.154 716.329 805.107 628.429 595.427 544.288 517.429 504.67 467.623 436.816 369.314 356.21 329.69 323.449 305.074 287.55 282.097
threshold=71.798736263736274 75.825000000000003 -0.56174490092936669 12.226720707397439 4.5000000000000009 11.493958850777943 61.390000000000008 4.5000000000000009 -0.022576145604933043 12.536956313227565 -0.94703994556331683 7.3409785944174404 83.165000000000006 0.56988919965813623 188.00000000000003 54.130000000000003 -0.88522530996428317 0.11905811071747181 56.320000000000007 5.7268497983251789 7.5235909624130377 7.3510138413375143 51.660000000000004 54.590000000000011 62.260000000000012 76.785384615384615 0.35946433354369983 0.16375730385847256 47.900000000000006 12.861423371105575
decision_type=2 2 2 2 2 2 2 2 2 2 2 2 2 2 2 2 2 2 2 2 2 2 2 2 2 2 2 2 2 2
left_child=2 4 3 10 5 16 7 14 11 12 -1 -8 -3 17 15 -4 -2 23 19 -12 -18 -17 24 28 -16 27 -10 -6 -9 -7
right_child=1 9 6 -5 25 29 8 13 26 -11 18 -13 -14 -15 22 21 20 -19 -20 -21 -22 -23 -24 -25 -26 -27 -28 -29 -30 -31
leaf_value=67.63368364419955 68.27442739073355 69.093100262099696 68.066626733675477 67.317283650303068 68.981127703978217 68.849262219929884 68.519833609588758 68.269483621382903 69.007133637333098 69.916949039730838 68.383933653348876 67.879783646726793 69.619458619022552 68.089980693160967 67.93683360926974 68.196983639264289 68.818515423981623 68.760119297937166 68.407797903776782 67.986311410298796 68.521662923211039 68.644655030802497 67.821203182900135 68.173797874202236 68.225355346957684 68.779433613085928 68.604983632826986 69.31906089294192 68.600728397373018 69.172718269583086
leaf_weight=9.9999999999999982 15.999999999999998 15.000000000000002 29 9.9999999999999982 17.000000000000004 14.000000000000002 11.000000000000002 10.000000000000002 10.000000000000002 12.999999999999998 9.9999999999999982 9.9999999999999982 15.999999999999998 17 20 10.000000000000002 22 13.999999999999998 13.999999999999998 45 41 13.999999999999998 23 13.999999999999998 23 9.9999999999999982 9.9999999999999982 10.999999999999998 19 12.999999999999998
leaf_count=10 16 15 29 10 17 14 11 10 10 13 10 10 16 17 20 10 22 14 14 45 41 14 23 14 23 10 10 11 19 13
internal_value=68.4651 68.9422 68.1874 67.9825 68.7632 68.6691 68.2653 68.2148 68.5033 69.5279 68.0667 68.215 69.3648 68.388 68.107 68.2439 68.5543 68.4769 68.1295 68.0586 68.6253 68.4581 67.9971 68.3847 68.0912 69.0259 68.8061 69.1139 68.4865 69.005
internal_weight=511 188 323 89 144 106 234 193 41 44 79 21 31 74 119 53 79 57 69 55 63 24 66 43 43 38 20 28 29 27
internal_count=511 188 323 89 144 106 234 193 41 44 79 21 31 74 119 53 79 57 69 55 63 24 66 43 43 38 20 28 29 27
is_linear=0
shrinkage=1


Tree=1
num_leaves=31
num_cat=0
split_feature=23 29 3 15 15 3 13 14 3 14 21 10 14 20 19 20 25 20 30 27 11 24 30 3 20 21 29 20 14 3
split_gain=24474.7 7201.72 2146.2 1718.9 1973.98 1080.23 1012.28 982.606 944.213 1180.97 949.414 928.32 813.958 526.188 522.661 507.005 483.296 440.79 422.689 392.537 364.793 462.485 355.502 356.963 346.468 416.186 389.964 322.524 319.028 313.604
threshold=70.560000000000016 74.626910112359568 4.5000000000000009 0.98484943023723581 0.9635202313707022 4.5000000000000009 0.86440617605192027 -0.98994109942595798 4.5000000000000009 0.32614245703617079 59.595000000000006 0.93237596376505805 0.72620980401264112 70.370000000000019 81.985000000000014 60.555000000000007 70.075769230769254 85.195000000000007 9.3266242438602571 59.82800000000001 -0.70900320270980455 5.2108997976614297 8.2411052868148094 3.5000000000000004 64.370000000000019 57.965000000000011 62.972166666666674 81.785000000000011 0.8516941891423423 3.5000000000000004
decision_type=2 2 2 2 2 2 2 2 2 2 2 2 2 2 2 2 2 2 2 2 2 2 2 2 2 2 2 2 2 2
left_child=2 8 3 4 7 14 13 -1 10 11 12 -10 -2 15 -3 -4 19 -16 -17 -9 -21 -22 -23 24 25 -24 -26 29 -11 -12
right_child=1 5 6 -5 -6 -7 -8 16 9 28 27 -13 -14 -15 17 18 -18 -19 -20 20 21 22 23 -25 26 -27 -28 -29 -30 -31
leaf_value=-0.7967763861020406 -0.4505561089515685 1.0119537558820513 0.080936243467860755 0.11686774376365874 -1.0777957653999328 1.3445082517770621 -0.41969743352383376 -0.084498170476693377 -0.1621462476253509 0.88553543252249534 0.25411459548906845 0.49014196991920472 0.17272534912282772 0.33844421323050156 0.87530325174331647 -0.40876718530288098 0.0080911298096179966 0.40584092289209367 0.01236489550633864 -0.55009684463342035 -0.11646852627396585 -0.54833936765789992 0.083712362159382214 -0.51099281981587408 -0.51137840586404015 -0.28114831160615988 -0.17932790688105993 0.47185662388801575 0.50314678266644486 -0.050279321670532229
leaf_weight=11.999999999999998 10.000000000000002 18 36 18 9.9999999999999982 12.999999999999998 15.999999999999998 12.999999999999998 10.000000000000002 12.000000000000002 55 11.999999999999998 10.999999999999998 10.999999999999998 10.000000000000002 13.000000000000002 9.9999999999999982 9.9999999999999982 10.999999999999998 24 20 24 10.999999999999998 22 24 27 13.999999999999998 13.999999999999998 9.9999999999999982 9.9999999999999982
leaf_count=12 10 18 36 18 10 13 16 13 10 12 55 12 11 11 10 13 10 10 11 24 20 24 11 22 24 27 14 14 10 10
internal_value=2.15352e-09 0.440499 -0.271827 -0.352143 -0.392153 0.951083 -0.0604199 -0.358042 0.259667 0.452685 0.174739 0.193647 -0.124075 0.0205441 0.81649 -0.0377376 -0.330186 0.640572 -0.215748 -0.349084 -0.369804 -0.339332 -0.375867 -0.333629 -0.282287 -0.175531 -0.389044 0.254171 0.711722 0.207285
internal_weight=511 195 316 229 211 51 87 201 144 44 100 22 21 71 38 60 189 20 24 179 166 142 122 98 76 38 38 79 22 65
internal_count=511 195 316 229 211 51 87 201 144 44 100 22 21 71 38 60 189 20 24 179 166 142 122 98 76 38 38 79 22 65
is_linear=0
shrinkage=0.05


Tree=2
num_leaves=31
num_cat=0
split_feature=25 22 17 24 5 7 28 22 23 14 7 13 24 28 14 18 12 28 5 23 12 22 22 24 30 24 24 14 22 23
split_gain=22133.7 6616.47 1729.54 1725.68 1287.47 1016.66 999.65 978.15 1309.26 1221.79 971.112 1311.5 951.754 786.814 784.533 698.641 644.235 434.451 403.791 424.089 519.784 349.392 315.359 304.578 382.322 299.245 528.544 297.947 291.102 262.799
threshold=71.798736263736274 75.825000000000003 -0.56174490092936669 12.226720707397439 173.50000000000003 1.0000000180025095e-35 11.493958850777943 61.390000000000008 69.475000000000023 -0.022576145604933043 1.0000000180025095e-35 0.86440617605192027 12.536956313227565 9.3084764405309368 -0.91072037282037877 83.165000000000006 -0.58482091572441486 8.1232166702899988 188.00000000000003 61.900714285714294 0.76140650896573492 51.660000000000004 54.590000000000011 6.6535826339290471 9.2961267434068144 9.8446151704616014 8.0746438607779591 0.35946433354369983 51.895000000000003 61.197142857142858
decision_type=2 2 2 2 2 2 2 2 2 2 2 2 2 2 2 2 2 2 2 2 2 2 2 2 2 2 2 2 2 2
left_child=2 4 3 14 5 6 17 8 10 13 18 22 15 -9 -1 -3 -16 -2 19 -4 -21 25 28 -18 -25 26 -20 -11 -12 -23
right_child=1 12 7 -5 -6 -7 -8 9 -10 27 11 -13 -14 -15 16 -17 23 -19 21 20 -22 29 -24 24 -26 -27 -28 -29 -30 -31
leaf_value=-0.75208613113923517 0.33415557726433409 0.57219998598098742 0.03350643231110139 -1.0574840104579926 -0.27991567015647889 0.53983305873615406 0.485772118082753 -0.51607994545589786 0.33028050541877746 0.51476887941360461 -0.022099123082377697 -0.64104381352663042 1.327039172099187 0.096720878928899773 0.019600530255299349 1.0471766352653504 -0.20307966139581471 0.055484340185264373 -0.41551429383894967 -0.20852134664143837 -0.62846829414367678 -0.77929550409316994 -0.20486847951131712 -0.63797653988003733 -0.31355042947190154 -0.53070314867155888 0.04259394466876984 0.128797789812088 0.28584369242191315 -0.43835858312936926
leaf_weight=10.999999999999998 19 15.000000000000002 10.999999999999998 9.9999999999999982 9.9999999999999982 35 27 11.000000000000002 9.9999999999999982 10.000000000000002 33 9.9999999999999982 12.999999999999998 9.9999999999999982 12.999999999999998 15.999999999999998 18 53 17.000000000000004 28 9.9999999999999982 10.000000000000002 17 15.999999999999998 21 13.999999999999998 9.9999999999999982 9.9999999999999982 9.9999999999999982 12.999999999999998
leaf_count=11 19 15 11 10 10 35 27 11 10 10 33 10 13 10 13 16 18 53 17 28 10 10 17 16 21 14 10 10 10 13
internal_value=2.11999e-09 0.431329 -0.251052 -0.438658 0.267364 0.308206 0.226318 -0.179697 -0.226815 0.0420975 -0.257257 -0.110915 0.967939 -0.22427 -0.360326 0.817349 -0.296953 0.129023 -0.347911 -0.239892 -0.319034 -0.430614 -0.02256 -0.371775 -0.453843 -0.343113 -0.245845 0.321783 0.0495155 -0.586592
internal_weight=511 188 323 89 144 134 99 234 193 41 183 70 44 21 79 31 68 72 113 49 38 64 60 55 37 41 27 20 43 23
internal_count=511 188 323 89 144 134 99 234 193 41 183 70 44 21 79 31 68 72 113 49 38 64 60 55 37 41 27 20 43 23
is_linear=0
shrinkage=0.05


Tree=3
num_leaves=31
num_cat=0
split_feature=25 22 7 22 11 14 5 30 29 21 7 29 24 10 22 23 21 27 25 10 22 4 30 4 10 29 22 30 29 25
split_gain=19975.6 5971.37 1453.11 2359.1 1427.68 1454.99 1161.94 1078.59 1020.38 1005.26 917.535 962.126 858.957 585.777 970.325 556.677 534.513 718.946 488.156 462.456 423.742 382.68 362.467 414.014 315.143 523.168 314.373 269.856 214.184 201.623
threshold=71.798736263736274 75.825000000000003 1.0000000180025095e-35 62.720000000000006 0.99530134160901229 -0.98994109942595798 173.50000000000003 10.317741524308461 69.90665568900944 51.295000000000009 1.0000000180025095e-35 74.626910112359568 12.536956313227565 -0.048361574224334618 54.130000000000003 85.739285714285714 62.260000000000012 63.932068965517253 64.55428571428574 -0.14250824554987665 46.63000000000001 25.500000000000004 9.0822087668537623 17.500000000000004 0.9193901325473397 59.528764044943827 63.795000000000009 9.0109808101077089 63.144666666666673 62.125357142857148
decision_type=2 2 2 2 2 2 2 2 2 2 2 2 2 2 2 2 2 2 2 2 2 2 2 2 2 2 2 2 2 2
left_child=2 6 3 4 5 -1 10 -5 9 -4 11 21 15 20 18 -3 17 -11 27 28 29 22 -2 26 25 -16 -24 -15 -18 -7
right_child=1 12 8 7 -6 13 -8 -9 -10 16 -12 -13 -14 14 24 -17 19 -19 -20 -21 -22 -23 23 -25 -26 -27 -28 -29 -30 -31
leaf_value=-0.92132141351699826 -0.085863694176077851 0.60809631629994032 -0.3919144076960428 0.37507081399945646 -0.9465898844599725 -0.35476417819658912 -0.26591990113258362 -0.26034163317897102 -0.52068883153525269 0.062954294244232392 0.5128414044103452 0.57001755945384502 1.2606871898357686 -0.29360058825266994 -0.11838780447840683 1.0430920759836833 0.24678784385323516 0.57077589273452767 -0.031301735937595367 -0.29990456539850968 -0.4428349489569664 -0.10256480139035445 0.30269932746887207 0.40586772237135016 -0.19585244642062621 0.39306488454341892 0.0085119523462795083 -0.56376221014393701 -0.080461484789848325 -0.099602865427732473
leaf_weight=9.9999999999999982 9.9999999999999982 19.000000000000004 13.999999999999998 17.000000000000004 9.9999999999999982 15.000000000000002 9.9999999999999982 10.999999999999998 10.999999999999998 23 35 15.999999999999998 12.999999999999998 19 10.000000000000005 11.999999999999998 10.000000000000002 9.9999999999999982 9.9999999999999982 12.999999999999998 75 12.999999999999998 15.999999999999998 23 10.999999999999998 9.9999999999999982 21 18 9.9999999999999982 15.999999999999998
leaf_count=10 10 19 14 17 10 15 10 11 11 23 35 16 13 19 10 12 10 10 10 13 75 13 16 23 11 10 21 18 10 16
internal_value=-3.30975e-10 0.409762 -0.238499 -0.304919 -0.363988 -0.333957 0.253996 0.125444 -0.0691667 -0.00708237 0.292796 0.215002 0.919542 -0.302035 -0.198035 0.776482 0.0745487 0.21684 -0.341258 -0.0677423 -0.378563 0.146565 0.192832 0.239282 0.0191095 0.137339 0.135728 -0.425031 0.0831632 -0.223068
internal_weight=511 188 323 232 204 194 144 28 91 80 134 99 44 184 78 31 66 33 47 33 106 83 70 60 31 20 37 37 20 31
internal_count=511 188 323 232 204 194 144 28 91 80 134 99 44 184 78 31 66 33 47 33 106 83 70 60 31 20 37 37 20 31
is_linear=0
shrinkage=0.05


Tree=4
num_leaves=31
num_cat=0
split_feature=25 22 17 24 5 3 29 12 22 3 12 11 29 3 22 13 26 29 28 26 22 24 24 24 4 19 14 4 29 4
split_gain=18028 5389.16 1429.68 1506.51 1048.65 828.075 868.318 801.549 792.049 1063.52 1002.49 1320.53 1241.8 1186.77 737.326 699.727 603.888 597.01 523.423 446.456 421.566 393.277 377.469 352.397 345.369 335.301 314.187 306.028 291.979 244.184
threshold=71.798736263736274 75.825000000000003 -0.56174490092936669 12.226720707397439 173.50000000000003 4.5000000000000009 74.626910112359568 -0.90893575921103265 53.540000000000006 4.5000000000000009 -0.86114227455745762 0.33222858587828868 57.269887640449447 5.5000000000000009 51.660000000000004 -0.94703994556331683 8.2203173925774724 80.502415730337091 9.7637846434774023 10.207830578050521 56.320000000000007 7.2799438585275631 10.673272820322302 6.4062669997457453 25.500000000000004 62.260000000000012 -0.47937516584656537 17.500000000000004 62.532666666666664 14.500000000000002
decision_type=2 2 2 2 2 2 2 2 2 2 2 2 2 2 2 2 2 2 2 2 2 2 2 2 2 2 2 2 2 2
left_child=2 4 3 15 5 6 24 -3 9 14 -10 13 -13 16 25 -1 -12 -9 -14 23 21 26 28 -11 27 -4 -17 -2 -23 -25
right_child=1 7 8 -5 -6 -7 -8 17 10 19 11 12 18 -15 -16 20 -18 -19 -20 -21 -22 22 -24 29 -26 -27 -28 -29 -30 -31
leaf_value=-0.71483619928359987 0.095266461299686911 1.1702957836786907 -0.41074776500463489 -0.97533851504325875 -0.25262391924858096 0.48719933041504454 0.54151668958365917 0.52948189973831172 0.33238765597343445 0.070236418052361568 -0.29290667643460133 -0.37532437254082074 0.45578046600023908 0.098898475563951913 -0.71687470674514775 -0.37289467930793752 -0.71603482503157401 0.99010384480158486 0.050550833322460464 0.24266360685229305 -0.022344805725983213 -0.70657601356506339 -0.18236684501171113 -0.075636868476867652 -0.097436568255607911 -0.18972544476792619 0.0065818622708320625 0.30749733967000042 -0.34720909118652349 -0.41017794162034993
leaf_weight=9.9999999999999982 41 14.999999999999998 32 9.9999999999999982 9.9999999999999982 35 15.999999999999998 17.000000000000004 13.999999999999998 12.999999999999998 24 10.999999999999998 14.999999999999998 13.999999999999998 11.999999999999998 10.000000000000002 12.999999999999998 11.999999999999998 17 9.9999999999999982 13.999999999999998 13.000000000000002 9.9999999999999982 10.000000000000002 12.999999999999998 37 11.999999999999998 29 9.9999999999999982 11.999999999999998
leaf_count=10 41 15 32 10 10 35 16 17 14 13 24 11 15 14 12 10 13 12 17 10 14 13 10 10 13 37 12 29 10 12
internal_value=1.18247e-09 0.389274 -0.226574 -0.397144 0.241296 0.278156 0.204252 0.873565 -0.1617 -0.246866 -0.0623399 -0.121129 0.0829652 -0.293209 -0.355139 -0.323954 -0.441573 0.720084 0.240502 -0.0519732 -0.267305 -0.329658 -0.438826 -0.136155 0.139237 -0.292229 -0.165907 0.183191 -0.55033 -0.258114
internal_weight=511 188 323 89 144 134 99 44 234 126 108 94 43 51 81 79 37 29 32 45 69 55 33 35 83 69 22 70 23 22
internal_count=511 188 323 89 144 134 99 44 234 126 108 94 43 51 81 79 37 29 32 45 69 55 33 35 83 69 22 70 23 22
is_linear=0
shrinkage=0.05


Tree=5
num_leaves=31
num_cat=0
split_feature=23 29 22 6 7 22 14 4 13 7 10 20 1 22 14 14 22 15 19 10 15 24 22 22 20 18 19 23 4 29
split_gain=16115.2 4968.23 1899.89 1950.45 1399.75 1281.09 840.674 735.791 963.737 855.926 760.176 699.123 522.703 588.933 465.192 445.772 405.191 387.164 370.388 332.232 321.248 282.445 377.997 490.93 238.518 237.1 226.747 213.092 330.801 227.701
threshold=70.560000000000016 74.626910112359568 62.100000000000001 2.5000000000000004 1.0000000180025095e-35 78.135000000000019 -0.98994109942595798 25.500000000000004 -0.38441749230002448 1.0000000180025095e-35 0.38243310158943505 82.65000000000002 6.5000000000000009 54.130000000000003 0.34133941183414723 1.0000000180025095e-35 51.660000000000004 -0.5129677127369543 65.485000000000014 0.71503381463111937 0.43926370306576018 4.7911988349423682 47.445000000000007 54.590000000000011 63.850000000000001 62.70000000000001 70.045000000000016 72.883571428571443 17.500000000000004 74.098616815187924
decision_type=2 2 2 2 2 2 2 2 2 2 2 2 2 2 2 2 2 2 2 2 2 2 2 2 2 2 2 2 2 2
left_child=2 7 3 -1 6 -3 -5 9 -9 10 -2 -7 13 17 -11 -4 25 -8 -19 -12 -18 -6 -23 26 -15 -14 -24 -21 29 -29
right_child=1 5 15 4 21 11 12 8 -10 14 19 -13 16 24 -16 -17 20 18 -20 27 -22 22 23 -25 -26 -27 -28 28 -30 -31
leaf_value=-0.82107635537783308 -0.1394469529390335 0.54525794166105768 -0.050337493685739379 -0.72839854738929066 0.20417498916387561 1.2955570321816661 -0.48587422911077738 -0.38901241719722734 0.22714834133783979 0.2960899943113327 0.42116805126792506 0.75395002798600641 -0.33895617996652927 0.18401861570098177 0.65184223581762879 0.2887508950299687 -0.61617788732051848 -0.31751689420026885 0.065974901616573337 0.3537747827668985 -0.32907943996159655 -0.34756147102876145 0.22428912660654851 -0.22015840599411415 -0.1115083654721578 -0.14371105241386786 -0.059584334492683411 -0.17099189487370572 0.30691983555085384 0.15866739869117738
leaf_weight=14.999999999999998 15.999999999999998 27 21 10.999999999999998 9.9999999999999982 13.000000000000002 15.999999999999998 11.000000000000002 14.999999999999998 20 19 10.999999999999998 48 11.000000000000002 17 18 20 17.000000000000004 9.9999999999999982 11.999999999999998 19 10.999999999999998 17.000000000000004 19 18 23 11.999999999999998 11.000000000000002 12.999999999999998 9.9999999999999982
leaf_count=15 16 27 21 11 10 13 16 11 15 20 19 11 48 11 17 18 20 17 10 12 19 11 17 19 18 23 12 11 13 10
internal_value=-7.38861e-10 0.357441 -0.220573 -0.266575 -0.234829 0.781523 -0.303931 0.207245 -0.0335351 0.260298 0.169285 1.04732 -0.278276 -0.173541 0.459544 0.106165 -0.34683 -0.290977 -0.175483 0.24528 -0.476309 -0.041544 -0.0831912 -0.0226064 0.000588076 -0.275708 0.106824 0.172631 0.108698 -0.0140113
internal_weight=511 195 316 277 262 51 193 144 26 118 81 24 182 72 37 39 110 43 27 65 39 69 59 48 29 71 29 46 34 21
internal_count=511 195 316 277 262 51 193 144 26 118 81 24 182 72 37 39 110 43 27 65 39 69 59 48 29 71 29 46 34 21
is_linear=0
shrinkage=0.05


Tree=6
num_leaves=31
num_cat=0
split_feature=25 22 17 26 19 10 15 7 28 6 12 29 22 14 29 22 22 15 4 14 7 21 4 6 26 15 30 22 26 19
split_gain=14772.5 4450.38 1192.8 1015.73 1157.68 932.955 693.122 687.101 742.706 656.064 785.247 978.574 879.237 636.775 600.97 556.92 504.55 472.705 452.399 424.553 410.184 587.762 380.793 331.064 364.734 326.775 318.573 263.351 284.385 257.658
threshold=71.798736263736274 75.825000000000003 -0.56174490092936669 10.515763141022722 59.320000000000007 0.15101559051660998 0.16375730385847256 1.0000000180025095e-35 12.861423371105575 1.5000000000000002 -0.8098839673871151 71.145505617977548 51.345000000000006 -0.82170904822926072 80.502415730337091 54.995000000000012 61.285000000000004 0.71952396275653763 25.500000000000004 -0.32003757145143863 1.0000000180025095e-35 51.295000000000009 13.500000000000002 16.500000000000004 6.9639199072143176 -0.33830597889949449 9.0639140263358531 54.130000000000003 9.4396464846272554 59.720000000000006
decision_type=2 2 2 2 2 2 2 2 2 2 2 2 2 2 2 2 2 2 2 2 2 2 2 2 2 2 2 2 2 2
left_child=2 5 3 13 -5 -2 14 8 17 -4 12 16 -11 -1 -3 -15 20 18 22 -18 23 -22 25 27 -25 -7 -14 28 -12 -29
right_child=1 6 9 4 -6 7 -8 -9 -10 10 11 -13 26 15 -16 -17 19 -19 -20 -21 21 -23 -24 24 -26 -27 -28 29 -30 -31
leaf_value=-0.63551757812499998 -0.24797179937362671 0.42401480515797929 0.25039844870567324 -0.27549498528242106 -1.0188171262090857 -0.11358860107985408 1.0425667720682481 0.44309190460613801 0.53759225927866428 -0.28220760566847669 -0.14543753484530106 -0.68816640794277195 0.38428850322961799 -0.28677358176973133 0.89873971094687788 0.084763770378552955 -0.18613798900707931 -0.15899229533970358 -0.088486329351480195 0.22628575242482701 -0.43513657233931807 -0.027416481905513341 0.34770875196246542 -0.62172870202497998 -0.29478875198646598 0.24042483195662501 0.034248253015371474 0.13422786770388481 -0.49454994685947895 -0.22469987273216249
leaf_weight=9.9999999999999982 9.9999999999999982 15.000000000000002 9.9999999999999982 10.000000000000002 10.999999999999998 11.000000000000002 17 35 12.999999999999998 13.999999999999998 14.000000000000002 9.9999999999999982 13.000000000000002 45 11.999999999999998 12.999999999999998 12.000000000000002 11.999999999999998 12.999999999999998 12.999999999999998 10.999999999999998 45 34 10.999999999999998 38 15.999999999999998 12.999999999999998 10.000000000000002 9.9999999999999982 9.9999999999999982
leaf_count=10 10 15 10 10 11 11 17 35 13 14 14 10 13 45 12 13 12 12 13 13 11 45 34 11 38 16 13 10 10 10
internal_value=-1.15e-09 0.352378 -0.205099 -0.360899 -0.664854 0.217905 0.792471 0.252672 0.185352 -0.145842 -0.163532 -0.20718 0.0372518 -0.26703 0.635004 -0.203498 -0.179537 0.132107 0.179312 0.0283224 -0.214413 -0.107504 0.236384 -0.278789 -0.368183 0.0961971 0.209268 -0.179235 -0.290901 -0.045236
internal_weight=511 188 323 89 21 144 44 134 99 234 224 184 40 68 27 58 174 86 74 25 149 56 61 93 49 27 26 44 24 20
internal_count=511 188 323 89 21 144 44 134 99 234 224 184 40 68 27 58 174 86 74 25 149 56 61 93 49 27 26 44 24 20
is_linear=0
shrinkage=0.05


Tree=7
num_leaves=31
num_cat=0
split_feature=25 22 17 13 10 14 24 3 28 6 12 29 19 28 18 22 15 13 3 12 14 25 12 6 26 22 28 20 20 15
split_gain=13332.2 4016.46 1076.5 1361.22 841.992 738.341 682.165 620.108 670.292 592.098 708.686 883.163 837.172 660.998 497.099 455.356 426.616 424.041 642.412 415.95 383.159 307.755 461.143 280.684 272.707 262.675 259.03 256.063 337.152 490.922
threshold=71.798736263736274 75.825000000000003 -0.56174490092936669 0.92273549546025413 0.15101559051660998 -0.91072037282037877 12.536956313227565 4.5000000000000009 12.861423371105575 1.5000000000000002 -0.8098839673871151 71.145505617977548 59.015000000000008 10.355416695529696 83.165000000000006 61.285000000000004 0.71952396275653763 0.85561368268953431 4.5000000000000009 -0.78326178756187226 -0.32003757145143863 77.223873626373646 0.84660111278280559 16.500000000000004 7.1386884504440813 63.895000000000003 8.6392609473991762 56.180000000000007 67.790000000000006 0.52948268293834722
decision_type=2 2 2 2 2 2 2 2 2 2 2 2 2 2 2 2 2 2 2 2 2 2 2 2 2 2 2 2 2 2
left_child=2 4 3 5 -2 -1 14 8 16 -4 12 15 -11 -14 -3 17 21 18 23 -7 -17 22 25 26 -25 -6 -12 -20 29 -29
right_child=1 6 9 -5 7 19 -8 -9 -10 10 11 -13 13 -15 -16 20 -18 -19 27 -21 -22 -23 -24 24 -26 -27 -28 28 -30 -31
leaf_value=-0.61770075101118826 -0.23557322978973391 0.41856906493504831 0.23787852346897129 -0.89246245503425614 0.42199602489886079 0.09159504666924477 1.056864333152771 0.42093731113842558 0.51071264560406027 -0.36080482661724095 -0.27210621116682887 -0.65375810518860822 0.4021518697341282 -0.067244126001993823 0.81922029014676812 -0.17683108821511265 -0.15104267882804079 -0.45580106933911646 0.17948357191952793 -0.25848593465717778 0.2149714625798739 -0.040743628995759146 -0.00085506009704926439 -0.57792213499546052 -0.27986782933726456 0.17423407599329949 -0.017008329314344071 -0.41070010077494834 0.14088331853801556 0.0090955603122711195
leaf_weight=12.999999999999998 9.9999999999999982 15.000000000000002 9.9999999999999982 9.9999999999999982 23 9.9999999999999982 12.999999999999998 35 12.999999999999998 9.9999999999999982 24 9.9999999999999982 15.000000000000002 14.999999999999998 15.999999999999998 12.000000000000002 11.999999999999998 14.999999999999998 10.999999999999998 56 12.999999999999998 13.999999999999998 17 9.9999999999999982 33 20 17 13.000000000000002 10.999999999999998 14.999999999999998
leaf_count=13 10 15 10 10 23 10 13 35 13 10 24 10 15 15 16 12 12 15 11 56 13 14 17 10 33 20 17 13 11 15
internal_value=-1.25975e-09 0.334759 -0.194844 -0.342854 0.20701 -0.273283 0.752848 0.240039 0.176085 -0.13855 -0.155355 -0.196821 0.0353892 0.167454 0.625357 -0.170561 0.125502 -0.203693 -0.175472 -0.205443 0.0269062 0.170347 0.219601 -0.259935 -0.349183 0.306758 -0.166334 -0.0335726 -0.0936654 -0.18581
internal_weight=511 188 323 89 144 79 44 134 99 234 224 184 40 30 31 174 86 149 134 66 25 74 60 84 43 43 41 50 39 28
internal_count=511 188 323 89 144 79 44 134 99 234 224 184 40 30 31 174 86 149 134 66 25 74 60 84 43 43 41 50 39 28
is_linear=0
shrinkage=0.05


Tree=8
num_leaves=31
num_cat=0
split_feature=25 22 17 24 5 24 13 24 18 22 22 18 14 3 28 18 25 3 27 28 22 24 21 11 24 22 29 10 5 17
split_gain=12032.3 3624.86 971.544 1282.25 759.898 615.654 602.219 576.019 672.616 1229.72 1054.14 777.178 622.143 559.648 604.939 448.631 336.702 319.676 314.12 279.651 248.512 354.585 446.641 379.796 245.918 240.235 273.911 267.434 231.932 369.84
threshold=71.798736263736274 75.825000000000003 -0.56174490092936669 12.226720707397439 173.50000000000003 12.536956313227565 -0.94703994556331683 13.466619332651941 75.370000000000019 58.195000000000007 58.475000000000009 65.670000000000016 -0.022576145604933043 4.5000000000000009 12.861423371105575 83.165000000000006 64.811813186813211 4.5000000000000009 65.173166666666688 8.6392609473991762 54.000000000000007 7.5235909624130377 67.155000000000015 -0.70900320270980455 7.3409785944174404 51.895000000000003 62.31622222222223 -0.21861968191509915 267.50000000000006 1.0000000180025095e-35
decision_type=2 2 2 2 2 2 2 2 2 2 2 2 2 2 2 2 2 2 2 2 2 2 2 2 2 2 2 2 2 2
left_child=2 4 3 6 13 15 -1 8 10 -10 11 18 24 14 20 -3 25 -13 28 -14 -2 22 -22 -23 -12 26 -8 -27 29 -4
right_child=1 5 7 -5 -6 -7 16 -9 9 -11 12 17 19 -15 -16 -17 -18 -19 -20 -21 21 23 -24 -25 -26 27 -28 -29 -30 -31
leaf_value=-0.6208140671253205 0.3535419523715973 0.39764061053593946 -0.035665370881557461 -0.85913880899548534 -0.22379457950592041 1.0040211530832144 -0.50577612876892086 0.15794394947588444 -0.073351858097773323 -0.79166046272624624 0.041705784488182795 -0.18600462019443512 0.11797513152871811 0.39989044645002914 0.48517700708829442 0.77825928842648873 0.0039310705661773681 0.070393033157433241 -0.51097714900970459 0.4641691541671753 0.0065231894453366586 0.22832485692841678 0.4157790275414785 -0.079813049515443171 -0.2880996358394623 -0.3187840873003005 -0.21647499700387321 0.03848172155293552 -0.35499535309416907 -0.29414127780304805
leaf_weight=9.9999999999999982 9.9999999999999982 15.000000000000002 25 9.9999999999999982 9.9999999999999982 12.999999999999998 14.999999999999998 15.999999999999998 13.000000000000002 10.999999999999998 13.000000000000002 20 14.000000000000002 35 12.999999999999998 15.999999999999998 14.999999999999998 31 11.999999999999998 9.9999999999999982 12.000000000000002 13.999999999999991 14.999999999999998 35.000000000000007 9.9999999999999982 10.000000000000002 18 10.999999999999998 28 31
leaf_count=10 10 15 25 10 10 13 15 16 13 11 13 20 14 35 13 16 15 31 12 10 12 14 15 35 10 10 18 11 28 31
internal_value=-2.38025e-10 0.318021 -0.185102 -0.325711 0.19666 0.715205 -0.258189 -0.131623 -0.152875 -0.402577 -0.121985 -0.187888 0.0841388 0.228037 0.167281 0.594089 -0.205634 -0.0301551 -0.271683 0.262223 0.119226 0.0883955 0.233888 0.00822635 -0.101688 -0.263847 -0.347976 -0.131645 -0.237499 -0.17875
internal_weight=511 188 323 89 144 44 79 234 218 24 194 147 47 134 99 31 69 51 96 24 86 76 27 49 23 54 33 21 84 56
internal_count=511 188 323 89 144 44 79 234 218 24 194 147 47 134 99 31 69 51 96 24 86 76 27 49 23 54 33 21 84 56
is_linear=0
shrinkage=0.05


Tree=9
num_leaves=31
num_cat=0
split_feature=25 22 18 27 11 12 30 10 30 18 24 22 16 23 0 18 16 4 25 12 16 24 28 23 4 27 24 27 25 12
split_gain=10859.2 3271.44 883.061 1679.65 1867.65 713.705 819.533 685.808 643.862 1235.87 555.627 547.527 505.082 554.877 478.007 404.89 390.931 382.932 374.186 356.507 299.064 277.757 275.992 263.608 255.267 381.109 294.886 236.593 204.815 194.572
threshold=71.798736263736274 75.825000000000003 60.990000000000002 63.628275862068968 -0.039769286347669845 -0.86976336936302323 9.0109808101077089 0.15101559051660998 8.5634786572511263 71.015000000000015 12.536956313227565 55.70000000000001 -0.60785761079279388 78.823571428571441 2023.5000000000002 83.165000000000006 -0.60785761079279388 25.500000000000004 62.18571428571429 -0.51297808981038739 -1.0000000180025095e-35 8.626932350148703 7.5936335793825451 60.42642857142858 8.5000000000000018 62.785333333333334 10.144713085100433 64.154310344827607 63.384642857142872 0.61746692340271048
decision_type=2 2 2 2 2 2 2 2 2 2 2 2 2 2 2 2 2 2 2 2 2 2 2 2 2 2 2 2 2 2
left_child=2 7 3 11 27 6 -4 -2 9 20 15 24 29 17 16 -3 18 19 -10 -14 -7 -21 -18 -24 26 -26 -1 -5 -25 -9
right_child=1 10 5 4 -6 8 -8 12 14 -11 -12 -13 13 -15 -16 -17 22 -19 -20 21 -22 -23 23 28 25 -27 -28 -29 -30 -31
leaf_value=-0.50487101301550863 -0.21260485112667085 0.37775858044624322 0.46638180478052649 -0.095858415365219093 -1.0174279349190849 0.040646567711463334 -0.094251185283064851 0.459707760065794 0.18569355975179114 -0.73970701595147448 0.95382010203141443 0.0021959839206829204 -0.030070790958901247 0.3681714098900557 0.23173731511289422 0.73934632502496245 -0.43267508089542395 -0.18056230456991629 -0.12985872267967177 0.31908685851980145 -0.27407391381760443 0.056184359639883046 0.084940800070762643 -0.28406749152474936 -0.2583209353685379 0.068205858270327255 -0.16857450306415558 -0.43189314668151468 -0.058309688325971366 0.20576101873408664
leaf_weight=16.000000000000004 9.9999999999999982 15.000000000000002 11.000000000000002 10.000000000000002 13.999999999999998 13.000000000000002 15.999999999999998 24 17 11.999999999999998 12.999999999999998 32 21 24 10.999999999999998 15.999999999999998 9.9999999999999982 10.999999999999998 21 27 18 15.999999999999998 9.9999999999999982 27 35 11.999999999999998 10.999999999999998 10.999999999999998 15.999999999999998 10.999999999999998
leaf_count=16 10 15 11 10 14 13 16 24 17 12 13 32 21 24 11 16 10 11 21 27 18 16 10 27 35 12 11 11 16 11
internal_value=-4.47664e-10 0.30212 -0.175847 -0.269774 -0.570097 -0.10308 0.134155 0.186827 -0.144404 -0.30887 0.679445 -0.170611 0.216635 0.158917 -0.0812612 0.564385 -0.11535 0.091955 0.0113094 0.138794 -0.142094 0.221263 -0.191748 -0.14629 -0.245338 -0.174952 -0.367861 -0.271877 -0.200065 0.379896
internal_weight=511 188 323 141 35 182 27 144 155 43 44 106 134 99 112 31 101 75 38 64 31 43 63 53 74 47 27 21 43 35
internal_count=511 188 323 141 35 182 27 144 155 43 44 106 134 99 112 31 101 75 38 64 31 43 63 53 74 47 27 21 43 35
is_linear=0
shrinkage=0.05


Tree=10
num_leaves=31
num_cat=0
split_feature=25 29 25 22 17 11 3 3 14 20 3 15 29 22 23 27 18 20 26 26 22 25 10 20 27 10 23 30 23 23
split_gain=9800.39 2995.88 849.298 878.335 840.973 1135.98 769.434 613.018 589.859 550.104 791.15 671.894 794.337 1053.93 683.618 534.52 488.779 459.582 392.114 454.158 295.581 293.335 302.013 245.587 237.946 231.703 311.714 244.868 224.253 219
threshold=71.798736263736274 74.626910112359568 88.253571428571448 78.135000000000019 -0.56174490092936669 0.97461712852231652 4.5000000000000009 3.5000000000000004 -0.91072037282037877 47.340000000000011 5.5000000000000009 0.98484943023723581 69.26653041456801 51.140000000000008 69.709285714285741 60.317000000000007 89.535000000000011 60.32500000000001 6.971523336539506 8.2203173925774724 54.995000000000012 76.785384615384615 0.73865729060996177 57.605000000000011 63.067000000000007 -0.95500086777008153 61.55142857142858 10.209897055927657 63.250000000000007 61.964285714285722
decision_type=2 2 2 2 2 2 2 2 2 2 2 2 2 2 2 2 2 2 2 2 2 2 2 2 2 2 2 2 2 2
left_child=4 6 3 -3 5 8 7 18 -1 -6 11 12 14 -14 15 -11 -4 29 -2 -20 23 22 -8 -10 -25 -17 27 -27 -28 -12
right_child=1 2 16 -5 9 -7 21 -9 20 10 17 -13 13 -15 -16 25 -18 -19 19 -21 -22 -23 -24 24 -26 26 28 -29 -30 -31
leaf_value=-0.54216395834317577 0.41409050052364665 0.52361613368758775 0.13529889702796932 1.1048398618514721 -0.48013306975364689 -0.79995517611503608 0.62222849726676932 -0.16553628805436588 -0.092472481396463191 0.12590040819985526 0.08990692376558268 0.18655289422188487 -0.090122383683919879 -0.79935536376327621 0.21329689071728636 -0.36596417062812381 0.58658374746640518 -0.11633294941857458 -0.17485614319642384 0.16520585875820232 -0.00089296350876490269 0.1152356142550707 0.29839914275540247 -0.44922437808092897 -0.16505718322900625 0.12011393606662749 -0.36623033031821256 -0.18768583536148073 -0.1711844464830522 0.38099475428462032
leaf_weight=12.999999999999998 11.999999999999998 13.000000000000002 10.000000000000002 12.999999999999998 9.9999999999999982 9.9999999999999982 12.000000000000002 19 18 13.999999999999998 14.000000000000002 13.999999999999998 10.000000000000002 10.999999999999998 12.999999999999998 18 14.999999999999998 15.999999999999998 11.999999999999998 54 18 9.9999999999999982 18 17.000000000000004 12.999999999999998 14.000000000000002 20 11.999999999999998 56 11.999999999999998
leaf_count=13 12 13 10 13 10 10 12 19 18 14 14 14 10 11 13 18 15 16 12 54 18 10 18 17 13 14 20 12 56 12
internal_value=-1.12529e-09 0.287014 0.61415 0.814228 -0.167055 -0.297874 0.165234 0.0891416 -0.23432 -0.117299 -0.101101 -0.146241 -0.173974 -0.461625 -0.132881 -0.166465 0.40607 0.0945073 0.151179 0.103376 -0.173684 0.349757 0.427931 -0.23848 -0.326085 -0.200574 -0.171388 -0.0219475 -0.222512 0.224255
internal_weight=511 188 51 26 323 89 137 97 79 234 224 182 168 21 147 134 25 42 78 66 66 40 30 48 30 120 102 26 76 26
internal_count=511 188 51 26 323 89 137 97 79 234 224 182 168 21 147 134 25 42 78 66 66 40 30 48 30 120 102 26 76 26
is_linear=0
shrinkage=0.05


Tree=11
num_leaves=31
num_cat=0
split_feature=25 22 17 24 5 15 20 3 15 24 18 18 12 20 20 3 28 22 1 15 4 1 15 22 15 4 28 15 19 20
split_gain=8844.85 2703.68 758.978 1110.35 622.676 496.905 496.469 714.013 606.384 558.425 616.698 558.665 500.294 453.761 414.773 407.598 469.881 360.072 651.845 329.07 330.04 327.854 385.791 324.508 317.11 313.388 299.065 293.578 232.443 209.909
threshold=71.798736263736274 75.825000000000003 -0.56174490092936669 12.226720707397439 173.50000000000003 0.16375730385847256 47.340000000000011 5.5000000000000009 0.98484943023723581 13.466619332651941 74.060000000000016 65.670000000000016 -0.083761810613583024 69.905000000000015 60.32500000000001 4.5000000000000009 12.861423371105575 51.345000000000006 7.5000000000000009 0.71952396275653763 25.500000000000004 3.5000000000000004 0.38043945030393422 46.855000000000011 -0.25205717733713345 13.500000000000002 9.2598056344056037 -0.33830597889949449 60.110000000000007 67.285000000000011
decision_type=2 2 2 2 2 2 2 2 2 2 2 2 2 2 2 2 2 2 2 2 2 2 2 2 2 2 2 2 2 2
left_child=2 4 3 13 15 24 -4 8 9 10 11 21 -13 17 -9 16 19 -1 -19 20 25 26 23 -23 -3 27 -8 -2 -24 -14
right_child=1 5 6 -5 -6 -7 7 14 -10 -11 -12 12 29 -15 -16 -17 -18 18 -20 -21 -22 22 28 -25 -26 -27 -28 -29 -30 -31
leaf_value=-0.24629180348263335 -0.13583511967550621 0.61378089750514297 -0.45612641632556916 -0.77936481952667247 -0.2127520263195038 0.82744417646351998 -0.23738871653165133 0.21304239657922436 0.17722524372594697 0.17911564111709596 -0.46478131322397132 0.23117921670277913 -0.25309319019317622 -0.44074370827939779 -0.11051630023866893 0.34291585773229599 0.42457552643922664 0.30482880324125283 -0.24176255762577059 -0.14082685296113293 -0.087295692929854771 -0.17174365392753058 -0.29230946029225974 -0.46486954786654178 0.25894096925854687 0.29117718566866485 0.08942765295505524 0.1997147522866726 0.0029293231666088107 0.034467646750536839
leaf_weight=39 11.000000000000002 17.000000000000004 9.9999999999999982 9.9999999999999982 9.9999999999999982 17 14.000000000000002 26 13.999999999999998 10.999999999999998 18 14.999999999999998 15.000000000000002 18 15.999999999999998 35 12.999999999999998 10.000000000000002 11.999999999999998 11.999999999999998 12.999999999999998 13.999999999999998 12.000000000000002 29 9.9999999999999982 34 13.999999999999998 15.999999999999998 14.999999999999998 10.999999999999998
leaf_count=39 11 17 10 10 10 17 14 26 14 11 18 15 15 18 16 35 13 10 12 12 13 14 12 29 10 34 14 16 15 11
internal_value=-1.02865e-09 0.272664 -0.158702 -0.282981 0.167851 0.615687 -0.111434 -0.0960456 -0.138929 -0.165275 -0.189404 -0.153744 0.00123011 -0.220147 0.0897819 0.196254 0.144404 -0.155053 0.00668806 0.102052 0.141438 -0.21858 -0.27642 -0.369433 0.482359 0.190185 -0.0739805 0.0630092 -0.128288 -0.131433
internal_weight=511 188 323 89 144 44 234 224 182 168 157 139 41 79 42 134 99 61 22 86 74 98 70 43 27 61 28 27 27 26
internal_count=511 188 323 89 144 44 234 224 182 168 157 139 41 79 42 134 99 61 22 86 74 98 70 43 27 61 28 27 27 26
is_linear=0
shrinkage=0.05


Tree=12
num_leaves=31
num_cat=0
split_feature=23 29 22 6 3 22 30 3 21 14 22 14 30 28 15 20 14 26 18 30 24 22 22 10 12 21 26 19 19 26
split_gain=7873.36 2619.07 1154.64 1552.08 766.618 692.805 594.982 774.517 755.537 586.632 546.985 523.277 382.536 353.826 340.266 321.822 316.299 289.451 283.207 271.133 232.96 274.697 383.198 227.217 223.411 292.906 240.084 199.095 178.237 165.076
threshold=70.560000000000016 74.626910112359568 62.100000000000001 2.5000000000000004 4.5000000000000009 78.135000000000019 8.7933334650231796 4.5000000000000009 59.595000000000006 -0.98994109942595798 82.705000000000013 0.76070426302234284 10.317741524308461 6.7835240462830306 0.52948268293834722 81.785000000000011 -0.022576145604933043 8.5407091260929366 83.165000000000006 8.2411052868148094 4.7911988349423682 47.445000000000007 54.590000000000011 0.78325454425165997 0.91593490216309192 80.890000000000001 9.7810477739539792 83.105000000000018 70.045000000000016 10.515763141022722
decision_type=2 2 2 2 2 2 2 2 2 2 2 2 2 2 2 2 2 2 2 2 2 2 2 2 2 2 2 2 2 2
left_child=2 6 3 -1 9 27 -2 8 11 -5 -7 -8 16 -11 17 18 -4 -9 23 -15 -6 -22 28 -10 25 29 -26 -3 -23 -21
right_child=1 5 12 4 20 10 7 14 15 13 -12 -13 -14 19 -16 -17 -18 -19 -20 24 21 22 -24 -25 26 -27 -28 -29 -30 -31
leaf_value=-0.68468080004056298 -0.18183875929277679 0.52490546428240259 0.030513845458626739 -0.56743691699071375 0.20448157399892808 0.99191501488288214 -0.43500068873167025 0.42729664564132686 0.17244194000959398 0.050074719078838828 0.51451538701852162 0.076505341529846199 -0.077597702601376717 -0.39491675636834572 0.60876928806304942 0.39351754979445386 0.41126365661621095 0.11667821397384009 0.34665259014476435 -0.10659523980294386 -0.28186916926537048 0.21364262665019315 -0.17938789403752278 -0.047480869552363525 -0.47486228667772723 -0.40865570794452322 -0.16472103546063108 0.25316963706697737 -0.038039659584561986 -0.25200690212845805
leaf_weight=14.999999999999998 12.999999999999998 13.000000000000002 10.000000000000002 10.999999999999998 9.9999999999999982 12.000000000000002 10.000000000000002 15.000000000000002 24 13.999999999999998 11.999999999999998 9.9999999999999982 17 18 9.9999999999999982 12.999999999999998 11.999999999999998 14.999999999999998 10.999999999999998 89 10.999999999999998 17.000000000000004 19 23 13.000000000000002 10.999999999999998 11.999999999999998 13.999999999999998 11.999999999999998 25
leaf_count=15 13 13 10 11 10 12 10 15 24 14 12 10 17 18 10 13 12 15 11 89 11 17 19 23 13 11 12 14 12 25
internal_value=-8.2926e-11 0.249842 -0.154175 -0.190037 -0.161718 0.557751 0.140791 0.172808 0.0922033 -0.212857 0.753215 -0.179248 0.100542 -0.191427 0.356183 0.168668 0.238196 0.271987 0.118271 -0.211552 -0.0186763 -0.0564997 -0.00485253 0.0648201 -0.189548 -0.162259 -0.325994 0.384005 0.109498 -0.138484
internal_weight=511 195 316 277 262 51 144 131 91 193 24 20 39 182 40 71 22 30 58 168 69 59 48 47 150 125 25 27 29 114
internal_count=511 195 316 277 262 51 144 131 91 193 24 20 39 182 40 71 22 30 58 168 69 59 48 47 150 125 25 27 29 114
is_linear=0
shrinkage=0.05


Tree=13
num_leaves=31
num_cat=0
split_feature=25 29 25 22 12 14 25 15 21 12 22 5 0 16 30 19 14 10 15 22 26 25 11 15 25 30 28 22 19 17
split_gain=7258.92 2239.68 759.81 733.953 714.546 967.476 811.623 2710.14 815.166 1143.04 690.137 639.263 449.638 435.704 414.626 398.205 374.993 364.002 344.083 301.798 286.628 280.409 271.256 259.05 282.615 318.561 363.379 282.175 224.237 217.536
threshold=71.798736263736274 74.626910112359568 89.714285714285737 78.135000000000019 -0.8098839673871151 1.0000000180025095e-35 63.034285714285723 0.9635202313707022 55.425000000000004 0.59866263443171663 53.540000000000006 173.50000000000003 2023.5000000000002 -0.8783796973249266 10.317741524308461 72.000000000000014 0.7036627660344027 0.9193901325473397 0.38043945030393422 74.120000000000019 10.621554948020927 61.761428571428581 -0.082691941062253513 0.75438814418115718 77.508571428571443 11.671898024493427 10.76544078922876 64.085000000000022 57.465000000000011 -0.22252093395631442
decision_type=2 2 2 2 2 2 2 2 2 2 2 2 2 2 2 2 2 2 2 2 2 2 2 2 2 2 2 2 2 2
left_child=4 11 3 -3 5 15 10 8 9 -8 18 13 17 -2 16 20 21 22 29 23 -1 -12 -10 24 25 26 27 -15 -20 -6
right_child=1 2 -4 -5 6 -7 7 -9 12 -11 14 -13 -14 19 -16 -17 -18 -19 28 -21 -22 -23 -24 -25 -26 -27 -28 -29 -30 -31
leaf_value=-0.057935832738876328 0.40760274529457097 0.4502362342257249 0.24442584607750178 0.90985894650220878 -0.17003246545791628 0.36409604112307231 -0.86577368617057771 -1.0652034354209901 -0.19630939829349522 -0.1658645244581359 0.38106409483231024 -0.24318648815155031 0.17200879562984817 0.28790787512605842 -0.16821973010113367 0.16070307910442352 -0.12507373671978714 -0.051025368181581147 -0.20966256541364336 0.37229240487019222 -0.37870375731816663 0.076317594572901729 -0.50443205714225747 -0.11098868356396754 -0.077785079983564528 -0.014320455316235037 0.46444295300887184 0.031670672269094556 0.032117312943393532 -0.36541928781994754
leaf_weight=15.000000000000002 17 19 15.999999999999998 15.999999999999998 29 14.999999999999998 10.000000000000002 9.9999999999999982 24.999999999999996 13.999999999999998 13.000000000000002 9.9999999999999982 10.999999999999998 22 19 9.9999999999999982 11.999999999999998 32 17 11.999999999999998 12.999999999999998 18 10.000000000000002 11.999999999999998 12.999999999999998 17 12.999999999999998 21 22 28
leaf_count=15 17 19 16 16 29 15 10 10 25 14 13 10 11 22 19 10 12 32 17 12 13 18 10 12 13 17 13 21 22 28
internal_value=-1.0805e-09 0.247012 0.529864 0.660349 -0.143772 0.0240809 -0.17672 -0.279684 -0.202673 -0.457493 -0.103733 0.141717 -0.124266 0.172024 0.0262982 -0.110136 0.112248 -0.172908 -0.187712 0.135616 -0.206864 0.204115 -0.284344 0.106636 0.137002 0.175252 0.2328 0.162769 -0.0732739 -0.266012
internal_weight=511 188 51 35 323 53 270 112 102 24 158 137 78 127 62 38 43 67 96 110 28 31 35 98 86 73 56 43 39 57
internal_count=511 188 51 35 323 53 270 112 102 24 158 137 78 127 62 38 43 67 96 110 28 31 35 98 86 73 56 43 39 57
is_linear=0
shrinkage=0.05


Tree=14
num_leaves=31
num_cat=0
split_feature=25 22 12 14 25 22 26 22 18 4 20 5 10 28 14 30 16 16 25 13 16 12 16 25 25 26 22 4 24 22
split_gain=6551.17 2037.61 644.878 873.147 732.49 1943.23 1169.56 622.849 597.533 586.049 544.035 540.358 427.515 415.875 381.281 374.2 369.684 367.273 357.929 350.135 335.914 327.828 283.394 321.109 316.585 241.673 286.718 318.937 197.808 182.89
threshold=71.798736263736274 78.135000000000019 -0.8098839673871151 1.0000000180025095e-35 63.034285714285723 60.120000000000005 9.4276760625427887 53.540000000000006 61.400000000000006 9.5000000000000018 77.375000000000014 173.50000000000003 0.26866988313759588 12.861423371105575 0.59868754826434312 10.317741524308461 1.0000000180025095e-35 -0.8783796973249266 65.483214285714311 -0.80417042486635371 0.6078576107927941 -0.93545056548590078 -0.8783796973249266 62.67107142857143 58.703928571428584 6.971523336539506 54.000000000000007 25.500000000000004 6.4062669997457453 63.895000000000003
decision_type=2 2 2 2 2 2 2 2 2 2 2 2 2 2 2 2 2 2 2 2 2 2 2 2 2 2 2 2 2 2
left_child=2 11 3 16 7 8 -7 22 9 -6 -3 12 -2 17 -12 19 21 -14 -10 -9 -11 -1 -4 24 -24 -19 -27 29 -26 -28
right_child=1 10 4 -5 5 6 -8 15 18 20 14 -13 13 -15 -16 -17 -18 25 -20 -21 -22 -23 23 -25 28 26 27 -29 -30 -31
leaf_value=0.20204626402507225 0.49867382287979134 0.89929444380104551 0.013767930492758752 0.34589123646418257 -0.65506364762783054 -1.090597364902496 -0.34346950243819846 -0.15254991821944716 -0.1324482077408744 0.0030052843418988309 0.65245481332143129 -0.19678272545337677 0.36204823681286408 0.36432766999517169 0.24491549676114863 -0.15980874519599111 -0.29774189611275992 0.25451692806349863 0.17418068150679272 0.18517669592842911 -0.37952057023843133 -0.17584766704927787 -0.018015899983319369 0.00075446633355958129 -0.14141813562466549 0.30307075288146734 0.16095779575407507 -0.19684104067938668 -0.36460915924537751 -0.016722465604543685
leaf_weight=11.999999999999998 9.9999999999999982 9.9999999999999982 15.999999999999998 14.999999999999998 9.9999999999999982 10.000000000000002 10.999999999999998 9.9999999999999982 46 11.000000000000002 12.000000000000002 9.9999999999999982 13.999999999999998 21 10.999999999999998 19 14.999999999999998 18 11.999999999999998 33 11.999999999999998 11.000000000000002 10.999999999999998 13.999999999999998 12.999999999999998 9.9999999999999982 28 13.999999999999998 42 30
leaf_count=12 10 10 16 15 10 10 11 10 46 11 12 10 14 21 11 19 15 18 12 33 12 11 11 14 13 10 28 14 42 30
internal_value=-2.34744e-10 0.234661 -0.136583 0.0228768 -0.167884 -0.2657 -0.699245 -0.0985467 -0.165651 -0.33551 0.591408 0.158709 0.183225 0.159859 0.457545 0.0249833 -0.104629 0.122193 -0.0690077 0.106636 -0.196573 0.0213144 -0.178327 -0.216745 -0.262882 0.0886138 0.0521961 0.0173524 -0.311855 0.0690542
internal_weight=511 188 323 53 270 112 21 158 91 33 33 155 145 135 23 62 38 114 58 43 23 23 96 80 66 100 82 72 55 58
internal_count=511 188 323 53 270 112 21 158 91 33 33 155 145 135 23 62 38 114 58 43 23 23 96 80 66 100 82 72 55 58
is_linear=0
shrinkage=0.05


Tree=15
num_leaves=31
num_cat=0
split_feature=25 29 25 22 18 27 5 5 30 28 30 3 24 3 22 30 22 1 10 28 14 15 22 27 20 20 19 14 20 25
split_gain=5912.43 1869.87 684.023 611.776 604.294 1332.33 1739.49 535.103 498.457 1140.86 485.472 535.19 525.656 360.993 319.894 297.347 282.198 257.123 249.669 266.599 232.139 226.086 247.431 333.814 211.407 192.124 182.183 175.695 162.189 218.877
threshold=71.798736263736274 74.626910112359568 89.714285714285737 78.135000000000019 60.990000000000002 63.628275862068968 104.50000000000001 173.50000000000003 8.5634786572511263 8.7847312274698233 9.0109808101077089 5.5000000000000009 6.166235759594163 4.5000000000000009 48.915000000000006 9.9159418784668798 74.120000000000019 7.5000000000000009 -0.94705910369513524 7.0891256106167164 -0.23328733056122777 0.71952396275653763 63.895000000000003 75.307333333333347 68.080000000000027 65.485000000000014 65.920000000000016 -0.91854222108504013 76.875000000000014 62.40607142857143
decision_type=2 2 2 2 2 2 2 2 2 2 2 2 2 2 2 2 2 2 2 2 2 2 2 2 2 2 2 2 2 2
left_child=4 7 3 -3 5 14 -7 13 9 18 12 27 -10 16 -1 -8 21 25 -6 -20 -13 22 23 -2 -24 -16 -19 -12 29 -29
right_child=1 2 -4 -5 8 6 15 -9 10 -11 11 20 -14 -15 17 -17 -18 26 19 -21 -22 -23 24 -25 -26 -27 -28 28 -30 -31
leaf_value=-0.24025654689305359 0.2969705545306206 0.41335344879250785 0.21054739933460953 0.83298063278198242 -0.28792614467442035 -1.032266153395176 -0.072516277929147069 -0.22543420255184177 -0.0059289237484335885 -0.68556020649615679 -0.32241121590137484 0.0098480725927012278 0.45618352413177493 0.28847177500526111 0.12993194467642091 -0.4176676151844172 0.3520183697342873 -0.21486664281951057 -0.17172623689879066 0.16272807396375216 0.32526531398296354 -0.12982014839847883 -0.18549636498093605 -0.033556451580741185 0.089877335403276526 -0.12599170207977295 0.03496245622634888 0.0075444275885820401 0.069286944965521499 -0.19058444775317029
leaf_weight=36 25 19 15.999999999999998 15.999999999999998 9.9999999999999982 9.9999999999999982 12.000000000000002 9.9999999999999982 16.000000000000004 9.9999999999999982 9.9999999999999982 14.000000000000002 9.9999999999999982 36 22 12.999999999999998 9.9999999999999982 27 11.000000000000002 12.999999999999998 9.9999999999999982 11.999999999999998 9.9999999999999982 10.999999999999998 23 10.999999999999998 9.9999999999999982 20 11.999999999999998 46
leaf_count=36 25 19 16 16 10 10 12 10 16 10 10 14 10 36 22 13 10 27 11 13 10 12 10 11 23 11 10 20 12 46
internal_value=1.97838e-10 0.222928 0.481376 0.605183 -0.129754 -0.207454 -0.47493 0.126718 -0.069558 -0.2161 -0.0228345 -0.0680191 0.171807 0.154446 -0.119136 -0.251995 0.101425 -0.0568454 -0.0780231 0.00943651 0.141272 0.0704879 0.105324 0.195976 0.00643076 0.0446241 -0.147345 -0.125098 -0.099802 -0.130545
internal_weight=511 188 51 35 323 141 35 137 182 44 138 112 26 127 106 25 91 70 34 24 24 81 69 36 33 33 37 88 78 66
internal_count=511 188 51 35 323 141 35 137 182 44 138 112 26 127 106 25 91 70 34 24 24 81 69 36 33 33 37 88 78 66
is_linear=0
shrinkage=0.05


Tree=16
num_leaves=31
num_cat=0
split_feature=25 29 25 12 22 15 15 23 16 10 3 18 14 14 27 22 27 15 12 22 0 20 20 29 24 10 15 27 24 24
split_gain=5335.97 1687.56 617.33 577.727 552.128 508.752 2040.32 656.644 489.316 402.531 353.616 625.124 540.48 340.54 237.712 230.984 259.465 263.63 260.279 276.892 236.269 210.525 357.39 157.323 168.546 152.155 221.863 216.114 295.278 312.262
threshold=71.798736263736274 74.626910112359568 89.714285714285737 -0.98803388382128665 78.135000000000019 0.98484943023723581 0.9635202313707022 69.709285714285741 -0.8783796973249266 0.1849296026015865 4.5000000000000009 75.730000000000018 -0.98994109942595798 -0.022576145604933043 59.82800000000001 74.120000000000019 75.307333333333347 0.76696511442552651 0.55120426863728689 63.895000000000003 2023.5000000000002 70.370000000000019 63.025000000000006 61.620666666666672 7.6268667374543533 0.91248814248966237 0.73284289760867061 61.244166666666672 6.4527751927413535 10.787772645684294
decision_type=2 2 2 2 2 2 2 2 2 2 2 2 2 2 2 2 2 2 2 2 2 2 2 2 2 2 2 2 2 2
left_child=3 8 4 -1 -3 6 7 10 -2 -10 12 21 -5 -7 -14 16 17 18 -11 -20 -18 22 23 -12 -25 26 27 -16 -29 -30
right_child=1 2 -4 5 -6 13 -8 -9 9 15 11 -13 14 -15 25 -17 20 -19 19 -21 -22 -23 -24 24 -26 -27 -28 28 29 -31
leaf_value=0.25084618210792542 0.35586979844068228 0.3926857766352202 0.20002002753317358 -0.5190950269048864 0.79133160710334782 -0.13473727364431726 -0.74310757347515655 0.20931810715368818 -0.22102302312850952 0.28015780212550329 -0.091105201343695319 -0.38019445827230813 0.047959471895144538 0.23153064052263894 -0.40119982878367105 0.31738570878903072 0.078820621738067032 -0.09473020041530783 0.20705283482869469 -0.083818007310231535 -0.24444926857948299 0.21245316402478653 -0.23377529412508011 0.018638022776160917 0.28740198105573656 -0.068376053816505841 -0.047478142167840687 -0.063681816643682027 -0.32339813027550313 -0.088246415182948124
leaf_weight=9.9999999999999982 19 19 15.999999999999998 10.999999999999998 15.999999999999998 11.000000000000002 13.999999999999998 13.999999999999998 9.9999999999999982 29 11.999999999999998 11.999999999999998 12.999999999999998 14.999999999999998 14.999999999999998 11.999999999999998 13 10.999999999999998 18 14.999999999999998 10 10.999999999999998 14.999999999999998 14.000000000000002 9.9999999999999982 28 21 29 48 20
leaf_count=10 19 19 16 11 16 11 14 14 10 29 12 12 13 15 15 12 13 11 18 15 10 11 15 14 10 28 21 29 48 20
internal_value=-2.00207e-10 0.211782 0.457307 -0.123266 0.574924 -0.135219 -0.154405 -0.124215 0.120382 0.0824644 -0.142244 -0.0498688 -0.179194 0.0765711 -0.157706 0.110565 0.0847125 0.130852 0.170875 0.0748388 -0.0617315 0.0140652 -0.0287243 0.0567136 0.130623 -0.174313 -0.196615 -0.224579 -0.197266 -0.254236
internal_weight=511 188 51 323 35 313 287 273 137 118 259 74 185 26 174 108 96 73 62 33 23 62 51 36 24 161 133 112 97 68
internal_count=511 188 51 323 35 313 287 273 137 118 259 74 185 26 174 108 96 73 62 33 23 62 51 36 24 161 133 112 97 68
is_linear=0
shrinkage=0.05


Tree=17
num_leaves=31
num_cat=0
split_feature=25 22 18 27 23 24 30 28 30 24 3 11 13 28 24 23 22 25 28 26 14 28 13 14 28 27 13 24 26 21
split_gain=4817.5 1507.19 536.94 1190.41 1517.19 474.843 439.244 1020.25 424.03 468.054 444.853 422.023 375.571 317.628 364.618 293.72 273.427 256.55 226.08 350.638 218.872 235.547 214.999 213.331 193.017 179.83 179.607 125.444 315.084 235.032
threshold=72.087967032967057 78.135000000000019 60.990000000000002 63.628275862068968 64.925238095238115 12.787941956040745 8.5634786572511263 8.7847312274698233 9.0109808101077089 6.166235759594163 5.5000000000000009 -0.98667386918526234 0.85561368268953431 12.861423371105575 13.083680249767381 87.772142857142867 55.70000000000001 77.223873626373646 10.947227506085612 7.3229300546025371 0.62671365618031138 7.0891256106167164 0.43733605198774955 -0.23328733056122777 7.7840823086846802 69.698836206896559 -0.8611288361322974 10.144713085100433 8.801924184957949 64.370000000000019
decision_type=2 2 2 2 2 2 2 2 2 2 2 2 2 2 2 2 2 2 2 2 2 2 2 2 2 2 2 2 2 2
left_child=2 11 3 16 22 15 7 20 9 -8 25 -2 13 14 17 -3 24 18 19 -13 21 -4 -5 -12 -1 -10 -21 28 -26 -29
right_child=1 5 6 4 -6 -7 8 -9 10 -11 23 12 -14 -15 -16 -17 -18 -19 -20 26 -22 -23 -24 -25 27 -27 -28 29 -30 -31
leaf_value=0.045808441340923316 -0.17665212929248811 0.22831122714739571 -0.15537101816047316 -0.092903325534783865 -0.96248736381530764 0.79772617101669319 -0.0019501225091516968 -0.64150053232908255 -0.13438613023376092 0.43410827040672306 0.0076819422787853635 0.33717784751206636 0.45483986139297489 0.31534334037985123 -0.18470741090830417 0.58874791830778128 0.016446245554834604 -0.033744281138244431 0.35313504849161426 0.2154561511675519 -0.26350440248847007 0.15900279260598696 -0.38639488071203232 0.31005162596702579 -0.11171382442116738 0.08122933073477312 0.010346087169002838 0.069776542620225368 -0.40006629791524678 -0.23450706760088602
leaf_weight=9.9999999999999982 9.9999999999999982 13.000000000000002 11.000000000000002 13.000000000000002 9.9999999999999982 9.9999999999999982 16.000000000000004 9.9999999999999982 80 9.9999999999999982 14.000000000000002 15.999999999999998 9.9999999999999982 21 9.9999999999999982 9.9999999999999982 32 19 13.999999999999998 14.999999999999984 9.9999999999999982 12.999999999999998 11.999999999999998 9.9999999999999982 20 10.999999999999998 37.000000000000014 11.000000000000002 18 14.999999999999998
leaf_count=10 10 13 11 13 10 10 16 10 80 10 14 16 10 21 10 10 32 19 14 15 10 13 12 10 20 11 37 11 18 15
internal_value=-5.80208e-10 0.203795 -0.11565 -0.189153 -0.441982 0.510084 -0.0596298 -0.197548 -0.0165917 0.165765 -0.05782 0.137298 0.159407 0.137026 0.10329 0.385023 -0.105671 0.131804 0.170163 0.132493 -0.0669732 0.0149148 -0.233779 0.133669 -0.158479 -0.108323 0.0695125 -0.190399 -0.248302 -0.105772
internal_weight=511 185 326 141 35 33 185 44 141 26 115 152 142 132 111 23 106 101 82 68 34 24 25 24 74 91 52 64 38 26
internal_count=511 185 326 141 35 33 185 44 141 26 115 152 142 132 111 23 106 101 82 68 34 24 25 24 74 91 52 64 38 26
is_linear=0
shrinkage=0.05


Tree=18
num_leaves=31
num_cat=0
split_feature=25 29 25 12 22 16 16 15 15 23 22 22 16 18 22 26 14 26 14 25 13 16 27 21 22 10 15 29 29 22
split_gain=4347.79 1374.84 559.438 519.515 456.575 436.287 558.474 428.275 1821.12 594.636 363.366 1474.1 424.055 327.715 318.039 379.669 302.484 267.676 253.333 216.347 265.782 184.52 192.645 159.828 195.29 316.242 245.93 207.574 189.655 171.372
threshold=72.087967032967057 74.626910112359568 88.253571428571448 -0.98803388382128665 78.135000000000019 -0.60785761079279388 -1.0000000180025095e-35 0.98484943023723581 0.9635202313707022 70.560000000000016 62.100000000000001 60.120000000000005 -0.60785761079279388 89.535000000000011 54.815000000000005 6.971523336539506 -0.022576145604933043 8.2946156210126158 -0.32003757145143863 76.785384615384615 0.097680735332368748 1.0000000180025095e-35 75.307333333333347 48.580000000000005 46.63000000000001 0.83376496542330847 0.38043945030393422 70.324887640449461 62.869388888888899 43.405000000000008
decision_type=2 2 2 2 2 2 2 2 2 2 2 2 2 2 2 2 2 2 2 2 2 2 2 2 2 2 2 2 2 2
left_child=3 5 4 -1 -3 19 -7 8 9 10 11 12 -5 -4 -8 -16 -9 -17 -12 20 -2 -19 -23 -14 29 26 27 28 -26 -25
right_child=1 2 13 7 -6 6 14 16 -10 -11 18 -13 23 -15 15 17 -18 21 -20 -21 -22 22 -24 24 25 -27 -28 -29 -30 -31
leaf_value=0.24494870424270632 0.19344228398468755 0.36740397856785689 0.023952178955078118 -0.0053552686050534247 0.78645746157719543 -0.19147481635997171 0.37450784802436832 -0.12584592835469674 -0.69485363364219666 0.20718229008572445 -0.10594143523619722 -0.71197701584209094 -0.019948140283425651 0.39347609500090286 0.3255773282299439 -0.20544754212552852 0.21934993674357731 -0.11585088774561883 0.20620531898278457 0.046412732005119327 0.49722756122549372 0.21899884337825434 -0.039297222549265085 -0.19770103820732662 -0.31851753119764659 -0.038638555407524117 -0.14078912977129221 -0.15882583539932968 -0.5710311985015869 -0.0039521103501319885
leaf_weight=9.9999999999999982 18.000000000000004 13.000000000000002 10.000000000000002 60 12.999999999999998 19 9.9999999999999982 11.000000000000002 13.999999999999998 13.999999999999998 13.000000000000002 10.999999999999998 18 14.999999999999998 11.999999999999998 10.999999999999998 14.999999999999998 9.9999999999999982 12.999999999999998 9.9999999999999982 11.999999999999998 21 10.999999999999998 21 29 20 28 13.999999999999998 9.9999999999999982 25
leaf_count=10 18 13 10 60 13 19 10 11 14 14 13 11 18 15 12 11 15 10 13 10 12 21 11 21 29 20 28 14 10 25
internal_value=-4.11167e-10 0.193605 0.414546 -0.109868 0.576931 0.109516 0.0506623 -0.121096 -0.138525 -0.110306 -0.127271 -0.146815 -0.119185 0.245667 0.112004 0.0716185 0.0733055 0.0141184 0.0501319 0.24782 0.314956 0.0716237 0.13021 -0.160578 -0.177798 -0.216691 -0.260654 -0.323979 -0.383265 -0.0924027
internal_weight=511 185 51 326 26 134 94 316 290 276 262 236 225 25 75 65 26 53 26 40 30 42 32 165 147 101 81 53 39 46
internal_count=511 185 51 326 26 134 94 316 290 276 262 236 225 25 75 65 26 53 26 40 30 42 32 165 147 101 81 53 39 46
is_linear=0
shrinkage=0.05


Tree=19
num_leaves=31
num_cat=0
split_feature=25 22 17 13 20 13 6 18 26 22 5 3 10 30 28 28 30 27 16 26 5 29 26 21 25 3 10 16 20 20
split_gain=3924.17 1265.17 482.769 944.893 457.935 448.802 400.016 427.918 1400.62 520.705 375.505 335.514 330.768 286.154 460.226 270.347 259.379 371.944 251.313 218.799 353.458 294.566 199.434 202.406 197.026 180.758 180.667 173.577 144.811 135.631
threshold=71.798736263736274 78.135000000000019 -0.56174490092936669 0.92273549546025413 77.375000000000014 -0.94703994556331683 1.5000000000000002 75.370000000000019 9.3206913282256298 61.390000000000008 173.50000000000003 4.5000000000000009 0.26866988313759588 10.169652846469546 8.6392609473991762 12.861423371105575 9.0109808101077089 62.903563218390808 -0.8783796973249266 9.6922847002681518 96.500000000000014 68.267298850574733 6.5470996305091953 62.260000000000012 85.510714285714286 3.5000000000000004 0.95998215779580554 1.0000000180025095e-35 65.050000000000026 61.890000000000008
decision_type=2 2 2 2 2 2 2 2 2 2 2 2 2 2 2 2 2 2 2 2 2 2 2 2 2 2 2 2 2 2
left_child=2 10 3 5 -3 -1 -4 9 -9 11 12 -8 -2 14 -11 18 17 -7 -14 21 -21 -20 -13 29 -6 28 -23 -28 -18 -24
right_child=1 4 6 -5 24 16 7 8 -10 13 -12 22 15 -15 -16 -17 25 -19 19 20 -22 26 23 -25 -26 -27 27 -29 -30 -31
leaf_value=-0.45990938156843186 0.41967434644699098 0.74519925594329839 0.2413931739330292 -0.66273622481152428 0.46826025476822475 -0.17562774464488023 -0.1442677233611869 -0.73911065101623519 -0.0010832942194408841 0.0042755678296089164 -0.17457634329795838 0.19763355796987361 0.28969235005123273 -0.057202402330361883 0.48397649407386778 0.28650873973965646 0.055662858486175526 0.24570197842337868 0.36486495077610015 -0.24520156291814954 0.093147753306517478 0.0045492207883177579 0.20455687977373593 -0.14357543856553409 0.17305509448051454 -0.25868173649907117 0.32522585066882037 0.037400584220886234 -0.195495774529197 -0.044770753631989166
leaf_weight=9.9999999999999982 9.9999999999999982 9.9999999999999982 9.9999999999999982 9.9999999999999982 13.000000000000002 10.000000000000002 107 10.000000000000002 18 10.000000000000002 9.9999999999999982 10.999999999999998 13.999999999999998 12.999999999999998 9.9999999999999982 21 12.000000000000002 10.999999999999998 9.9999999999999982 12.999999999999998 19 37 10.000000000000002 23 9.9999999999999982 25 11.000000000000002 9.9999999999999982 10.999999999999998 11.999999999999998
leaf_count=10 10 10 10 10 13 10 107 10 18 10 10 11 14 13 10 21 12 11 10 13 19 37 10 23 10 25 11 10 11 12
internal_value=-9.71783e-10 0.181617 -0.105709 -0.204826 0.462725 -0.146863 -0.0680102 -0.0818228 -0.264664 -0.0557026 0.121768 -0.0923717 0.142205 0.125421 0.244126 0.121652 -0.101494 0.0450688 0.0912837 0.0635065 -0.0443067 0.114242 0.00678668 -0.0398648 0.33991 -0.165615 0.0710312 0.188166 -0.0644565 0.06856
internal_weight=511 188 323 89 33 79 234 224 28 196 155 163 145 33 20 135 69 21 114 100 32 68 56 45 23 48 58 21 23 22
internal_count=511 188 323 89 33 79 234 224 28 196 155 163 145 33 20 135 69 21 114 100 32 68 56 45 23 48 58 21 23 22
is_linear=0
shrinkage=0.05


Tree=20
num_leaves=31
num_cat=0
split_feature=25 29 25 12 11 5 22 21 21 20 3 19 23 30 5 28 22 3 25 3 12 12 12 15 21 24 25 19 10 19
split_gain=3541.56 1165.5 520.763 462.824 392.857 388.36 379.179 297.923 1233.91 329.576 286.434 283.957 370.93 269.068 324.497 267.934 202.869 256.541 206.812 192.682 179.849 174.862 169.533 168.106 178.88 330.78 178.33 154.122 147.111 205.189
threshold=71.798736263736274 74.626910112359568 89.714285714285737 -0.98803388382128665 0.99530134160901229 173.50000000000003 78.135000000000019 50.370000000000012 48.580000000000005 61.400000000000006 5.5000000000000009 79.680000000000021 68.797857142857154 11.671898024493427 58.500000000000007 7.8068510644844356 61.390000000000008 4.5000000000000009 61.761428571428581 4.5000000000000009 -0.14250758662009075 0.95239763423914636 -0.030099068566675755 0.38043945030393422 59.145000000000003 9.4113147957941052 62.973214285714292 59.225000000000001 0.9193901325473397 57.250000000000007
decision_type=2 2 2 2 2 2 2 2 2 2 2 2 2 2 2 2 2 2 2 2 2 2 2 2 2 2 2 2 2 2
left_child=3 5 6 -1 7 13 -3 8 9 -5 11 12 16 14 -2 -12 17 23 -19 -16 -18 -15 -17 24 25 -9 27 -25 29 -26
right_child=1 2 -4 4 -6 -7 -8 10 -10 -11 15 -13 -14 21 19 22 20 18 -20 -21 -22 -23 -24 26 28 -27 -28 -29 -30 -31
leaf_value=0.23442567110061649 0.42520978510379792 0.3335832527593563 0.14027050519362091 0.16820005153616266 -0.35246374415000903 -0.20342696309089661 0.66394461691379547 -0.26112765119625964 -0.60477935565369467 -0.17843800224363804 -0.16704156368970871 -0.34685797339135949 0.14511087341234088 -0.15547255082772327 0.080175611254439436 -0.023998089730739587 0.19519517049193377 0.16212497961062647 -0.11482699470860619 0.23838607260474454 -0.10467871189117434 0.12263357430696487 0.23843813610728831 -0.09711295939715843 -0.14211312276976448 0.089128656472478598 -0.17341380106906099 0.14708071947097778 -0.072759784758090973 -0.33980912723711559
leaf_weight=9.9999999999999982 9.9999999999999982 19 15.999999999999998 12.000000000000002 15.999999999999998 9.9999999999999982 15.999999999999998 13.000000000000002 13.999999999999998 15.999999999999998 9.9999999999999982 10.999999999999998 15.999999999999998 13.000000000000002 67 10.000000000000002 10.000000000000002 13.000000000000002 13.999999999999998 27 9.9999999999999982 9.9999999999999982 15.999999999999998 14.000000000000002 21 13.999999999999998 24 11.999999999999998 11.999999999999998 35
leaf_count=10 10 19 16 12 16 10 16 13 14 16 10 11 16 13 67 10 10 13 14 27 10 10 16 14 21 14 24 12 12 35
internal_value=-1.09645e-09 0.172536 0.376579 -0.100423 -0.111121 0.0965782 0.484606 -0.0981198 -0.221512 -0.0298788 -0.0777963 -0.0992816 -0.0861886 0.120201 0.154426 0.0529059 -0.105464 -0.122989 0.0185203 0.125619 0.0452582 -0.0345568 0.137501 -0.149339 -0.188397 -0.0795133 -0.0751309 0.0155918 -0.23163 -0.265673
internal_weight=511 188 51 323 313 137 35 297 42 28 255 219 208 127 104 36 192 172 27 94 20 23 26 145 95 27 50 26 68 56
internal_count=511 188 51 323 313 137 35 297 42 28 255 219 208 127 104 36 192 172 27 94 20 23 26 145 95 27 50 26 68 56
is_linear=0
shrinkage=0.05


Tree=21
num_leaves=31
num_cat=0
split_feature=25 22 12 25 15 14 22 22 22 18 19 30 5 13 15 29 3 3 19 18 18 12 11 19 19 22 15 18 26 26
split_gain=3196.26 1053.01 436.158 612.182 2072.81 588.163 560.311 401.466 352.023 325.787 293.785 287.506 280.853 333.037 267.441 266.867 388.889 835.803 252.143 250.72 224.97 191.711 189.309 186.693 180.442 169.95 165.416 203.122 268.804 158.951
threshold=71.798736263736274 78.135000000000019 -0.8098839673871151 63.034285714285723 0.9635202313707022 1.0000000180025095e-35 60.120000000000005 53.540000000000006 82.705000000000013 59.320000000000007 72.000000000000014 10.317741524308461 48.500000000000007 -0.6905596507703472 0.38043945030393422 74.462354384605462 4.5000000000000009 3.5000000000000004 54.580000000000005 70.800000000000011 62.520000000000003 -0.022576249993022688 -0.69676771491221523 78.77500000000002 81.985000000000014 67.460000000000022 -0.13824743433110567 53.105000000000011 7.5943753495851682 10.621554948020927
decision_type=2 2 2 2 2 2 2 2 2 2 2 2 2 2 2 2 2 2 2 2 2 2 2 2 2 2 2 2 2 2
left_child=2 9 5 7 6 10 12 14 -3 -2 29 18 -5 -14 26 16 17 19 -9 -11 -20 -18 -21 -23 -17 -24 27 -4 -29 -1
right_child=1 8 3 4 -6 -7 -8 11 -10 15 -12 -13 13 -15 -16 24 21 -19 20 22 -22 23 25 -25 -26 -27 -28 28 -30 -31
leaf_value=-0.04109017670154571 -0.16672102876007558 0.56944298280609984 -0.35148925602436071 0.10868222157160441 -0.89754218965768817 0.30084829509258271 -0.38814942554423681 0.3194996524940838 0.24147545713931323 0.27527911812067035 0.16372207939624786 -0.12055813089797372 -0.056381131882997274 -0.29588485828467775 -0.020915855180758697 0.3752235455438494 0.36542921900749209 -0.335747750218098 -0.099131626884142565 0.18845826152246456 0.16653511270004162 0.28774787068366997 -0.10688926698196499 -0.010754323818466881 0.13383620078365008 0.12898842555781206 -0.37549699604511266 0.12393576204776764 -0.17952821326476556 -0.27996131044167738
leaf_weight=15.000000000000002 9.9999999999999982 18 9.9999999999999982 14.999999999999998 9.9999999999999982 14.999999999999998 19 10.999999999999998 14.999999999999998 15.999999999999998 9.9999999999999982 19 47 21 39 16.000000000000004 14.999999999999998 12.999999999999998 14.999999999999998 15.999999999999991 17 10.000000000000002 21.000000000000007 10.999999999999998 14.999999999999998 11.999999999999998 9.9999999999999982 9.9999999999999982 27 12.999999999999998
leaf_count=15 10 18 10 15 10 15 19 11 15 16 10 19 47 21 39 16 15 13 15 16 17 10 21 11 15 12 10 10 27 13
internal_value=1.91368e-10 0.163909 -0.0954022 -0.121144 -0.210567 0.0357377 -0.143217 -0.0577561 0.420367 0.109308 -0.0689113 0.0414196 -0.0871477 -0.130346 -0.121807 0.128345 0.0929727 0.0302342 0.112991 0.103431 0.0420038 0.228906 0.0473167 0.13139 0.258423 -0.0211156 -0.190838 -0.151549 -0.0975109 -0.151995
internal_weight=511 188 323 270 112 53 102 158 33 155 38 62 83 68 96 145 114 78 43 65 32 36 49 21 31 33 57 47 37 28
internal_count=511 188 323 270 112 53 102 158 33 155 38 62 83 68 96 145 114 78 43 65 32 36 49 21 31 33 57 47 37 28
is_linear=0
shrinkage=0.05


Tree=22
num_leaves=31
num_cat=0
split_feature=23 22 6 30 7 20 13 22 15 18 22 14 14 28 28 20 20 24 28 14 19 24 24 20 12 15 12 13 20 16
split_gain=2769.25 1002.42 677.146 610.14 448.984 408.748 363.997 307.994 703.697 326.782 303.368 292.209 288.199 268.399 276.615 260.268 252.125 242.274 228.044 221.716 201.47 167.877 226.281 187.775 119.33 171.622 148.603 118.183 150.545 94.6698
threshold=70.560000000000016 78.135000000000019 2.5000000000000004 8.7042043100824955 1.0000000180025095e-35 77.375000000000014 -0.99273797715557011 60.435000000000009 -0.88522530996428317 86.175000000000026 61.390000000000008 0.59868754826434312 0.11905811071747181 9.6818466463978279 10.978428966568966 70.965000000000018 63.025000000000006 12.226720707397439 6.7835240462830306 1.0000000180025095e-35 77.265000000000015 10.460930186042647 8.7883519282660476 74.160000000000011 0.91593490216309192 0.38043945030393422 0.30983042691905771 0.315961146185463 57.250000000000007 1.0000000180025095e-35
decision_type=2 2 2 2 2 2 2 2 2 2 2 2 2 2 2 2 2 2 2 2 2 2 2 2 2 2 2 2 2 2
left_child=2 3 -1 -2 6 -3 -4 12 -9 17 18 -7 -5 -14 -15 16 20 21 -8 -12 27 22 23 -10 26 -26 -20 28 -6 -28
right_child=1 5 4 7 15 11 10 8 9 -11 19 -13 13 14 -16 -17 -18 -19 24 -21 -22 -23 -24 -25 25 -27 29 -29 -30 -31
leaf_value=-0.38081592446879342 -0.28130423799157145 0.66622159481048593 -0.39134141640229658 0.065466221382743439 0.18954245323936139 0.45394793848196652 0.075912345945835125 -0.32733772158622743 0.050350449096999678 0.30533328541657995 -0.073667162035902331 0.097173542597077112 0.49854809641838077 0.029099112884564828 0.39244607686996463 0.25231248194521128 -0.17087613621519671 -0.13794260558982691 -0.16662123718609412 0.23710755218159069 0.23615089492364363 0.29517866119742397 -0.07106198887858127 0.29696344558436139 -0.3418639238675435 -0.074452015161514284 -0.14413323197513819 -0.12294725280787265 -0.041763987348360176 -0.021166260540485385
leaf_weight=19 9.9999999999999982 9.9999999999999982 10.999999999999998 19 12.000000000000002 12.000000000000002 13.999999999999998 9.9999999999999982 19 18 12.000000000000002 10.999999999999998 11.999999999999998 11.000000000000002 9.9999999999999982 10.999999999999998 18 11.999999999999998 72 10.999999999999998 10.999999999999998 9.9999999999999982 18 12.999999999999998 15.000000000000002 9.9999999999999982 24 13.999999999999998 17 45
leaf_count=19 10 10 11 19 12 12 14 10 19 18 12 11 12 11 10 11 18 12 72 11 11 10 18 13 15 10 24 14 17 45
internal_value=4.33402e-10 0.148172 -0.0914355 0.0970068 -0.0729229 0.399348 -0.111209 0.121896 0.0705716 0.114784 -0.0960292 0.283317 0.220596 0.309913 0.202121 0.0257902 -0.00881737 0.0671464 -0.117878 0.0749642 0.0452022 0.108164 0.0707614 0.150537 -0.134222 -0.234899 -0.116372 -0.00364511 0.053949 -0.0639374
internal_weight=511 195 316 162 297 33 214 152 100 90 203 23 52 33 21 83 72 72 180 23 54 60 50 32 166 25 141 43 29 69
internal_count=511 195 316 162 297 33 214 152 100 90 203 23 52 33 21 83 72 72 180 23 54 60 50 32 166 25 141 43 29 69
is_linear=0
shrinkage=0.05


Tree=23
num_leaves=31
num_cat=0
split_feature=23 29 6 22 24 17 19 18 22 27 7 12 19 30 22 4 7 21 13 19 13 23 21 24 10 22 19 15 19 29
split_gain=2499.25 961.899 611.125 431.62 516.373 1090.01 456.513 410.943 478.603 458.439 349.908 337.258 333.978 231.892 221.637 290.276 191.372 256.962 191.85 190.005 179.521 172.388 262.075 170.253 151.562 130.662 174.612 154.649 127.513 125.999
threshold=70.560000000000016 74.626910112359568 2.5000000000000004 64.535000000000011 10.866273589773677 -0.22252093395631442 61.750000000000007 57.895000000000003 61.390000000000008 64.120773809523811 1.0000000180025095e-35 0.04621502027255215 81.985000000000014 10.169652846469546 54.000000000000007 25.500000000000004 1.0000000180025095e-35 70.070000000000007 0.24998039114150908 62.025000000000006 0.59004310983071195 60.259285714285717 63.025000000000006 5.2108997976614297 0.91248814248966237 54.590000000000011 70.045000000000016 0.04191774982395393 58.770000000000003 69.69398876404496
decision_type=2 2 2 2 2 2 2 2 2 2 2 2 2 2 2 2 2 2 2 2 2 2 2 2 2 2 2 2 2 2
left_child=2 3 -1 6 5 -5 -2 9 16 21 12 -11 -3 -10 -8 -16 17 20 19 -19 24 -4 -23 -7 -9 26 27 -18 -24 -25
right_child=1 10 7 4 -6 23 14 8 13 11 -12 -13 -14 -15 15 -17 25 18 -20 -21 -22 22 28 29 -26 -27 -28 -29 -30 -31
leaf_value=-0.36177513615081186 0.41143557791199004 0.40701066752274828 -0.2056414441569992 -0.44106468781828884 0.22388680391013624 0.23543874308466914 0.28209716849602184 -0.23118425300344825 0.27373075870906605 -0.14241694390773771 0.5512791186571121 -0.5355789974331856 0.11013869181275369 0.0040076252818107604 0.10814154366421146 -0.19093271851539614 0.27337505569060638 -0.03900739833712577 -0.13777798023074866 0.26921772181987763 -0.011030307412147522 0.091623721803937644 -0.024951504035429516 -0.13303662116893308 -0.057453448456876423 -0.10199002052346867 -0.062991481307236585 0.019530795514583588 -0.25625634789466861 0.10627955767241391
leaf_weight=19 13.999999999999998 18 23 15.999999999999998 15.999999999999998 9.9999999999999982 12.999999999999998 48 17 10.000000000000002 12.999999999999998 11.999999999999998 20 14.999999999999998 43 9.9999999999999982 12.000000000000002 10.000000000000002 11.999999999999998 9.9999999999999982 19 21 11.000000000000002 11.000000000000002 17 18 17 11.999999999999998 12.999999999999998 10.999999999999998
leaf_count=19 14 18 23 16 16 10 13 48 17 10 13 12 20 15 43 10 12 10 12 10 19 21 11 11 17 18 17 12 13 11
internal_value=2.76298e-10 0.140764 -0.0868637 0.0746759 -0.022106 -0.104104 0.152102 -0.0692768 -0.0304958 -0.158473 0.327365 -0.356869 0.250762 0.147298 0.0970912 0.0517124 -0.0630067 -0.100296 0.020274 0.115105 -0.146228 -0.0942861 -0.0373711 0.0643769 -0.185747 0.0103084 0.0596101 0.146453 -0.150242 -0.0133785
internal_weight=511 195 316 144 64 48 80 297 207 90 51 22 38 32 66 53 175 116 32 20 84 68 45 32 65 59 41 24 24 22
internal_count=511 195 316 144 64 48 80 297 207 90 51 22 38 32 66 53 175 116 32 20 84 68 45 32 65 59 41 24 24 22
is_linear=0
shrinkage=0.05


Tree=24
num_leaves=31
num_cat=0
split_feature=29 18 27 29 30 30 19 20 20 20 12 1 19 20 20 3 16 4 19 21 4 22 27 15 21 24 11 3 1 1
split_gain=2191.81 914.918 683.904 1581.22 662.73 832.362 490.493 619.193 646.824 436.661 337.323 393.238 291.06 241.913 418.766 226.976 304.756 219.573 213.219 209.346 185.427 176.653 176.186 253.03 169.622 159.083 157.646 151.416 128.647 127.147
threshold=74.626910112359568 60.990000000000002 63.628275862068968 63.38539325842698 8.5634786572511263 8.3875161561740708 75.780000000000015 81.785000000000011 75.940000000000012 74.980000000000018 0.35845153958890236 10.500000000000002 85.285000000000011 60.32500000000001 69.310000000000016 4.5000000000000009 1.0000000180025095e-35 11.500000000000002 55.060000000000009 58.235000000000007 8.5000000000000018 54.130000000000003 75.307333333333347 -0.82537257950235043 63.025000000000006 6.0534787335967897 0.29958852271690523 2.5000000000000004 6.5000000000000009 7.5000000000000009
decision_type=2 2 2 2 2 2 2 2 2 2 2 2 2 2 2 2 2 2 2 2 2 2 2 2 2 2 2 2 2 2
left_child=1 2 18 -4 5 17 7 8 10 -2 11 13 -11 -6 -15 16 -12 -3 21 -8 -20 -1 23 -21 -22 -24 -26 -25 -5 -17
right_child=9 4 3 28 6 -7 19 -9 -10 12 15 -13 -14 14 -16 29 -18 -19 20 22 24 -23 25 27 26 -27 -28 -29 -30 -31
leaf_value=-0.048718639835715283 0.50909334189361999 0.12184825871999448 -0.76213453916402962 -0.041961289082907818 0.33794151248876009 -0.54002266770059415 0.33326497009167305 0.30859521845976512 -0.30142727545217468 0.33849787149164412 -0.29456733079517589 -0.068737681458393735 0.040278186450401945 -0.1098248214389269 0.29150268269272955 0.13593460416628253 -0.038816138940888485 -0.13961944235932261 -0.20601609277314156 0.0018790618578592936 0.048759707901626828 0.21157043860717253 0.13849395573139187 0.094530743788927771 -0.030140669345855711 -0.13705258759754627 -0.27934528182853352 0.33281872466206552 -0.24548147370417917 -0.07983457987958735
leaf_weight=16.000000000000004 18 12.999999999999998 12.999999999999998 22 15.999999999999998 10.999999999999998 12.999999999999998 14.999999999999998 19 18 17 24 14.999999999999998 13.000000000000002 12.999999999999998 18.000000000000004 37 21 29 14.999999999999998 24 10.999999999999998 10.000000000000002 10.000000000000002 15.000000000000002 10.999999999999998 10.999999999999998 20 11.999999999999998 10.999999999999998
leaf_count=16 18 13 13 22 16 11 13 15 19 18 17 24 15 13 13 18 37 21 29 15 24 11 10 10 15 11 11 20 12 11
internal_value=8.60972e-10 -0.03448 -0.134366 -0.293121 0.0153004 -0.161961 0.045746 0.000796627 -0.0266854 0.310996 0.00834881 0.0927147 0.202943 0.184973 0.0908389 -0.0587373 -0.11933 -0.0396465 -0.0639751 0.149869 -0.105432 0.0573251 0.113746 0.169553 -0.0470935 -0.00583995 -0.135573 0.253389 -0.113792 0.0540911
internal_weight=511 460 153 47 307 45 262 183 168 51 149 66 33 42 26 83 54 34 106 79 79 27 66 45 50 21 26 30 34 29
internal_count=511 460 153 47 307 45 262 183 168 51 149 66 33 42 26 83 54 34 106 79 79 27 66 45 50 21 26 30 34 29
is_linear=0
shrinkage=0.05


Tree=25
num_leaves=31
num_cat=0
split_feature=25 29 25 12 25 15 21 14 5 24 29 17 18 15 29 25 4 30 5 30 18 25 24 20 12 25 26 19 4 15
split_gain=2161.68 722.487 456.236 373.856 595.604 1707.48 746.407 449.029 343.036 234.01 231.151 223.3 222.424 195.757 225.236 275.106 226.7 194 273.179 168.582 159.99 190.738 194.459 186.107 149.485 147.876 141.258 133.868 144.776 103.987
threshold=71.798736263736274 74.626910112359568 89.714285714285737 -0.8098839673871151 63.266428571428584 0.93769647993491489 52.320000000000007 1.0000000180025095e-35 173.50000000000003 12.112953703076307 63.144666666666673 1.0000000180025095e-35 57.530000000000008 0.67326088339195145 61.680833333333339 60.981071428571433 8.5000000000000018 11.671898024493427 58.500000000000007 10.865073891391544 82.200000000000003 75.113571428571447 4.9177923252155011 75.765000000000015 0.95239763423914636 65.376675824175848 10.164531677846847 62.880000000000003 16.500000000000004 0.28313308994381592
decision_type=2 2 2 2 2 2 2 2 2 2 2 2 2 2 2 2 2 2 2 2 2 2 2 2 2 2 2 2 2 2
left_child=3 8 9 7 13 6 -6 10 17 26 11 -1 -8 14 15 -5 -16 18 -2 -18 21 23 -23 -20 -19 29 -3 -15 -29 -14
right_child=1 2 -4 4 5 -7 12 -9 -10 -11 -12 -13 25 27 16 -17 19 24 20 -21 -22 22 -24 -25 -26 -27 -28 28 -30 -31
leaf_value=-0.085533759685663069 0.37470579504966739 0.41283352387448141 0.074262584559619427 0.17592376321554185 -0.47133746478133481 -0.75978183026115109 -0.23855895591633663 0.27459656178951264 -0.20696365714073181 0.56474641148860638 -0.20118356267611187 0.22873905301094055 -0.0041386264173880871 -0.033905727906446713 -0.30765360677614811 -0.089432601630687725 -0.18245793139705291 -0.14601248273482687 0.053659300194603625 -0.0024032485886262018 0.23865085439208678 0.15070219051092859 -0.11933864176273346 0.25833422102861936 0.11112260699272157 0.097872779449742098 0.15838668942451478 0.22989390240265767 -0.016571195694533261 -0.17012315001338721
leaf_weight=13.000000000000002 9.9999999999999982 12.000000000000002 15.999999999999998 14.999999999999998 12.999999999999998 11.999999999999998 13.999999999999998 14.999999999999998 9.9999999999999982 12.999999999999998 14.999999999999998 9.9999999999999982 23 38 15.999999999999998 28 26 13.000000000000002 29 26 17 10.000000000000002 20 18 9.9999999999999982 19 9.9999999999999982 13.000000000000002 10.999999999999998 15.999999999999998
leaf_count=13 10 12 16 15 13 12 14 15 10 13 15 10 23 38 16 28 26 13 29 26 17 10 20 18 10 19 10 13 11 16
internal_value=-5.43302e-10 0.134796 0.295447 -0.0784573 -0.10229 -0.201466 -0.122645 0.0429556 0.0749922 0.396559 -0.0484816 0.0511066 -0.0596861 -0.0466831 -0.0864334 0.00313357 -0.143071 0.0971935 0.126255 -0.0924306 0.0998239 0.0691738 -0.029325 0.132045 -0.0342146 -0.0165099 0.297176 0.0244826 0.116931 -0.0722348
internal_weight=511 188 51 323 270 97 85 53 137 35 38 23 72 173 111 43 68 127 104 52 94 77 30 47 23 58 22 62 24 39
internal_count=511 188 51 323 270 97 85 53 137 35 38 23 72 173 111 43 68 127 104 52 94 77 30 47 23 58 22 62 24 39
is_linear=0
shrinkage=0.05


Tree=26
num_leaves=31
num_cat=0
split_feature=25 13 17 25 24 15 20 24 24 13 20 25 21 5 20 3 18 3 23 24 25 13 21 16 15 21 24 24 18 18
split_gain=1976.86 613.516 2469.12 730.606 455.884 515.916 386.592 316.337 440.313 636.756 304.041 297.695 625.526 296.744 232.271 218.007 216.612 206.807 201.781 186.848 291.867 169.968 164.287 285.061 161.496 160.54 158.699 158.635 132.256 122.277
threshold=76.014423076923094 0.95436825032516992 -0.22252093395631442 65.094285714285732 11.159337990137159 0.16375730385847256 63.915000000000006 8.626932350148703 10.144713085100433 -0.62588708731544751 60.715000000000011 63.266428571428584 53.250000000000007 163.50000000000003 75.765000000000015 4.5000000000000009 82.200000000000003 3.5000000000000004 73.583571428571446 4.9177923252155011 77.223873626373646 -0.26037588076992096 59.145000000000003 1.0000000180025095e-35 0.71952396275653763 52.980000000000011 6.381111445238715 4.7911988349423682 63.915000000000006 68.190000000000012
decision_type=2 2 2 2 2 2 2 2 2 2 2 2 2 2 2 2 2 2 2 2 2 2 2 2 2 2 2 2 2 2
left_child=1 3 -3 11 13 -6 -4 14 9 -9 -10 15 -13 16 26 22 19 -12 -16 -2 -21 -14 23 -1 28 -25 27 -5 -24 -17
right_child=4 2 6 7 5 -7 -8 8 10 -11 17 12 21 -15 18 29 -18 -19 -20 20 -22 -23 24 25 -26 -27 -28 -29 -30 -31
leaf_value=-0.14011917901890619 0.16910283511504531 -0.7911493849868958 0.31381631687283507 0.10900065465406934 0.11405152655564821 0.52282800078392033 -0.12583816468715667 0.051580636841910214 0.26386508593956631 -0.44477003825207551 -0.091304681681096567 -0.45801370898882549 -0.050739690784195615 0.32228860010703408 0.44135323762893663 -0.029465056381498773 0.20302760852010629 0.12753832418667643 0.12372031092643739 0.090558352228254049 -0.27367626699534331 -0.27910181522369387 -0.12973735939400893 -0.011798444887002307 -0.0069591372460126883 0.25264863913709468 0.1701365234499628 -0.16615740180015565 -0.31223742044889014 0.13793225951492788
leaf_weight=21 9.9999999999999982 12.999999999999998 10.000000000000002 11.000000000000002 12.999999999999998 19 9.9999999999999982 14.000000000000002 14.999999999999998 11.999999999999998 25 14.999999999999998 44 14.999999999999998 10.000000000000002 24 19 19 9.9999999999999982 11.000000000000002 10.999999999999998 9.9999999999999982 42 12.000000000000002 20 10.999999999999998 22 9.9999999999999982 12.999999999999998 20
leaf_count=21 10 13 10 11 13 19 10 14 15 12 25 15 44 15 10 24 19 19 10 11 11 10 42 12 20 11 22 10 13 20
internal_value=1.09608e-09 -0.0479055 -0.254702 -0.0299469 0.201888 0.356763 0.0939891 0.0568557 -0.00607675 -0.177504 0.0694676 -0.085321 -0.172373 0.126797 0.141765 -0.0484706 0.0692991 0.00319571 0.282537 -0.0101021 -0.091559 -0.093029 -0.0836318 -0.00693066 -0.12863 0.114676 0.0762892 -0.022027 -0.172874 0.0466246
internal_weight=511 413 33 380 98 32 20 148 85 26 59 232 69 66 63 163 51 44 20 32 22 54 119 44 75 23 43 21 55 44
internal_count=511 413 33 380 98 32 20 148 85 26 59 232 69 66 63 163 51 44 20 32 22 54 119 44 75 23 43 21 55 44
is_linear=0
shrinkage=0.05


Tree=27
num_leaves=31
num_cat=0
split_feature=25 13 17 25 4 24 15 20 18 29 24 25 30 3 4 4 3 20 20 27 20 25 4 12 27 25 18 20 26 12
split_gain=1784.12 553.698 2228.38 659.372 707.427 411.435 465.614 348.899 317.084 289.562 386.131 268.67 508.666 268.094 210.56 252.863 224.537 200.783 367.298 299.626 187.812 178.027 144.429 134.82 119.651 196.523 117.229 105.667 91.4696 86.8182
threshold=76.014423076923094 0.95436825032516992 -0.22252093395631442 65.094285714285732 26.500000000000004 11.159337990137159 0.16375730385847256 63.915000000000006 59.065000000000005 80.502415730337091 4.9177923252155011 63.266428571428584 8.4433187147225883 1.5000000000000002 7.5000000000000009 3.5000000000000004 4.5000000000000009 57.605000000000011 60.32500000000001 69.500896551724153 58.060000000000009 77.508571428571443 6.5000000000000009 -0.93545056548590078 59.82800000000001 60.242857142857147 68.190000000000012 63.850000000000001 7.9160498467690728 0.73865729060996177
decision_type=2 2 2 2 2 2 2 2 2 2 2 2 2 2 2 2 2 2 2 2 2 2 2 2 2 2 2 2 2 2
left_child=1 3 -3 11 8 9 -7 -4 -5 10 -2 14 -13 -12 15 -1 24 -10 -19 23 -14 -15 -21 -20 -16 -26 -24 29 -28 -27
right_child=5 2 7 4 -6 6 -8 -9 17 -11 13 12 20 21 16 -17 -18 18 19 22 -22 -23 26 -25 25 27 28 -29 -30 -31
leaf_value=0.016620898619294167 0.25480392706744814 -0.75159192380423734 0.29812550735659887 -0.10140497124704875 -0.29825666159964526 0.10834894157372987 0.49668658218885731 -0.11954625517129898 -0.066213974585899935 0.30559402741491798 -0.25464835662394764 -0.40118671532939465 0.044464124076896247 0.21406162112951274 0.092334441840648651 -0.25289555060798707 0.096798354172796919 0.41537792794406414 -0.16427691727876659 0.31064347854027385 -0.15527241213233486 -0.066549854553662816 0.011171490326523781 0.08430448016151787 -0.1811296539573834 -0.032697544097900377 0.2803530867283161 -0.075028014928102502 0.11986250701759543 0.17565094590187075
leaf_weight=13.999999999999998 17 12.999999999999998 10.000000000000002 19 12.999999999999998 12.999999999999998 19 9.9999999999999982 12.999999999999998 15.999999999999998 9.9999999999999982 17 18 10.000000000000002 11.999999999999998 23 33 10.999999999999998 12.000000000000002 12.999999999999998 34 12.999999999999998 15.999999999999998 9.9999999999999982 29 10.000000000000002 12.999999999999998 32 28 9.9999999999999982
leaf_count=14 17 13 10 19 13 13 19 10 13 16 10 17 18 10 12 23 33 11 12 13 34 13 16 10 29 10 13 32 28 10
internal_value=-4.71266e-10 -0.0455103 -0.241967 -0.0284496 0.0540129 0.191793 0.338924 0.0892896 0.0879352 0.120457 0.061213 -0.081055 -0.163755 -0.0385156 -0.046047 -0.150916 -0.0152521 0.118948 0.142318 0.109669 -0.0861328 0.0554551 0.160255 -0.0512854 -0.0550119 -0.076841 0.125956 -0.01868 0.17075 0.0714767
internal_weight=511 413 33 380 148 98 32 20 135 66 50 232 69 33 163 37 126 116 103 92 52 23 70 22 93 81 57 52 41 20
internal_count=511 413 33 380 148 98 32 20 135 66 50 232 69 33 163 37 126 116 103 92 52 23 70 22 93 81 57 52 41 20
is_linear=0
shrinkage=0.05


Tree=28
num_leaves=31
num_cat=0
split_feature=29 18 28 13 13 23 18 16 20 22 22 21 3 21 23 29 14 29 22 21 11 21 28 26 26 5 13 16 20 21
split_gain=1454.06 609.412 509.765 504.117 404.914 366.576 466.196 446.343 357.906 285.971 340.16 245.384 242.863 302.523 184.292 307.229 260.79 181.869 177.509 176.722 190.552 169.283 163.116 161.785 201.545 158.552 135.763 133.462 121.693 116.001
threshold=74.462354384605462 60.990000000000002 6.771202315655608 0.98253174896492901 -0.96687281075841669 69.709285714285741 89.265000000000015 -0.8783796973249266 74.980000000000018 61.665000000000006 58.195000000000007 68.41500000000002 4.5000000000000009 70.070000000000007 73.370000000000019 67.04191011235956 0.048362692321690152 62.600224719101128 46.190000000000005 59.145000000000003 0.60383265664488517 76.500000000000014 8.2444124720008443 9.2911255336231608 6.971523336539506 157.50000000000003 0.61746585276059895 1.0000000180025095e-35 65.850000000000009 48.580000000000005
decision_type=2 2 2 2 2 2 2 2 2 2 2 2 2 2 2 2 2 2 2 2 2 2 2 2 2 2 2 2 2 2
left_child=1 3 -3 4 -1 9 7 -7 21 10 12 -10 13 18 16 -16 -9 -11 -4 27 22 -2 -21 24 -17 -13 -20 29 -18 -6
right_child=8 2 5 -5 19 6 -8 14 11 17 -12 25 -14 -15 15 23 28 -19 26 20 -22 -23 -24 -25 -26 -27 -28 -29 -30 -31
leaf_value=-0.37504253177480268 0.55096752464771259 -0.34026228308677675 -0.0023988602217286828 -0.409916977928235 0.10272363245487214 0.35674209129065276 -0.21618702119837205 0.016795565839856863 0.35283155202865601 0.29434303194284434 -0.27397682191804051 -0.052927278620856139 0.068088560764278688 0.084443616718053824 -0.15045430219421785 0.17333368537457366 0.41095805406570424 0.0056276986996332806 -0.25495384201921267 0.087069369852542877 -0.24785390951567227 0.26672460165890782 -0.1078481255180162 0.26911741495132446 -0.037650246386017119 0.19475135331352553 -0.041308119595050818 0.14042747984329859 0.16428709454834461 -0.10125915628412496
leaf_weight=10.999999999999998 10.000000000000002 9.9999999999999982 15.999999999999998 12.999999999999998 9.9999999999999982 15.999999999999998 11.999999999999998 15.999999999999998 9.9999999999999982 10.000000000000002 15.999999999999998 14.000000000000002 42 20 18 19 10.000000000000002 11.999999999999998 29 13.999999999999998 18 10.999999999999998 46 9.9999999999999982 28 11.999999999999998 9.9999999999999982 14.999999999999998 9.9999999999999982 23
leaf_count=11 10 10 16 13 10 16 12 16 10 10 16 14 42 20 18 19 10 12 29 14 18 11 46 10 28 12 10 15 10 23
internal_value=-1.33411e-10 -0.0298855 0.0108063 -0.112354 -0.0841182 0.0227474 0.0817046 0.109852 0.238035 -0.0301239 -0.0577456 0.142343 -0.0281755 -0.0820834 0.0742641 0.0296284 0.167255 0.136862 -0.142639 -0.05872 -0.105172 0.402078 -0.0623674 0.0864966 0.0476411 0.0613859 -0.200173 0.0167643 0.287623 -0.0394462
internal_weight=511 454 304 150 137 294 139 127 57 155 133 36 117 75 111 75 36 22 55 126 78 21 60 57 47 26 39 48 20 33
internal_count=511 454 304 150 137 294 139 127 57 155 133 36 117 75 111 75 36 22 55 126 78 21 60 57 47 26 39 48 20 33
is_linear=0
shrinkage=0.05


Tree=29
num_leaves=31
num_cat=0
split_feature=25 11 25 23 4 24 15 15 11 17 21 21 11 18 3 11 25 24 12 25 13 15 15 28 12 15 6 21 21 4
split_gain=1466.92 565.975 595.522 815.315 659.685 358.714 412.535 275.983 263.138 312.942 251.87 960.165 214.78 207.536 196.542 220.26 193.207 154.756 153.978 152.821 155.176 148.027 214.704 133.361 124.758 142.299 142.998 138.702 127.103 120.788
threshold=76.014423076923094 -0.98372925196996197 65.376675824175848 67.220714285714294 25.500000000000004 11.159337990137159 0.16375730385847256 0.93081762381485633 -0.9292178835113839 1.0000000180025095e-35 50.370000000000012 49.045000000000009 0.7710868207630478 59.065000000000005 4.5000000000000009 0.99349222267034787 77.223873626373646 5.6571323157830422 -0.48314718476766422 61.761428571428581 -0.34234976856068178 0.85674247252130387 0.45657509412473768 9.826581000116823 0.91593490216309192 -0.91070616071172539 38.500000000000007 71.835000000000022 60.110000000000007 17.500000000000004
decision_type=2 2 2 2 2 2 2 2 2 2 2 2 2 2 2 2 2 2 2 2 2 2 2 2 2 2 2 2 2 2
left_child=1 -1 3 10 7 8 -7 13 9 -2 11 12 -3 -4 15 24 -10 -18 -16 -20 -21 22 23 -15 25 -12 -27 -26 -28 -30
right_child=5 2 4 -5 -6 6 -8 -9 16 -11 14 -13 -14 21 18 -17 17 -19 19 20 -22 -23 -24 -25 27 26 28 -29 29 -31
leaf_value=-0.39510943049734293 0.455882714986801 -0.18839773707664925 -0.096311272417797772 -0.49740023775534192 -0.27394118447388921 0.094255952880932747 0.45978927612304688 0.32711059781299401 0.17857997997780331 0.069413429498672491 0.095873028842302477 -0.59698195764794948 0.078312738902039006 0.13667233565519021 0.18834438164319312 0.15095707313580947 0.10989714291962707 -0.12814877557878693 0.11253239282352084 0.0199343703687191 -0.23434246942400927 -0.0893576137162745 0.29320647000734296 0.00062651985114620589 -0.28680898696184148 -0.03598925561151084 -0.043855315049489342 -0.042997880280017858 -0.12123188513020672 -0.35061370730400088
leaf_weight=10.999999999999998 10.000000000000002 13.000000000000002 17 10.999999999999998 13.999999999999998 12.999999999999998 19 10.999999999999998 15.999999999999998 10.999999999999998 12.999999999999998 9.9999999999999982 18 43 13.999999999999998 10.999999999999998 11.000000000000002 18 17 15 10 9.9999999999999982 13.999999999999998 31 14.000000000000002 68 14.999999999999998 9.9999999999999982 12.000000000000002 10.999999999999998
leaf_count=11 10 13 17 11 14 13 19 11 16 11 13 10 18 43 14 11 11 18 17 15 10 10 14 31 14 68 15 10 12 11
internal_value=-2.41852e-10 -0.0412668 -0.0315845 -0.0760701 0.0516671 0.17391 0.311291 0.0878458 0.107301 0.253446 -0.0576054 -0.17096 -0.0335336 0.0649596 -0.0354743 -0.0646432 0.0390993 -0.0378555 0.0447404 -0.00312758 -0.0817764 0.0929352 0.11365 0.0796802 -0.0812279 -0.0602545 -0.0794022 -0.185221 -0.157089 -0.230936
internal_weight=511 413 402 262 140 98 32 126 66 21 251 41 31 115 210 154 45 29 56 42 25 98 88 74 143 119 106 24 38 23
internal_count=511 413 402 262 140 98 32 126 66 21 251 41 31 115 210 154 45 29 56 42 25 98 88 74 143 119 106 24 38 23
is_linear=0
shrinkage=0.05


Tree=30
num_leaves=31
num_cat=0
split_feature=29 18 27 29 28 30 19 20 27 19 3 30 20 19 1 4 27 29 28 23 12 13 21 27 19 27 29 23 1 13
split_gain=1201.5 540.453 580.935 1282.91 458.744 547.818 844.876 301.256 276.173 209.076 198.083 224.868 200.702 183.015 175.307 170.715 162.472 157.698 178.803 158.716 265.178 219.933 148.741 136.462 115.943 102.742 91.3662 103.718 89.4156 76.4667
threshold=74.626910112359568 60.990000000000002 63.628275862068968 63.38539325842698 6.771202315655608 8.5634786572511263 66.240000000000009 74.980000000000018 66.910818965517265 85.285000000000011 5.5000000000000009 9.0109808101077089 59.225000000000001 55.060000000000009 3.5000000000000004 11.500000000000002 62.785333333333334 65.902921348314621 7.7112507982189689 74.310000000000016 -0.022576249993022688 -0.16587666496079914 61.890000000000008 62.28656321839081 75.50500000000001 61.935166666666674 69.586590468810542 71.238571428571447 6.5000000000000009 0.80417972082707845
decision_type=2 2 2 2 2 2 2 2 2 2 2 2 2 2 2 2 2 2 2 2 2 2 2 2 2 2 2 2 2 2
left_child=1 2 13 -4 -3 6 15 -2 10 -9 11 14 -12 25 -7 -6 23 -10 -19 26 24 -22 -18 -15 -21 -1 -20 -28 -5 -13
right_child=7 4 3 28 5 8 -8 9 17 -11 12 29 -14 16 -16 -17 22 18 19 20 21 -23 -24 -25 -26 -27 27 -29 -30 -31
leaf_value=-0.02625930813642648 0.39479911592271599 -0.32036053203046322 -0.67107719091268692 -0.02720069248567928 0.16407605179331516 -0.028086895021525289 -0.48028026738992102 0.25539682010809578 0.28055696433240718 0.0026430712143580121 0.269127498815457 -0.096814850786557563 -0.020053711533546448 -0.075927585766122158 0.26116968959569936 -0.099141745748264454 0.1209841397590935 0.24502631699045502 0.22241642028093339 0.22496959306299702 -0.0001250732032691731 -0.29563540935516336 -0.11785780502991244 -0.254712521682183 0.033247327610202458 0.16894548790795463 0.16673185881227251 -0.016277424444754919 -0.19687421917915346 0.03602396748386897
leaf_weight=13.000000000000002 18 9.9999999999999982 12.999999999999998 22 11.000000000000002 11.000000000000002 12.999999999999998 18 10.999999999999998 14.999999999999998 12.000000000000002 65 11.999999999999998 37 9.9999999999999982 13.999999999999998 16.000000000000004 14.999999999999998 17 11.999999999999991 17.000000000000004 10.000000000000005 10.999999999999998 14.999999999999998 23 13.999999999999998 16.000000000000004 14.999999999999998 11.999999999999998 12.999999999999998
leaf_count=13 18 10 13 22 11 11 13 18 11 15 12 65 12 37 10 14 16 15 17 12 17 10 11 15 23 14 16 15 12 13
internal_value=-8.22334e-10 -0.0255286 -0.102299 -0.248615 0.0127315 0.0239467 -0.153337 0.230258 0.0499574 0.140509 -0.00433355 -0.0355749 0.124537 -0.0374229 0.109654 0.0166741 -0.0758316 0.0990588 0.0830869 0.0610043 0.00815876 -0.109573 0.0236782 -0.1275 0.0989807 0.074958 0.129263 0.078179 -0.0870855 -0.074675
internal_weight=511 460 153 47 307 297 38 51 259 33 123 99 24 106 21 25 79 136 125 110 62 27 27 52 35 27 48 31 34 78
internal_count=511 460 153 47 307 297 38 51 259 33 123 99 24 106 21 25 79 136 125 110 62 27 27 52 35 27 48 31 34 78
is_linear=0
shrinkage=0.05


Tree=31
num_leaves=31
num_cat=0
split_feature=25 25 25 23 22 22 20 25 25 3 3 14 19 16 26 13 26 19 20 20 19 28 27 12 14 16 30 25 12 23
split_gain=1202.14 513.049 561.897 709.929 440.251 366.789 322.346 282.287 244.361 251.963 243.013 324.799 231.091 284.488 208.862 190.354 171.193 160.001 164.286 202.915 155.696 156.836 154.901 130.068 116.738 120.496 104.46 97.3928 90.0578 111.679
threshold=76.014423076923094 75.460714285714303 65.376675824175848 67.220714285714294 74.120000000000019 78.135000000000019 46.805000000000007 88.449285714285722 76.785384615384615 3.5000000000000004 4.5000000000000009 -0.98994109942595798 62.165000000000006 1.0000000180025095e-35 9.2911255336231608 0.97650658860526895 9.7810477739539792 75.120000000000019 68.690000000000012 60.555000000000007 78.210000000000022 11.267158811669427 59.82800000000001 -0.79384350655589164 1.0000000180025095e-35 -1.0000000180025095e-35 11.361267694168729 73.883214285714303 -0.52766560075116253 63.072857142857153
decision_type=2 2 2 2 2 2 2 2 2 2 2 2 2 2 2 2 2 2 2 2 2 2 2 2 2 2 2 2 2 2
left_child=1 2 3 6 12 8 -1 -7 -2 14 11 -8 13 -4 -10 22 24 18 19 -12 21 -18 -13 -24 27 -26 28 -14 -25 -30
right_child=5 -3 4 -5 -6 7 10 -9 9 -11 17 15 16 -15 -16 -17 20 -19 -20 -21 -22 -23 23 26 25 -27 -28 -29 29 -31
leaf_value=-0.3176810821348971 0.28309461961367299 -0.35950573335091274 0.39242563148339582 -0.46316972158171921 -0.26386965751647951 0.43808409887201638 -0.34846956819295882 0.11301668963649057 -0.044068578802622285 -0.11109294575803422 0.043242112426988541 0.12109415993094444 -0.026718661171339808 0.054819737432094721 0.20138737069299589 0.14592289315028625 -0.22178148882729662 0.22459551677107814 0.19178658019751313 -0.17600573010277004 0.087603160552680498 0.037478085756301883 0.091718980222940449 -0.17077898460885765 0.04840601809322833 0.27247420370578768 -0.23598040640354156 0.14353393486567909 -0.015881731072119595 -0.12221454464245673
leaf_weight=10.999999999999998 13.999999999999998 11.999999999999998 12.000000000000002 10.999999999999998 9.9999999999999982 17.000000000000004 9.9999999999999982 10.999999999999998 12.999999999999998 17 31 9.9999999999999982 21 12.999999999999998 26 10.999999999999998 14.000000000000002 9.9999999999999982 9.9999999999999982 15.999999999999998 15.999999999999998 9.9999999999999982 9.9999999999999982 22.999999999999986 10.000000000000002 14.999999999999998 11.999999999999998 13.999999999999998 58.000000000000014 43
leaf_count=11 14 12 12 11 10 17 10 11 13 17 31 10 21 13 26 11 14 10 10 16 16 10 10 23 10 15 12 14 58 43
